## MART
## No. of trees = 1000
## No. of leaves = 10
## No. of threshold candidates = 256
## Learning rate = 0.1
## Stop early = 100

<ensemble>
	<tree id="1" weight="0.1">
		<split>
			<feature> 65 </feature>
			<threshold> 0.012515141 </threshold>
			<split pos="left">
				<feature> 115 </feature>
				<threshold> -20.04346 </threshold>
				<split pos="left">
					<output> 0.24522793 </output>
				</split>
				<split pos="right">
					<feature> 134 </feature>
					<threshold> 0.0 </threshold>
					<split pos="left">
						<feature> 11 </feature>
						<threshold> 50.472656 </threshold>
						<split pos="left">
							<output> 0.7514021 </output>
						</split>
						<split pos="right">
							<output> 0.47756094 </output>
						</split>
					</split>
					<split pos="right">
						<output> 1.2774404 </output>
					</split>
				</split>
			</split>
			<split pos="right">
				<feature> 134 </feature>
				<threshold> 0.0 </threshold>
				<split pos="left">
					<feature> 115 </feature>
					<threshold> -12.5273075 </threshold>
					<split pos="left">
						<output> 0.6030442 </output>
					</split>
					<split pos="right">
						<feature> 48 </feature>
						<threshold> 0.2578125 </threshold>
						<split pos="left">
							<feature> 115 </feature>
							<threshold> -8.142888 </threshold>
							<split pos="left">
								<output> 0.62532294 </output>
							</split>
							<split pos="right">
								<output> 0.81725466 </output>
							</split>
						</split>
						<split pos="right">
							<feature> 68 </feature>
							<threshold> 0.017578125 </threshold>
							<split pos="left">
								<output> 0.933661 </output>
							</split>
							<split pos="right">
								<output> 0.6991206 </output>
							</split>
						</split>
					</split>
				</split>
				<split pos="right">
					<output> 1.4234574 </output>
				</split>
			</split>
		</split>
	</tree>
	<tree id="2" weight="0.1">
		<split>
			<feature> 65 </feature>
			<threshold> 0.012515141 </threshold>
			<split pos="left">
				<feature> 115 </feature>
				<threshold> -20.669807 </threshold>
				<split pos="left">
					<output> 0.2130841 </output>
				</split>
				<split pos="right">
					<feature> 134 </feature>
					<threshold> 0.0 </threshold>
					<split pos="left">
						<feature> 48 </feature>
						<threshold> 0.2109375 </threshold>
						<split pos="left">
							<output> 0.41252786 </output>
						</split>
						<split pos="right">
							<output> 0.6017594 </output>
						</split>
					</split>
					<split pos="right">
						<output> 1.1519641 </output>
					</split>
				</split>
			</split>
			<split pos="right">
				<feature> 134 </feature>
				<threshold> 0.0 </threshold>
				<split pos="left">
					<feature> 115 </feature>
					<threshold> -13.153653 </threshold>
					<split pos="left">
						<output> 0.527777 </output>
					</split>
					<split pos="right">
						<feature> 129 </feature>
						<threshold> 5.0 </threshold>
						<split pos="left">
							<feature> 48 </feature>
							<threshold> 0.33984375 </threshold>
							<split pos="left">
								<feature> 125 </feature>
								<threshold> -7.661022 </threshold>
								<split pos="left">
									<output> 0.5716204 </output>
								</split>
								<split pos="right">
									<output> 0.7160126 </output>
								</split>
							</split>
							<split pos="right">
								<output> 0.8075562 </output>
							</split>
						</split>
						<split pos="right">
							<output> 0.86178374 </output>
						</split>
					</split>
				</split>
				<split pos="right">
					<output> 1.2809168 </output>
				</split>
			</split>
		</split>
	</tree>
	<tree id="3" weight="0.1">
		<split>
			<feature> 65 </feature>
			<threshold> 0.015643926 </threshold>
			<split pos="left">
				<feature> 115 </feature>
				<threshold> -19.417114 </threshold>
				<split pos="left">
					<output> 0.21459238 </output>
				</split>
				<split pos="right">
					<feature> 134 </feature>
					<threshold> 0.0 </threshold>
					<split pos="left">
						<feature> 48 </feature>
						<threshold> 0.2578125 </threshold>
						<split pos="left">
							<feature> 11 </feature>
							<threshold> 50.472656 </threshold>
							<split pos="left">
								<output> 0.6336 </output>
							</split>
							<split pos="right">
								<output> 0.37142977 </output>
							</split>
						</split>
						<split pos="right">
							<output> 0.6007342 </output>
						</split>
					</split>
					<split pos="right">
						<output> 1.0423864 </output>
					</split>
				</split>
			</split>
			<split pos="right">
				<feature> 134 </feature>
				<threshold> 0.0 </threshold>
				<split pos="left">
					<feature> 115 </feature>
					<threshold> -12.5273075 </threshold>
					<split pos="left">
						<output> 0.50078166 </output>
					</split>
					<split pos="right">
						<feature> 129 </feature>
						<threshold> 2.0 </threshold>
						<split pos="left">
							<feature> 130 </feature>
							<threshold> 12368.875 </threshold>
							<split pos="left">
								<output> 0.5923552 </output>
							</split>
							<split pos="right">
								<output> 0.7042509 </output>
							</split>
						</split>
						<split pos="right">
							<output> 0.7650045 </output>
						</split>
					</split>
				</split>
				<split pos="right">
					<output> 1.1594785 </output>
				</split>
			</split>
		</split>
	</tree>
	<tree id="4" weight="0.1">
		<split>
			<feature> 65 </feature>
			<threshold> 0.009386355 </threshold>
			<split pos="left">
				<feature> 115 </feature>
				<threshold> -17.538074 </threshold>
				<split pos="left">
					<output> 0.17144282 </output>
				</split>
				<split pos="right">
					<feature> 134 </feature>
					<threshold> 0.0 </threshold>
					<split pos="left">
						<output> 0.34965596 </output>
					</split>
					<split pos="right">
						<output> 0.91836363 </output>
					</split>
				</split>
			</split>
			<split pos="right">
				<feature> 134 </feature>
				<threshold> 0.0 </threshold>
				<split pos="left">
					<feature> 115 </feature>
					<threshold> -13.779999 </threshold>
					<split pos="left">
						<output> 0.4058993 </output>
					</split>
					<split pos="right">
						<feature> 48 </feature>
						<threshold> 0.2578125 </threshold>
						<split pos="left">
							<feature> 74 </feature>
							<threshold> 8.249162 </threshold>
							<split pos="left">
								<output> 0.47896376 </output>
							</split>
							<split pos="right">
								<output> 0.6389103 </output>
							</split>
						</split>
						<split pos="right">
							<feature> 68 </feature>
							<threshold> 0.015625 </threshold>
							<split pos="left">
								<feature> 129 </feature>
								<threshold> 1.0 </threshold>
								<split pos="left">
									<output> 0.6328147 </output>
								</split>
								<split pos="right">
									<output> 0.7590734 </output>
								</split>
							</split>
							<split pos="right">
								<output> 0.48359182 </output>
							</split>
						</split>
					</split>
				</split>
				<split pos="right">
					<output> 1.0344526 </output>
				</split>
			</split>
		</split>
	</tree>
	<tree id="5" weight="0.1">
		<split>
			<feature> 65 </feature>
			<threshold> 0.009386355 </threshold>
			<split pos="left">
				<feature> 11 </feature>
				<threshold> 50.472656 </threshold>
				<split pos="left">
					<output> 0.55285466 </output>
				</split>
				<split pos="right">
					<feature> 115 </feature>
					<threshold> -11.900962 </threshold>
					<split pos="left">
						<output> 0.14685614 </output>
					</split>
					<split pos="right">
						<output> 0.34263545 </output>
					</split>
				</split>
			</split>
			<split pos="right">
				<feature> 134 </feature>
				<threshold> 0.0 </threshold>
				<split pos="left">
					<feature> 115 </feature>
					<threshold> -8.769234 </threshold>
					<split pos="left">
						<feature> 48 </feature>
						<threshold> 0.33984375 </threshold>
						<split pos="left">
							<output> 0.34258953 </output>
						</split>
						<split pos="right">
							<output> 0.5808267 </output>
						</split>
					</split>
					<split pos="right">
						<feature> 129 </feature>
						<threshold> 5.0 </threshold>
						<split pos="left">
							<feature> 130 </feature>
							<threshold> 27449.367 </threshold>
							<split pos="left">
								<feature> 48 </feature>
								<threshold> 0.2109375 </threshold>
								<split pos="left">
									<output> 0.43153465 </output>
								</split>
								<split pos="right">
									<output> 0.5351573 </output>
								</split>
							</split>
							<split pos="right">
								<output> 0.61113614 </output>
							</split>
						</split>
						<split pos="right">
							<output> 0.66862506 </output>
						</split>
					</split>
				</split>
				<split pos="right">
					<output> 0.931002 </output>
				</split>
			</split>
		</split>
	</tree>
	<tree id="6" weight="0.1">
		<split>
			<feature> 65 </feature>
			<threshold> 0.018772712 </threshold>
			<split pos="left">
				<feature> 115 </feature>
				<threshold> -18.164421 </threshold>
				<split pos="left">
					<output> 0.16587946 </output>
				</split>
				<split pos="right">
					<feature> 48 </feature>
					<threshold> 0.17578125 </threshold>
					<split pos="left">
						<feature> 74 </feature>
						<threshold> 8.249162 </threshold>
						<split pos="left">
							<output> 0.25542715 </output>
						</split>
						<split pos="right">
							<output> 0.47224116 </output>
						</split>
					</split>
					<split pos="right">
						<output> 0.44076404 </output>
					</split>
				</split>
			</split>
			<split pos="right">
				<feature> 134 </feature>
				<threshold> 0.0 </threshold>
				<split pos="left">
					<feature> 115 </feature>
					<threshold> -11.900962 </threshold>
					<split pos="left">
						<output> 0.37881905 </output>
					</split>
					<split pos="right">
						<feature> 130 </feature>
						<threshold> 8790.453 </threshold>
						<split pos="left">
							<output> 0.46351773 </output>
						</split>
						<split pos="right">
							<feature> 16 </feature>
							<threshold> 3.6163895 </threshold>
							<split pos="left">
								<output> 0.39236587 </output>
							</split>
							<split pos="right">
								<feature> 130 </feature>
								<threshold> 63489.188 </threshold>
								<split pos="left">
									<output> 0.577841 </output>
								</split>
								<split pos="right">
									<output> 0.79310155 </output>
								</split>
							</split>
						</split>
					</split>
				</split>
				<split pos="right">
					<output> 0.8536797 </output>
				</split>
			</split>
		</split>
	</tree>
	<tree id="7" weight="0.1">
		<split>
			<feature> 65 </feature>
			<threshold> 0.009386355 </threshold>
			<split pos="left">
				<feature> 11 </feature>
				<threshold> 50.472656 </threshold>
				<split pos="left">
					<output> 0.4745988 </output>
				</split>
				<split pos="right">
					<output> 0.18216683 </output>
				</split>
			</split>
			<split pos="right">
				<feature> 134 </feature>
				<threshold> 0.0 </threshold>
				<split pos="left">
					<feature> 48 </feature>
					<threshold> 0.515625 </threshold>
					<split pos="left">
						<feature> 115 </feature>
						<threshold> -8.142888 </threshold>
						<split pos="left">
							<feature> 74 </feature>
							<threshold> 17.676775 </threshold>
							<split pos="left">
								<feature> 48 </feature>
								<threshold> 0.2578125 </threshold>
								<split pos="left">
									<output> 0.24590494 </output>
								</split>
								<split pos="right">
									<output> 0.3615682 </output>
								</split>
							</split>
							<split pos="right">
								<output> 0.53640944 </output>
							</split>
						</split>
						<split pos="right">
							<feature> 129 </feature>
							<threshold> 19.0 </threshold>
							<split pos="left">
								<feature> 130 </feature>
								<threshold> 41251.85 </threshold>
								<split pos="left">
									<output> 0.4060116 </output>
								</split>
								<split pos="right">
									<output> 0.52568525 </output>
								</split>
							</split>
							<split pos="right">
								<output> 0.6497889 </output>
							</split>
						</split>
					</split>
					<split pos="right">
						<output> 0.57520694 </output>
					</split>
				</split>
				<split pos="right">
					<output> 0.7617303 </output>
				</split>
			</split>
		</split>
	</tree>
	<tree id="8" weight="0.1">
		<split>
			<feature> 65 </feature>
			<threshold> 0.0062575703 </threshold>
			<split pos="left">
				<feature> 11 </feature>
				<threshold> 50.472656 </threshold>
				<split pos="left">
					<output> 0.4305252 </output>
				</split>
				<split pos="right">
					<output> 0.12365216 </output>
				</split>
			</split>
			<split pos="right">
				<feature> 134 </feature>
				<threshold> 0.0 </threshold>
				<split pos="left">
					<feature> 48 </feature>
					<threshold> 0.33984375 </threshold>
					<split pos="left">
						<feature> 115 </feature>
						<threshold> -9.395579 </threshold>
						<split pos="left">
							<feature> 61 </feature>
							<threshold> 0.0 </threshold>
							<split pos="left">
								<output> 0.6348753 </output>
							</split>
							<split pos="right">
								<feature> 74 </feature>
								<threshold> 15.319871 </threshold>
								<split pos="left">
									<output> 0.19942355 </output>
								</split>
								<split pos="right">
									<output> 0.37973872 </output>
								</split>
							</split>
						</split>
						<split pos="right">
							<feature> 74 </feature>
							<threshold> 7.07071 </threshold>
							<split pos="left">
								<output> 0.33067703 </output>
							</split>
							<split pos="right">
								<output> 0.45349637 </output>
							</split>
						</split>
					</split>
					<split pos="right">
						<feature> 68 </feature>
						<threshold> 0.0087890625 </threshold>
						<split pos="left">
							<output> 0.5035616 </output>
						</split>
						<split pos="right">
							<output> 0.31601602 </output>
						</split>
					</split>
				</split>
				<split pos="right">
					<output> 0.6900963 </output>
				</split>
			</split>
		</split>
	</tree>
	<tree id="9" weight="0.1">
		<split>
			<feature> 65 </feature>
			<threshold> 0.018772712 </threshold>
			<split pos="left">
				<feature> 115 </feature>
				<threshold> -26.933273 </threshold>
				<split pos="left">
					<output> 0.02145896 </output>
				</split>
				<split pos="right">
					<feature> 134 </feature>
					<threshold> 0.0 </threshold>
					<split pos="left">
						<feature> 48 </feature>
						<threshold> 0.2109375 </threshold>
						<split pos="left">
							<feature> 11 </feature>
							<threshold> 50.472656 </threshold>
							<split pos="left">
								<output> 0.3830691 </output>
							</split>
							<split pos="right">
								<feature> 115 </feature>
								<threshold> -10.648271 </threshold>
								<split pos="left">
									<output> 0.103722766 </output>
								</split>
								<split pos="right">
									<output> 0.23739721 </output>
								</split>
							</split>
						</split>
						<split pos="right">
							<output> 0.31397137 </output>
						</split>
					</split>
					<split pos="right">
						<output> 0.65155387 </output>
					</split>
				</split>
			</split>
			<split pos="right">
				<feature> 134 </feature>
				<threshold> 0.0 </threshold>
				<split pos="left">
					<feature> 130 </feature>
					<threshold> 18503.312 </threshold>
					<split pos="left">
						<feature> 48 </feature>
						<threshold> 0.41015625 </threshold>
						<split pos="left">
							<output> 0.2911161 </output>
						</split>
						<split pos="right">
							<output> 0.3954479 </output>
						</split>
					</split>
					<split pos="right">
						<output> 0.41907305 </output>
					</split>
				</split>
				<split pos="right">
					<output> 0.6231978 </output>
				</split>
			</split>
		</split>
	</tree>
	<tree id="10" weight="0.1">
		<split>
			<feature> 65 </feature>
			<threshold> 0.0062575703 </threshold>
			<split pos="left">
				<feature> 11 </feature>
				<threshold> 252.36328 </threshold>
				<split pos="left">
					<output> 0.2798217 </output>
				</split>
				<split pos="right">
					<output> 0.0778611 </output>
				</split>
			</split>
			<split pos="right">
				<feature> 134 </feature>
				<threshold> 0.0 </threshold>
				<split pos="left">
					<feature> 115 </feature>
					<threshold> -15.03269 </threshold>
					<split pos="left">
						<output> 0.18592034 </output>
					</split>
					<split pos="right">
						<feature> 129 </feature>
						<threshold> 2.0 </threshold>
						<split pos="left">
							<feature> 14 </feature>
							<threshold> 4.0 </threshold>
							<split pos="left">
								<output> 0.37805828 </output>
							</split>
							<split pos="right">
								<feature> 74 </feature>
								<threshold> 7.07071 </threshold>
								<split pos="left">
									<output> 0.20646003 </output>
								</split>
								<split pos="right">
									<feature> 130 </feature>
									<threshold> 31538.992 </threshold>
									<split pos="left">
										<output> 0.28033054 </output>
									</split>
									<split pos="right">
										<output> 0.4089423 </output>
									</split>
								</split>
							</split>
						</split>
						<split pos="right">
							<feature> 74 </feature>
							<threshold> 9.427613 </threshold>
							<split pos="left">
								<output> 0.33235595 </output>
							</split>
							<split pos="right">
								<output> 0.46937078 </output>
							</split>
						</split>
					</split>
				</split>
				<split pos="right">
					<output> 0.5580155 </output>
				</split>
			</split>
		</split>
	</tree>
	<tree id="11" weight="0.1">
		<split>
			<feature> 65 </feature>
			<threshold> 0.021901498 </threshold>
			<split pos="left">
				<feature> 115 </feature>
				<threshold> -25.68058 </threshold>
				<split pos="left">
					<output> 0.018404348 </output>
				</split>
				<split pos="right">
					<feature> 129 </feature>
					<threshold> 2.0 </threshold>
					<split pos="left">
						<feature> 11 </feature>
						<threshold> 50.472656 </threshold>
						<split pos="left">
							<output> 0.3228715 </output>
						</split>
						<split pos="right">
							<feature> 48 </feature>
							<threshold> 0.10546875 </threshold>
							<split pos="left">
								<output> 0.083534054 </output>
							</split>
							<split pos="right">
								<output> 0.20039512 </output>
							</split>
						</split>
					</split>
					<split pos="right">
						<output> 0.27124792 </output>
					</split>
				</split>
			</split>
			<split pos="right">
				<feature> 130 </feature>
				<threshold> 61955.58 </threshold>
				<split pos="left">
					<feature> 48 </feature>
					<threshold> 0.515625 </threshold>
					<split pos="left">
						<feature> 68 </feature>
						<threshold> 0.00390625 </threshold>
						<split pos="left">
							<feature> 129 </feature>
							<threshold> 8.0 </threshold>
							<split pos="left">
								<output> 0.28304788 </output>
							</split>
							<split pos="right">
								<output> 0.42228332 </output>
							</split>
						</split>
						<split pos="right">
							<output> 0.18921109 </output>
						</split>
					</split>
					<split pos="right">
						<output> 0.41280344 </output>
					</split>
				</split>
				<split pos="right">
					<output> 0.4911133 </output>
				</split>
			</split>
		</split>
	</tree>
	<tree id="12" weight="0.1">
		<split>
			<feature> 48 </feature>
			<threshold> 0.17578125 </threshold>
			<split pos="left">
				<feature> 74 </feature>
				<threshold> 8.249162 </threshold>
				<split pos="left">
					<feature> 11 </feature>
					<threshold> 555.1992 </threshold>
					<split pos="left">
						<feature> 11 </feature>
						<threshold> 0.0 </threshold>
						<split pos="left">
							<output> 0.40774876 </output>
						</split>
						<split pos="right">
							<feature> 134 </feature>
							<threshold> 0.0 </threshold>
							<split pos="left">
								<output> 0.13836753 </output>
							</split>
							<split pos="right">
								<output> 0.48219767 </output>
							</split>
						</split>
					</split>
					<split pos="right">
						<output> 0.035979584 </output>
					</split>
				</split>
				<split pos="right">
					<output> 0.29093146 </output>
				</split>
			</split>
			<split pos="right">
				<feature> 68 </feature>
				<threshold> 0.005859375 </threshold>
				<split pos="left">
					<feature> 90 </feature>
					<threshold> 25.36245 </threshold>
					<split pos="left">
						<output> 0.24805574 </output>
					</split>
					<split pos="right">
						<feature> 129 </feature>
						<threshold> 12.0 </threshold>
						<split pos="left">
							<feature> 14 </feature>
							<threshold> 4.0 </threshold>
							<split pos="left">
								<output> 0.4733272 </output>
							</split>
							<split pos="right">
								<output> 0.31754807 </output>
							</split>
						</split>
						<split pos="right">
							<output> 0.4930448 </output>
						</split>
					</split>
				</split>
				<split pos="right">
					<output> 0.16765577 </output>
				</split>
			</split>
		</split>
	</tree>
	<tree id="13" weight="0.1">
		<split>
			<feature> 115 </feature>
			<threshold> -16.285381 </threshold>
			<split pos="left">
				<output> 0.076431766 </output>
			</split>
			<split pos="right">
				<feature> 48 </feature>
				<threshold> 0.2578125 </threshold>
				<split pos="left">
					<feature> 74 </feature>
					<threshold> 7.07071 </threshold>
					<split pos="left">
						<feature> 14 </feature>
						<threshold> 4.0 </threshold>
						<split pos="left">
							<output> 0.22571753 </output>
						</split>
						<split pos="right">
							<feature> 129 </feature>
							<threshold> 0.0 </threshold>
							<split pos="left">
								<output> 0.071109734 </output>
							</split>
							<split pos="right">
								<output> 0.1520428 </output>
							</split>
						</split>
					</split>
					<split pos="right">
						<feature> 130 </feature>
						<threshold> 46363.883 </threshold>
						<split pos="left">
							<output> 0.22804016 </output>
						</split>
						<split pos="right">
							<output> 0.43585968 </output>
						</split>
					</split>
				</split>
				<split pos="right">
					<feature> 68 </feature>
					<threshold> 0.017578125 </threshold>
					<split pos="left">
						<feature> 129 </feature>
						<threshold> 1.0 </threshold>
						<split pos="left">
							<feature> 14 </feature>
							<threshold> 4.0 </threshold>
							<split pos="left">
								<output> 0.37245092 </output>
							</split>
							<split pos="right">
								<output> 0.23011371 </output>
							</split>
						</split>
						<split pos="right">
							<output> 0.36418673 </output>
						</split>
					</split>
					<split pos="right">
						<output> 0.14288019 </output>
					</split>
				</split>
			</split>
		</split>
	</tree>
	<tree id="14" weight="0.1">
		<split>
			<feature> 65 </feature>
			<threshold> 0.0062575703 </threshold>
			<split pos="left">
				<output> 0.0733373 </output>
			</split>
			<split pos="right">
				<feature> 48 </feature>
				<threshold> 0.515625 </threshold>
				<split pos="left">
					<feature> 115 </feature>
					<threshold> -9.395579 </threshold>
					<split pos="left">
						<feature> 74 </feature>
						<threshold> 17.676775 </threshold>
						<split pos="left">
							<feature> 61 </feature>
							<threshold> 0.0 </threshold>
							<split pos="left">
								<output> 0.45472053 </output>
							</split>
							<split pos="right">
								<output> 0.109118104 </output>
							</split>
						</split>
						<split pos="right">
							<output> 0.2875139 </output>
						</split>
					</split>
					<split pos="right">
						<feature> 130 </feature>
						<threshold> 63744.79 </threshold>
						<split pos="left">
							<feature> 90 </feature>
							<threshold> 77.562164 </threshold>
							<split pos="left">
								<feature> 16 </feature>
								<threshold> 2.962723 </threshold>
								<split pos="left">
									<output> 0.034732543 </output>
								</split>
								<split pos="right">
									<feature> 130 </feature>
									<threshold> 5212.0312 </threshold>
									<split pos="left">
										<output> 0.1401766 </output>
									</split>
									<split pos="right">
										<output> 0.23498471 </output>
									</split>
								</split>
							</split>
							<split pos="right">
								<output> 0.28638837 </output>
							</split>
						</split>
						<split pos="right">
							<output> 0.41874304 </output>
						</split>
					</split>
				</split>
				<split pos="right">
					<output> 0.33373535 </output>
				</split>
			</split>
		</split>
	</tree>
	<tree id="15" weight="0.1">
		<split>
			<feature> 115 </feature>
			<threshold> -17.538074 </threshold>
			<split pos="left">
				<output> 0.047311485 </output>
			</split>
			<split pos="right">
				<feature> 134 </feature>
				<threshold> 0.0 </threshold>
				<split pos="left">
					<feature> 74 </feature>
					<threshold> 9.427613 </threshold>
					<split pos="left">
						<feature> 48 </feature>
						<threshold> 0.17578125 </threshold>
						<split pos="left">
							<feature> 61 </feature>
							<threshold> 0.0 </threshold>
							<split pos="left">
								<output> 0.16749963 </output>
							</split>
							<split pos="right">
								<output> 0.074862465 </output>
							</split>
						</split>
						<split pos="right">
							<feature> 68 </feature>
							<threshold> 0.0087890625 </threshold>
							<split pos="left">
								<feature> 14 </feature>
								<threshold> 4.0 </threshold>
								<split pos="left">
									<output> 0.32634932 </output>
								</split>
								<split pos="right">
									<output> 0.2037387 </output>
								</split>
							</split>
							<split pos="right">
								<output> 0.086440414 </output>
							</split>
						</split>
					</split>
					<split pos="right">
						<feature> 129 </feature>
						<threshold> 19.0 </threshold>
						<split pos="left">
							<feature> 130 </feature>
							<threshold> 27449.367 </threshold>
							<split pos="left">
								<output> 0.1879795 </output>
							</split>
							<split pos="right">
								<output> 0.33853194 </output>
							</split>
						</split>
						<split pos="right">
							<output> 0.45713058 </output>
						</split>
					</split>
				</split>
				<split pos="right">
					<output> 0.39877582 </output>
				</split>
			</split>
		</split>
	</tree>
	<tree id="16" weight="0.1">
		<split>
			<feature> 48 </feature>
			<threshold> 0.2578125 </threshold>
			<split pos="left">
				<feature> 115 </feature>
				<threshold> -9.395579 </threshold>
				<split pos="left">
					<feature> 11 </feature>
					<threshold> 50.472656 </threshold>
					<split pos="left">
						<output> 0.271406 </output>
					</split>
					<split pos="right">
						<feature> 65 </feature>
						<threshold> 0.0031287852 </threshold>
						<split pos="left">
							<output> -0.0629527 </output>
						</split>
						<split pos="right">
							<output> 0.054698154 </output>
						</split>
					</split>
				</split>
				<split pos="right">
					<feature> 74 </feature>
					<threshold> 7.07071 </threshold>
					<split pos="left">
						<feature> 48 </feature>
						<threshold> 0.0703125 </threshold>
						<split pos="left">
							<output> 0.078089565 </output>
						</split>
						<split pos="right">
							<output> 0.16167209 </output>
						</split>
					</split>
					<split pos="right">
						<output> 0.22674382 </output>
					</split>
				</split>
			</split>
			<split pos="right">
				<feature> 68 </feature>
				<threshold> 0.0087890625 </threshold>
				<split pos="left">
					<feature> 16 </feature>
					<threshold> 5.9042225 </threshold>
					<split pos="left">
						<output> 0.1493669 </output>
					</split>
					<split pos="right">
						<feature> 130 </feature>
						<threshold> 31027.79 </threshold>
						<split pos="left">
							<output> 0.23515391 </output>
						</split>
						<split pos="right">
							<output> 0.40040502 </output>
						</split>
					</split>
				</split>
				<split pos="right">
					<output> 0.10935351 </output>
				</split>
			</split>
		</split>
	</tree>
	<tree id="17" weight="0.1">
		<split>
			<feature> 48 </feature>
			<threshold> 0.33984375 </threshold>
			<split pos="left">
				<feature> 115 </feature>
				<threshold> -10.021925 </threshold>
				<split pos="left">
					<feature> 11 </feature>
					<threshold> 50.472656 </threshold>
					<split pos="left">
						<output> 0.2402273 </output>
					</split>
					<split pos="right">
						<feature> 65 </feature>
						<threshold> 0.0031287852 </threshold>
						<split pos="left">
							<output> -0.059811816 </output>
						</split>
						<split pos="right">
							<output> 0.054874934 </output>
						</split>
					</split>
				</split>
				<split pos="right">
					<feature> 129 </feature>
					<threshold> 11.0 </threshold>
					<split pos="left">
						<feature> 130 </feature>
						<threshold> 18247.71 </threshold>
						<split pos="left">
							<feature> 126 </feature>
							<threshold> 2.0 </threshold>
							<split pos="left">
								<output> 0.13130987 </output>
							</split>
							<split pos="right">
								<output> 0.05202018 </output>
							</split>
						</split>
						<split pos="right">
							<output> 0.17302755 </output>
						</split>
					</split>
					<split pos="right">
						<output> 0.27801988 </output>
					</split>
				</split>
			</split>
			<split pos="right">
				<feature> 68 </feature>
				<threshold> 0.0087890625 </threshold>
				<split pos="left">
					<feature> 91 </feature>
					<threshold> 0.0 </threshold>
					<split pos="left">
						<output> 0.098764904 </output>
					</split>
					<split pos="right">
						<output> 0.26222083 </output>
					</split>
				</split>
				<split pos="right">
					<output> 0.12157755 </output>
				</split>
			</split>
		</split>
	</tree>
	<tree id="18" weight="0.1">
		<split>
			<feature> 134 </feature>
			<threshold> 0.0 </threshold>
			<split pos="left">
				<feature> 90 </feature>
				<threshold> 25.36245 </threshold>
				<split pos="left">
					<feature> 11 </feature>
					<threshold> 706.6172 </threshold>
					<split pos="left">
						<feature> 11 </feature>
						<threshold> 0.0 </threshold>
						<split pos="left">
							<output> 0.3063065 </output>
						</split>
						<split pos="right">
							<feature> 130 </feature>
							<threshold> 12624.477 </threshold>
							<split pos="left">
								<output> 0.050084714 </output>
							</split>
							<split pos="right">
								<output> 0.119349286 </output>
							</split>
						</split>
					</split>
					<split pos="right">
						<output> -0.028938942 </output>
					</split>
				</split>
				<split pos="right">
					<feature> 48 </feature>
					<threshold> 0.19921875 </threshold>
					<split pos="left">
						<output> 0.08941623 </output>
					</split>
					<split pos="right">
						<feature> 68 </feature>
						<threshold> 0.0087890625 </threshold>
						<split pos="left">
							<feature> 133 </feature>
							<threshold> 2.0 </threshold>
							<split pos="left">
								<output> 0.3216846 </output>
							</split>
							<split pos="right">
								<feature> 91 </feature>
								<threshold> 0.0 </threshold>
								<split pos="left">
									<output> 0.12094192 </output>
								</split>
								<split pos="right">
									<output> 0.21346915 </output>
								</split>
							</split>
						</split>
						<split pos="right">
							<output> 0.08664261 </output>
						</split>
					</split>
				</split>
			</split>
			<split pos="right">
				<output> 0.33223528 </output>
			</split>
		</split>
	</tree>
	<tree id="19" weight="0.1">
		<split>
			<feature> 129 </feature>
			<threshold> 1.0 </threshold>
			<split pos="left">
				<feature> 14 </feature>
				<threshold> 4.0 </threshold>
				<split pos="left">
					<output> 0.15692626 </output>
				</split>
				<split pos="right">
					<feature> 11 </feature>
					<threshold> 0.0 </threshold>
					<split pos="left">
						<output> 0.2662752 </output>
					</split>
					<split pos="right">
						<feature> 74 </feature>
						<threshold> 17.676775 </threshold>
						<split pos="left">
							<feature> 48 </feature>
							<threshold> 0.15234375 </threshold>
							<split pos="left">
								<output> -0.007990462 </output>
							</split>
							<split pos="right">
								<feature> 68 </feature>
								<threshold> 0.00390625 </threshold>
								<split pos="left">
									<output> 0.09142569 </output>
								</split>
								<split pos="right">
									<output> 0.013703241 </output>
								</split>
							</split>
						</split>
						<split pos="right">
							<output> 0.17792705 </output>
						</split>
					</split>
				</split>
			</split>
			<split pos="right">
				<feature> 134 </feature>
				<threshold> 0.0 </threshold>
				<split pos="left">
					<feature> 115 </feature>
					<threshold> -11.274616 </threshold>
					<split pos="left">
						<output> 0.077333994 </output>
					</split>
					<split pos="right">
						<feature> 127 </feature>
						<threshold> 28.140625 </threshold>
						<split pos="left">
							<output> 0.2783239 </output>
						</split>
						<split pos="right">
							<output> 0.14992014 </output>
						</split>
					</split>
				</split>
				<split pos="right">
					<output> 0.37595177 </output>
				</split>
			</split>
		</split>
	</tree>
	<tree id="20" weight="0.1">
		<split>
			<feature> 48 </feature>
			<threshold> 0.515625 </threshold>
			<split pos="left">
				<feature> 115 </feature>
				<threshold> -11.900962 </threshold>
				<split pos="left">
					<feature> 11 </feature>
					<threshold> 100.94531 </threshold>
					<split pos="left">
						<output> 0.16835405 </output>
					</split>
					<split pos="right">
						<feature> 65 </feature>
						<threshold> 0.0031287852 </threshold>
						<split pos="left">
							<output> -0.062648766 </output>
						</split>
						<split pos="right">
							<feature> 74 </feature>
							<threshold> 21.21213 </threshold>
							<split pos="left">
								<output> 0.034179315 </output>
							</split>
							<split pos="right">
								<output> 0.21121748 </output>
							</split>
						</split>
					</split>
				</split>
				<split pos="right">
					<feature> 129 </feature>
					<threshold> 0.0 </threshold>
					<split pos="left">
						<feature> 65 </feature>
						<threshold> 0.037545424 </threshold>
						<split pos="left">
							<output> 0.037081826 </output>
						</split>
						<split pos="right">
							<output> 0.11381555 </output>
						</split>
					</split>
					<split pos="right">
						<feature> 127 </feature>
						<threshold> 28.140625 </threshold>
						<split pos="left">
							<output> 0.24136744 </output>
						</split>
						<split pos="right">
							<feature> 133 </feature>
							<threshold> 10.0 </threshold>
							<split pos="left">
								<output> 0.15120816 </output>
							</split>
							<split pos="right">
								<output> 0.057210006 </output>
							</split>
						</split>
					</split>
				</split>
			</split>
			<split pos="right">
				<output> 0.21036181 </output>
			</split>
		</split>
	</tree>
	<tree id="21" weight="0.1">
		<split>
			<feature> 134 </feature>
			<threshold> 0.0 </threshold>
			<split pos="left">
				<feature> 115 </feature>
				<threshold> -26.933273 </threshold>
				<split pos="left">
					<output> -0.04818911 </output>
				</split>
				<split pos="right">
					<feature> 74 </feature>
					<threshold> 9.427613 </threshold>
					<split pos="left">
						<feature> 48 </feature>
						<threshold> 0.33984375 </threshold>
						<split pos="left">
							<feature> 14 </feature>
							<threshold> 6.0 </threshold>
							<split pos="left">
								<feature> 133 </feature>
								<threshold> 33.0 </threshold>
								<split pos="left">
									<output> 0.10196102 </output>
								</split>
								<split pos="right">
									<output> 0.014951613 </output>
								</split>
							</split>
							<split pos="right">
								<feature> 61 </feature>
								<threshold> 0.0 </threshold>
								<split pos="left">
									<output> 0.09483697 </output>
								</split>
								<split pos="right">
									<feature> 48 </feature>
									<threshold> 0.08203125 </threshold>
									<split pos="left">
										<output> -0.030728025 </output>
									</split>
									<split pos="right">
										<output> 0.032896355 </output>
									</split>
								</split>
							</split>
						</split>
						<split pos="right">
							<output> 0.1348527 </output>
						</split>
					</split>
					<split pos="right">
						<feature> 130 </feature>
						<threshold> 1633.6094 </threshold>
						<split pos="left">
							<output> 0.066022344 </output>
						</split>
						<split pos="right">
							<output> 0.17768726 </output>
						</split>
					</split>
				</split>
			</split>
			<split pos="right">
				<output> 0.2614365 </output>
			</split>
		</split>
	</tree>
	<tree id="22" weight="0.1">
		<split>
			<feature> 129 </feature>
			<threshold> 0.0 </threshold>
			<split pos="left">
				<feature> 11 </feature>
				<threshold> 0.0 </threshold>
				<split pos="left">
					<output> 0.23140603 </output>
				</split>
				<split pos="right">
					<feature> 14 </feature>
					<threshold> 4.0 </threshold>
					<split pos="left">
						<output> 0.10574288 </output>
					</split>
					<split pos="right">
						<feature> 74 </feature>
						<threshold> 17.676775 </threshold>
						<split pos="left">
							<feature> 11 </feature>
							<threshold> 2321.7422 </threshold>
							<split pos="left">
								<output> 0.008268419 </output>
							</split>
							<split pos="right">
								<output> -0.087404855 </output>
							</split>
						</split>
						<split pos="right">
							<output> 0.12413878 </output>
						</split>
					</split>
				</split>
			</split>
			<split pos="right">
				<feature> 74 </feature>
				<threshold> 9.427613 </threshold>
				<split pos="left">
					<feature> 48 </feature>
					<threshold> 0.41015625 </threshold>
					<split pos="left">
						<feature> 134 </feature>
						<threshold> 0.0 </threshold>
						<split pos="left">
							<feature> 115 </feature>
							<threshold> -10.648271 </threshold>
							<split pos="left">
								<output> 0.016919648 </output>
							</split>
							<split pos="right">
								<output> 0.08691339 </output>
							</split>
						</split>
						<split pos="right">
							<output> 0.27929732 </output>
						</split>
					</split>
					<split pos="right">
						<output> 0.17905676 </output>
					</split>
				</split>
				<split pos="right">
					<output> 0.16898267 </output>
				</split>
			</split>
		</split>
	</tree>
	<tree id="23" weight="0.1">
		<split>
			<feature> 130 </feature>
			<threshold> 27449.367 </threshold>
			<split pos="left">
				<feature> 90 </feature>
				<threshold> 25.36245 </threshold>
				<split pos="left">
					<feature> 11 </feature>
					<threshold> 1110.3984 </threshold>
					<split pos="left">
						<feature> 61 </feature>
						<threshold> 0.0 </threshold>
						<split pos="left">
							<output> 0.097805925 </output>
						</split>
						<split pos="right">
							<output> 0.008740868 </output>
						</split>
					</split>
					<split pos="right">
						<output> -0.07317678 </output>
					</split>
				</split>
				<split pos="right">
					<feature> 48 </feature>
					<threshold> 0.15234375 </threshold>
					<split pos="left">
						<output> 0.016241489 </output>
					</split>
					<split pos="right">
						<feature> 133 </feature>
						<threshold> 32.0 </threshold>
						<split pos="left">
							<output> 0.12333495 </output>
						</split>
						<split pos="right">
							<output> 0.031505957 </output>
						</split>
					</split>
				</split>
			</split>
			<split pos="right">
				<feature> 134 </feature>
				<threshold> 0.0 </threshold>
				<split pos="left">
					<feature> 74 </feature>
					<threshold> 9.427613 </threshold>
					<split pos="left">
						<feature> 16 </feature>
						<threshold> 2.962723 </threshold>
						<split pos="left">
							<output> -0.045533456 </output>
						</split>
						<split pos="right">
							<output> 0.09284191 </output>
						</split>
					</split>
					<split pos="right">
						<output> 0.20592201 </output>
					</split>
				</split>
				<split pos="right">
					<output> 0.3567575 </output>
				</split>
			</split>
		</split>
	</tree>
	<tree id="24" weight="0.1">
		<split>
			<feature> 129 </feature>
			<threshold> 5.0 </threshold>
			<split pos="left">
				<feature> 14 </feature>
				<threshold> 4.0 </threshold>
				<split pos="left">
					<output> 0.11462954 </output>
				</split>
				<split pos="right">
					<feature> 74 </feature>
					<threshold> 17.676775 </threshold>
					<split pos="left">
						<feature> 130 </feature>
						<threshold> 39462.64 </threshold>
						<split pos="left">
							<feature> 48 </feature>
							<threshold> 0.52734375 </threshold>
							<split pos="left">
								<feature> 11 </feature>
								<threshold> 0.0 </threshold>
								<split pos="left">
									<output> 0.15204147 </output>
								</split>
								<split pos="right">
									<feature> 126 </feature>
									<threshold> 2.0 </threshold>
									<split pos="left">
										<output> 0.026285963 </output>
									</split>
									<split pos="right">
										<feature> 90 </feature>
										<threshold> 25.36245 </threshold>
										<split pos="left">
											<output> -0.041526992 </output>
										</split>
										<split pos="right">
											<output> 2.8742873E-4 </output>
										</split>
									</split>
								</split>
							</split>
							<split pos="right">
								<output> 0.08877454 </output>
							</split>
						</split>
						<split pos="right">
							<output> 0.07600878 </output>
						</split>
					</split>
					<split pos="right">
						<output> 0.12963466 </output>
					</split>
				</split>
			</split>
			<split pos="right">
				<feature> 133 </feature>
				<threshold> 10.0 </threshold>
				<split pos="left">
					<output> 0.14713505 </output>
				</split>
				<split pos="right">
					<output> 0.050354812 </output>
				</split>
			</split>
		</split>
	</tree>
	<tree id="25" weight="0.1">
		<split>
			<feature> 48 </feature>
			<threshold> 0.515625 </threshold>
			<split pos="left">
				<feature> 133 </feature>
				<threshold> 32.0 </threshold>
				<split pos="left">
					<feature> 90 </feature>
					<threshold> 77.562164 </threshold>
					<split pos="left">
						<feature> 126 </feature>
						<threshold> 2.0 </threshold>
						<split pos="left">
							<feature> 134 </feature>
							<threshold> 0.0 </threshold>
							<split pos="left">
								<feature> 11 </feature>
								<threshold> 0.0 </threshold>
								<split pos="left">
									<output> 0.29131848 </output>
								</split>
								<split pos="right">
									<feature> 11 </feature>
									<threshold> 958.98047 </threshold>
									<split pos="left">
										<feature> 16 </feature>
										<threshold> 2.962723 </threshold>
										<split pos="left">
											<output> -0.035898358 </output>
										</split>
										<split pos="right">
											<output> 0.08578176 </output>
										</split>
									</split>
									<split pos="right">
										<output> -0.027272673 </output>
									</split>
								</split>
							</split>
							<split pos="right">
								<output> 0.26675653 </output>
							</split>
						</split>
						<split pos="right">
							<feature> 74 </feature>
							<threshold> 15.319871 </threshold>
							<split pos="left">
								<output> 0.005928062 </output>
							</split>
							<split pos="right">
								<output> 0.1039557 </output>
							</split>
						</split>
					</split>
					<split pos="right">
						<output> 0.1373223 </output>
					</split>
				</split>
				<split pos="right">
					<output> -0.013136777 </output>
				</split>
			</split>
			<split pos="right">
				<output> 0.14640245 </output>
			</split>
		</split>
	</tree>
	<tree id="26" weight="0.1">
		<split>
			<feature> 129 </feature>
			<threshold> 0.0 </threshold>
			<split pos="left">
				<feature> 11 </feature>
				<threshold> 0.0 </threshold>
				<split pos="left">
					<output> 0.1733755 </output>
				</split>
				<split pos="right">
					<feature> 14 </feature>
					<threshold> 4.0 </threshold>
					<split pos="left">
						<output> 0.07024105 </output>
					</split>
					<split pos="right">
						<feature> 74 </feature>
						<threshold> 18.855227 </threshold>
						<split pos="left">
							<feature> 115 </feature>
							<threshold> -30.065006 </threshold>
							<split pos="left">
								<output> -0.08837071 </output>
							</split>
							<split pos="right">
								<feature> 130 </feature>
								<threshold> 2656.0156 </threshold>
								<split pos="left">
									<output> -0.030951507 </output>
								</split>
								<split pos="right">
									<output> 0.014478199 </output>
								</split>
							</split>
						</split>
						<split pos="right">
							<output> 0.094272204 </output>
						</split>
					</split>
				</split>
			</split>
			<split pos="right">
				<feature> 133 </feature>
				<threshold> 10.0 </threshold>
				<split pos="left">
					<feature> 14 </feature>
					<threshold> 6.0 </threshold>
					<split pos="left">
						<output> 0.1733626 </output>
					</split>
					<split pos="right">
						<feature> 74 </feature>
						<threshold> 15.319871 </threshold>
						<split pos="left">
							<output> 0.05806136 </output>
						</split>
						<split pos="right">
							<output> 0.19766755 </output>
						</split>
					</split>
				</split>
				<split pos="right">
					<output> 0.028199114 </output>
				</split>
			</split>
		</split>
	</tree>
	<tree id="27" weight="0.1">
		<split>
			<feature> 48 </feature>
			<threshold> 0.515625 </threshold>
			<split pos="left">
				<feature> 130 </feature>
				<threshold> 8023.6484 </threshold>
				<split pos="left">
					<feature> 129 </feature>
					<threshold> 33.0 </threshold>
					<split pos="left">
						<feature> 126 </feature>
						<threshold> 2.0 </threshold>
						<split pos="left">
							<output> 0.035435136 </output>
						</split>
						<split pos="right">
							<output> -0.013404761 </output>
						</split>
					</split>
					<split pos="right">
						<output> 0.22398157 </output>
					</split>
				</split>
				<split pos="right">
					<feature> 74 </feature>
					<threshold> 11.784516 </threshold>
					<split pos="left">
						<feature> 134 </feature>
						<threshold> 0.0 </threshold>
						<split pos="left">
							<feature> 11 </feature>
							<threshold> 50.472656 </threshold>
							<split pos="left">
								<output> 0.1287527 </output>
							</split>
							<split pos="right">
								<feature> 48 </feature>
								<threshold> 0.08203125 </threshold>
								<split pos="left">
									<output> -0.014674671 </output>
								</split>
								<split pos="right">
									<feature> 68 </feature>
									<threshold> 0.005859375 </threshold>
									<split pos="left">
										<output> 0.080552734 </output>
									</split>
									<split pos="right">
										<output> -0.0037133065 </output>
									</split>
								</split>
							</split>
						</split>
						<split pos="right">
							<output> 0.19480972 </output>
						</split>
					</split>
					<split pos="right">
						<output> 0.16645314 </output>
					</split>
				</split>
			</split>
			<split pos="right">
				<output> 0.127126 </output>
			</split>
		</split>
	</tree>
	<tree id="28" weight="0.1">
		<split>
			<feature> 129 </feature>
			<threshold> 2.0 </threshold>
			<split pos="left">
				<feature> 14 </feature>
				<threshold> 4.0 </threshold>
				<split pos="left">
					<output> 0.077213466 </output>
				</split>
				<split pos="right">
					<feature> 11 </feature>
					<threshold> 0.0 </threshold>
					<split pos="left">
						<output> 0.13639449 </output>
					</split>
					<split pos="right">
						<feature> 74 </feature>
						<threshold> 17.676775 </threshold>
						<split pos="left">
							<feature> 11 </feature>
							<threshold> 2321.7422 </threshold>
							<split pos="left">
								<feature> 16 </feature>
								<threshold> 3.6163895 </threshold>
								<split pos="left">
									<output> -0.0716566 </output>
								</split>
								<split pos="right">
									<feature> 130 </feature>
									<threshold> 39207.04 </threshold>
									<split pos="left">
										<feature> 126 </feature>
										<threshold> 2.0 </threshold>
										<split pos="left">
											<output> 0.018895406 </output>
										</split>
										<split pos="right">
											<output> -0.017125668 </output>
										</split>
									</split>
									<split pos="right">
										<output> 0.064799175 </output>
									</split>
								</split>
							</split>
							<split pos="right">
								<output> -0.07740143 </output>
							</split>
						</split>
						<split pos="right">
							<output> 0.08129519 </output>
						</split>
					</split>
				</split>
			</split>
			<split pos="right">
				<feature> 133 </feature>
				<threshold> 10.0 </threshold>
				<split pos="left">
					<output> 0.101709664 </output>
				</split>
				<split pos="right">
					<output> 0.023989385 </output>
				</split>
			</split>
		</split>
	</tree>
	<tree id="29" weight="0.1">
		<split>
			<feature> 90 </feature>
			<threshold> 25.36245 </threshold>
			<split pos="left">
				<feature> 11 </feature>
				<threshold> 1009.4531 </threshold>
				<split pos="left">
					<feature> 61 </feature>
					<threshold> 0.0 </threshold>
					<split pos="left">
						<output> 0.08913147 </output>
					</split>
					<split pos="right">
						<feature> 16 </feature>
						<threshold> 19.304401 </threshold>
						<split pos="left">
							<output> -0.0050702025 </output>
						</split>
						<split pos="right">
							<output> 0.08090489 </output>
						</split>
					</split>
				</split>
				<split pos="right">
					<output> -0.061456777 </output>
				</split>
			</split>
			<split pos="right">
				<feature> 130 </feature>
				<threshold> 65022.797 </threshold>
				<split pos="left">
					<feature> 133 </feature>
					<threshold> 65.0 </threshold>
					<split pos="left">
						<feature> 48 </feature>
						<threshold> 0.515625 </threshold>
						<split pos="left">
							<feature> 129 </feature>
							<threshold> 26.0 </threshold>
							<split pos="left">
								<feature> 14 </feature>
								<threshold> 4.0 </threshold>
								<split pos="left">
									<output> 0.13966274 </output>
								</split>
								<split pos="right">
									<output> 0.036386065 </output>
								</split>
							</split>
							<split pos="right">
								<output> 0.1912067 </output>
							</split>
						</split>
						<split pos="right">
							<output> 0.15803556 </output>
						</split>
					</split>
					<split pos="right">
						<output> -0.020351104 </output>
					</split>
				</split>
				<split pos="right">
					<output> 0.29739615 </output>
				</split>
			</split>
		</split>
	</tree>
	<tree id="30" weight="0.1">
		<split>
			<feature> 16 </feature>
			<threshold> 2.962723 </threshold>
			<split pos="left">
				<output> -0.07831155 </output>
			</split>
			<split pos="right">
				<feature> 130 </feature>
				<threshold> 41251.85 </threshold>
				<split pos="left">
					<feature> 129 </feature>
					<threshold> 9.0 </threshold>
					<split pos="left">
						<feature> 48 </feature>
						<threshold> 0.2109375 </threshold>
						<split pos="left">
							<feature> 11 </feature>
							<threshold> 1211.3438 </threshold>
							<split pos="left">
								<feature> 61 </feature>
								<threshold> 0.0 </threshold>
								<split pos="left">
									<output> 0.0632064 </output>
								</split>
								<split pos="right">
									<output> -0.011762115 </output>
								</split>
							</split>
							<split pos="right">
								<output> -0.05960687 </output>
							</split>
						</split>
						<split pos="right">
							<feature> 68 </feature>
							<threshold> 0.0078125 </threshold>
							<split pos="left">
								<feature> 16 </feature>
								<threshold> 13.748229 </threshold>
								<split pos="left">
									<output> 0.04539775 </output>
								</split>
								<split pos="right">
									<output> 0.15993315 </output>
								</split>
							</split>
							<split pos="right">
								<output> -0.018138839 </output>
							</split>
						</split>
					</split>
					<split pos="right">
						<output> 0.08539326 </output>
					</split>
				</split>
				<split pos="right">
					<feature> 134 </feature>
					<threshold> 0.0 </threshold>
					<split pos="left">
						<output> 0.07189014 </output>
					</split>
					<split pos="right">
						<output> 0.31738132 </output>
					</split>
				</split>
			</split>
		</split>
	</tree>
	<tree id="31" weight="0.1">
		<split>
			<feature> 133 </feature>
			<threshold> 53.0 </threshold>
			<split pos="left">
				<feature> 90 </feature>
				<threshold> 77.562164 </threshold>
				<split pos="left">
					<feature> 126 </feature>
					<threshold> 2.0 </threshold>
					<split pos="left">
						<feature> 74 </feature>
						<threshold> 10.606065 </threshold>
						<split pos="left">
							<feature> 48 </feature>
							<threshold> 0.33984375 </threshold>
							<split pos="left">
								<feature> 134 </feature>
								<threshold> 51367.92 </threshold>
								<split pos="left">
									<feature> 11 </feature>
									<threshold> 908.5078 </threshold>
									<split pos="left">
										<output> 0.03627081 </output>
									</split>
									<split pos="right">
										<output> -0.04476322 </output>
									</split>
								</split>
								<split pos="right">
									<output> 1.2133466 </output>
								</split>
							</split>
							<split pos="right">
								<output> 0.10586201 </output>
							</split>
						</split>
						<split pos="right">
							<output> 0.14569996 </output>
						</split>
					</split>
					<split pos="right">
						<feature> 16 </feature>
						<threshold> 4.2700562 </threshold>
						<split pos="left">
							<output> -0.077649675 </output>
						</split>
						<split pos="right">
							<feature> 130 </feature>
							<threshold> 41763.055 </threshold>
							<split pos="left">
								<output> -2.532806E-4 </output>
							</split>
							<split pos="right">
								<output> 0.08610456 </output>
							</split>
						</split>
					</split>
				</split>
				<split pos="right">
					<output> 0.09970387 </output>
				</split>
			</split>
			<split pos="right">
				<output> -0.02775737 </output>
			</split>
		</split>
	</tree>
	<tree id="32" weight="0.1">
		<split>
			<feature> 115 </feature>
			<threshold> -30.065006 </threshold>
			<split pos="left">
				<output> -0.07264772 </output>
			</split>
			<split pos="right">
				<feature> 133 </feature>
				<threshold> 5.0 </threshold>
				<split pos="left">
					<feature> 14 </feature>
					<threshold> 6.0 </threshold>
					<split pos="left">
						<output> 0.110236846 </output>
					</split>
					<split pos="right">
						<feature> 74 </feature>
						<threshold> 15.319871 </threshold>
						<split pos="left">
							<output> 0.020430332 </output>
						</split>
						<split pos="right">
							<output> 0.13584334 </output>
						</split>
					</split>
				</split>
				<split pos="right">
					<feature> 14 </feature>
					<threshold> 4.0 </threshold>
					<split pos="left">
						<output> 0.053329196 </output>
					</split>
					<split pos="right">
						<feature> 74 </feature>
						<threshold> 22.390581 </threshold>
						<split pos="left">
							<feature> 61 </feature>
							<threshold> 0.0 </threshold>
							<split pos="left">
								<output> 0.047727156 </output>
							</split>
							<split pos="right">
								<feature> 48 </feature>
								<threshold> 0.05859375 </threshold>
								<split pos="left">
									<output> -0.06719221 </output>
								</split>
								<split pos="right">
									<feature> 16 </feature>
									<threshold> 16.036064 </threshold>
									<split pos="left">
										<output> -0.008961504 </output>
									</split>
									<split pos="right">
										<output> 0.08014278 </output>
									</split>
								</split>
							</split>
						</split>
						<split pos="right">
							<output> 0.10081366 </output>
						</split>
					</split>
				</split>
			</split>
		</split>
	</tree>
	<tree id="33" weight="0.1">
		<split>
			<feature> 129 </feature>
			<threshold> 0.0 </threshold>
			<split pos="left">
				<feature> 11 </feature>
				<threshold> 0.0 </threshold>
				<split pos="left">
					<output> 0.11414757 </output>
				</split>
				<split pos="right">
					<feature> 14 </feature>
					<threshold> 3.0 </threshold>
					<split pos="left">
						<output> 0.13151085 </output>
					</split>
					<split pos="right">
						<feature> 48 </feature>
						<threshold> 0.09375 </threshold>
						<split pos="left">
							<output> -0.031943437 </output>
						</split>
						<split pos="right">
							<feature> 16 </feature>
							<threshold> 13.748229 </threshold>
							<split pos="left">
								<output> -0.0065526497 </output>
							</split>
							<split pos="right">
								<output> 0.077186555 </output>
							</split>
						</split>
					</split>
				</split>
			</split>
			<split pos="right">
				<feature> 127 </feature>
				<threshold> 28.140625 </threshold>
				<split pos="left">
					<output> 0.10532343 </output>
				</split>
				<split pos="right">
					<feature> 74 </feature>
					<threshold> 15.319871 </threshold>
					<split pos="left">
						<feature> 133 </feature>
						<threshold> 10.0 </threshold>
						<split pos="left">
							<feature> 16 </feature>
							<threshold> 4.2700562 </threshold>
							<split pos="left">
								<output> -0.045107022 </output>
							</split>
							<split pos="right">
								<output> 0.047327194 </output>
							</split>
						</split>
						<split pos="right">
							<output> -0.014735286 </output>
						</split>
					</split>
					<split pos="right">
						<output> 0.09478711 </output>
					</split>
				</split>
			</split>
		</split>
	</tree>
	<tree id="34" weight="0.1">
		<split>
			<feature> 48 </feature>
			<threshold> 0.515625 </threshold>
			<split pos="left">
				<feature> 133 </feature>
				<threshold> 54.0 </threshold>
				<split pos="left">
					<feature> 74 </feature>
					<threshold> 7.07071 </threshold>
					<split pos="left">
						<feature> 48 </feature>
						<threshold> 0.12890625 </threshold>
						<split pos="left">
							<feature> 11 </feature>
							<threshold> 302.83594 </threshold>
							<split pos="left">
								<output> 0.028211357 </output>
							</split>
							<split pos="right">
								<output> -0.0408187 </output>
							</split>
						</split>
						<split pos="right">
							<feature> 68 </feature>
							<threshold> 0.0029296875 </threshold>
							<split pos="left">
								<output> 0.06262935 </output>
							</split>
							<split pos="right">
								<output> -0.011263726 </output>
							</split>
						</split>
					</split>
					<split pos="right">
						<feature> 130 </feature>
						<threshold> 65278.4 </threshold>
						<split pos="left">
							<feature> 129 </feature>
							<threshold> 26.0 </threshold>
							<split pos="left">
								<feature> 14 </feature>
								<threshold> 6.0 </threshold>
								<split pos="left">
									<output> 0.10277256 </output>
								</split>
								<split pos="right">
									<output> 0.021813817 </output>
								</split>
							</split>
							<split pos="right">
								<output> 0.19597083 </output>
							</split>
						</split>
						<split pos="right">
							<output> 0.448891 </output>
						</split>
					</split>
				</split>
				<split pos="right">
					<output> -0.03623163 </output>
				</split>
			</split>
			<split pos="right">
				<output> 0.08758967 </output>
			</split>
		</split>
	</tree>
	<tree id="35" weight="0.1">
		<split>
			<feature> 16 </feature>
			<threshold> 2.962723 </threshold>
			<split pos="left">
				<output> -0.077781506 </output>
			</split>
			<split pos="right">
				<feature> 130 </feature>
				<threshold> 4445.2266 </threshold>
				<split pos="left">
					<feature> 74 </feature>
					<threshold> 22.390581 </threshold>
					<split pos="left">
						<feature> 14 </feature>
						<threshold> 3.0 </threshold>
						<split pos="left">
							<output> 0.15006116 </output>
						</split>
						<split pos="right">
							<feature> 129 </feature>
							<threshold> 34.0 </threshold>
							<split pos="left">
								<feature> 126 </feature>
								<threshold> 2.0 </threshold>
								<split pos="left">
									<output> 0.009189194 </output>
								</split>
								<split pos="right">
									<output> -0.027016116 </output>
								</split>
							</split>
							<split pos="right">
								<output> 0.17282432 </output>
							</split>
						</split>
					</split>
					<split pos="right">
						<output> 0.08425584 </output>
					</split>
				</split>
				<split pos="right">
					<feature> 74 </feature>
					<threshold> 11.784516 </threshold>
					<split pos="left">
						<feature> 48 </feature>
						<threshold> 0.52734375 </threshold>
						<split pos="left">
							<feature> 115 </feature>
							<threshold> -9.395579 </threshold>
							<split pos="left">
								<output> -0.0030355814 </output>
							</split>
							<split pos="right">
								<output> 0.048032876 </output>
							</split>
						</split>
						<split pos="right">
							<output> 0.13962281 </output>
						</split>
					</split>
					<split pos="right">
						<output> 0.10842535 </output>
					</split>
				</split>
			</split>
		</split>
	</tree>
	<tree id="36" weight="0.1">
		<split>
			<feature> 16 </feature>
			<threshold> 3.6163895 </threshold>
			<split pos="left">
				<output> -0.0529665 </output>
			</split>
			<split pos="right">
				<feature> 130 </feature>
				<threshold> 61188.773 </threshold>
				<split pos="left">
					<feature> 129 </feature>
					<threshold> 6.0 </threshold>
					<split pos="left">
						<feature> 48 </feature>
						<threshold> 0.33984375 </threshold>
						<split pos="left">
							<feature> 61 </feature>
							<threshold> 0.0 </threshold>
							<split pos="left">
								<output> 0.043425113 </output>
							</split>
							<split pos="right">
								<feature> 65 </feature>
								<threshold> 0.0031287852 </threshold>
								<split pos="left">
									<output> -0.073005 </output>
								</split>
								<split pos="right">
									<feature> 16 </feature>
									<threshold> 18.3239 </threshold>
									<split pos="left">
										<feature> 68 </feature>
										<threshold> 0.00390625 </threshold>
										<split pos="left">
											<feature> 48 </feature>
											<threshold> 0.15234375 </threshold>
											<split pos="left">
												<output> -0.024554642 </output>
											</split>
											<split pos="right">
												<output> 0.028214818 </output>
											</split>
										</split>
										<split pos="right">
											<output> -0.06291937 </output>
										</split>
									</split>
									<split pos="right">
										<output> 0.06875121 </output>
									</split>
								</split>
							</split>
						</split>
						<split pos="right">
							<output> 0.038080957 </output>
						</split>
					</split>
					<split pos="right">
						<output> 0.058812074 </output>
					</split>
				</split>
				<split pos="right">
					<output> 0.09801111 </output>
				</split>
			</split>
		</split>
	</tree>
	<tree id="37" weight="0.1">
		<split>
			<feature> 130 </feature>
			<threshold> 355.60156 </threshold>
			<split pos="left">
				<output> -0.030760609 </output>
			</split>
			<split pos="right">
				<feature> 16 </feature>
				<threshold> 4.2700562 </threshold>
				<split pos="left">
					<output> -0.031864084 </output>
				</split>
				<split pos="right">
					<feature> 115 </feature>
					<threshold> -11.900962 </threshold>
					<split pos="left">
						<feature> 48 </feature>
						<threshold> 0.41015625 </threshold>
						<split pos="left">
							<output> -0.014392582 </output>
						</split>
						<split pos="right">
							<output> 0.081424795 </output>
						</split>
					</split>
					<split pos="right">
						<feature> 130 </feature>
						<threshold> 64255.992 </threshold>
						<split pos="left">
							<feature> 129 </feature>
							<threshold> 28.0 </threshold>
							<split pos="left">
								<feature> 133 </feature>
								<threshold> 5.0 </threshold>
								<split pos="left">
									<feature> 126 </feature>
									<threshold> 2.0 </threshold>
									<split pos="left">
										<output> 0.10686801 </output>
									</split>
									<split pos="right">
										<output> 0.035481196 </output>
									</split>
								</split>
								<split pos="right">
									<feature> 16 </feature>
									<threshold> 6.557889 </threshold>
									<split pos="left">
										<output> -0.020846609 </output>
									</split>
									<split pos="right">
										<output> 0.033023372 </output>
									</split>
								</split>
							</split>
							<split pos="right">
								<output> 0.18773925 </output>
							</split>
						</split>
						<split pos="right">
							<output> 0.1921462 </output>
						</split>
					</split>
				</split>
			</split>
		</split>
	</tree>
	<tree id="38" weight="0.1">
		<split>
			<feature> 133 </feature>
			<threshold> 23.0 </threshold>
			<split pos="left">
				<feature> 14 </feature>
				<threshold> 6.0 </threshold>
				<split pos="left">
					<feature> 74 </feature>
					<threshold> 9.427613 </threshold>
					<split pos="left">
						<feature> 48 </feature>
						<threshold> 0.08203125 </threshold>
						<split pos="left">
							<output> -0.009147311 </output>
						</split>
						<split pos="right">
							<output> 0.06569273 </output>
						</split>
					</split>
					<split pos="right">
						<output> 0.16136584 </output>
					</split>
				</split>
				<split pos="right">
					<feature> 16 </feature>
					<threshold> 5.9042225 </threshold>
					<split pos="left">
						<output> -0.037277542 </output>
					</split>
					<split pos="right">
						<feature> 74 </feature>
						<threshold> 18.855227 </threshold>
						<split pos="left">
							<feature> 130 </feature>
							<threshold> 8790.453 </threshold>
							<split pos="left">
								<output> -0.0032030025 </output>
							</split>
							<split pos="right">
								<output> 0.038148172 </output>
							</split>
						</split>
						<split pos="right">
							<output> 0.10119188 </output>
						</split>
					</split>
				</split>
			</split>
			<split pos="right">
				<feature> 68 </feature>
				<threshold> 0.024414062 </threshold>
				<split pos="left">
					<feature> 48 </feature>
					<threshold> 0.3515625 </threshold>
					<split pos="left">
						<output> -0.025666421 </output>
					</split>
					<split pos="right">
						<output> 0.02843766 </output>
					</split>
				</split>
				<split pos="right">
					<output> -0.1134865 </output>
				</split>
			</split>
		</split>
	</tree>
	<tree id="39" weight="0.1">
		<split>
			<feature> 129 </feature>
			<threshold> 0.0 </threshold>
			<split pos="left">
				<feature> 11 </feature>
				<threshold> 0.0 </threshold>
				<split pos="left">
					<output> 0.09420776 </output>
				</split>
				<split pos="right">
					<feature> 14 </feature>
					<threshold> 3.0 </threshold>
					<split pos="left">
						<output> 0.10212455 </output>
					</split>
					<split pos="right">
						<feature> 16 </feature>
						<threshold> 1.9822233 </threshold>
						<split pos="left">
							<output> -0.12782511 </output>
						</split>
						<split pos="right">
							<feature> 130 </feature>
							<threshold> 611.2031 </threshold>
							<split pos="left">
								<output> -0.040871043 </output>
							</split>
							<split pos="right">
								<feature> 65 </feature>
								<threshold> 0.037545424 </threshold>
								<split pos="left">
									<output> -0.014404844 </output>
								</split>
								<split pos="right">
									<output> 0.03050655 </output>
								</split>
							</split>
						</split>
					</split>
				</split>
			</split>
			<split pos="right">
				<feature> 14 </feature>
				<threshold> 4.0 </threshold>
				<split pos="left">
					<output> 0.10567338 </output>
				</split>
				<split pos="right">
					<feature> 133 </feature>
					<threshold> 10.0 </threshold>
					<split pos="left">
						<feature> 90 </feature>
						<threshold> 234.16129 </threshold>
						<split pos="left">
							<output> 0.0343618 </output>
						</split>
						<split pos="right">
							<output> 0.21696359 </output>
						</split>
					</split>
					<split pos="right">
						<output> -0.010388095 </output>
					</split>
				</split>
			</split>
		</split>
	</tree>
	<tree id="40" weight="0.1">
		<split>
			<feature> 115 </feature>
			<threshold> -30.691353 </threshold>
			<split pos="left">
				<output> -0.06648301 </output>
			</split>
			<split pos="right">
				<feature> 16 </feature>
				<threshold> 5.9042225 </threshold>
				<split pos="left">
					<output> -0.01800091 </output>
				</split>
				<split pos="right">
					<feature> 130 </feature>
					<threshold> 39207.04 </threshold>
					<split pos="left">
						<feature> 129 </feature>
						<threshold> 18.0 </threshold>
						<split pos="left">
							<feature> 14 </feature>
							<threshold> 4.0 </threshold>
							<split pos="left">
								<output> 0.06377033 </output>
							</split>
							<split pos="right">
								<feature> 74 </feature>
								<threshold> 22.390581 </threshold>
								<split pos="left">
									<feature> 68 </feature>
									<threshold> 0.024414062 </threshold>
									<split pos="left">
										<feature> 48 </feature>
										<threshold> 0.29296875 </threshold>
										<split pos="left">
											<feature> 61 </feature>
											<threshold> 0.0 </threshold>
											<split pos="left">
												<output> 0.03441373 </output>
											</split>
											<split pos="right">
												<output> -0.01671962 </output>
											</split>
										</split>
										<split pos="right">
											<output> 0.03385142 </output>
										</split>
									</split>
									<split pos="right">
										<output> -0.06659549 </output>
									</split>
								</split>
								<split pos="right">
									<output> 0.08284493 </output>
								</split>
							</split>
						</split>
						<split pos="right">
							<output> 0.09256532 </output>
						</split>
					</split>
					<split pos="right">
						<output> 0.07140971 </output>
					</split>
				</split>
			</split>
		</split>
	</tree>
	<tree id="41" weight="0.1">
		<split>
			<feature> 133 </feature>
			<threshold> 129.0 </threshold>
			<split pos="left">
				<feature> 90 </feature>
				<threshold> 77.562164 </threshold>
				<split pos="left">
					<feature> 16 </feature>
					<threshold> 7.865222 </threshold>
					<split pos="left">
						<feature> 68 </feature>
						<threshold> 0.00390625 </threshold>
						<split pos="left">
							<feature> 130 </feature>
							<threshold> 65278.4 </threshold>
							<split pos="left">
								<feature> 16 </feature>
								<threshold> 1.9822233 </threshold>
								<split pos="left">
									<output> -0.09831737 </output>
								</split>
								<split pos="right">
									<feature> 130 </feature>
									<threshold> 2656.0156 </threshold>
									<split pos="left">
										<output> -0.03836091 </output>
									</split>
									<split pos="right">
										<output> 0.010344709 </output>
									</split>
								</split>
							</split>
							<split pos="right">
								<output> 0.11072811 </output>
							</split>
						</split>
						<split pos="right">
							<output> -0.0705038 </output>
						</split>
					</split>
					<split pos="right">
						<feature> 48 </feature>
						<threshold> 0.12890625 </threshold>
						<split pos="left">
							<output> -0.0061672474 </output>
						</split>
						<split pos="right">
							<feature> 14 </feature>
							<threshold> 4.0 </threshold>
							<split pos="left">
								<output> 0.15665601 </output>
							</split>
							<split pos="right">
								<output> 0.031475592 </output>
							</split>
						</split>
					</split>
				</split>
				<split pos="right">
					<output> 0.057005968 </output>
				</split>
			</split>
			<split pos="right">
				<output> -0.060034096 </output>
			</split>
		</split>
	</tree>
	<tree id="42" weight="0.1">
		<split>
			<feature> 133 </feature>
			<threshold> 5.0 </threshold>
			<split pos="left">
				<feature> 14 </feature>
				<threshold> 6.0 </threshold>
				<split pos="left">
					<output> 0.06534467 </output>
				</split>
				<split pos="right">
					<feature> 74 </feature>
					<threshold> 17.676775 </threshold>
					<split pos="left">
						<feature> 127 </feature>
						<threshold> 124.703125 </threshold>
						<split pos="left">
							<feature> 16 </feature>
							<threshold> 4.2700562 </threshold>
							<split pos="left">
								<output> -0.067057826 </output>
							</split>
							<split pos="right">
								<output> 0.0096672615 </output>
							</split>
						</split>
						<split pos="right">
							<output> 0.21433784 </output>
						</split>
					</split>
					<split pos="right">
						<output> 0.10296002 </output>
					</split>
				</split>
			</split>
			<split pos="right">
				<feature> 68 </feature>
				<threshold> 0.024414062 </threshold>
				<split pos="left">
					<feature> 48 </feature>
					<threshold> 0.41015625 </threshold>
					<split pos="left">
						<feature> 11 </feature>
						<threshold> 50.472656 </threshold>
						<split pos="left">
							<output> 0.048306413 </output>
						</split>
						<split pos="right">
							<feature> 48 </feature>
							<threshold> 0.0703125 </threshold>
							<split pos="left">
								<output> -0.04529386 </output>
							</split>
							<split pos="right">
								<output> -7.5267616E-4 </output>
							</split>
						</split>
					</split>
					<split pos="right">
						<output> 0.040896326 </output>
					</split>
				</split>
				<split pos="right">
					<output> -0.078465484 </output>
				</split>
			</split>
		</split>
	</tree>
	<tree id="43" weight="0.1">
		<split>
			<feature> 129 </feature>
			<threshold> 0.0 </threshold>
			<split pos="left">
				<feature> 11 </feature>
				<threshold> 0.0 </threshold>
				<split pos="left">
					<output> 0.0795692 </output>
				</split>
				<split pos="right">
					<feature> 14 </feature>
					<threshold> 3.0 </threshold>
					<split pos="left">
						<output> 0.083816044 </output>
					</split>
					<split pos="right">
						<feature> 127 </feature>
						<threshold> 10.035156 </threshold>
						<split pos="left">
							<output> -0.393794 </output>
						</split>
						<split pos="right">
							<feature> 90 </feature>
							<threshold> 25.36245 </threshold>
							<split pos="left">
								<feature> 127 </feature>
								<threshold> 148.84375 </threshold>
								<split pos="left">
									<output> -0.026197763 </output>
								</split>
								<split pos="right">
									<output> 0.2941783 </output>
								</split>
							</split>
							<split pos="right">
								<output> 0.00239623 </output>
							</split>
						</split>
					</split>
				</split>
			</split>
			<split pos="right">
				<feature> 48 </feature>
				<threshold> 0.515625 </threshold>
				<split pos="left">
					<feature> 115 </feature>
					<threshold> -10.021925 </threshold>
					<split pos="left">
						<output> -0.010717715 </output>
					</split>
					<split pos="right">
						<feature> 14 </feature>
						<threshold> 6.0 </threshold>
						<split pos="left">
							<output> 0.083922 </output>
						</split>
						<split pos="right">
							<output> 0.013387801 </output>
						</split>
					</split>
				</split>
				<split pos="right">
					<output> 0.09354034 </output>
				</split>
			</split>
		</split>
	</tree>
	<tree id="44" weight="0.1">
		<split>
			<feature> 68 </feature>
			<threshold> 0.0087890625 </threshold>
			<split pos="left">
				<feature> 48 </feature>
				<threshold> 0.17578125 </threshold>
				<split pos="left">
					<feature> 61 </feature>
					<threshold> 0.0 </threshold>
					<split pos="left">
						<output> 0.03493728 </output>
					</split>
					<split pos="right">
						<feature> 115 </feature>
						<threshold> -6.263851 </threshold>
						<split pos="left">
							<feature> 60 </feature>
							<threshold> 0.09699231 </threshold>
							<split pos="left">
								<output> -0.031147376 </output>
							</split>
							<split pos="right">
								<output> -0.20580986 </output>
							</split>
						</split>
						<split pos="right">
							<output> 0.022534775 </output>
						</split>
					</split>
				</split>
				<split pos="right">
					<feature> 91 </feature>
					<threshold> 0.0 </threshold>
					<split pos="left">
						<output> -0.02332094 </output>
					</split>
					<split pos="right">
						<feature> 130 </feature>
						<threshold> 63744.79 </threshold>
						<split pos="left">
							<feature> 16 </feature>
							<threshold> 7.2115555 </threshold>
							<split pos="left">
								<output> -0.0014757899 </output>
							</split>
							<split pos="right">
								<feature> 68 </feature>
								<threshold> 0.001953125 </threshold>
								<split pos="left">
									<output> 0.10461757 </output>
								</split>
								<split pos="right">
									<output> 0.022458216 </output>
								</split>
							</split>
						</split>
						<split pos="right">
							<output> 0.2549213 </output>
						</split>
					</split>
				</split>
			</split>
			<split pos="right">
				<output> -0.029907336 </output>
			</split>
		</split>
	</tree>
	<tree id="45" weight="0.1">
		<split>
			<feature> 130 </feature>
			<threshold> 355.60156 </threshold>
			<split pos="left">
				<output> -0.028979862 </output>
			</split>
			<split pos="right">
				<feature> 16 </feature>
				<threshold> 2.962723 </threshold>
				<split pos="left">
					<output> -0.05869009 </output>
				</split>
				<split pos="right">
					<feature> 115 </feature>
					<threshold> -22.548847 </threshold>
					<split pos="left">
						<output> -0.03331001 </output>
					</split>
					<split pos="right">
						<feature> 68 </feature>
						<threshold> 0.0087890625 </threshold>
						<split pos="left">
							<feature> 48 </feature>
							<threshold> 0.19921875 </threshold>
							<split pos="left">
								<feature> 91 </feature>
								<threshold> 0.0 </threshold>
								<split pos="left">
									<feature> 16 </feature>
									<threshold> 17.670233 </threshold>
									<split pos="left">
										<output> 0.05337447 </output>
									</split>
									<split pos="right">
										<output> -0.061336815 </output>
									</split>
								</split>
								<split pos="right">
									<output> -0.011886238 </output>
								</split>
							</split>
							<split pos="right">
								<feature> 130 </feature>
								<threshold> 65022.797 </threshold>
								<split pos="left">
									<feature> 16 </feature>
									<threshold> 8.518889 </threshold>
									<split pos="left">
										<output> 0.018422913 </output>
									</split>
									<split pos="right">
										<output> 0.088264495 </output>
									</split>
								</split>
								<split pos="right">
									<output> 0.30837417 </output>
								</split>
							</split>
						</split>
						<split pos="right">
							<output> -0.020777727 </output>
						</split>
					</split>
				</split>
			</split>
		</split>
	</tree>
	<tree id="46" weight="0.1">
		<split>
			<feature> 133 </feature>
			<threshold> 8.0 </threshold>
			<split pos="left">
				<feature> 129 </feature>
				<threshold> 31.0 </threshold>
				<split pos="left">
					<feature> 126 </feature>
					<threshold> 2.0 </threshold>
					<split pos="left">
						<output> 0.039708294 </output>
					</split>
					<split pos="right">
						<feature> 14 </feature>
						<threshold> 5.0 </threshold>
						<split pos="left">
							<output> 0.20849335 </output>
						</split>
						<split pos="right">
							<feature> 16 </feature>
							<threshold> 5.9042225 </threshold>
							<split pos="left">
								<output> -0.044855732 </output>
							</split>
							<split pos="right">
								<output> 0.0054793665 </output>
							</split>
						</split>
					</split>
				</split>
				<split pos="right">
					<output> 0.123146035 </output>
				</split>
			</split>
			<split pos="right">
				<feature> 133 </feature>
				<threshold> 185.0 </threshold>
				<split pos="left">
					<feature> 14 </feature>
					<threshold> 4.0 </threshold>
					<split pos="left">
						<output> 0.024319949 </output>
					</split>
					<split pos="right">
						<feature> 68 </feature>
						<threshold> 0.020507812 </threshold>
						<split pos="left">
							<feature> 48 </feature>
							<threshold> 0.41015625 </threshold>
							<split pos="left">
								<output> -0.018612962 </output>
							</split>
							<split pos="right">
								<output> 0.020760382 </output>
							</split>
						</split>
						<split pos="right">
							<output> -0.07810553 </output>
						</split>
					</split>
				</split>
				<split pos="right">
					<output> -0.10815782 </output>
				</split>
			</split>
		</split>
	</tree>
	<tree id="47" weight="0.1">
		<split>
			<feature> 129 </feature>
			<threshold> 0.0 </threshold>
			<split pos="left">
				<feature> 11 </feature>
				<threshold> 0.0 </threshold>
				<split pos="left">
					<output> 0.066000655 </output>
				</split>
				<split pos="right">
					<feature> 14 </feature>
					<threshold> 3.0 </threshold>
					<split pos="left">
						<output> 0.0705369 </output>
					</split>
					<split pos="right">
						<feature> 127 </feature>
						<threshold> 16.070312 </threshold>
						<split pos="left">
							<output> -0.06831213 </output>
						</split>
						<split pos="right">
							<feature> 14 </feature>
							<threshold> 4.0 </threshold>
							<split pos="left">
								<output> 0.020032726 </output>
							</split>
							<split pos="right">
								<output> -0.017362034 </output>
							</split>
						</split>
					</split>
				</split>
			</split>
			<split pos="right">
				<feature> 127 </feature>
				<threshold> 28.140625 </threshold>
				<split pos="left">
					<output> 0.058770202 </output>
				</split>
				<split pos="right">
					<feature> 126 </feature>
					<threshold> 1.0 </threshold>
					<split pos="left">
						<output> 0.17837454 </output>
					</split>
					<split pos="right">
						<feature> 133 </feature>
						<threshold> 2.0 </threshold>
						<split pos="left">
							<output> 0.044726297 </output>
						</split>
						<split pos="right">
							<feature> 16 </feature>
							<threshold> 8.518889 </threshold>
							<split pos="left">
								<output> -0.025437117 </output>
							</split>
							<split pos="right">
								<output> 0.011174687 </output>
							</split>
						</split>
					</split>
				</split>
			</split>
		</split>
	</tree>
	<tree id="48" weight="0.1">
		<split>
			<feature> 16 </feature>
			<threshold> 5.9042225 </threshold>
			<split pos="left">
				<feature> 65 </feature>
				<threshold> 0.037545424 </threshold>
				<split pos="left">
					<output> -0.039752647 </output>
				</split>
				<split pos="right">
					<output> 0.016442161 </output>
				</split>
			</split>
			<split pos="right">
				<feature> 130 </feature>
				<threshold> 24893.352 </threshold>
				<split pos="left">
					<feature> 60 </feature>
					<threshold> 0.12828013 </threshold>
					<split pos="left">
						<feature> 129 </feature>
						<threshold> 23.0 </threshold>
						<split pos="left">
							<feature> 14 </feature>
							<threshold> 4.0 </threshold>
							<split pos="left">
								<output> 0.05163928 </output>
							</split>
							<split pos="right">
								<feature> 74 </feature>
								<threshold> 22.390581 </threshold>
								<split pos="left">
									<feature> 16 </feature>
									<threshold> 16.036064 </threshold>
									<split pos="left">
										<feature> 68 </feature>
										<threshold> 0.0029296875 </threshold>
										<split pos="left">
											<output> -0.0016018307 </output>
										</split>
										<split pos="right">
											<output> -0.041770823 </output>
										</split>
									</split>
									<split pos="right">
										<output> 0.017120168 </output>
									</split>
								</split>
								<split pos="right">
									<output> 0.068162605 </output>
								</split>
							</split>
						</split>
						<split pos="right">
							<output> 0.08220715 </output>
						</split>
					</split>
					<split pos="right">
						<output> -0.08804803 </output>
					</split>
				</split>
				<split pos="right">
					<output> 0.039782193 </output>
				</split>
			</split>
		</split>
	</tree>
	<tree id="49" weight="0.1">
		<split>
			<feature> 125 </feature>
			<threshold> -33.198284 </threshold>
			<split pos="left">
				<output> -0.063514836 </output>
			</split>
			<split pos="right">
				<feature> 133 </feature>
				<threshold> 110.0 </threshold>
				<split pos="left">
					<feature> 90 </feature>
					<threshold> 77.562164 </threshold>
					<split pos="left">
						<feature> 16 </feature>
						<threshold> 7.865222 </threshold>
						<split pos="left">
							<feature> 65 </feature>
							<threshold> 0.03441664 </threshold>
							<split pos="left">
								<feature> 68 </feature>
								<threshold> 0.0029296875 </threshold>
								<split pos="left">
									<output> -0.014230408 </output>
								</split>
								<split pos="right">
									<output> -0.088050984 </output>
								</split>
							</split>
							<split pos="right">
								<output> 0.018411329 </output>
							</split>
						</split>
						<split pos="right">
							<feature> 130 </feature>
							<threshold> 55565.54 </threshold>
							<split pos="left">
								<feature> 48 </feature>
								<threshold> 0.1171875 </threshold>
								<split pos="left">
									<output> -0.0067168577 </output>
								</split>
								<split pos="right">
									<feature> 16 </feature>
									<threshold> 13.748229 </threshold>
									<split pos="left">
										<output> 5.3438137E-4 </output>
									</split>
									<split pos="right">
										<output> 0.08587473 </output>
									</split>
								</split>
							</split>
							<split pos="right">
								<output> 0.0847023 </output>
							</split>
						</split>
					</split>
					<split pos="right">
						<output> 0.043887172 </output>
					</split>
				</split>
				<split pos="right">
					<output> -0.04561063 </output>
				</split>
			</split>
		</split>
	</tree>
	<tree id="50" weight="0.1">
		<split>
			<feature> 133 </feature>
			<threshold> 5.0 </threshold>
			<split pos="left">
				<feature> 74 </feature>
				<threshold> 7.07071 </threshold>
				<split pos="left">
					<feature> 48 </feature>
					<threshold> 0.52734375 </threshold>
					<split pos="left">
						<feature> 134 </feature>
						<threshold> 102735.84 </threshold>
						<split pos="left">
							<output> -0.004232067 </output>
						</split>
						<split pos="right">
							<output> 1.4258037 </output>
						</split>
					</split>
					<split pos="right">
						<output> 0.094262116 </output>
					</split>
				</split>
				<split pos="right">
					<output> 0.049630024 </output>
				</split>
			</split>
			<split pos="right">
				<feature> 11 </feature>
				<threshold> 1160.8711 </threshold>
				<split pos="left">
					<feature> 61 </feature>
					<threshold> 0.0 </threshold>
					<split pos="left">
						<output> 0.037171394 </output>
					</split>
					<split pos="right">
						<feature> 91 </feature>
						<threshold> 0.0 </threshold>
						<split pos="left">
							<output> -0.046911977 </output>
						</split>
						<split pos="right">
							<feature> 115 </feature>
							<threshold> -6.890197 </threshold>
							<split pos="left">
								<feature> 48 </feature>
								<threshold> 0.69140625 </threshold>
								<split pos="left">
									<output> -0.015983403 </output>
								</split>
								<split pos="right">
									<output> 0.082249515 </output>
								</split>
							</split>
							<split pos="right">
								<output> 0.054457057 </output>
							</split>
						</split>
					</split>
				</split>
				<split pos="right">
					<output> -0.040921945 </output>
				</split>
			</split>
		</split>
	</tree>
	<tree id="51" weight="0.1">
		<split>
			<feature> 129 </feature>
			<threshold> 8.0 </threshold>
			<split pos="left">
				<feature> 16 </feature>
				<threshold> 1.9822233 </threshold>
				<split pos="left">
					<output> -0.09238433 </output>
				</split>
				<split pos="right">
					<feature> 14 </feature>
					<threshold> 4.0 </threshold>
					<split pos="left">
						<feature> 126 </feature>
						<threshold> 1.0 </threshold>
						<split pos="left">
							<output> -0.016873889 </output>
						</split>
						<split pos="right">
							<output> 0.2444154 </output>
						</split>
					</split>
					<split pos="right">
						<feature> 61 </feature>
						<threshold> 0.0 </threshold>
						<split pos="left">
							<output> 0.030378481 </output>
						</split>
						<split pos="right">
							<feature> 16 </feature>
							<threshold> 13.748229 </threshold>
							<split pos="left">
								<feature> 68 </feature>
								<threshold> 0.00390625 </threshold>
								<split pos="left">
									<feature> 125 </feature>
									<threshold> -4.4688644 </threshold>
									<split pos="left">
										<feature> 48 </feature>
										<threshold> 0.140625 </threshold>
										<split pos="left">
											<output> -0.028017389 </output>
										</split>
										<split pos="right">
											<output> 0.019180749 </output>
										</split>
									</split>
									<split pos="right">
										<output> -0.042912047 </output>
									</split>
								</split>
								<split pos="right">
									<output> -0.04609247 </output>
								</split>
							</split>
							<split pos="right">
								<output> 0.017620703 </output>
							</split>
						</split>
					</split>
				</split>
			</split>
			<split pos="right">
				<output> 0.031434186 </output>
			</split>
		</split>
	</tree>
	<tree id="52" weight="0.1">
		<split>
			<feature> 133 </feature>
			<threshold> 53.0 </threshold>
			<split pos="left">
				<feature> 90 </feature>
				<threshold> 77.562164 </threshold>
				<split pos="left">
					<feature> 134 </feature>
					<threshold> 0.0 </threshold>
					<split pos="left">
						<feature> 11 </feature>
						<threshold> 0.0 </threshold>
						<split pos="left">
							<output> 0.07618033 </output>
						</split>
						<split pos="right">
							<feature> 65 </feature>
							<threshold> 0.0031287852 </threshold>
							<split pos="left">
								<output> -0.029556055 </output>
							</split>
							<split pos="right">
								<feature> 16 </feature>
								<threshold> 14.075063 </threshold>
								<split pos="left">
									<feature> 68 </feature>
									<threshold> 0.0 </threshold>
									<split pos="left">
										<feature> 125 </feature>
										<threshold> -8.937885 </threshold>
										<split pos="left">
											<output> 0.052730255 </output>
										</split>
										<split pos="right">
											<feature> 130 </feature>
											<threshold> 65278.4 </threshold>
											<split pos="left">
												<output> -0.015030909 </output>
											</split>
											<split pos="right">
												<output> 0.15762372 </output>
											</split>
										</split>
									</split>
									<split pos="right">
										<output> -0.03315566 </output>
									</split>
								</split>
								<split pos="right">
									<output> 0.05529915 </output>
								</split>
							</split>
						</split>
					</split>
					<split pos="right">
						<output> 0.086900026 </output>
					</split>
				</split>
				<split pos="right">
					<output> 0.0418686 </output>
				</split>
			</split>
			<split pos="right">
				<output> -0.026660865 </output>
			</split>
		</split>
	</tree>
	<tree id="53" weight="0.1">
		<split>
			<feature> 130 </feature>
			<threshold> 611.2031 </threshold>
			<split pos="left">
				<output> -0.022849714 </output>
			</split>
			<split pos="right">
				<feature> 74 </feature>
				<threshold> 11.784516 </threshold>
				<split pos="left">
					<feature> 48 </feature>
					<threshold> 0.52734375 </threshold>
					<split pos="left">
						<feature> 65 </feature>
						<threshold> 0.04067421 </threshold>
						<split pos="left">
							<feature> 11 </feature>
							<threshold> 50.472656 </threshold>
							<split pos="left">
								<output> 0.057616957 </output>
							</split>
							<split pos="right">
								<feature> 134 </feature>
								<threshold> 51367.92 </threshold>
								<split pos="left">
									<feature> 65 </feature>
									<threshold> 0.0031287852 </threshold>
									<split pos="left">
										<output> -0.041018523 </output>
									</split>
									<split pos="right">
										<feature> 16 </feature>
										<threshold> 14.075063 </threshold>
										<split pos="left">
											<feature> 68 </feature>
											<threshold> 0.0029296875 </threshold>
											<split pos="left">
												<output> -7.6554035E-4 </output>
											</split>
											<split pos="right">
												<output> -0.054179136 </output>
											</split>
										</split>
										<split pos="right">
											<output> 0.04746199 </output>
										</split>
									</split>
								</split>
								<split pos="right">
									<output> 0.76996815 </output>
								</split>
							</split>
						</split>
						<split pos="right">
							<output> 0.029601153 </output>
						</split>
					</split>
					<split pos="right">
						<output> 0.06353238 </output>
					</split>
				</split>
				<split pos="right">
					<output> 0.042694405 </output>
				</split>
			</split>
		</split>
	</tree>
	<tree id="54" weight="0.1">
		<split>
			<feature> 16 </feature>
			<threshold> 4.2700562 </threshold>
			<split pos="left">
				<output> -0.030006893 </output>
			</split>
			<split pos="right">
				<feature> 130 </feature>
				<threshold> 11090.867 </threshold>
				<split pos="left">
					<feature> 60 </feature>
					<threshold> 0.12828013 </threshold>
					<split pos="left">
						<feature> 126 </feature>
						<threshold> 3.0 </threshold>
						<split pos="left">
							<feature> 129 </feature>
							<threshold> 29.0 </threshold>
							<split pos="left">
								<feature> 14 </feature>
								<threshold> 3.0 </threshold>
								<split pos="left">
									<output> 0.1172961 </output>
								</split>
								<split pos="right">
									<output> 0.0030451305 </output>
								</split>
							</split>
							<split pos="right">
								<output> 0.14259778 </output>
							</split>
						</split>
						<split pos="right">
							<output> -0.023764614 </output>
						</split>
					</split>
					<split pos="right">
						<output> -0.08654406 </output>
					</split>
				</split>
				<split pos="right">
					<feature> 134 </feature>
					<threshold> 0.0 </threshold>
					<split pos="left">
						<feature> 11 </feature>
						<threshold> 50.472656 </threshold>
						<split pos="left">
							<output> 0.094117984 </output>
						</split>
						<split pos="right">
							<feature> 48 </feature>
							<threshold> 0.08203125 </threshold>
							<split pos="left">
								<output> -0.029101765 </output>
							</split>
							<split pos="right">
								<output> 0.02784235 </output>
							</split>
						</split>
					</split>
					<split pos="right">
						<output> 0.124355145 </output>
					</split>
				</split>
			</split>
		</split>
	</tree>
	<tree id="55" weight="0.1">
		<split>
			<feature> 129 </feature>
			<threshold> 0.0 </threshold>
			<split pos="left">
				<feature> 130 </feature>
				<threshold> 65278.4 </threshold>
				<split pos="left">
					<feature> 127 </feature>
					<threshold> 16.070312 </threshold>
					<split pos="left">
						<output> -0.060951386 </output>
					</split>
					<split pos="right">
						<feature> 14 </feature>
						<threshold> 4.0 </threshold>
						<split pos="left">
							<output> 0.021163238 </output>
						</split>
						<split pos="right">
							<feature> 127 </feature>
							<threshold> 64.35156 </threshold>
							<split pos="left">
								<feature> 61 </feature>
								<threshold> 0.01171875 </threshold>
								<split pos="left">
									<output> -0.0052927537 </output>
								</split>
								<split pos="right">
									<output> -0.033747535 </output>
								</split>
							</split>
							<split pos="right">
								<output> 0.017910887 </output>
							</split>
						</split>
					</split>
				</split>
				<split pos="right">
					<output> 0.10308699 </output>
				</split>
			</split>
			<split pos="right">
				<feature> 48 </feature>
				<threshold> 0.69140625 </threshold>
				<split pos="left">
					<feature> 68 </feature>
					<threshold> 0.005859375 </threshold>
					<split pos="left">
						<feature> 74 </feature>
						<threshold> 7.07071 </threshold>
						<split pos="left">
							<output> 0.0026621178 </output>
						</split>
						<split pos="right">
							<output> 0.04438875 </output>
						</split>
					</split>
					<split pos="right">
						<output> -0.024205059 </output>
					</split>
				</split>
				<split pos="right">
					<output> 0.10024776 </output>
				</split>
			</split>
		</split>
	</tree>
	<tree id="56" weight="0.1">
		<split>
			<feature> 133 </feature>
			<threshold> 23.0 </threshold>
			<split pos="left">
				<feature> 126 </feature>
				<threshold> 3.0 </threshold>
				<split pos="left">
					<feature> 74 </feature>
					<threshold> 9.427613 </threshold>
					<split pos="left">
						<feature> 48 </feature>
						<threshold> 0.17578125 </threshold>
						<split pos="left">
							<feature> 127 </feature>
							<threshold> 154.8789 </threshold>
							<split pos="left">
								<feature> 134 </feature>
								<threshold> 51367.92 </threshold>
								<split pos="left">
									<output> -0.009356275 </output>
								</split>
								<split pos="right">
									<output> 0.8121798 </output>
								</split>
							</split>
							<split pos="right">
								<output> 0.47350287 </output>
							</split>
						</split>
						<split pos="right">
							<feature> 16 </feature>
							<threshold> 10.479892 </threshold>
							<split pos="left">
								<output> 0.007458241 </output>
							</split>
							<split pos="right">
								<output> 0.073063105 </output>
							</split>
						</split>
					</split>
					<split pos="right">
						<output> 0.05411254 </output>
					</split>
				</split>
				<split pos="right">
					<output> -0.013592486 </output>
				</split>
			</split>
			<split pos="right">
				<feature> 133 </feature>
				<threshold> 185.0 </threshold>
				<split pos="left">
					<feature> 68 </feature>
					<threshold> 0.024414062 </threshold>
					<split pos="left">
						<output> -0.009782408 </output>
					</split>
					<split pos="right">
						<output> -0.07464135 </output>
					</split>
				</split>
				<split pos="right">
					<output> -0.091531895 </output>
				</split>
			</split>
		</split>
	</tree>
	<tree id="57" weight="0.1">
		<split>
			<feature> 125 </feature>
			<threshold> -31.921421 </threshold>
			<split pos="left">
				<output> -0.05114716 </output>
			</split>
			<split pos="right">
				<feature> 16 </feature>
				<threshold> 5.9042225 </threshold>
				<split pos="left">
					<output> -0.01695368 </output>
				</split>
				<split pos="right">
