## MART
## No. of trees = 1000
## No. of leaves = 10
## No. of threshold candidates = 256
## Learning rate = 0.1
## Stop early = 100

<ensemble>
	<tree id="1" weight="0.1">
		<split>
			<feature> 62 </feature>
			<threshold> 0.12890625 </threshold>
			<split pos="left">
				<feature> 62 </feature>
				<threshold> 0.0703125 </threshold>
				<split pos="left">
					<feature> 62 </feature>
					<threshold> 0.0 </threshold>
					<split pos="left">
						<output> 0.6358825 </output>
					</split>
					<split pos="right">
						<output> 0.5610904 </output>
					</split>
				</split>
				<split pos="right">
					<output> 0.7205213 </output>
				</split>
			</split>
			<split pos="right">
				<feature> 62 </feature>
				<threshold> 0.25 </threshold>
				<split pos="left">
					<feature> 62 </feature>
					<threshold> 0.16796875 </threshold>
					<split pos="left">
						<output> 0.8058601 </output>
					</split>
					<split pos="right">
						<feature> 62 </feature>
						<threshold> 0.24609375 </threshold>
						<split pos="left">
							<output> 0.9631541 </output>
						</split>
						<split pos="right">
							<output> 0.8558606 </output>
						</split>
					</split>
				</split>
				<split pos="right">
					<feature> 62 </feature>
					<threshold> 0.328125 </threshold>
					<split pos="left">
						<output> 1.145359 </output>
					</split>
					<split pos="right">
						<feature> 62 </feature>
						<threshold> 0.5234375 </threshold>
						<split pos="left">
							<feature> 62 </feature>
							<threshold> 0.46484375 </threshold>
							<split pos="left">
								<output> 0.9949388 </output>
							</split>
							<split pos="right">
								<output> 0.9603936 </output>
							</split>
						</split>
						<split pos="right">
							<output> 1.0464606 </output>
						</split>
					</split>
				</split>
			</split>
		</split>
	</tree>
	<tree id="2" weight="0.1">
		<split>
			<feature> 62 </feature>
			<threshold> 0.12890625 </threshold>
			<split pos="left">
				<feature> 62 </feature>
				<threshold> 0.0703125 </threshold>
				<split pos="left">
					<feature> 62 </feature>
					<threshold> 0.0 </threshold>
					<split pos="left">
						<output> 0.57323295 </output>
					</split>
					<split pos="right">
						<output> 0.5049484 </output>
					</split>
				</split>
				<split pos="right">
					<output> 0.64832896 </output>
				</split>
			</split>
			<split pos="right">
				<feature> 62 </feature>
				<threshold> 0.25 </threshold>
				<split pos="left">
					<feature> 62 </feature>
					<threshold> 0.16796875 </threshold>
					<split pos="left">
						<output> 0.725155 </output>
					</split>
					<split pos="right">
						<feature> 62 </feature>
						<threshold> 0.24609375 </threshold>
						<split pos="left">
							<output> 0.86686134 </output>
						</split>
						<split pos="right">
							<output> 0.7702954 </output>
						</split>
					</split>
				</split>
				<split pos="right">
					<feature> 62 </feature>
					<threshold> 0.328125 </threshold>
					<split pos="left">
						<output> 1.0308357 </output>
					</split>
					<split pos="right">
						<feature> 62 </feature>
						<threshold> 0.5234375 </threshold>
						<split pos="left">
							<feature> 62 </feature>
							<threshold> 0.3359375 </threshold>
							<split pos="left">
								<output> 0.86188 </output>
							</split>
							<split pos="right">
								<output> 0.8952871 </output>
							</split>
						</split>
						<split pos="right">
							<output> 0.9417991 </output>
						</split>
					</split>
				</split>
			</split>
		</split>
	</tree>
	<tree id="3" weight="0.1">
		<split>
			<feature> 62 </feature>
			<threshold> 0.12890625 </threshold>
			<split pos="left">
				<feature> 62 </feature>
				<threshold> 0.0859375 </threshold>
				<split pos="left">
					<feature> 62 </feature>
					<threshold> 0.0 </threshold>
					<split pos="left">
						<output> 0.5133325 </output>
					</split>
					<split pos="right">
						<output> 0.48985323 </output>
					</split>
				</split>
				<split pos="right">
					<output> 0.5980907 </output>
				</split>
			</split>
			<split pos="right">
				<feature> 62 </feature>
				<threshold> 0.25 </threshold>
				<split pos="left">
					<feature> 62 </feature>
					<threshold> 0.16796875 </threshold>
					<split pos="left">
						<output> 0.6526372 </output>
					</split>
					<split pos="right">
						<feature> 62 </feature>
						<threshold> 0.24609375 </threshold>
						<split pos="left">
							<output> 0.78008175 </output>
						</split>
						<split pos="right">
							<output> 0.6932613 </output>
						</split>
					</split>
				</split>
				<split pos="right">
					<feature> 62 </feature>
					<threshold> 0.328125 </threshold>
					<split pos="left">
						<output> 0.92773396 </output>
					</split>
					<split pos="right">
						<feature> 62 </feature>
						<threshold> 0.5234375 </threshold>
						<split pos="left">
							<feature> 62 </feature>
							<threshold> 0.46484375 </threshold>
							<split pos="left">
								<output> 0.808797 </output>
							</split>
							<split pos="right">
								<output> 0.7748453 </output>
							</split>
						</split>
						<split pos="right">
							<output> 0.8476735 </output>
						</split>
					</split>
				</split>
			</split>
		</split>
	</tree>
	<tree id="4" weight="0.1">
		<split>
			<feature> 62 </feature>
			<threshold> 0.12890625 </threshold>
			<split pos="left">
				<feature> 62 </feature>
				<threshold> 0.0703125 </threshold>
				<split pos="left">
					<feature> 62 </feature>
					<threshold> 0.0 </threshold>
					<split pos="left">
						<output> 0.46280232 </output>
					</split>
					<split pos="right">
						<output> 0.4055238 </output>
					</split>
				</split>
				<split pos="right">
					<output> 0.52705 </output>
				</split>
			</split>
			<split pos="right">
				<feature> 62 </feature>
				<threshold> 0.25 </threshold>
				<split pos="left">
					<feature> 62 </feature>
					<threshold> 0.16796875 </threshold>
					<split pos="left">
						<output> 0.58751297 </output>
					</split>
					<split pos="right">
						<feature> 62 </feature>
						<threshold> 0.24609375 </threshold>
						<split pos="left">
							<output> 0.7020725 </output>
						</split>
						<split pos="right">
							<output> 0.6239265 </output>
						</split>
					</split>
				</split>
				<split pos="right">
					<feature> 62 </feature>
					<threshold> 0.328125 </threshold>
					<split pos="left">
						<output> 0.8349597 </output>
					</split>
					<split pos="right">
						<feature> 62 </feature>
						<threshold> 0.3359375 </threshold>
						<split pos="left">
							<output> 0.69486827 </output>
						</split>
						<split pos="right">
							<feature> 62 </feature>
							<threshold> 0.46484375 </threshold>
							<split pos="left">
								<output> 0.9129193 </output>
							</split>
							<split pos="right">
								<output> 0.71652734 </output>
							</split>
						</split>
					</split>
				</split>
			</split>
		</split>
	</tree>
	<tree id="5" weight="0.1">
		<split>
			<feature> 62 </feature>
			<threshold> 0.12890625 </threshold>
			<split pos="left">
				<feature> 62 </feature>
				<threshold> 0.0859375 </threshold>
				<split pos="left">
					<feature> 62 </feature>
					<threshold> 0.0 </threshold>
					<split pos="left">
						<output> 0.417137 </output>
					</split>
					<split pos="right">
						<output> 0.39568815 </output>
					</split>
				</split>
				<split pos="right">
					<output> 0.485427 </output>
				</split>
			</split>
			<split pos="right">
				<feature> 62 </feature>
				<threshold> 0.25 </threshold>
				<split pos="left">
					<feature> 62 </feature>
					<threshold> 0.16796875 </threshold>
					<split pos="left">
						<output> 0.5286348 </output>
					</split>
					<split pos="right">
						<feature> 62 </feature>
						<threshold> 0.24609375 </threshold>
						<split pos="left">
							<output> 0.63196707 </output>
						</split>
						<split pos="right">
							<output> 0.56146425 </output>
						</split>
					</split>
				</split>
				<split pos="right">
					<feature> 62 </feature>
					<threshold> 0.328125 </threshold>
					<split pos="left">
						<output> 0.7514663 </output>
					</split>
					<split pos="right">
						<feature> 62 </feature>
						<threshold> 0.5234375 </threshold>
						<split pos="left">
							<feature> 62 </feature>
							<threshold> 0.46484375 </threshold>
							<split pos="left">
								<output> 0.6551502 </output>
							</split>
							<split pos="right">
								<output> 0.6257916 </output>
							</split>
						</split>
						<split pos="right">
							<output> 0.69123244 </output>
						</split>
					</split>
				</split>
			</split>
		</split>
	</tree>
	<tree id="6" weight="0.1">
		<split>
			<feature> 62 </feature>
			<threshold> 0.12890625 </threshold>
			<split pos="left">
				<feature> 62 </feature>
				<threshold> 0.0703125 </threshold>
				<split pos="left">
					<feature> 62 </feature>
					<threshold> 0.0 </threshold>
					<split pos="left">
						<output> 0.37400907 </output>
					</split>
					<split pos="right">
						<output> 0.32541594 </output>
					</split>
				</split>
				<split pos="right">
					<output> 0.4284228 </output>
				</split>
			</split>
			<split pos="right">
				<feature> 62 </feature>
				<threshold> 0.25 </threshold>
				<split pos="left">
					<feature> 62 </feature>
					<threshold> 0.16796875 </threshold>
					<split pos="left">
						<output> 0.4758148 </output>
					</split>
					<split pos="right">
						<feature> 62 </feature>
						<threshold> 0.24609375 </threshold>
						<split pos="left">
							<output> 0.5686704 </output>
						</split>
						<split pos="right">
							<output> 0.5053164 </output>
						</split>
					</split>
				</split>
				<split pos="right">
					<feature> 62 </feature>
					<threshold> 0.328125 </threshold>
					<split pos="left">
						<output> 0.67633235 </output>
					</split>
					<split pos="right">
						<feature> 62 </feature>
						<threshold> 0.3359375 </threshold>
						<split pos="left">
							<output> 0.55994433 </output>
						</split>
						<split pos="right">
							<feature> 62 </feature>
							<threshold> 0.46484375 </threshold>
							<split pos="left">
								<output> 0.75609934 </output>
							</split>
							<split pos="right">
								<output> 0.58021575 </output>
							</split>
						</split>
					</split>
				</split>
			</split>
		</split>
	</tree>
	<tree id="7" weight="0.1">
		<split>
			<feature> 62 </feature>
			<threshold> 0.12890625 </threshold>
			<split pos="left">
				<feature> 62 </feature>
				<threshold> 0.0703125 </threshold>
				<split pos="left">
					<feature> 62 </feature>
					<threshold> 0.0 </threshold>
					<split pos="left">
						<output> 0.33892012 </output>
					</split>
					<split pos="right">
						<output> 0.2928027 </output>
					</split>
				</split>
				<split pos="right">
					<output> 0.38555777 </output>
				</split>
			</split>
			<split pos="right">
				<feature> 62 </feature>
				<threshold> 0.25 </threshold>
				<split pos="left">
					<feature> 62 </feature>
					<threshold> 0.16796875 </threshold>
					<split pos="left">
						<output> 0.4283805 </output>
					</split>
					<split pos="right">
						<feature> 62 </feature>
						<threshold> 0.24609375 </threshold>
						<split pos="left">
							<output> 0.5119306 </output>
						</split>
						<split pos="right">
							<output> 0.45483592 </output>
						</split>
					</split>
				</split>
				<split pos="right">
					<feature> 62 </feature>
					<threshold> 0.328125 </threshold>
					<split pos="left">
						<output> 0.6086951 </output>
					</split>
					<split pos="right">
						<feature> 62 </feature>
						<threshold> 0.5 </threshold>
						<split pos="left">
							<feature> 62 </feature>
							<threshold> 0.3359375 </threshold>
							<split pos="left">
								<output> 0.5039353 </output>
							</split>
							<split pos="right">
								<output> 0.5298989 </output>
							</split>
						</split>
						<split pos="right">
							<output> 0.5640527 </output>
						</split>
					</split>
				</split>
			</split>
		</split>
	</tree>
	<tree id="8" weight="0.1">
		<split>
			<feature> 62 </feature>
			<threshold> 0.12890625 </threshold>
			<split pos="left">
				<feature> 62 </feature>
				<threshold> 0.0859375 </threshold>
				<split pos="left">
					<feature> 62 </feature>
					<threshold> 0.0 </threshold>
					<split pos="left">
						<output> 0.30644488 </output>
					</split>
					<split pos="right">
						<output> 0.28701854 </output>
					</split>
				</split>
				<split pos="right">
					<output> 0.35552084 </output>
				</split>
			</split>
			<split pos="right">
				<feature> 62 </feature>
				<threshold> 0.25 </threshold>
				<split pos="left">
					<feature> 62 </feature>
					<threshold> 0.16796875 </threshold>
					<split pos="left">
						<output> 0.38545063 </output>
					</split>
					<split pos="right">
						<feature> 62 </feature>
						<threshold> 0.21875 </threshold>
						<split pos="left">
							<output> 0.47022375 </output>
						</split>
						<split pos="right">
							<output> 0.4150868 </output>
						</split>
					</split>
				</split>
				<split pos="right">
					<feature> 62 </feature>
					<threshold> 0.328125 </threshold>
					<split pos="left">
						<output> 0.5478242 </output>
					</split>
					<split pos="right">
						<feature> 62 </feature>
						<threshold> 0.5 </threshold>
						<split pos="left">
							<feature> 62 </feature>
							<threshold> 0.46484375 </threshold>
							<split pos="left">
								<output> 0.4798398 </output>
							</split>
							<split pos="right">
								<output> 0.45208973 </output>
							</split>
						</split>
						<split pos="right">
							<output> 0.5076434 </output>
						</split>
					</split>
				</split>
			</split>
		</split>
	</tree>
	<tree id="9" weight="0.1">
		<split>
			<feature> 62 </feature>
			<threshold> 0.12890625 </threshold>
			<split pos="left">
				<feature> 62 </feature>
				<threshold> 0.0703125 </threshold>
				<split pos="left">
					<feature> 62 </feature>
					<threshold> 0.0 </threshold>
					<split pos="left">
						<output> 0.2751982 </output>
					</split>
					<split pos="right">
						<output> 0.23483814 </output>
					</split>
				</split>
				<split pos="right">
					<output> 0.31346044 </output>
				</split>
			</split>
			<split pos="right">
				<feature> 62 </feature>
				<threshold> 0.25 </threshold>
				<split pos="left">
					<feature> 62 </feature>
					<threshold> 0.16796875 </threshold>
					<split pos="left">
						<output> 0.3468853 </output>
					</split>
					<split pos="right">
						<feature> 62 </feature>
						<threshold> 0.18359375 </threshold>
						<split pos="left">
							<output> 0.5138434 </output>
						</split>
						<split pos="right">
							<feature> 62 </feature>
							<threshold> 0.24609375 </threshold>
							<split pos="left">
								<output> 0.4071026 </output>
							</split>
							<split pos="right">
								<output> 0.36783957 </output>
							</split>
						</split>
					</split>
				</split>
				<split pos="right">
					<feature> 62 </feature>
					<threshold> 0.328125 </threshold>
					<split pos="left">
						<output> 0.4930294 </output>
					</split>
					<split pos="right">
						<feature> 62 </feature>
						<threshold> 0.3359375 </threshold>
						<split pos="left">
							<output> 0.40553266 </output>
						</split>
						<split pos="right">
							<output> 0.43788484 </output>
						</split>
					</split>
				</split>
			</split>
		</split>
	</tree>
	<tree id="10" weight="0.1">
		<split>
			<feature> 62 </feature>
			<threshold> 0.12890625 </threshold>
			<split pos="left">
				<feature> 62 </feature>
				<threshold> 0.05078125 </threshold>
				<split pos="left">
					<feature> 62 </feature>
					<threshold> 0.0 </threshold>
					<split pos="left">
						<output> 0.24538685 </output>
					</split>
					<split pos="right">
						<output> 0.16524339 </output>
					</split>
				</split>
				<split pos="right">
					<output> 0.27891335 </output>
				</split>
			</split>
			<split pos="right">
				<feature> 62 </feature>
				<threshold> 0.25 </threshold>
				<split pos="left">
					<feature> 62 </feature>
					<threshold> 0.1640625 </threshold>
					<split pos="left">
						<output> 0.386787 </output>
					</split>
					<split pos="right">
						<feature> 62 </feature>
						<threshold> 0.16796875 </threshold>
						<split pos="left">
							<output> 0.27514768 </output>
						</split>
						<split pos="right">
							<output> 0.35067302 </output>
						</split>
					</split>
				</split>
				<split pos="right">
					<feature> 62 </feature>
					<threshold> 0.28515625 </threshold>
					<split pos="left">
						<output> 0.49262732 </output>
					</split>
					<split pos="right">
						<feature> 62 </feature>
						<threshold> 0.5234375 </threshold>
						<split pos="left">
							<feature> 62 </feature>
							<threshold> 0.46484375 </threshold>
							<split pos="left">
								<output> 0.39392906 </output>
							</split>
							<split pos="right">
								<output> 0.36305362 </output>
							</split>
						</split>
						<split pos="right">
							<output> 0.41313034 </output>
						</split>
					</split>
				</split>
			</split>
		</split>
	</tree>
	<tree id="11" weight="0.1">
		<split>
			<feature> 62 </feature>
			<threshold> 0.125 </threshold>
			<split pos="left">
				<feature> 62 </feature>
				<threshold> 0.0859375 </threshold>
				<split pos="left">
					<feature> 62 </feature>
					<threshold> 0.0 </threshold>
					<split pos="left">
						<output> 0.22154063 </output>
					</split>
					<split pos="right">
						<output> 0.20783539 </output>
					</split>
				</split>
				<split pos="right">
					<output> 0.26070282 </output>
				</split>
			</split>
			<split pos="right">
				<feature> 62 </feature>
				<threshold> 0.25 </threshold>
				<split pos="left">
					<feature> 62 </feature>
					<threshold> 0.1640625 </threshold>
					<split pos="left">
						<output> 0.34683663 </output>
					</split>
					<split pos="right">
						<feature> 62 </feature>
						<threshold> 0.16796875 </threshold>
						<split pos="left">
							<output> 0.24764374 </output>
						</split>
						<split pos="right">
							<feature> 62 </feature>
							<threshold> 0.18359375 </threshold>
							<split pos="left">
								<output> 0.42739627 </output>
							</split>
							<split pos="right">
								<output> 0.3115203 </output>
							</split>
						</split>
					</split>
				</split>
				<split pos="right">
					<feature> 62 </feature>
					<threshold> 0.328125 </threshold>
					<split pos="left">
						<output> 0.40117472 </output>
					</split>
					<split pos="right">
						<feature> 62 </feature>
						<threshold> 0.3359375 </threshold>
						<split pos="left">
							<output> 0.32554755 </output>
						</split>
						<split pos="right">
							<output> 0.35617006 </output>
						</split>
					</split>
				</split>
			</split>
		</split>
	</tree>
	<tree id="12" weight="0.1">
		<split>
			<feature> 62 </feature>
			<threshold> 0.13671875 </threshold>
			<split pos="left">
				<feature> 62 </feature>
				<threshold> 0.05078125 </threshold>
				<split pos="left">
					<feature> 62 </feature>
					<threshold> 0.0 </threshold>
					<split pos="left">
						<output> 0.19881013 </output>
					</split>
					<split pos="right">
						<output> 0.12794474 </output>
					</split>
				</split>
				<split pos="right">
					<feature> 62 </feature>
					<threshold> 0.11328125 </threshold>
					<split pos="left">
						<output> 0.22227673 </output>
					</split>
					<split pos="right">
						<output> 0.2432887 </output>
					</split>
				</split>
			</split>
			<split pos="right">
				<feature> 62 </feature>
				<threshold> 0.25 </threshold>
				<split pos="left">
					<feature> 62 </feature>
					<threshold> 0.1640625 </threshold>
					<split pos="left">
						<output> 0.3489085 </output>
					</split>
					<split pos="right">
						<feature> 62 </feature>
						<threshold> 0.16796875 </threshold>
						<split pos="left">
							<output> 0.22289473 </output>
						</split>
						<split pos="right">
							<output> 0.28411263 </output>
						</split>
					</split>
				</split>
				<split pos="right">
					<feature> 62 </feature>
					<threshold> 0.28515625 </threshold>
					<split pos="left">
						<output> 0.40325227 </output>
					</split>
					<split pos="right">
						<feature> 62 </feature>
						<threshold> 0.3359375 </threshold>
						<split pos="left">
							<output> 0.29885715 </output>
						</split>
						<split pos="right">
							<output> 0.3205432 </output>
						</split>
					</split>
				</split>
			</split>
		</split>
	</tree>
	<tree id="13" weight="0.1">
		<split>
			<feature> 62 </feature>
			<threshold> 0.13671875 </threshold>
			<split pos="left">
				<feature> 62 </feature>
				<threshold> 0.05078125 </threshold>
				<split pos="left">
					<feature> 62 </feature>
					<threshold> 0.0 </threshold>
					<split pos="left">
						<output> 0.18044789 </output>
					</split>
					<split pos="right">
						<output> 0.11514833 </output>
					</split>
				</split>
				<split pos="right">
					<feature> 62 </feature>
					<threshold> 0.0859375 </threshold>
					<split pos="left">
						<output> 0.19484721 </output>
					</split>
					<split pos="right">
						<output> 0.21209638 </output>
					</split>
				</split>
			</split>
			<split pos="right">
				<feature> 62 </feature>
				<threshold> 0.25 </threshold>
				<split pos="left">
					<feature> 62 </feature>
					<threshold> 0.1640625 </threshold>
					<split pos="left">
						<output> 0.31403223 </output>
					</split>
					<split pos="right">
						<feature> 62 </feature>
						<threshold> 0.16796875 </threshold>
						<split pos="left">
							<output> 0.2005829 </output>
						</split>
						<split pos="right">
							<output> 0.25564852 </output>
						</split>
					</split>
				</split>
				<split pos="right">
					<feature> 62 </feature>
					<threshold> 0.328125 </threshold>
					<split pos="left">
						<output> 0.3278427 </output>
					</split>
					<split pos="right">
						<feature> 62 </feature>
						<threshold> 0.3359375 </threshold>
						<split pos="left">
							<output> 0.26314995 </output>
						</split>
						<split pos="right">
							<output> 0.2885798 </output>
						</split>
					</split>
				</split>
			</split>
		</split>
	</tree>
	<tree id="14" weight="0.1">
		<split>
			<feature> 62 </feature>
			<threshold> 0.13671875 </threshold>
			<split pos="left">
				<feature> 62 </feature>
				<threshold> 0.05078125 </threshold>
				<split pos="left">
					<feature> 62 </feature>
					<threshold> 0.0 </threshold>
					<split pos="left">
						<output> 0.16130137 </output>
					</split>
					<split pos="right">
						<output> 0.10362985 </output>
					</split>
				</split>
				<split pos="right">
					<feature> 62 </feature>
					<threshold> 0.11328125 </threshold>
					<split pos="left">
						<output> 0.1797857 </output>
					</split>
					<split pos="right">
						<output> 0.19776148 </output>
					</split>
				</split>
			</split>
			<split pos="right">
				<feature> 62 </feature>
				<threshold> 0.25 </threshold>
				<split pos="left">
					<feature> 62 </feature>
					<threshold> 0.1640625 </threshold>
					<split pos="left">
						<output> 0.282617 </output>
					</split>
					<split pos="right">
						<feature> 62 </feature>
						<threshold> 0.16796875 </threshold>
						<split pos="left">
							<output> 0.18053833 </output>
						</split>
						<split pos="right">
							<feature> 62 </feature>
							<threshold> 0.24609375 </threshold>
							<split pos="left">
								<output> 0.25265995 </output>
							</split>
							<split pos="right">
								<output> 0.21086207 </output>
							</split>
						</split>
					</split>
				</split>
				<split pos="right">
					<feature> 62 </feature>
					<threshold> 0.46484375 </threshold>
					<split pos="left">
						<output> 0.26644236 </output>
					</split>
					<split pos="right">
						<output> 0.24334575 </output>
					</split>
				</split>
			</split>
		</split>
	</tree>
	<tree id="15" weight="0.1">
		<split>
			<feature> 62 </feature>
			<threshold> 0.13671875 </threshold>
			<split pos="left">
				<feature> 62 </feature>
				<threshold> 0.05078125 </threshold>
				<split pos="left">
					<feature> 62 </feature>
					<threshold> 0.0 </threshold>
					<split pos="left">
						<output> 0.14449067 </output>
					</split>
					<split pos="right">
						<output> 0.093273774 </output>
					</split>
				</split>
				<split pos="right">
					<output> 0.16624494 </output>
				</split>
			</split>
			<split pos="right">
				<feature> 62 </feature>
				<threshold> 0.25 </threshold>
				<split pos="left">
					<feature> 62 </feature>
					<threshold> 0.1640625 </threshold>
					<split pos="left">
						<output> 0.25435764 </output>
					</split>
					<split pos="right">
						<feature> 62 </feature>
						<threshold> 0.16796875 </threshold>
						<split pos="left">
							<output> 0.16247408 </output>
						</split>
						<split pos="right">
							<output> 0.20712493 </output>
						</split>
					</split>
				</split>
				<split pos="right">
					<feature> 62 </feature>
					<threshold> 0.28515625 </threshold>
					<split pos="left">
						<output> 0.30349588 </output>
					</split>
					<split pos="right">
						<feature> 62 </feature>
						<threshold> 0.5234375 </threshold>
						<split pos="left">
							<feature> 62 </feature>
							<threshold> 0.46484375 </threshold>
							<split pos="left">
								<output> 0.23665883 </output>
							</split>
							<split pos="right">
								<output> 0.20592415 </output>
							</split>
						</split>
						<split pos="right">
							<output> 0.2509291 </output>
						</split>
					</split>
				</split>
			</split>
		</split>
	</tree>
	<tree id="16" weight="0.1">
		<split>
			<feature> 62 </feature>
			<threshold> 0.11328125 </threshold>
			<split pos="left">
				<feature> 62 </feature>
				<threshold> 0.05078125 </threshold>
				<split pos="left">
					<feature> 62 </feature>
					<threshold> 0.0 </threshold>
					<split pos="left">
						<output> 0.13070092 </output>
					</split>
					<split pos="right">
						<output> 0.08394147 </output>
					</split>
				</split>
				<split pos="right">
					<output> 0.14520629 </output>
				</split>
			</split>
			<split pos="right">
				<feature> 62 </feature>
				<threshold> 0.25 </threshold>
				<split pos="left">
					<feature> 62 </feature>
					<threshold> 0.12109375 </threshold>
					<split pos="left">
						<output> 0.3549367 </output>
					</split>
					<split pos="right">
						<feature> 62 </feature>
						<threshold> 0.16796875 </threshold>
						<split pos="left">
							<output> 0.15971003 </output>
						</split>
						<split pos="right">
							<feature> 62 </feature>
							<threshold> 0.21875 </threshold>
							<split pos="left">
								<output> 0.2138847 </output>
							</split>
							<split pos="right">
								<output> 0.17314667 </output>
							</split>
						</split>
					</split>
				</split>
				<split pos="right">
					<feature> 62 </feature>
					<threshold> 0.28515625 </threshold>
					<split pos="left">
						<output> 0.27314636 </output>
					</split>
					<split pos="right">
						<feature> 62 </feature>
						<threshold> 0.3359375 </threshold>
						<split pos="left">
							<output> 0.19160032 </output>
						</split>
						<split pos="right">
							<output> 0.21299751 </output>
						</split>
					</split>
				</split>
			</split>
		</split>
	</tree>
	<tree id="17" weight="0.1">
		<split>
			<feature> 62 </feature>
			<threshold> 0.13671875 </threshold>
			<split pos="left">
				<feature> 62 </feature>
				<threshold> 0.0859375 </threshold>
				<split pos="left">
					<feature> 62 </feature>
					<threshold> 0.0 </threshold>
					<split pos="left">
						<output> 0.117468625 </output>
					</split>
					<split pos="right">
						<output> 0.10916523 </output>
					</split>
				</split>
				<split pos="right">
					<output> 0.13957113 </output>
				</split>
			</split>
			<split pos="right">
				<feature> 62 </feature>
				<threshold> 0.25 </threshold>
				<split pos="left">
					<feature> 62 </feature>
					<threshold> 0.1640625 </threshold>
					<split pos="left">
						<output> 0.2129551 </output>
					</split>
					<split pos="right">
						<feature> 62 </feature>
						<threshold> 0.16796875 </threshold>
						<split pos="left">
							<output> 0.13025445 </output>
						</split>
						<split pos="right">
							<feature> 62 </feature>
							<threshold> 0.18359375 </threshold>
							<split pos="left">
								<output> 0.26331034 </output>
							</split>
							<split pos="right">
								<feature> 62 </feature>
								<threshold> 0.24609375 </threshold>
								<split pos="left">
									<output> 0.18013366 </output>
								</split>
								<split pos="right">
									<output> 0.1517595 </output>
								</split>
							</split>
						</split>
					</split>
				</split>
				<split pos="right">
					<feature> 62 </feature>
					<threshold> 0.46484375 </threshold>
					<split pos="left">
						<output> 0.19596443 </output>
					</split>
					<split pos="right">
						<output> 0.1758416 </output>
					</split>
				</split>
			</split>
		</split>
	</tree>
	<tree id="18" weight="0.1">
		<split>
			<feature> 62 </feature>
			<threshold> 0.13671875 </threshold>
			<split pos="left">
				<feature> 62 </feature>
				<threshold> 0.04296875 </threshold>
				<split pos="left">
					<feature> 62 </feature>
					<threshold> 0.0 </threshold>
					<split pos="left">
						<output> 0.10573148 </output>
					</split>
					<split pos="right">
						<output> 0.04128061 </output>
					</split>
				</split>
				<split pos="right">
					<output> 0.12116167 </output>
				</split>
			</split>
			<split pos="right">
				<feature> 62 </feature>
				<threshold> 0.3359375 </threshold>
				<split pos="left">
					<feature> 62 </feature>
					<threshold> 0.1640625 </threshold>
					<split pos="left">
						<output> 0.19166572 </output>
					</split>
					<split pos="right">
						<feature> 62 </feature>
						<threshold> 0.16796875 </threshold>
						<split pos="left">
							<output> 0.11723349 </output>
						</split>
						<split pos="right">
							<feature> 62 </feature>
							<threshold> 0.18359375 </threshold>
							<split pos="left">
								<output> 0.23698118 </output>
							</split>
							<split pos="right">
								<feature> 62 </feature>
								<threshold> 0.21875 </threshold>
								<split pos="left">
									<output> 0.16588074 </output>
								</split>
								<split pos="right">
									<feature> 62 </feature>
									<threshold> 0.22265625 </threshold>
									<split pos="left">
										<output> 0.09984958 </output>
									</split>
									<split pos="right">
										<output> 0.15269838 </output>
									</split>
								</split>
							</split>
						</split>
					</split>
				</split>
				<split pos="right">
					<output> 0.1738969 </output>
				</split>
			</split>
		</split>
	</tree>
	<tree id="19" weight="0.1">
		<split>
			<feature> 62 </feature>
			<threshold> 0.11328125 </threshold>
			<split pos="left">
				<feature> 62 </feature>
				<threshold> 0.109375 </threshold>
				<split pos="left">
					<feature> 62 </feature>
					<threshold> 0.1015625 </threshold>
					<split pos="left">
						<feature> 62 </feature>
						<threshold> 0.0859375 </threshold>
						<split pos="left">
							<feature> 62 </feature>
							<threshold> 0.08203125 </threshold>
							<split pos="left">
								<feature> 62 </feature>
								<threshold> 0.0703125 </threshold>
								<split pos="left">
									<feature> 62 </feature>
									<threshold> 0.0 </threshold>
									<split pos="left">
										<output> 0.09583362 </output>
									</split>
									<split pos="right">
										<output> 0.07852342 </output>
									</split>
								</split>
								<split pos="right">
									<output> 0.14933686 </output>
								</split>
							</split>
							<split pos="right">
								<output> 0.07702203 </output>
							</split>
						</split>
						<split pos="right">
							<output> 0.13069274 </output>
						</split>
					</split>
					<split pos="right">
						<output> 0.27466673 </output>
					</split>
				</split>
				<split pos="right">
					<output> 0.05702901 </output>
				</split>
			</split>
			<split pos="right">
				<feature> 62 </feature>
				<threshold> 0.12109375 </threshold>
				<split pos="left">
					<output> 0.29336798 </output>
				</split>
				<split pos="right">
					<feature> 62 </feature>
					<threshold> 0.16796875 </threshold>
					<split pos="left">
						<output> 0.11588682 </output>
					</split>
					<split pos="right">
						<output> 0.14455037 </output>
					</split>
				</split>
			</split>
		</split>
	</tree>
	<tree id="20" weight="0.1">
		<split>
			<feature> 62 </feature>
			<threshold> 0.13671875 </threshold>
			<split pos="left">
				<feature> 62 </feature>
				<threshold> 0.04296875 </threshold>
				<split pos="left">
					<feature> 62 </feature>
					<threshold> 0.0 </threshold>
					<split pos="left">
						<output> 0.08544483 </output>
					</split>
					<split pos="right">
						<output> 0.029298287 </output>
					</split>
				</split>
				<split pos="right">
					<feature> 62 </feature>
					<threshold> 0.109375 </threshold>
					<split pos="left">
						<output> 0.10518064 </output>
					</split>
					<split pos="right">
						<output> 0.087303355 </output>
					</split>
				</split>
			</split>
			<split pos="right">
				<feature> 62 </feature>
				<threshold> 0.3359375 </threshold>
				<split pos="left">
					<feature> 62 </feature>
					<threshold> 0.1640625 </threshold>
					<split pos="left">
						<output> 0.16090788 </output>
					</split>
					<split pos="right">
						<feature> 62 </feature>
						<threshold> 0.16796875 </threshold>
						<split pos="left">
							<output> 0.09392832 </output>
						</split>
						<split pos="right">
							<feature> 62 </feature>
							<threshold> 0.18359375 </threshold>
							<split pos="left">
								<output> 0.19882667 </output>
							</split>
							<split pos="right">
								<feature> 62 </feature>
								<threshold> 0.24609375 </threshold>
								<split pos="left">
									<output> 0.13287055 </output>
								</split>
								<split pos="right">
									<output> 0.117826864 </output>
								</split>
							</split>
						</split>
					</split>
				</split>
				<split pos="right">
					<output> 0.14208281 </output>
				</split>
			</split>
		</split>
	</tree>
	<tree id="21" weight="0.1">
		<split>
			<feature> 62 </feature>
			<threshold> 0.11328125 </threshold>
			<split pos="left">
				<feature> 62 </feature>
				<threshold> 0.109375 </threshold>
				<split pos="left">
					<feature> 62 </feature>
					<threshold> 0.1015625 </threshold>
					<split pos="left">
						<feature> 62 </feature>
						<threshold> 0.0859375 </threshold>
						<split pos="left">
							<feature> 62 </feature>
							<threshold> 0.08203125 </threshold>
							<split pos="left">
								<feature> 62 </feature>
								<threshold> 0.0703125 </threshold>
								<split pos="left">
									<feature> 62 </feature>
									<threshold> 0.0 </threshold>
									<split pos="left">
										<output> 0.07731708 </output>
									</split>
									<split pos="right">
										<output> 0.062951274 </output>
									</split>
								</split>
								<split pos="right">
									<output> 0.12388272 </output>
								</split>
							</split>
							<split pos="right">
								<output> 0.05880086 </output>
							</split>
						</split>
						<split pos="right">
							<output> 0.10710415 </output>
						</split>
					</split>
					<split pos="right">
						<output> 0.23668139 </output>
					</split>
				</split>
				<split pos="right">
					<output> 0.04259531 </output>
				</split>
			</split>
			<split pos="right">
				<feature> 62 </feature>
				<threshold> 0.12109375 </threshold>
				<split pos="left">
					<output> 0.25530186 </output>
				</split>
				<split pos="right">
					<feature> 62 </feature>
					<threshold> 0.25 </threshold>
					<split pos="left">
						<output> 0.10124816 </output>
					</split>
					<split pos="right">
						<output> 0.122659616 </output>
					</split>
				</split>
			</split>
		</split>
	</tree>
	<tree id="22" weight="0.1">
		<split>
			<feature> 62 </feature>
			<threshold> 0.12890625 </threshold>
			<split pos="left">
				<feature> 62 </feature>
				<threshold> 0.04296875 </threshold>
				<split pos="left">
					<feature> 62 </feature>
					<threshold> 0.0 </threshold>
					<split pos="left">
						<output> 0.069575965 </output>
					</split>
					<split pos="right">
						<output> 0.020073554 </output>
					</split>
				</split>
				<split pos="right">
					<output> 0.07930065 </output>
				</split>
			</split>
			<split pos="right">
				<feature> 62 </feature>
				<threshold> 0.1328125 </threshold>
				<split pos="left">
					<output> 0.37487325 </output>
				</split>
				<split pos="right">
					<feature> 62 </feature>
					<threshold> 0.3359375 </threshold>
					<split pos="left">
						<feature> 62 </feature>
						<threshold> 0.16796875 </threshold>
						<split pos="left">
							<output> 0.086691536 </output>
						</split>
						<split pos="right">
							<feature> 62 </feature>
							<threshold> 0.18359375 </threshold>
							<split pos="left">
								<output> 0.1688195 </output>
							</split>
							<split pos="right">
								<feature> 62 </feature>
								<threshold> 0.24609375 </threshold>
								<split pos="left">
									<output> 0.109460846 </output>
								</split>
								<split pos="right">
									<feature> 62 </feature>
									<threshold> 0.25 </threshold>
									<split pos="left">
										<output> 0.08494401 </output>
									</split>
									<split pos="right">
										<output> 0.10302475 </output>
									</split>
								</split>
							</split>
						</split>
					</split>
					<split pos="right">
						<output> 0.11558625 </output>
					</split>
				</split>
			</split>
		</split>
	</tree>
	<tree id="23" weight="0.1">
		<split>
			<feature> 62 </feature>
			<threshold> 0.13671875 </threshold>
			<split pos="left">
				<feature> 62 </feature>
				<threshold> 0.04296875 </threshold>
				<split pos="left">
					<feature> 62 </feature>
					<threshold> 0.0 </threshold>
					<split pos="left">
						<output> 0.06297508 </output>
					</split>
					<split pos="right">
						<output> 0.018066762 </output>
					</split>
				</split>
				<split pos="right">
					<output> 0.071605034 </output>
				</split>
			</split>
			<split pos="right">
				<feature> 62 </feature>
				<threshold> 0.1640625 </threshold>
				<split pos="left">
					<output> 0.1260254 </output>
				</split>
				<split pos="right">
					<feature> 62 </feature>
					<threshold> 0.16796875 </threshold>
					<split pos="left">
						<output> 0.06573374 </output>
					</split>
					<split pos="right">
						<feature> 62 </feature>
						<threshold> 0.17578125 </threshold>
						<split pos="left">
							<output> 0.24988662 </output>
						</split>
						<split pos="right">
							<feature> 62 </feature>
							<threshold> 0.5 </threshold>
							<split pos="left">
								<feature> 62 </feature>
								<threshold> 0.46484375 </threshold>
								<split pos="left">
									<feature> 62 </feature>
									<threshold> 0.3359375 </threshold>
									<split pos="left">
										<output> 0.08958185 </output>
									</split>
									<split pos="right">
										<output> 0.23872717 </output>
									</split>
								</split>
								<split pos="right">
									<output> 0.07658432 </output>
								</split>
							</split>
							<split pos="right">
								<output> 0.11707656 </output>
							</split>
						</split>
					</split>
				</split>
			</split>
		</split>
	</tree>
	<tree id="24" weight="0.1">
		<split>
			<feature> 62 </feature>
			<threshold> 0.13671875 </threshold>
			<split pos="left">
				<feature> 62 </feature>
				<threshold> 0.04296875 </threshold>
				<split pos="left">
					<feature> 62 </feature>
					<threshold> 0.0 </threshold>
					<split pos="left">
						<output> 0.05635786 </output>
					</split>
					<split pos="right">
						<output> 0.016259877 </output>
					</split>
				</split>
				<split pos="right">
					<output> 0.06444638 </output>
				</split>
			</split>
			<split pos="right">
				<feature> 62 </feature>
				<threshold> 0.140625 </threshold>
				<split pos="left">
					<output> 0.2314022 </output>
				</split>
				<split pos="right">
					<feature> 62 </feature>
					<threshold> 0.3359375 </threshold>
					<split pos="left">
						<feature> 62 </feature>
						<threshold> 0.1640625 </threshold>
						<split pos="left">
							<output> 0.10721856 </output>
						</split>
						<split pos="right">
							<feature> 62 </feature>
							<threshold> 0.16796875 </threshold>
							<split pos="left">
								<output> 0.05916481 </output>
							</split>
							<split pos="right">
								<feature> 62 </feature>
								<threshold> 0.18359375 </threshold>
								<split pos="left">
									<output> 0.14030108 </output>
								</split>
								<split pos="right">
									<feature> 62 </feature>
									<threshold> 0.24609375 </threshold>
									<split pos="left">
										<output> 0.0895564 </output>
									</split>
									<split pos="right">
										<output> 0.07635029 </output>
									</split>
								</split>
							</split>
						</split>
					</split>
					<split pos="right">
						<output> 0.09363931 </output>
					</split>
				</split>
			</split>
		</split>
	</tree>
	<tree id="25" weight="0.1">
		<split>
			<feature> 62 </feature>
			<threshold> 0.13671875 </threshold>
			<split pos="left">
				<feature> 62 </feature>
				<threshold> 0.0390625 </threshold>
				<split pos="left">
					<feature> 62 </feature>
					<threshold> 0.0 </threshold>
					<split pos="left">
						<output> 0.05055226 </output>
					</split>
					<split pos="right">
						<output> 0.0018333183 </output>
					</split>
				</split>
				<split pos="right">
					<feature> 62 </feature>
					<threshold> 0.109375 </threshold>
					<split pos="left">
						<output> 0.064151525 </output>
					</split>
					<split pos="right">
						<output> 0.04753089 </output>
					</split>
				</split>
			</split>
			<split pos="right">
				<feature> 62 </feature>
				<threshold> 0.140625 </threshold>
				<split pos="left">
					<output> 0.20826209 </output>
				</split>
				<split pos="right">
					<feature> 62 </feature>
					<threshold> 0.25 </threshold>
					<split pos="left">
						<feature> 62 </feature>
						<threshold> 0.1640625 </threshold>
						<split pos="left">
							<output> 0.09649194 </output>
						</split>
						<split pos="right">
							<feature> 62 </feature>
							<threshold> 0.16796875 </threshold>
							<split pos="left">
								<output> 0.053248577 </output>
							</split>
							<split pos="right">
								<output> 0.07100726 </output>
							</split>
						</split>
					</split>
					<split pos="right">
						<feature> 62 </feature>
						<threshold> 0.46484375 </threshold>
						<split pos="left">
							<output> 0.092811845 </output>
						</split>
						<split pos="right">
							<output> 0.07018264 </output>
						</split>
					</split>
				</split>
			</split>
		</split>
	</tree>
	<tree id="26" weight="0.1">
		<split>
			<feature> 62 </feature>
			<threshold> 0.11328125 </threshold>
			<split pos="left">
				<feature> 62 </feature>
				<threshold> 0.109375 </threshold>
				<split pos="left">
					<feature> 62 </feature>
					<threshold> 0.1015625 </threshold>
					<split pos="left">
						<feature> 62 </feature>
						<threshold> 0.0859375 </threshold>
						<split pos="left">
							<feature> 62 </feature>
							<threshold> 0.08203125 </threshold>
							<split pos="left">
								<feature> 62 </feature>
								<threshold> 0.0703125 </threshold>
								<split pos="left">
									<feature> 62 </feature>
									<threshold> 0.0 </threshold>
									<split pos="left">
										<output> 0.045908343 </output>
									</split>
									<split pos="right">
										<output> 0.03640992 </output>
									</split>
								</split>
								<split pos="right">
									<output> 0.083546706 </output>
								</split>
							</split>
							<split pos="right">
								<output> 0.024971457 </output>
							</split>
						</split>
						<split pos="right">
							<output> 0.06844731 </output>
						</split>
					</split>
					<split pos="right">
						<output> 0.1850652 </output>
					</split>
				</split>
				<split pos="right">
					<output> 0.012049338 </output>
				</split>
			</split>
			<split pos="right">
				<feature> 62 </feature>
				<threshold> 0.12109375 </threshold>
				<split pos="left">
					<output> 0.20348394 </output>
				</split>
				<split pos="right">
					<feature> 62 </feature>
					<threshold> 0.3359375 </threshold>
					<split pos="left">
						<output> 0.06106289 </output>
					</split>
					<split pos="right">
						<output> 0.07702877 </output>
					</split>
				</split>
			</split>
		</split>
	</tree>
	<tree id="27" weight="0.1">
		<split>
			<feature> 62 </feature>
			<threshold> 0.13671875 </threshold>
			<split pos="left">
				<feature> 62 </feature>
				<threshold> 0.0390625 </threshold>
				<split pos="left">
					<feature> 62 </feature>
					<threshold> 0.0 </threshold>
					<split pos="left">
						<output> 0.041380115 </output>
					</split>
					<split pos="right">
						<output> -0.001990845 </output>
					</split>
				</split>
				<split pos="right">
					<output> 0.04695486 </output>
				</split>
			</split>
			<split pos="right">
				<feature> 62 </feature>
				<threshold> 0.140625 </threshold>
				<split pos="left">
					<output> 0.18132943 </output>
				</split>
				<split pos="right">
					<feature> 62 </feature>
					<threshold> 0.5 </threshold>
					<split pos="left">
						<feature> 62 </feature>
						<threshold> 0.46484375 </threshold>
						<split pos="left">
							<feature> 62 </feature>
							<threshold> 0.3359375 </threshold>
							<split pos="left">
								<feature> 62 </feature>
								<threshold> 0.1640625 </threshold>
								<split pos="left">
									<output> 0.0807359 </output>
								</split>
								<split pos="right">
									<feature> 62 </feature>
									<threshold> 0.16796875 </threshold>
									<split pos="left">
										<output> 0.04181423 </output>
									</split>
									<split pos="right">
										<output> 0.058944836 </output>
									</split>
								</split>
							</split>
							<split pos="right">
								<output> 0.18850528 </output>
							</split>
						</split>
						<split pos="right">
							<output> 0.04483124 </output>
						</split>
					</split>
					<split pos="right">
						<output> 0.08128227 </output>
					</split>
				</split>
			</split>
		</split>
	</tree>
	<tree id="28" weight="0.1">
		<split>
			<feature> 62 </feature>
			<threshold> 0.11328125 </threshold>
			<split pos="left">
				<feature> 62 </feature>
				<threshold> 0.109375 </threshold>
				<split pos="left">
					<feature> 62 </feature>
					<threshold> 0.1015625 </threshold>
					<split pos="left">
						<feature> 62 </feature>
						<threshold> 0.0859375 </threshold>
						<split pos="left">
							<feature> 62 </feature>
							<threshold> 0.08203125 </threshold>
							<split pos="left">
								<feature> 62 </feature>
								<threshold> 0.0703125 </threshold>
								<split pos="left">
									<feature> 62 </feature>
									<threshold> 0.0 </threshold>
									<split pos="left">
										<output> 0.037011188 </output>
									</split>
									<split pos="right">
										<output> 0.029467944 </output>
									</split>
								</split>
								<split pos="right">
									<output> 0.07049428 </output>
								</split>
							</split>
							<split pos="right">
								<output> 0.017779654 </output>
							</split>
						</split>
						<split pos="right">
							<output> 0.056904733 </output>
						</split>
					</split>
					<split pos="right">
						<output> 0.161863 </output>
					</split>
				</split>
				<split pos="right">
					<output> 0.0061484496 </output>
				</split>
			</split>
			<split pos="right">
				<feature> 62 </feature>
				<threshold> 0.12109375 </threshold>
				<split pos="left">
					<output> 0.17843895 </output>
				</split>
				<split pos="right">
					<feature> 62 </feature>
					<threshold> 0.125 </threshold>
					<split pos="left">
						<output> 0.029992687 </output>
					</split>
					<split pos="right">
						<output> 0.054317296 </output>
					</split>
				</split>
			</split>
		</split>
	</tree>
	<tree id="29" weight="0.1">
		<split>
			<feature> 62 </feature>
			<threshold> 0.13671875 </threshold>
			<split pos="left">
				<feature> 62 </feature>
				<threshold> 0.03125 </threshold>
				<split pos="left">
					<feature> 62 </feature>
					<threshold> 0.0 </threshold>
					<split pos="left">
						<output> 0.033401098 </output>
					</split>
					<split pos="right">
						<output> -0.027939213 </output>
					</split>
				</split>
				<split pos="right">
					<output> 0.038253807 </output>
				</split>
			</split>
			<split pos="right">
				<feature> 62 </feature>
				<threshold> 0.140625 </threshold>
				<split pos="left">
					<output> 0.157765 </output>
				</split>
				<split pos="right">
					<feature> 62 </feature>
					<threshold> 0.5 </threshold>
					<split pos="left">
						<feature> 62 </feature>
						<threshold> 0.46484375 </threshold>
						<split pos="left">
							<feature> 62 </feature>
							<threshold> 0.3359375 </threshold>
							<split pos="left">
								<feature> 62 </feature>
								<threshold> 0.1640625 </threshold>
								<split pos="left">
									<output> 0.06723187 </output>
								</split>
								<split pos="right">
									<feature> 62 </feature>
									<threshold> 0.16796875 </threshold>
									<split pos="left">
										<output> 0.03220407 </output>
									</split>
									<split pos="right">
										<output> 0.047617387 </output>
									</split>
								</split>
							</split>
							<split pos="right">
								<output> 0.16422786 </output>
							</split>
						</split>
						<split pos="right">
							<output> 0.03491458 </output>
						</split>
					</split>
					<split pos="right">
						<output> 0.067728475 </output>
					</split>
				</split>
			</split>
		</split>
	</tree>
	<tree id="30" weight="0.1">
		<split>
			<feature> 62 </feature>
			<threshold> 0.11328125 </threshold>
			<split pos="left">
				<feature> 62 </feature>
				<threshold> 0.109375 </threshold>
				<split pos="left">
					<feature> 62 </feature>
					<threshold> 0.1015625 </threshold>
					<split pos="left">
						<feature> 62 </feature>
						<threshold> 0.0859375 </threshold>
						<split pos="left">
							<feature> 62 </feature>
							<threshold> 0.08203125 </threshold>
							<split pos="left">
								<feature> 62 </feature>
								<threshold> 0.0703125 </threshold>
								<split pos="left">
									<feature> 62 </feature>
									<threshold> 0.0 </threshold>
									<split pos="left">
										<output> 0.03012777 </output>
									</split>
									<split pos="right">
										<output> 0.023909045 </output>
									</split>
								</split>
								<split pos="right">
									<output> 0.059618715 </output>
								</split>
							</split>
							<split pos="right">
								<output> 0.012176114 </output>
							</split>
						</split>
						<split pos="right">
							<output> 0.047390286 </output>
						</split>
					</split>
					<split pos="right">
						<output> 0.14185087 </output>
					</split>
				</split>
				<split pos="right">
					<output> 0.0017082796 </output>
				</split>
			</split>
			<split pos="right">
				<feature> 62 </feature>
				<threshold> 0.12109375 </threshold>
				<split pos="left">
					<output> 0.15677068 </output>
				</split>
				<split pos="right">
					<feature> 62 </feature>
					<threshold> 0.203125 </threshold>
					<split pos="left">
						<output> 0.035572927 </output>
					</split>
					<split pos="right">
						<output> 0.046621155 </output>
					</split>
				</split>
			</split>
		</split>
	</tree>
	<tree id="31" weight="0.1">
		<split>
			<feature> 62 </feature>
			<threshold> 0.13671875 </threshold>
			<split pos="left">
				<feature> 62 </feature>
				<threshold> 0.03125 </threshold>
				<split pos="left">
					<feature> 62 </feature>
					<threshold> 0.0 </threshold>
					<split pos="left">
						<output> 0.027139902 </output>
					</split>
					<split pos="right">
						<output> -0.027535517 </output>
					</split>
				</split>
				<split pos="right">
					<output> 0.03109227 </output>
				</split>
			</split>
			<split pos="right">
				<feature> 62 </feature>
				<threshold> 0.140625 </threshold>
				<split pos="left">
					<output> 0.13843098 </output>
				</split>
				<split pos="right">
					<feature> 62 </feature>
					<threshold> 0.5234375 </threshold>
					<split pos="left">
						<feature> 62 </feature>
						<threshold> 0.46484375 </threshold>
						<split pos="left">
							<feature> 62 </feature>
							<threshold> 0.3359375 </threshold>
							<split pos="left">
								<feature> 62 </feature>
								<threshold> 0.1640625 </threshold>
								<split pos="left">
									<output> 0.0569536 </output>
								</split>
								<split pos="right">
									<feature> 62 </feature>
									<threshold> 0.16796875 </threshold>
									<split pos="left">
										<output> 0.025428334 </output>
									</split>
									<split pos="right">
										<output> 0.038403016 </output>
									</split>
								</split>
							</split>
							<split pos="right">
								<output> 0.14314373 </output>
							</split>
						</split>
						<split pos="right">
							<output> 0.026765054 </output>
						</split>
					</split>
					<split pos="right">
						<output> 0.05629113 </output>
					</split>
				</split>
			</split>
		</split>
	</tree>
	<tree id="32" weight="0.1">
		<split>
			<feature> 62 </feature>
			<threshold> 0.125 </threshold>
			<split pos="left">
				<feature> 62 </feature>
				<threshold> 0.109375 </threshold>
				<split pos="left">
					<feature> 62 </feature>
					<threshold> 0.1015625 </threshold>
					<split pos="left">
						<feature> 62 </feature>
						<threshold> 0.09765625 </threshold>
						<split pos="left">
							<feature> 62 </feature>
							<threshold> 0.0859375 </threshold>
							<split pos="left">
								<feature> 62 </feature>
								<threshold> 0.08203125 </threshold>
								<split pos="left">
									<feature> 62 </feature>
									<threshold> 0.0703125 </threshold>
									<split pos="left">
										<feature> 62 </feature>
										<threshold> 0.02734375 </threshold>
										<split pos="left">
											<feature> 62 </feature>
											<threshold> 0.0 </threshold>
											<split pos="left">
												<output> 0.024325833 </output>
											</split>
											<split pos="right">
												<output> -0.05463788 </output>
											</split>
										</split>
										<split pos="right">
											<output> 0.029547643 </output>
										</split>
									</split>
									<split pos="right">
										<output> 0.050547633 </output>
									</split>
								</split>
								<split pos="right">
									<output> 0.007849285 </output>
								</split>
							</split>
							<split pos="right">
								<output> 0.09851262 </output>
							</split>
						</split>
						<split pos="right">
							<output> 0.0033808546 </output>
						</split>
					</split>
					<split pos="right">
						<output> 0.12455756 </output>
					</split>
				</split>
				<split pos="right">
					<output> 0.017220253 </output>
				</split>
			</split>
			<split pos="right">
				<output> 0.035744455 </output>
			</split>
		</split>
	</tree>
	<tree id="33" weight="0.1">
		<split>
			<feature> 62 </feature>
			<threshold> 0.11328125 </threshold>
			<split pos="left">
				<feature> 62 </feature>
				<threshold> 0.109375 </threshold>
				<split pos="left">
					<feature> 62 </feature>
					<threshold> 0.1015625 </threshold>
					<split pos="left">
						<feature> 62 </feature>
						<threshold> 0.09765625 </threshold>
						<split pos="left">
							<feature> 62 </feature>
							<threshold> 0.0859375 </threshold>
							<split pos="left">
								<feature> 62 </feature>
								<threshold> 0.08203125 </threshold>
								<split pos="left">
									<feature> 62 </feature>
									<threshold> 0.0703125 </threshold>
									<split pos="left">
										<feature> 62 </feature>
										<threshold> 0.0234375 </threshold>
										<split pos="left">
											<feature> 62 </feature>
											<threshold> 0.0 </threshold>
											<split pos="left">
												<output> 0.021778312 </output>
											</split>
											<split pos="right">
												<output> -0.07762689 </output>
											</split>
										</split>
										<split pos="right">
											<output> 0.026645936 </output>
										</split>
									</split>
									<split pos="right">
										<output> 0.04549466 </output>
									</split>
								</split>
								<split pos="right">
									<output> 0.0070643914 </output>
								</split>
							</split>
							<split pos="right">
								<output> 0.0886605 </output>
							</split>
						</split>
						<split pos="right">
							<output> 0.0030428176 </output>
						</split>
					</split>
					<split pos="right">
						<output> 0.11210007 </output>
					</split>
				</split>
				<split pos="right">
					<output> -0.003293484 </output>
				</split>
			</split>
			<split pos="right">
				<output> 0.03182775 </output>
			</split>
		</split>
	</tree>
	<tree id="34" weight="0.1">
		<split>
			<feature> 62 </feature>
			<threshold> 0.16796875 </threshold>
			<split pos="left">
				<feature> 62 </feature>
				<threshold> 0.0234375 </threshold>
				<split pos="left">
					<feature> 62 </feature>
					<threshold> 0.0 </threshold>
					<split pos="left">
						<output> 0.01967256 </output>
					</split>
					<split pos="right">
						<output> -0.069864295 </output>
					</split>
				</split>
				<split pos="right">
					<feature> 62 </feature>
					<threshold> 0.09375 </threshold>
					<split pos="left">
						<output> 0.028461207 </output>
					</split>
					<split pos="right">
						<output> 0.02005232 </output>
					</split>
				</split>
			</split>
			<split pos="right">
				<feature> 62 </feature>
				<threshold> 0.17578125 </threshold>
				<split pos="left">
					<output> 0.16741735 </output>
				</split>
				<split pos="right">
					<feature> 62 </feature>
					<threshold> 0.91015625 </threshold>
					<split pos="left">
						<feature> 62 </feature>
						<threshold> 0.71484375 </threshold>
						<split pos="left">
							<feature> 62 </feature>
							<threshold> 0.5234375 </threshold>
							<split pos="left">
								<feature> 62 </feature>
								<threshold> 0.46484375 </threshold>
								<split pos="left">
									<output> 0.03250363 </output>
								</split>
								<split pos="right">
									<output> 0.01732711 </output>
								</split>
							</split>
							<split pos="right">
								<output> 0.16934104 </output>
							</split>
						</split>
						<split pos="right">
							<output> 0.6041867 </output>
						</split>
					</split>
					<split pos="right">
						<output> 0.010085713 </output>
					</split>
				</split>
			</split>
		</split>
	</tree>
	<tree id="35" weight="0.1">
		<split>
			<feature> 62 </feature>
			<threshold> 0.203125 </threshold>
			<split pos="left">
				<feature> 62 </feature>
				<threshold> 0.0859375 </threshold>
				<split pos="left">
					<feature> 62 </feature>
					<threshold> 0.08203125 </threshold>
					<split pos="left">
						<feature> 62 </feature>
						<threshold> 0.0703125 </threshold>
						<split pos="left">
							<feature> 62 </feature>
							<threshold> 0.0 </threshold>
							<split pos="left">
								<output> 0.017718406 </output>
							</split>
							<split pos="right">
								<output> 0.013795226 </output>
							</split>
						</split>
						<split pos="right">
							<output> 0.038099475 </output>
						</split>
					</split>
					<split pos="right">
						<output> 0.0035118908 </output>
					</split>
				</split>
				<split pos="right">
					<output> 0.021666858 </output>
				</split>
			</split>
			<split pos="right">
				<feature> 62 </feature>
				<threshold> 0.21875 </threshold>
				<split pos="left">
					<output> 0.19074474 </output>
				</split>
				<split pos="right">
					<feature> 62 </feature>
					<threshold> 0.22265625 </threshold>
					<split pos="left">
						<output> -0.02466914 </output>
					</split>
					<split pos="right">
						<feature> 62 </feature>
						<threshold> 0.24609375 </threshold>
						<split pos="left">
							<output> 0.27761787 </output>
						</split>
						<split pos="right">
							<feature> 62 </feature>
							<threshold> 0.25 </threshold>
							<split pos="left">
								<output> 0.012062916 </output>
							</split>
							<split pos="right">
								<output> 0.029928476 </output>
							</split>
						</split>
					</split>
				</split>
			</split>
		</split>
	</tree>
	<tree id="36" weight="0.1">
		<split>
			<feature> 62 </feature>
			<threshold> 0.203125 </threshold>
			<split pos="left">
				<feature> 62 </feature>
				<threshold> 0.19921875 </threshold>
				<split pos="left">
					<feature> 62 </feature>
					<threshold> 0.19140625 </threshold>
					<split pos="left">
						<feature> 62 </feature>
						<threshold> 0.11328125 </threshold>
						<split pos="left">
							<feature> 62 </feature>
							<threshold> 0.109375 </threshold>
							<split pos="left">
								<feature> 62 </feature>
								<threshold> 0.1015625 </threshold>
								<split pos="left">
									<feature> 62 </feature>
									<threshold> 0.09765625 </threshold>
									<split pos="left">
										<feature> 62 </feature>
										<threshold> 0.0859375 </threshold>
										<split pos="left">
											<feature> 62 </feature>
											<threshold> 0.08203125 </threshold>
											<split pos="left">
												<output> 0.015914176 </output>
											</split>
											<split pos="right">
												<output> 0.003160726 </output>
											</split>
										</split>
										<split pos="right">
											<output> 0.075084515 </output>
										</split>
									</split>
									<split pos="right">
										<output> -0.0014333738 </output>
									</split>
								</split>
								<split pos="right">
									<output> 0.09671861 </output>
								</split>
							</split>
							<split pos="right">
								<output> -0.0071358765 </output>
							</split>
						</split>
						<split pos="right">
							<output> 0.020758498 </output>
						</split>
					</split>
					<split pos="right">
						<output> 0.33827016 </output>
					</split>
				</split>
				<split pos="right">
					<output> 0.0046775225 </output>
				</split>
			</split>
			<split pos="right">
				<output> 0.025247987 </output>
			</split>
		</split>
	</tree>
	<tree id="37" weight="0.1">
		<split>
			<feature> 62 </feature>
			<threshold> 0.203125 </threshold>
			<split pos="left">
				<feature> 62 </feature>
				<threshold> 0.19921875 </threshold>
				<split pos="left">
					<feature> 62 </feature>
					<threshold> 0.19140625 </threshold>
					<split pos="left">
						<feature> 62 </feature>
						<threshold> 0.0234375 </threshold>
						<split pos="left">
							<feature> 62 </feature>
							<threshold> 0.0 </threshold>
							<split pos="left">
								<output> 0.014317063 </output>
							</split>
							<split pos="right">
								<output> -0.065848105 </output>
							</split>
						</split>
						<split pos="right">
							<output> 0.017495777 </output>
						</split>
					</split>
					<split pos="right">
						<output> 0.30444276 </output>
					</split>
				</split>
				<split pos="right">
					<output> 0.0042093256 </output>
				</split>
			</split>
			<split pos="right">
				<feature> 62 </feature>
				<threshold> 0.21875 </threshold>
				<split pos="left">
					<output> 0.1691455 </output>
				</split>
				<split pos="right">
					<feature> 62 </feature>
					<threshold> 0.22265625 </threshold>
					<split pos="left">
						<output> -0.024725791 </output>
					</split>
					<split pos="right">
						<feature> 62 </feature>
						<threshold> 0.24609375 </threshold>
						<split pos="left">
							<output> 0.2473307 </output>
						</split>
						<split pos="right">
							<feature> 62 </feature>
							<threshold> 0.25 </threshold>
							<split pos="left">
								<output> 0.008331269 </output>
							</split>
							<split pos="right">
								<output> 0.024408523 </output>
							</split>
						</split>
					</split>
				</split>
			</split>
		</split>
	</tree>
	<tree id="38" weight="0.1">
		<split>
			<feature> 62 </feature>
			<threshold> 0.16796875 </threshold>
			<split pos="left">
				<feature> 62 </feature>
				<threshold> 0.0234375 </threshold>
				<split pos="left">
					<feature> 62 </feature>
					<threshold> 0.0 </threshold>
					<split pos="left">
						<output> 0.0128852455 </output>
					</split>
					<split pos="right">
						<output> -0.059263445 </output>
					</split>
				</split>
				<split pos="right">
					<feature> 62 </feature>
					<threshold> 0.09375 </threshold>
					<split pos="left">
						<output> 0.020624174 </output>
					</split>
					<split pos="right">
						<output> 0.012356311 </output>
					</split>
				</split>
			</split>
			<split pos="right">
				<feature> 62 </feature>
				<threshold> 0.18359375 </threshold>
				<split pos="left">
					<output> 0.071324065 </output>
				</split>
				<split pos="right">
					<feature> 62 </feature>
					<threshold> 0.91015625 </threshold>
					<split pos="left">
						<feature> 62 </feature>
						<threshold> 0.71484375 </threshold>
						<split pos="left">
							<feature> 62 </feature>
							<threshold> 0.5234375 </threshold>
							<split pos="left">
								<feature> 62 </feature>
								<threshold> 0.46484375 </threshold>
								<split pos="left">
									<output> 0.021583645 </output>
								</split>
								<split pos="right">
									<output> 0.0076389094 </output>
								</split>
							</split>
							<split pos="right">
								<output> 0.14444849 </output>
							</split>
						</split>
						<split pos="right">
							<output> 0.5358103 </output>
						</split>
					</split>
					<split pos="right">
						<output> 0.0011189422 </output>
					</split>
				</split>
			</split>
		</split>
	</tree>
	<tree id="39" weight="0.1">
		<split>
			<feature> 62 </feature>
			<threshold> 0.3359375 </threshold>
			<split pos="left">
				<feature> 62 </feature>
				<threshold> 0.11328125 </threshold>
				<split pos="left">
					<feature> 62 </feature>
					<threshold> 0.109375 </threshold>
					<split pos="left">
						<feature> 62 </feature>
						<threshold> 0.1015625 </threshold>
						<split pos="left">
							<feature> 62 </feature>
							<threshold> 0.09765625 </threshold>
							<split pos="left">
								<feature> 62 </feature>
								<threshold> 0.0859375 </threshold>
								<split pos="left">
									<feature> 62 </feature>
									<threshold> 0.08203125 </threshold>
									<split pos="left">
										<feature> 62 </feature>
										<threshold> 0.0703125 </threshold>
										<split pos="left">
											<feature> 62 </feature>
											<threshold> 0.0 </threshold>
											<split pos="left">
												<output> 0.011634182 </output>
											</split>
											<split pos="right">
												<output> 0.008438316 </output>
											</split>
										</split>
										<split pos="right">
											<output> 0.028885541 </output>
										</split>
									</split>
									<split pos="right">
										<output> -9.683232E-4 </output>
									</split>
								</split>
								<split pos="right">
									<output> 0.0640615 </output>
								</split>
							</split>
							<split pos="right">
								<output> -0.004275231 </output>
							</split>
						</split>
						<split pos="right">
							<output> 0.08406146 </output>
						</split>
					</split>
					<split pos="right">
						<output> -0.009408167 </output>
					</split>
				</split>
				<split pos="right">
					<output> 0.015105203 </output>
				</split>
			</split>
			<split pos="right">
				<output> 0.023104275 </output>
			</split>
		</split>
	</tree>
	<tree id="40" weight="0.1">
		<split>
			<feature> 62 </feature>
			<threshold> 0.3359375 </threshold>
			<split pos="left">
				<feature> 62 </feature>
				<threshold> 0.11328125 </threshold>
				<split pos="left">
					<feature> 62 </feature>
					<threshold> 0.109375 </threshold>
					<split pos="left">
						<feature> 62 </feature>
						<threshold> 0.1015625 </threshold>
						<split pos="left">
							<feature> 62 </feature>
							<threshold> 0.09375 </threshold>
							<split pos="left">
								<feature> 62 </feature>
								<threshold> 0.0859375 </threshold>
								<split pos="left">
									<feature> 62 </feature>
									<threshold> 0.08203125 </threshold>
									<split pos="left">
										<feature> 62 </feature>
										<threshold> 0.0703125 </threshold>
										<split pos="left">
											<feature> 62 </feature>
											<threshold> 0.0234375 </threshold>
											<split pos="left">
												<output> 0.010353402 </output>
											</split>
											<split pos="right">
												<output> 0.013508394 </output>
											</split>
										</split>
										<split pos="right">
											<output> 0.02599725 </output>
										</split>
									</split>
									<split pos="right">
										<output> -8.7028305E-4 </output>
									</split>
								</split>
								<split pos="right">
									<output> 0.09007342 </output>
								</split>
							</split>
							<split pos="right">
								<output> -0.0031820114 </output>
							</split>
						</split>
						<split pos="right">
							<output> 0.07565586 </output>
						</split>
					</split>
					<split pos="right">
						<output> -0.008466426 </output>
					</split>
				</split>
				<split pos="right">
					<output> 0.013595241 </output>
				</split>
			</split>
			<split pos="right">
				<output> 0.020793289 </output>
			</split>
		</split>
	</tree>
	<tree id="41" weight="0.1">
		<split>
			<feature> 62 </feature>
			<threshold> 0.3359375 </threshold>
			<split pos="left">
				<feature> 62 </feature>
				<threshold> 0.11328125 </threshold>
				<split pos="left">
					<feature> 62 </feature>
					<threshold> 0.109375 </threshold>
					<split pos="left">
						<feature> 62 </feature>
						<threshold> 0.1015625 </threshold>
						<split pos="left">
							<feature> 62 </feature>
							<threshold> 0.09375 </threshold>
							<split pos="left">
								<feature> 62 </feature>
								<threshold> 0.0859375 </threshold>
								<split pos="left">
									<feature> 62 </feature>
									<threshold> 0.08203125 </threshold>
									<split pos="left">
										<feature> 62 </feature>
										<threshold> 0.0703125 </threshold>
										<split pos="left">
											<feature> 62 </feature>
											<threshold> 0.0 </threshold>
											<split pos="left">
												<output> 0.009421139 </output>
											</split>
											<split pos="right">
												<output> 0.0062711565 </output>
											</split>
										</split>
										<split pos="right">
											<output> 0.02339665 </output>
										</split>
									</split>
									<split pos="right">
										<output> -7.835677E-4 </output>
									</split>
								</split>
								<split pos="right">
									<output> 0.08106456 </output>
								</split>
							</split>
							<split pos="right">
								<output> -0.0028633547 </output>
							</split>
						</split>
						<split pos="right">
							<output> 0.06809076 </output>
						</split>
					</split>
					<split pos="right">
						<output> -0.0076202527 </output>
					</split>
				</split>
				<split pos="right">
					<output> 0.012234864 </output>
				</split>
			</split>
			<split pos="right">
				<output> 0.018716166 </output>
			</split>
		</split>
	</tree>
	<tree id="42" weight="0.1">
		<split>
			<feature> 62 </feature>
			<threshold> 0.3359375 </threshold>
			<split pos="left">
				<feature> 62 </feature>
				<threshold> 0.328125 </threshold>
				<split pos="left">
					<feature> 62 </feature>
					<threshold> 0.30859375 </threshold>
					<split pos="left">
						<feature> 62 </feature>
						<threshold> 0.25 </threshold>
						<split pos="left">
							<feature> 62 </feature>
							<threshold> 0.24609375 </threshold>
							<split pos="left">
								<feature> 62 </feature>
								<threshold> 0.22265625 </threshold>
								<split pos="left">
									<feature> 62 </feature>
									<threshold> 0.21875 </threshold>
									<split pos="left">
										<feature> 62 </feature>
										<threshold> 0.203125 </threshold>
										<split pos="left">
											<feature> 62 </feature>
											<threshold> 0.19921875 </threshold>
											<split pos="left">
												<output> 0.008578414 </output>
											</split>
											<split pos="right">
												<output> -0.0024630872 </output>
											</split>
										</split>
										<split pos="right">
											<output> 0.14598045 </output>
										</split>
									</split>
									<split pos="right">
										<output> -0.028505284 </output>
									</split>
								</split>
								<split pos="right">
									<output> 0.21634589 </output>
								</split>
							</split>
							<split pos="right">
								<output> 0.0012463479 </output>
							</split>
						</split>
						<split pos="right">
							<output> 0.04008134 </output>
						</split>
					</split>
					<split pos="right">
						<output> 0.3177865 </output>
					</split>
				</split>
				<split pos="right">
					<output> 0.0028932139 </output>
				</split>
			</split>
			<split pos="right">
				<output> 0.016843298 </output>
			</split>
		</split>
	</tree>
	<tree id="43" weight="0.1">
		<split>
			<feature> 62 </feature>
			<threshold> 0.3359375 </threshold>
			<split pos="left">
				<feature> 62 </feature>
				<threshold> 0.0234375 </threshold>
				<split pos="left">
					<feature> 62 </feature>
					<threshold> 0.0 </threshold>
					<split pos="left">
						<output> 0.0076387986 </output>
					</split>
					<split pos="right">
						<output> -0.056700774 </output>
					</split>
				</split>
				<split pos="right">
					<feature> 62 </feature>
					<threshold> 0.328125 </threshold>
					<split pos="left">
						<feature> 62 </feature>
						<threshold> 0.30859375 </threshold>
						<split pos="left">
							<feature> 62 </feature>
							<threshold> 0.25 </threshold>
							<split pos="left">
								<feature> 62 </feature>
								<threshold> 0.24609375 </threshold>
								<split pos="left">
									<feature> 62 </feature>
									<threshold> 0.22265625 </threshold>
									<split pos="left">
										<feature> 62 </feature>
										<threshold> 0.21875 </threshold>
										<split pos="left">
											<output> 0.01115028 </output>
										</split>
										<split pos="right">
											<output> -0.025654014 </output>
										</split>
									</split>
									<split pos="right">
										<output> 0.19471094 </output>
									</split>
								</split>
								<split pos="right">
									<output> 0.0011216316 </output>
								</split>
							</split>
							<split pos="right">
								<output> 0.03607344 </output>
							</split>
						</split>
						<split pos="right">
							<output> 0.28600726 </output>
						</split>
					</split>
					<split pos="right">
						<output> 0.0026059586 </output>
					</split>
				</split>
			</split>
			<split pos="right">
				<output> 0.01516057 </output>
			</split>
		</split>
	</tree>
	<tree id="44" weight="0.1">
		<split>
			<feature> 62 </feature>
			<threshold> 0.91015625 </threshold>
			<split pos="left">
				<feature> 62 </feature>
				<threshold> 0.66796875 </threshold>
				<split pos="left">
					<feature> 62 </feature>
					<threshold> 0.5234375 </threshold>
					<split pos="left">
						<feature> 62 </feature>
						<threshold> 0.46484375 </threshold>
						<split pos="left">
							<feature> 62 </feature>
							<threshold> 0.3359375 </threshold>
							<split pos="left">
								<feature> 62 </feature>
								<threshold> 0.11328125 </threshold>
								<split pos="left">
									<feature> 62 </feature>
									<threshold> 0.109375 </threshold>
									<split pos="left">
										<feature> 62 </feature>
										<threshold> 0.1015625 </threshold>
										<split pos="left">
											<feature> 62 </feature>
											<threshold> 0.09375 </threshold>
											<split pos="left">
												<output> 0.0069727874 </output>
											</split>
											<split pos="right">
												<output> -0.0045496305 </output>
											</split>
										</split>
										<split pos="right">
											<output> 0.05930794 </output>
										</split>
									</split>
									<split pos="right">
										<output> -0.008831168 </output>
									</split>
								</split>
								<split pos="right">
									<output> 0.009183933 </output>
								</split>
							</split>
							<split pos="right">
								<output> 0.09924071 </output>
							</split>
						</split>
						<split pos="right">
							<output> -0.0025875438 </output>
						</split>
					</split>
					<split pos="right">
						<output> 0.11832665 </output>
					</split>
				</split>
				<split pos="right">
					<output> 0.44036204 </output>
				</split>
			</split>
			<split pos="right">
				<output> -0.008455159 </output>
			</split>
		</split>
	</tree>
	<tree id="45" weight="0.1">
		<split>
			<feature> 62 </feature>
			<threshold> 0.91015625 </threshold>
			<split pos="left">
				<feature> 62 </feature>
				<threshold> 0.71484375 </threshold>
				<split pos="left">
					<feature> 62 </feature>
					<threshold> 0.5234375 </threshold>
					<split pos="left">
						<feature> 62 </feature>
						<threshold> 0.46484375 </threshold>
						<split pos="left">
							<feature> 62 </feature>
							<threshold> 0.3359375 </threshold>
							<split pos="left">
								<feature> 62 </feature>
								<threshold> 0.328125 </threshold>
								<split pos="left">
									<feature> 62 </feature>
									<threshold> 0.30859375 </threshold>
									<split pos="left">
										<feature> 62 </feature>
										<threshold> 0.25 </threshold>
										<split pos="left">
											<feature> 62 </feature>
											<threshold> 0.24609375 </threshold>
											<split pos="left">
												<output> 0.0063553336 </output>
											</split>
											<split pos="right">
												<output> 9.097367E-5 </output>
											</split>
										</split>
										<split pos="right">
											<output> 0.03154769 </output>
										</split>
									</split>
									<split pos="right">
										<output> 0.25648835 </output>
									</split>
								</split>
								<split pos="right">
									<output> 0.0014259632 </output>
								</split>
							</split>
							<split pos="right">
								<output> 0.08931606 </output>
							</split>
						</split>
						<split pos="right">
							<output> -0.0023285963 </output>
						</split>
					</split>
					<split pos="right">
						<output> 0.10809467 </output>
					</split>
				</split>
				<split pos="right">
					<output> 0.4287312 </output>
				</split>
			</split>
			<split pos="right">
				<output> -0.007608733 </output>
			</split>
		</split>
	</tree>
	<tree id="46" weight="0.1">
		<split>
			<feature> 62 </feature>
			<threshold> 0.91015625 </threshold>
			<split pos="left">
				<feature> 62 </feature>
				<threshold> 0.71484375 </threshold>
				<split pos="left">
					<feature> 62 </feature>
					<threshold> 0.5234375 </threshold>
					<split pos="left">
						<feature> 62 </feature>
						<threshold> 0.46484375 </threshold>
						<split pos="left">
							<feature> 62 </feature>
							<threshold> 0.3359375 </threshold>
							<split pos="left">
								<feature> 62 </feature>
								<threshold> 0.0234375 </threshold>
								<split pos="left">
									<feature> 62 </feature>
									<threshold> 0.0 </threshold>
									<split pos="left">
										<output> 0.005516642 </output>
									</split>
									<split pos="right">
										<output> -0.052363567 </output>
									</split>
								</split>
								<split pos="right">
									<feature> 62 </feature>
									<threshold> 0.328125 </threshold>
									<split pos="left">
										<feature> 62 </feature>
										<threshold> 0.30859375 </threshold>
										<split pos="left">
											<output> 0.007970965 </output>
										</split>
										<split pos="right">
											<output> 0.23084038 </output>
										</split>
									</split>
									<split pos="right">
										<output> 0.0012829863 </output>
									</split>
								</split>
							</split>
							<split pos="right">
								<output> 0.08038494 </output>
							</split>
						</split>
						<split pos="right">
							<output> -0.0020952998 </output>
						</split>
					</split>
					<split pos="right">
						<output> 0.09728485 </output>
					</split>
				</split>
				<split pos="right">
					<output> 0.38585788 </output>
				</split>
			</split>
			<split pos="right">
				<output> -0.0068482896 </output>
			</split>
		</split>
	</tree>
	<tree id="47" weight="0.1">
		<split>
			<feature> 62 </feature>
			<threshold> 0.91015625 </threshold>
			<split pos="left">
				<feature> 62 </feature>
				<threshold> 0.71484375 </threshold>
				<split pos="left">
					<feature> 62 </feature>
					<threshold> 0.5234375 </threshold>
					<split pos="left">
						<feature> 62 </feature>
						<threshold> 0.46484375 </threshold>
						<split pos="left">
							<feature> 62 </feature>
							<threshold> 0.3359375 </threshold>
							<split pos="left">
								<feature> 62 </feature>
								<threshold> 0.01953125 </threshold>
								<split pos="left">
									<feature> 62 </feature>
									<threshold> 0.0 </threshold>
									<split pos="left">
										<output> 0.0050114286 </output>
									</split>
									<split pos="right">
										<output> -0.08327338 </output>
									</split>
								</split>
								<split pos="right">
									<feature> 62 </feature>
									<threshold> 0.328125 </threshold>
									<split pos="left">
										<feature> 62 </feature>
										<threshold> 0.30078125 </threshold>
										<split pos="left">
											<output> 0.0070993057 </output>
										</split>
										<split pos="right">
											<output> 0.17442317 </output>
										</split>
									</split>
									<split pos="right">
										<output> 0.0011564721 </output>
									</split>
								</split>
							</split>
							<split pos="right">
								<output> 0.07234591 </output>
							</split>
						</split>
						<split pos="right">
							<output> -0.001886141 </output>
						</split>
					</split>
					<split pos="right">
						<output> 0.08755667 </output>
					</split>
				</split>
				<split pos="right">
					<output> 0.34727192 </output>
				</split>
			</split>
			<split pos="right">
				<output> -0.006163643 </output>
			</split>
		</split>
	</tree>
	<tree id="48" weight="0.1">
		<split>
			<feature> 62 </feature>
			<threshold> 0.203125 </threshold>
			<split pos="left">
				<feature> 62 </feature>
				<threshold> 0.19921875 </threshold>
				<split pos="left">
					<feature> 62 </feature>
					<threshold> 0.19140625 </threshold>
					<split pos="left">
						<feature> 62 </feature>
						<threshold> 0.18359375 </threshold>
						<split pos="left">
							<feature> 62 </feature>
							<threshold> 0.16796875 </threshold>
							<split pos="left">
								<feature> 62 </feature>
								<threshold> 0.1640625 </threshold>
								<split pos="left">
									<feature> 62 </feature>
									<threshold> 0.15625 </threshold>
									<split pos="left">
										<feature> 62 </feature>
										<threshold> 0.13671875 </threshold>
										<split pos="left">
											<feature> 62 </feature>
											<threshold> 0.1328125 </threshold>
											<split pos="left">
												<output> 0.004550114 </output>
											</split>
											<split pos="right">
												<output> -0.017274108 </output>
											</split>
										</split>
										<split pos="right">
											<output> 0.022498403 </output>
										</split>
									</split>
									<split pos="right">
										<output> 0.13359559 </output>
									</split>
								</split>
								<split pos="right">
									<output> -0.002232732 </output>
								</split>
							</split>
							<split pos="right">
								<output> 0.055064328 </output>
							</split>
						</split>
						<split pos="right">
							<output> -0.021217478 </output>
						</split>
					</split>
					<split pos="right">
						<output> 0.2627128 </output>
					</split>
				</split>
				<split pos="right">
					<output> -0.0063923714 </output>
				</split>
			</split>
			<split pos="right">
				<output> 0.007712066 </output>
			</split>
		</split>
	</tree>
	<tree id="49" weight="0.1">
		<split>
			<feature> 62 </feature>
			<threshold> 0.91015625 </threshold>
			<split pos="left">
				<feature> 62 </feature>
				<threshold> 0.66796875 </threshold>
				<split pos="left">
					<feature> 62 </feature>
					<threshold> 0.5234375 </threshold>
					<split pos="left">
						<feature> 62 </feature>
						<threshold> 0.46484375 </threshold>
						<split pos="left">
							<feature> 62 </feature>
							<threshold> 0.4140625 </threshold>
							<split pos="left">
								<feature> 62 </feature>
								<threshold> 0.3359375 </threshold>
								<split pos="left">
									<feature> 62 </feature>
									<threshold> 0.328125 </threshold>
									<split pos="left">
										<feature> 62 </feature>
										<threshold> 0.3125 </threshold>
										<split pos="left">
											<feature> 62 </feature>
											<threshold> 0.30078125 </threshold>
											<split pos="left">
												<output> 0.004163838 </output>
											</split>
											<split pos="right">
												<output> 0.1004888 </output>
											</split>
										</split>
										<split pos="right">
											<output> 0.30311072 </output>
										</split>
									</split>
									<split pos="right">
										<output> 2.6775288E-4 </output>
									</split>
								</split>
								<split pos="right">
									<output> 0.044738866 </output>
								</split>
							</split>
							<split pos="right">
								<output> 0.15374549 </output>
							</split>
						</split>
						<split pos="right">
							<output> -0.0024681971 </output>
						</split>
					</split>
					<split pos="right">
						<output> 0.076429404 </output>
					</split>
				</split>
				<split pos="right">
					<output> 0.29117978 </output>
				</split>
			</split>
			<split pos="right">
				<output> -0.0063189166 </output>
			</split>
		</split>
	</tree>
	<tree id="50" weight="0.1">
		<split>
			<feature> 62 </feature>
			<threshold> 0.91015625 </threshold>
			<split pos="left">
				<feature> 62 </feature>
				<threshold> 0.71484375 </threshold>
				<split pos="left">
					<feature> 62 </feature>
					<threshold> 0.5234375 </threshold>
					<split pos="left">
						<feature> 62 </feature>
						<threshold> 0.46484375 </threshold>
						<split pos="left">
							<feature> 62 </feature>
							<threshold> 0.4140625 </threshold>
							<split pos="left">
								<feature> 62 </feature>
								<threshold> 0.3359375 </threshold>
								<split pos="left">
									<feature> 62 </feature>
									<threshold> 0.0859375 </threshold>
									<split pos="left">
										<feature> 62 </feature>
										<threshold> 0.08203125 </threshold>
										<split pos="left">
											<feature> 62 </feature>
											<threshold> 0.0703125 </threshold>
											<split pos="left">
												<output> 0.003538632 </output>
											</split>
											<split pos="right">
												<output> 0.015372946 </output>
											</split>
										</split>
										<split pos="right">
											<output> -0.006389421 </output>
										</split>
									</split>
									<split pos="right">
										<output> 0.0052439845 </output>
									</split>
								</split>
								<split pos="right">
									<output> 0.04026537 </output>
								</split>
							</split>
							<split pos="right">
								<output> 0.13837159 </output>
							</split>
						</split>
						<split pos="right">
							<output> -0.0022218549 </output>
						</split>
					</split>
					<split pos="right">
						<output> 0.06997665 </output>
					</split>
				</split>
				<split pos="right">
					<output> 0.28265613 </output>
				</split>
			</split>
			<split pos="right">
				<output> -0.0056857695 </output>
			</split>
		</split>
	</tree>
	<tree id="51" weight="0.1">
		<split>
			<feature> 62 </feature>
			<threshold> 0.91015625 </threshold>
			<split pos="left">
				<feature> 62 </feature>
				<threshold> 0.71484375 </threshold>
				<split pos="left">
					<feature> 62 </feature>
					<threshold> 0.5234375 </threshold>
					<split pos="left">
						<feature> 62 </feature>
						<threshold> 0.46484375 </threshold>
						<split pos="left">
							<feature> 62 </feature>
							<threshold> 0.4140625 </threshold>
							<split pos="left">
								<feature> 62 </feature>
								<threshold> 0.41015625 </threshold>
								<split pos="left">
									<feature> 62 </feature>
									<threshold> 0.3359375 </threshold>
									<split pos="left">
										<feature> 62 </feature>
										<threshold> 0.328125 </threshold>
										<split pos="left">
											<feature> 62 </feature>
											<threshold> 0.3125 </threshold>
											<split pos="left">
												<output> 0.0033731859 </output>
											</split>
											<split pos="right">
												<output> 0.27227575 </output>
											</split>
										</split>
										<split pos="right">
											<output> -2.830236E-4 </output>
										</split>
									</split>
									<split pos="right">
										<output> 0.03877268 </output>
									</split>
								</split>
								<split pos="right">
									<output> -0.5555483 </output>
								</split>
							</split>
							<split pos="right">
								<output> 0.12453381 </output>
							</split>
						</split>
						<split pos="right">
							<output> -0.001999618 </output>
						</split>
					</split>
					<split pos="right">
						<output> 0.06297964 </output>
					</split>
				</split>
				<split pos="right">
					<output> 0.25439 </output>
				</split>
			</split>
			<split pos="right">
				<output> -0.005117912 </output>
			</split>
		</split>
	</tree>
	<tree id="52" weight="0.1">
		<split>
			<feature> 62 </feature>
			<threshold> 0.11328125 </threshold>
			<split pos="left">
				<feature> 62 </feature>
				<threshold> 0.109375 </threshold>
				<split pos="left">
					<feature> 62 </feature>
					<threshold> 0.1015625 </threshold>
					<split pos="left">
						<feature> 62 </feature>
						<threshold> 0.09375 </threshold>
						<split pos="left">
							<feature> 62 </feature>
							<threshold> 0.0859375 </threshold>
							<split pos="left">
								<feature> 62 </feature>
								<threshold> 0.08203125 </threshold>
								<split pos="left">
									<feature> 62 </feature>
									<threshold> 0.07421875 </threshold>
									<split pos="left">
										<feature> 62 </feature>
										<threshold> 0.01953125 </threshold>
										<split pos="left">
											<feature> 62 </feature>
											<threshold> 0.0 </threshold>
											<split pos="left">
												<output> 0.0029045404 </output>
											</split>
											<split pos="right">
												<output> -0.07650755 </output>
											</split>
										</split>
										<split pos="right">
											<output> 0.005797311 </output>
										</split>
									</split>
									<split pos="right">
										<output> 0.020545531 </output>
									</split>
								</split>
								<split pos="right">
									<output> -0.0060885986 </output>
								</split>
							</split>
							<split pos="right">
								<output> 0.06641422 </output>
							</split>
						</split>
						<split pos="right">
							<output> -0.007970638 </output>
						</split>
					</split>
					<split pos="right">
						<output> 0.04950194 </output>
					</split>
				</split>
				<split pos="right">
					<output> -0.011823411 </output>
				</split>
			</split>
			<split pos="right">
				<output> 0.0048937206 </output>
			</split>
		</split>
	</tree>
	<tree id="53" weight="0.1">
		<split>
			<feature> 62 </feature>
			<threshold> 0.91015625 </threshold>
			<split pos="left">
				<feature> 62 </feature>
				<threshold> 0.66796875 </threshold>
				<split pos="left">
					<feature> 62 </feature>
					<threshold> 0.5234375 </threshold>
					<split pos="left">
						<feature> 62 </feature>
						<threshold> 0.46484375 </threshold>
						<split pos="left">
							<feature> 62 </feature>
							<threshold> 0.4140625 </threshold>
							<split pos="left">
								<feature> 62 </feature>
								<threshold> 0.41015625 </threshold>
								<split pos="left">
									<feature> 62 </feature>
									<threshold> 0.3359375 </threshold>
									<split pos="left">
										<feature> 62 </feature>
										<threshold> 0.328125 </threshold>
										<split pos="left">
											<feature> 62 </feature>
											<threshold> 0.30078125 </threshold>
											<split pos="left">
												<output> 0.002694843 </output>
											</split>
											<split pos="right">
												<output> 0.13184278 </output>
											</split>
										</split>
										<split pos="right">
											<output> -7.425566E-4 </output>
										</split>
									</split>
									<split pos="right">
										<output> 0.034405522 </output>
									</split>
								</split>
								<split pos="right">
									<output> -0.50048274 </output>
								</split>
							</split>
							<split pos="right">
								<output> 0.11159142 </output>
							</split>
						</split>
						<split pos="right">
							<output> -0.0022893893 </output>
						</split>
					</split>
					<split pos="right">
						<output> 0.05500101 </output>
					</split>
				</split>
				<split pos="right">
					<output> 0.21335994 </output>
				</split>
			</split>
			<split pos="right">
				<output> -0.0050954986 </output>
			</split>
		</split>
	</tree>
	<tree id="54" weight="0.1">
		<split>
			<feature> 62 </feature>
			<threshold> 0.91015625 </threshold>
			<split pos="left">
				<feature> 62 </feature>
				<threshold> 0.71484375 </threshold>
				<split pos="left">
					<feature> 62 </feature>
					<threshold> 0.5234375 </threshold>
					<split pos="left">
						<feature> 62 </feature>
						<threshold> 0.46484375 </threshold>
						<split pos="left">
							<feature> 62 </feature>
							<threshold> 0.4140625 </threshold>
							<split pos="left">
								<feature> 62 </feature>
								<threshold> 0.41015625 </threshold>
								<split pos="left">
									<feature> 62 </feature>
									<threshold> 0.3359375 </threshold>
									<split pos="left">
										<feature> 62 </feature>
										<threshold> 0.296875 </threshold>
										<split pos="left">
											<feature> 62 </feature>
											<threshold> 0.2890625 </threshold>
											<split pos="left">
												<output> 0.002506113 </output>
											</split>
											<split pos="right">
												<output> 0.3595936 </output>
											</split>
										</split>
										<split pos="right">
											<output> -7.6524174E-4 </output>
										</split>
									</split>
									<split pos="right">
										<output> 0.030965155 </output>
									</split>
								</split>
								<split pos="right">
									<output> -0.45043448 </output>
								</split>
							</split>
							<split pos="right">
								<output> 0.100431785 </output>
							</split>
						</split>
						<split pos="right">
							<output> -0.0020602734 </output>
						</split>
					</split>
					<split pos="right">
						<output> 0.050389748 </output>
					</split>
				</split>
				<split pos="right">
					<output> 0.20712583 </output>
				</split>
			</split>
			<split pos="right">
				<output> -0.0045869783 </output>
			</split>
		</split>
	</tree>
	<tree id="55" weight="0.1">
		<split>
			<feature> 62 </feature>
			<threshold> 0.11328125 </threshold>
			<split pos="left">
				<feature> 62 </feature>
				<threshold> 0.109375 </threshold>
				<split pos="left">
					<feature> 62 </feature>
					<threshold> 0.1015625 </threshold>
					<split pos="left">
						<feature> 62 </feature>
						<threshold> 0.09375 </threshold>
						<split pos="left">
							<feature> 62 </feature>
							<threshold> 0.0859375 </threshold>
							<split pos="left">
								<feature> 62 </feature>
								<threshold> 0.08203125 </threshold>
								<split pos="left">
									<feature> 62 </feature>
									<threshold> 0.0703125 </threshold>
									<split pos="left">
										<feature> 62 </feature>
										<threshold> 0.06640625 </threshold>
										<split pos="left">
											<feature> 62 </feature>
											<threshold> 0.01953125 </threshold>
											<split pos="left">
												<output> 0.0020315303 </output>
											</split>
											<split pos="right">
												<output> 0.005900529 </output>
											</split>
										</split>
										<split pos="right">
											<output> -0.004546681 </output>
										</split>
									</split>
									<split pos="right">
										<output> 0.011843078 </output>
									</split>
								</split>
								<split pos="right">
									<output> -0.005997637 </output>
								</split>
							</split>
							<split pos="right">
								<output> 0.059251495 </output>
							</split>
						</split>
						<split pos="right">
							<output> -0.0076934784 </output>
						</split>
					</split>
					<split pos="right">
						<output> 0.04403167 </output>
					</split>
				</split>
				<split pos="right">
					<output> -0.011161961 </output>
				</split>
			</split>
			<split pos="right">
				<output> 0.0037858738 </output>
			</split>
		</split>
	</tree>
	<tree id="56" weight="0.1">
		<split>
			<feature> 62 </feature>
			<threshold> 0.91015625 </threshold>
			<split pos="left">
				<feature> 62 </feature>
				<threshold> 0.71484375 </threshold>
				<split pos="left">
					<feature> 62 </feature>
					<threshold> 0.5234375 </threshold>
					<split pos="left">
						<feature> 62 </feature>
						<threshold> 0.46484375 </threshold>
						<split pos="left">
							<feature> 62 </feature>
							<threshold> 0.4140625 </threshold>
							<split pos="left">
								<feature> 62 </feature>
								<threshold> 0.41015625 </threshold>
								<split pos="left">
									<feature> 62 </feature>
									<threshold> 0.3359375 </threshold>
									<split pos="left">
										<feature> 62 </feature>
										<threshold> 0.296875 </threshold>
										<split pos="left">
											<feature> 62 </feature>
											<threshold> 0.2890625 </threshold>
											<split pos="left">
												<output> 0.0020392132 </output>
											</split>
											<split pos="right">
												<output> 0.32325593 </output>
											</split>
										</split>
										<split pos="right">
											<output> -0.0010649855 </output>
										</split>
									</split>
									<split pos="right">
										<output> 0.027489983 </output>
