## MART
## No. of trees = 1000
## No. of leaves = 10
## No. of threshold candidates = 256
## Learning rate = 0.1
## Stop early = 100

<ensemble>
	<tree id="1" weight="0.1">
		<split>
			<feature> 116 </feature>
			<threshold> -19.018196 </threshold>
			<split pos="left">
				<feature> 116 </feature>
				<threshold> -30.674526 </threshold>
				<split pos="left">
					<output> 0.23705503 </output>
				</split>
				<split pos="right">
					<output> 0.4930932 </output>
				</split>
			</split>
			<split pos="right">
				<feature> 116 </feature>
				<threshold> -12.269801 </threshold>
				<split pos="left">
					<feature> 116 </feature>
					<threshold> -17.791214 </threshold>
					<split pos="left">
						<output> 0.6153394 </output>
					</split>
					<split pos="right">
						<feature> 116 </feature>
						<threshold> -14.723762 </threshold>
						<split pos="left">
							<output> 0.71728057 </output>
						</split>
						<split pos="right">
							<output> 0.6455124 </output>
						</split>
					</split>
				</split>
				<split pos="right">
					<feature> 116 </feature>
					<threshold> -1.8404694 </threshold>
					<split pos="left">
						<feature> 116 </feature>
						<threshold> -5.52141 </threshold>
						<split pos="left">
							<feature> 116 </feature>
							<threshold> -8.5888605 </threshold>
							<split pos="left">
								<output> 0.8516584 </output>
							</split>
							<split pos="right">
								<feature> 116 </feature>
								<threshold> -6.1349 </threshold>
								<split pos="left">
									<output> 0.6645742 </output>
								</split>
								<split pos="right">
									<output> 0.7828372 </output>
								</split>
							</split>
						</split>
						<split pos="right">
							<output> 0.888618 </output>
						</split>
					</split>
					<split pos="right">
						<output> 0.4365236 </output>
					</split>
				</split>
			</split>
		</split>
	</tree>
	<tree id="2" weight="0.1">
		<split>
			<feature> 116 </feature>
			<threshold> -19.018196 </threshold>
			<split pos="left">
				<feature> 116 </feature>
				<threshold> -26.99358 </threshold>
				<split pos="left">
					<output> 0.2619214 </output>
				</split>
				<split pos="right">
					<output> 0.46496215 </output>
				</split>
			</split>
			<split pos="right">
				<feature> 116 </feature>
				<threshold> -11.656311 </threshold>
				<split pos="left">
					<feature> 116 </feature>
					<threshold> -17.791214 </threshold>
					<split pos="left">
						<output> 0.5536946 </output>
					</split>
					<split pos="right">
						<feature> 116 </feature>
						<threshold> -15.337252 </threshold>
						<split pos="left">
							<output> 0.65132725 </output>
						</split>
						<split pos="right">
							<feature> 116 </feature>
							<threshold> -12.269801 </threshold>
							<split pos="left">
								<output> 0.58654153 </output>
							</split>
							<split pos="right">
								<output> 0.6466225 </output>
							</split>
						</split>
					</split>
				</split>
				<split pos="right">
					<feature> 116 </feature>
					<threshold> -3.0674496 </threshold>
					<split pos="left">
						<feature> 116 </feature>
						<threshold> -8.5888605 </threshold>
						<split pos="left">
							<output> 0.8033999 </output>
						</split>
						<split pos="right">
							<feature> 116 </feature>
							<threshold> -6.1349 </threshold>
							<split pos="left">
								<output> 0.5981669 </output>
							</split>
							<split pos="right">
								<output> 0.76708406 </output>
							</split>
						</split>
					</split>
					<split pos="right">
						<output> 0.3950648 </output>
					</split>
				</split>
			</split>
		</split>
	</tree>
	<tree id="3" weight="0.1">
		<split>
			<feature> 116 </feature>
			<threshold> -19.018196 </threshold>
			<split pos="left">
				<feature> 116 </feature>
				<threshold> -31.288017 </threshold>
				<split pos="left">
					<output> 0.17880708 </output>
				</split>
				<split pos="right">
					<output> 0.39804316 </output>
				</split>
			</split>
			<split pos="right">
				<feature> 116 </feature>
				<threshold> -11.656311 </threshold>
				<split pos="left">
					<feature> 116 </feature>
					<threshold> -17.791214 </threshold>
					<split pos="left">
						<output> 0.49833488 </output>
					</split>
					<split pos="right">
						<feature> 116 </feature>
						<threshold> -14.723762 </threshold>
						<split pos="left">
							<output> 0.58177555 </output>
						</split>
						<split pos="right">
							<output> 0.53767675 </output>
						</split>
					</split>
				</split>
				<split pos="right">
					<feature> 116 </feature>
					<threshold> -3.0674496 </threshold>
					<split pos="left">
						<feature> 116 </feature>
						<threshold> -8.5888605 </threshold>
						<split pos="left">
							<output> 0.72435635 </output>
						</split>
						<split pos="right">
							<feature> 116 </feature>
							<threshold> -5.52141 </threshold>
							<split pos="left">
								<feature> 116 </feature>
								<threshold> -6.1349 </threshold>
								<split pos="left">
									<output> 0.53863984 </output>
								</split>
								<split pos="right">
									<output> 0.6279473 </output>
								</split>
							</split>
							<split pos="right">
								<output> 0.72409105 </output>
							</split>
						</split>
					</split>
					<split pos="right">
						<output> 0.3555423 </output>
					</split>
				</split>
			</split>
		</split>
	</tree>
	<tree id="4" weight="0.1">
		<split>
			<feature> 116 </feature>
			<threshold> -19.631687 </threshold>
			<split pos="left">
				<feature> 116 </feature>
				<threshold> -25.766598 </threshold>
				<split pos="left">
					<output> 0.22096153 </output>
				</split>
				<split pos="right">
					<output> 0.38287085 </output>
				</split>
			</split>
			<split pos="right">
				<feature> 116 </feature>
				<threshold> -11.656311 </threshold>
				<split pos="left">
					<feature> 116 </feature>
					<threshold> -17.791214 </threshold>
					<split pos="left">
						<output> 0.44297785 </output>
					</split>
					<split pos="right">
						<feature> 116 </feature>
						<threshold> -15.337252 </threshold>
						<split pos="left">
							<output> 0.52767235 </output>
						</split>
						<split pos="right">
							<feature> 116 </feature>
							<threshold> -12.269801 </threshold>
							<split pos="left">
								<output> 0.4741568 </output>
							</split>
							<split pos="right">
								<output> 0.5284344 </output>
							</split>
						</split>
					</split>
				</split>
				<split pos="right">
					<feature> 116 </feature>
					<threshold> -1.8404694 </threshold>
					<split pos="left">
						<feature> 116 </feature>
						<threshold> -8.5888605 </threshold>
						<split pos="left">
							<output> 0.6509135 </output>
						</split>
						<split pos="right">
							<feature> 116 </feature>
							<threshold> -6.1349 </threshold>
							<split pos="left">
								<output> 0.48480424 </output>
							</split>
							<split pos="right">
								<output> 0.62041247 </output>
							</split>
						</split>
					</split>
					<split pos="right">
						<output> 0.31785366 </output>
					</split>
				</split>
			</split>
		</split>
	</tree>
	<tree id="5" weight="0.1">
		<split>
			<feature> 116 </feature>
			<threshold> -19.631687 </threshold>
			<split pos="left">
				<feature> 116 </feature>
				<threshold> -33.12849 </threshold>
				<split pos="left">
					<output> 0.114827216 </output>
				</split>
				<split pos="right">
					<output> 0.31208566 </output>
				</split>
			</split>
			<split pos="right">
				<feature> 116 </feature>
				<threshold> -11.656311 </threshold>
				<split pos="left">
					<feature> 116 </feature>
					<threshold> -17.791214 </threshold>
					<split pos="left">
						<output> 0.3986736 </output>
					</split>
					<split pos="right">
						<feature> 116 </feature>
						<threshold> -14.723762 </threshold>
						<split pos="left">
							<output> 0.47171596 </output>
						</split>
						<split pos="right">
							<output> 0.43574414 </output>
						</split>
					</split>
				</split>
				<split pos="right">
					<feature> 116 </feature>
					<threshold> -3.0674496 </threshold>
					<split pos="left">
						<feature> 116 </feature>
						<threshold> -8.5888605 </threshold>
						<split pos="left">
							<output> 0.5855335 </output>
						</split>
						<split pos="right">
							<feature> 116 </feature>
							<threshold> -5.52141 </threshold>
							<split pos="left">
								<feature> 116 </feature>
								<threshold> -6.1349 </threshold>
								<split pos="left">
									<output> 0.43553364 </output>
								</split>
								<split pos="right">
									<output> 0.5028574 </output>
								</split>
							</split>
							<split pos="right">
								<output> 0.5890439 </output>
							</split>
						</split>
					</split>
					<split pos="right">
						<output> 0.28778008 </output>
					</split>
				</split>
			</split>
		</split>
	</tree>
	<tree id="6" weight="0.1">
		<split>
			<feature> 116 </feature>
			<threshold> -19.631687 </threshold>
			<split pos="left">
				<output> 0.24856934 </output>
			</split>
			<split pos="right">
				<feature> 116 </feature>
				<threshold> -12.269801 </threshold>
				<split pos="left">
					<feature> 116 </feature>
					<threshold> -17.791214 </threshold>
					<split pos="left">
						<output> 0.35868675 </output>
					</split>
					<split pos="right">
						<feature> 116 </feature>
						<threshold> -14.723762 </threshold>
						<split pos="left">
							<output> 0.42455533 </output>
						</split>
						<split pos="right">
							<output> 0.37781367 </output>
						</split>
					</split>
				</split>
				<split pos="right">
					<feature> 116 </feature>
					<threshold> -1.8404694 </threshold>
					<split pos="left">
						<feature> 116 </feature>
						<threshold> -4.90792 </threshold>
						<split pos="left">
							<feature> 116 </feature>
							<threshold> -8.5888605 </threshold>
							<split pos="left">
								<feature> 116 </feature>
								<threshold> -10.429331 </threshold>
								<split pos="left">
									<output> 0.45497242 </output>
								</split>
								<split pos="right">
									<output> 0.6050854 </output>
								</split>
							</split>
							<split pos="right">
								<feature> 116 </feature>
								<threshold> -6.1349 </threshold>
								<split pos="left">
									<output> 0.3924129 </output>
								</split>
								<split pos="right">
									<output> 0.4735107 </output>
								</split>
							</split>
						</split>
						<split pos="right">
							<output> 0.5654847 </output>
						</split>
					</split>
					<split pos="right">
						<output> 0.25725836 </output>
					</split>
				</split>
			</split>
		</split>
	</tree>
	<tree id="7" weight="0.1">
		<split>
			<feature> 116 </feature>
			<threshold> -23.926125 </threshold>
			<split pos="left">
				<output> 0.17307885 </output>
			</split>
			<split pos="right">
				<feature> 116 </feature>
				<threshold> -12.269801 </threshold>
				<split pos="left">
					<feature> 116 </feature>
					<threshold> -18.404705 </threshold>
					<split pos="left">
						<output> 0.30320403 </output>
					</split>
					<split pos="right">
						<feature> 116 </feature>
						<threshold> -14.723762 </threshold>
						<split pos="left">
							<output> 0.37423334 </output>
						</split>
						<split pos="right">
							<output> 0.33943316 </output>
						</split>
					</split>
				</split>
				<split pos="right">
					<feature> 116 </feature>
					<threshold> -3.0674496 </threshold>
					<split pos="left">
						<feature> 116 </feature>
						<threshold> -4.90792 </threshold>
						<split pos="left">
							<feature> 116 </feature>
							<threshold> -7.9753704 </threshold>
							<split pos="left">
								<feature> 116 </feature>
								<threshold> -11.042821 </threshold>
								<split pos="left">
									<output> 0.38652608 </output>
								</split>
								<split pos="right">
									<output> 0.48937315 </output>
								</split>
							</split>
							<split pos="right">
								<feature> 116 </feature>
								<threshold> -6.74839 </threshold>
								<split pos="left">
									<output> 0.31178126 </output>
								</split>
								<split pos="right">
									<output> 0.41049835 </output>
								</split>
							</split>
						</split>
						<split pos="right">
							<output> 0.51057124 </output>
						</split>
					</split>
					<split pos="right">
						<output> 0.2327653 </output>
					</split>
				</split>
			</split>
		</split>
	</tree>
	<tree id="8" weight="0.1">
		<split>
			<feature> 116 </feature>
			<threshold> -23.926125 </threshold>
			<split pos="left">
				<output> 0.15564567 </output>
			</split>
			<split pos="right">
				<feature> 116 </feature>
				<threshold> -12.269801 </threshold>
				<split pos="left">
					<feature> 116 </feature>
					<threshold> -18.404705 </threshold>
					<split pos="left">
						<output> 0.27309564 </output>
					</split>
					<split pos="right">
						<feature> 116 </feature>
						<threshold> -14.723762 </threshold>
						<split pos="left">
							<output> 0.33687234 </output>
						</split>
						<split pos="right">
							<output> 0.30569932 </output>
						</split>
					</split>
				</split>
				<split pos="right">
					<feature> 116 </feature>
					<threshold> -3.0674496 </threshold>
					<split pos="left">
						<feature> 116 </feature>
						<threshold> -5.52141 </threshold>
						<split pos="left">
							<feature> 116 </feature>
							<threshold> -7.9753704 </threshold>
							<split pos="left">
								<feature> 116 </feature>
								<threshold> -11.042821 </threshold>
								<split pos="left">
									<output> 0.34797242 </output>
								</split>
								<split pos="right">
									<output> 0.44033095 </output>
								</split>
							</split>
							<split pos="right">
								<feature> 116 </feature>
								<threshold> -6.74839 </threshold>
								<split pos="left">
									<output> 0.2805782 </output>
								</split>
								<split pos="right">
									<output> 0.3492559 </output>
								</split>
							</split>
						</split>
						<split pos="right">
							<output> 0.4326823 </output>
						</split>
					</split>
					<split pos="right">
						<output> 0.20950665 </output>
					</split>
				</split>
			</split>
		</split>
	</tree>
	<tree id="9" weight="0.1">
		<split>
			<feature> 116 </feature>
			<threshold> -25.766598 </threshold>
			<split pos="left">
				<output> 0.117480256 </output>
			</split>
			<split pos="right">
				<feature> 116 </feature>
				<threshold> -12.269801 </threshold>
				<split pos="left">
					<feature> 116 </feature>
					<threshold> -18.404705 </threshold>
					<split pos="left">
						<output> 0.24187067 </output>
					</split>
					<split pos="right">
						<feature> 116 </feature>
						<threshold> -14.723762 </threshold>
						<split pos="left">
							<output> 0.3035252 </output>
						</split>
						<split pos="right">
							<output> 0.2750671 </output>
						</split>
					</split>
				</split>
				<split pos="right">
					<feature> 116 </feature>
					<threshold> -1.8404694 </threshold>
					<split pos="left">
						<feature> 116 </feature>
						<threshold> -4.90792 </threshold>
						<split pos="left">
							<feature> 116 </feature>
							<threshold> -8.5888605 </threshold>
							<split pos="left">
								<feature> 116 </feature>
								<threshold> -10.429331 </threshold>
								<split pos="left">
									<output> 0.330289 </output>
								</split>
								<split pos="right">
									<output> 0.4515419 </output>
								</split>
							</split>
							<split pos="right">
								<feature> 116 </feature>
								<threshold> -6.1349 </threshold>
								<split pos="left">
									<output> 0.28139535 </output>
								</split>
								<split pos="right">
									<output> 0.34647265 </output>
								</split>
							</split>
						</split>
						<split pos="right">
							<output> 0.41517732 </output>
						</split>
					</split>
					<split pos="right">
						<output> 0.18728572 </output>
					</split>
				</split>
			</split>
		</split>
	</tree>
	<tree id="10" weight="0.1">
		<split>
			<feature> 116 </feature>
			<threshold> -24.539616 </threshold>
			<split pos="left">
				<output> 0.11916432 </output>
			</split>
			<split pos="right">
				<feature> 116 </feature>
				<threshold> -12.269801 </threshold>
				<split pos="left">
					<feature> 116 </feature>
					<threshold> -17.791214 </threshold>
					<split pos="left">
						<output> 0.22280353 </output>
					</split>
					<split pos="right">
						<feature> 116 </feature>
						<threshold> -14.723762 </threshold>
						<split pos="left">
							<output> 0.28062636 </output>
						</split>
						<split pos="right">
							<output> 0.24767801 </output>
						</split>
					</split>
				</split>
				<split pos="right">
					<feature> 116 </feature>
					<threshold> -3.0674496 </threshold>
					<split pos="left">
						<feature> 116 </feature>
						<threshold> -4.90792 </threshold>
						<split pos="left">
							<feature> 116 </feature>
							<threshold> -8.5888605 </threshold>
							<split pos="left">
								<feature> 116 </feature>
								<threshold> -10.429331 </threshold>
								<split pos="left">
									<output> 0.29737297 </output>
								</split>
								<split pos="right">
									<output> 0.40615943 </output>
								</split>
							</split>
							<split pos="right">
								<feature> 116 </feature>
								<threshold> -6.1349 </threshold>
								<split pos="left">
									<output> 0.2534142 </output>
								</split>
								<split pos="right">
									<output> 0.31148615 </output>
								</split>
							</split>
						</split>
						<split pos="right">
							<output> 0.3744441 </output>
						</split>
					</split>
					<split pos="right">
						<output> 0.16947939 </output>
					</split>
				</split>
			</split>
		</split>
	</tree>
	<tree id="11" weight="0.1">
		<split>
			<feature> 116 </feature>
			<threshold> -25.766598 </threshold>
			<split pos="left">
				<output> 0.09385591 </output>
			</split>
			<split pos="right">
				<feature> 116 </feature>
				<threshold> -12.883291 </threshold>
				<split pos="left">
					<feature> 116 </feature>
					<threshold> -17.791214 </threshold>
					<split pos="left">
						<feature> 116 </feature>
						<threshold> -20.245178 </threshold>
						<split pos="left">
							<output> 0.1896171 </output>
						</split>
						<split pos="right">
							<output> 0.21007146 </output>
						</split>
					</split>
					<split pos="right">
						<feature> 116 </feature>
						<threshold> -14.723762 </threshold>
						<split pos="left">
							<output> 0.25267515 </output>
						</split>
						<split pos="right">
							<output> 0.21125846 </output>
						</split>
					</split>
				</split>
				<split pos="right">
					<feature> 116 </feature>
					<threshold> -3.0674496 </threshold>
					<split pos="left">
						<feature> 116 </feature>
						<threshold> -5.52141 </threshold>
						<split pos="left">
							<feature> 116 </feature>
							<threshold> -7.9753704 </threshold>
							<split pos="left">
								<feature> 116 </feature>
								<threshold> -11.042821 </threshold>
								<split pos="left">
									<output> 0.24923965 </output>
								</split>
								<split pos="right">
									<output> 0.32533303 </output>
								</split>
							</split>
							<split pos="right">
								<output> 0.22929278 </output>
							</split>
						</split>
						<split pos="right">
							<output> 0.31723163 </output>
						</split>
					</split>
					<split pos="right">
						<output> 0.15252222 </output>
					</split>
				</split>
			</split>
		</split>
	</tree>
	<tree id="12" weight="0.1">
		<split>
			<feature> 116 </feature>
			<threshold> -25.766598 </threshold>
			<split pos="left">
				<output> 0.08450766 </output>
			</split>
			<split pos="right">
				<feature> 116 </feature>
				<threshold> -12.883291 </threshold>
				<split pos="left">
					<feature> 116 </feature>
					<threshold> -17.177723 </threshold>
					<split pos="left">
						<feature> 116 </feature>
						<threshold> -20.245178 </threshold>
						<split pos="left">
							<output> 0.17069523 </output>
						</split>
						<split pos="right">
							<output> 0.1903387 </output>
						</split>
					</split>
					<split pos="right">
						<output> 0.21428879 </output>
					</split>
				</split>
				<split pos="right">
					<feature> 116 </feature>
					<threshold> -1.8404694 </threshold>
					<split pos="left">
						<feature> 116 </feature>
						<threshold> -4.90792 </threshold>
						<split pos="left">
							<feature> 116 </feature>
							<threshold> -8.5888605 </threshold>
							<split pos="left">
								<feature> 116 </feature>
								<threshold> -10.429331 </threshold>
								<split pos="left">
									<output> 0.23588668 </output>
								</split>
								<split pos="right">
									<output> 0.3330112 </output>
								</split>
							</split>
							<split pos="right">
								<feature> 116 </feature>
								<threshold> -6.1349 </threshold>
								<split pos="left">
									<output> 0.20276889 </output>
								</split>
								<split pos="right">
									<output> 0.25338486 </output>
								</split>
							</split>
						</split>
						<split pos="right">
							<output> 0.30466908 </output>
						</split>
					</split>
					<split pos="right">
						<output> 0.13635515 </output>
					</split>
				</split>
			</split>
		</split>
	</tree>
	<tree id="13" weight="0.1">
		<split>
			<feature> 116 </feature>
			<threshold> -30.674526 </threshold>
			<split pos="left">
				<output> 0.029652845 </output>
			</split>
			<split pos="right">
				<feature> 116 </feature>
				<threshold> -17.177723 </threshold>
				<split pos="left">
					<feature> 116 </feature>
					<threshold> -23.312634 </threshold>
					<split pos="left">
						<output> 0.13580608 </output>
					</split>
					<split pos="right">
						<output> 0.16664045 </output>
					</split>
				</split>
				<split pos="right">
					<feature> 116 </feature>
					<threshold> -3.0674496 </threshold>
					<split pos="left">
						<feature> 116 </feature>
						<threshold> -5.52141 </threshold>
						<split pos="left">
							<feature> 116 </feature>
							<threshold> -7.9753704 </threshold>
							<split pos="left">
								<feature> 116 </feature>
								<threshold> -11.042821 </threshold>
								<split pos="left">
									<feature> 116 </feature>
									<threshold> -15.337252 </threshold>
									<split pos="left">
										<output> 0.22244106 </output>
									</split>
									<split pos="right">
										<feature> 116 </feature>
										<threshold> -12.883291 </threshold>
										<split pos="left">
											<output> 0.17364304 </output>
										</split>
										<split pos="right">
											<output> 0.20074727 </output>
										</split>
									</split>
								</split>
								<split pos="right">
									<output> 0.26571274 </output>
								</split>
							</split>
							<split pos="right">
								<output> 0.18441588 </output>
							</split>
						</split>
						<split pos="right">
							<output> 0.25765267 </output>
						</split>
					</split>
					<split pos="right">
						<output> 0.1233786 </output>
					</split>
				</split>
			</split>
		</split>
	</tree>
	<tree id="14" weight="0.1">
		<split>
			<feature> 116 </feature>
			<threshold> -34.968964 </threshold>
			<split pos="left">
				<output> -0.022047445 </output>
			</split>
			<split pos="right">
				<feature> 116 </feature>
				<threshold> -17.177723 </threshold>
				<split pos="left">
					<feature> 116 </feature>
					<threshold> -25.766598 </threshold>
					<split pos="left">
						<output> 0.108717844 </output>
					</split>
					<split pos="right">
						<output> 0.14679712 </output>
					</split>
				</split>
				<split pos="right">
					<feature> 116 </feature>
					<threshold> -1.8404694 </threshold>
					<split pos="left">
						<feature> 116 </feature>
						<threshold> -5.52141 </threshold>
						<split pos="left">
							<feature> 116 </feature>
							<threshold> -7.9753704 </threshold>
							<split pos="left">
								<feature> 116 </feature>
								<threshold> -11.042821 </threshold>
								<split pos="left">
									<feature> 116 </feature>
									<threshold> -15.337252 </threshold>
									<split pos="left">
										<output> 0.20009254 </output>
									</split>
									<split pos="right">
										<feature> 116 </feature>
										<threshold> -12.883291 </threshold>
										<split pos="left">
											<output> 0.15617388 </output>
										</split>
										<split pos="right">
											<output> 0.18045057 </output>
										</split>
									</split>
								</split>
								<split pos="right">
									<output> 0.23896189 </output>
								</split>
							</split>
							<split pos="right">
								<output> 0.16608864 </output>
							</split>
						</split>
						<split pos="right">
							<output> 0.23156404 </output>
						</split>
					</split>
					<split pos="right">
						<output> 0.11038513 </output>
					</split>
				</split>
			</split>
		</split>
	</tree>
	<tree id="15" weight="0.1">
		<split>
			<feature> 116 </feature>
			<threshold> -34.968964 </threshold>
			<split pos="left">
				<output> -0.019848539 </output>
			</split>
			<split pos="right">
				<feature> 116 </feature>
				<threshold> -17.177723 </threshold>
				<split pos="left">
					<feature> 116 </feature>
					<threshold> -23.312634 </threshold>
					<split pos="left">
						<output> 0.10472716 </output>
					</split>
					<split pos="right">
						<output> 0.1353731 </output>
					</split>
				</split>
				<split pos="right">
					<feature> 116 </feature>
					<threshold> -3.0674496 </threshold>
					<split pos="left">
						<feature> 116 </feature>
						<threshold> -4.90792 </threshold>
						<split pos="left">
							<feature> 116 </feature>
							<threshold> -11.042821 </threshold>
							<split pos="left">
								<feature> 116 </feature>
								<threshold> -15.337252 </threshold>
								<split pos="left">
									<output> 0.18031594 </output>
								</split>
								<split pos="right">
									<output> 0.15255785 </output>
								</split>
							</split>
							<split pos="right">
								<feature> 116 </feature>
								<threshold> -8.5888605 </threshold>
								<split pos="left">
									<output> 0.23140895 </output>
								</split>
								<split pos="right">
									<feature> 116 </feature>
									<threshold> -6.74839 </threshold>
									<split pos="left">
										<output> 0.1368828 </output>
									</split>
									<split pos="right">
										<output> 0.17951463 </output>
									</split>
								</split>
							</split>
						</split>
						<split pos="right">
							<output> 0.22603527 </output>
						</split>
					</split>
					<split pos="right">
						<output> 0.0998305 </output>
					</split>
				</split>
			</split>
		</split>
	</tree>
	<tree id="16" weight="0.1">
		<split>
			<feature> 116 </feature>
			<threshold> -35.582455 </threshold>
			<split pos="left">
				<output> -0.024664225 </output>
			</split>
			<split pos="right">
				<feature> 116 </feature>
				<threshold> -17.177723 </threshold>
				<split pos="left">
					<feature> 116 </feature>
					<threshold> -25.766598 </threshold>
					<split pos="left">
						<output> 0.08680005 </output>
					</split>
					<split pos="right">
						<output> 0.11908512 </output>
					</split>
				</split>
				<split pos="right">
					<feature> 116 </feature>
					<threshold> -3.0674496 </threshold>
					<split pos="left">
						<feature> 116 </feature>
						<threshold> -5.52141 </threshold>
						<split pos="left">
							<feature> 116 </feature>
							<threshold> -7.9753704 </threshold>
							<split pos="left">
								<feature> 116 </feature>
								<threshold> -11.042821 </threshold>
								<split pos="left">
									<feature> 116 </feature>
									<threshold> -15.337252 </threshold>
									<split pos="left">
										<output> 0.16223967 </output>
									</split>
									<split pos="right">
										<feature> 116 </feature>
										<threshold> -12.883291 </threshold>
										<split pos="left">
											<output> 0.12529555 </output>
										</split>
										<split pos="right">
											<output> 0.1472537 </output>
										</split>
									</split>
								</split>
								<split pos="right">
									<output> 0.19450255 </output>
								</split>
							</split>
							<split pos="right">
								<output> 0.13351037 </output>
							</split>
						</split>
						<split pos="right">
							<output> 0.18843251 </output>
						</split>
					</split>
					<split pos="right">
						<output> 0.089834906 </output>
					</split>
				</split>
			</split>
		</split>
	</tree>
	<tree id="17" weight="0.1">
		<split>
			<feature> 116 </feature>
			<threshold> -35.582455 </threshold>
			<split pos="left">
				<output> -0.02220998 </output>
			</split>
			<split pos="right">
				<feature> 116 </feature>
				<threshold> -19.018196 </threshold>
				<split pos="left">
					<output> 0.09335139 </output>
				</split>
				<split pos="right">
					<feature> 116 </feature>
					<threshold> -11.042821 </threshold>
					<split pos="left">
						<feature> 116 </feature>
						<threshold> -12.883291 </threshold>
						<split pos="left">
							<feature> 116 </feature>
							<threshold> -14.723762 </threshold>
							<split pos="left">
								<output> 0.13139436 </output>
							</split>
							<split pos="right">
								<output> 0.10796624 </output>
							</split>
						</split>
						<split pos="right">
							<output> 0.13253489 </output>
						</split>
					</split>
					<split pos="right">
						<feature> 116 </feature>
						<threshold> -8.5888605 </threshold>
						<split pos="left">
							<output> 0.18865724 </output>
						</split>
						<split pos="right">
							<feature> 116 </feature>
							<threshold> -6.74839 </threshold>
							<split pos="left">
								<output> 0.107868865 </output>
							</split>
							<split pos="right">
								<feature> 116 </feature>
								<threshold> -3.6809397 </threshold>
								<split pos="left">
									<feature> 116 </feature>
									<threshold> -4.29443 </threshold>
									<split pos="left">
										<output> 0.15050527 </output>
									</split>
									<split pos="right">
										<output> 0.23727366 </output>
									</split>
								</split>
								<split pos="right">
									<output> 0.0845108 </output>
								</split>
							</split>
						</split>
					</split>
				</split>
			</split>
		</split>
	</tree>
	<tree id="18" weight="0.1">
		<split>
			<feature> 116 </feature>
			<threshold> -28.834053 </threshold>
			<split pos="left">
				<output> 0.025535485 </output>
			</split>
			<split pos="right">
				<feature> 116 </feature>
				<threshold> -17.177723 </threshold>
				<split pos="left">
					<output> 0.09407688 </output>
				</split>
				<split pos="right">
					<feature> 116 </feature>
					<threshold> -1.8404694 </threshold>
					<split pos="left">
						<feature> 116 </feature>
						<threshold> -4.90792 </threshold>
						<split pos="left">
							<feature> 116 </feature>
							<threshold> -11.042821 </threshold>
							<split pos="left">
								<feature> 116 </feature>
								<threshold> -15.337252 </threshold>
								<split pos="left">
									<output> 0.13277325 </output>
								</split>
								<split pos="right">
									<feature> 116 </feature>
									<threshold> -12.883291 </threshold>
									<split pos="left">
										<output> 0.10150233 </output>
									</split>
									<split pos="right">
										<output> 0.11931665 </output>
									</split>
								</split>
							</split>
							<split pos="right">
								<feature> 116 </feature>
								<threshold> -8.5888605 </threshold>
								<split pos="left">
									<output> 0.16982628 </output>
								</split>
								<split pos="right">
									<feature> 116 </feature>
									<threshold> -6.1349 </threshold>
									<split pos="left">
										<output> 0.10230463 </output>
									</split>
									<split pos="right">
										<output> 0.13711855 </output>
									</split>
								</split>
							</split>
						</split>
						<split pos="right">
							<output> 0.16710944 </output>
						</split>
					</split>
					<split pos="right">
						<output> 0.07194092 </output>
					</split>
				</split>
			</split>
		</split>
	</tree>
	<tree id="19" weight="0.1">
		<split>
			<feature> 116 </feature>
			<threshold> -36.809437 </threshold>
			<split pos="left">
				<output> -0.03211315 </output>
			</split>
			<split pos="right">
				<feature> 116 </feature>
				<threshold> -18.404705 </threshold>
				<split pos="left">
					<feature> 116 </feature>
					<threshold> -26.99358 </threshold>
					<split pos="left">
						<output> 0.05882372 </output>
					</split>
					<split pos="right">
						<output> 0.08333573 </output>
					</split>
				</split>
				<split pos="right">
					<feature> 116 </feature>
					<threshold> -11.042821 </threshold>
					<split pos="left">
						<feature> 116 </feature>
						<threshold> -14.723762 </threshold>
						<split pos="left">
							<output> 0.10935418 </output>
						</split>
						<split pos="right">
							<feature> 116 </feature>
							<threshold> -12.883291 </threshold>
							<split pos="left">
								<output> 0.08701161 </output>
							</split>
							<split pos="right">
								<output> 0.10737676 </output>
							</split>
						</split>
					</split>
					<split pos="right">
						<feature> 116 </feature>
						<threshold> -8.5888605 </threshold>
						<split pos="left">
							<output> 0.15275763 </output>
						</split>
						<split pos="right">
							<feature> 116 </feature>
							<threshold> -6.74839 </threshold>
							<split pos="left">
								<output> 0.08686076 </output>
							</split>
							<split pos="right">
								<feature> 116 </feature>
								<threshold> -3.6809397 </threshold>
								<split pos="left">
									<output> 0.12699011 </output>
								</split>
								<split pos="right">
									<output> 0.06768202 </output>
								</split>
							</split>
						</split>
					</split>
				</split>
			</split>
		</split>
	</tree>
	<tree id="20" weight="0.1">
		<split>
			<feature> 116 </feature>
			<threshold> -38.03642 </threshold>
			<split pos="left">
				<output> -0.038117845 </output>
			</split>
			<split pos="right">
				<feature> 116 </feature>
				<threshold> -19.018196 </threshold>
				<split pos="left">
					<feature> 116 </feature>
					<threshold> -26.99358 </threshold>
					<split pos="left">
						<output> 0.051890574 </output>
					</split>
					<split pos="right">
						<output> 0.07341245 </output>
					</split>
				</split>
				<split pos="right">
					<feature> 116 </feature>
					<threshold> -11.042821 </threshold>
					<split pos="left">
						<feature> 116 </feature>
						<threshold> -14.723762 </threshold>
						<split pos="left">
							<feature> 116 </feature>
							<threshold> -17.177723 </threshold>
							<split pos="left">
								<output> 0.08564967 </output>
							</split>
							<split pos="right">
								<output> 0.10568257 </output>
							</split>
						</split>
						<split pos="right">
							<feature> 116 </feature>
							<threshold> -12.883291 </threshold>
							<split pos="left">
								<output> 0.078364514 </output>
							</split>
							<split pos="right">
								<output> 0.09665115 </output>
							</split>
						</split>
					</split>
					<split pos="right">
						<feature> 116 </feature>
						<threshold> -8.5888605 </threshold>
						<split pos="left">
							<output> 0.13748783 </output>
						</split>
						<split pos="right">
							<feature> 116 </feature>
							<threshold> -6.1349 </threshold>
							<split pos="left">
								<output> 0.08227829 </output>
							</split>
							<split pos="right">
								<output> 0.11229346 </output>
							</split>
						</split>
					</split>
				</split>
			</split>
		</split>
	</tree>
	<tree id="21" weight="0.1">
		<split>
			<feature> 116 </feature>
			<threshold> -35.582455 </threshold>
			<split pos="left">
				<output> -0.018927727 </output>
			</split>
			<split pos="right">
				<feature> 116 </feature>
				<threshold> -17.177723 </threshold>
				<split pos="left">
					<output> 0.06538526 </output>
				</split>
				<split pos="right">
					<feature> 116 </feature>
					<threshold> -3.6809397 </threshold>
					<split pos="left">
						<feature> 116 </feature>
						<threshold> -4.29443 </threshold>
						<split pos="left">
							<feature> 116 </feature>
							<threshold> -11.042821 </threshold>
							<split pos="left">
								<feature> 116 </feature>
								<threshold> -16.564232 </threshold>
								<split pos="left">
									<output> 0.11163347 </output>
								</split>
								<split pos="right">
									<feature> 116 </feature>
									<threshold> -12.883291 </threshold>
									<split pos="left">
										<output> 0.0786097 </output>
									</split>
									<split pos="right">
										<output> 0.086925395 </output>
									</split>
								</split>
							</split>
							<split pos="right">
								<feature> 116 </feature>
								<threshold> -8.5888605 </threshold>
								<split pos="left">
									<output> 0.12373861 </output>
								</split>
								<split pos="right">
									<feature> 116 </feature>
									<threshold> -6.1349 </threshold>
									<split pos="left">
										<output> 0.074002765 </output>
									</split>
									<split pos="right">
										<output> 0.10283314 </output>
									</split>
								</split>
							</split>
						</split>
						<split pos="right">
							<output> 0.17292641 </output>
						</split>
					</split>
					<split pos="right">
						<output> 0.049682748 </output>
					</split>
				</split>
			</split>
		</split>
	</tree>
	<tree id="22" weight="0.1">
		<split>
			<feature> 116 </feature>
			<threshold> -38.03642 </threshold>
			<split pos="left">
				<output> -0.03239881 </output>
			</split>
			<split pos="right">
				<feature> 116 </feature>
				<threshold> -19.631687 </threshold>
				<split pos="left">
					<output> 0.052720904 </output>
				</split>
				<split pos="right">
					<feature> 116 </feature>
					<threshold> -11.042821 </threshold>
					<split pos="left">
						<feature> 116 </feature>
						<threshold> -14.723762 </threshold>
						<split pos="left">
							<feature> 116 </feature>
							<threshold> -17.177723 </threshold>
							<split pos="left">
								<output> 0.06991019 </output>
							</split>
							<split pos="right">
								<output> 0.08632014 </output>
							</split>
						</split>
						<split pos="right">
							<feature> 116 </feature>
							<threshold> -12.883291 </threshold>
							<split pos="left">
								<output> 0.06261478 </output>
							</split>
							<split pos="right">
								<output> 0.07827617 </output>
							</split>
						</split>
					</split>
					<split pos="right">
						<feature> 116 </feature>
						<threshold> -8.5888605 </threshold>
						<split pos="left">
							<output> 0.11145533 </output>
						</split>
						<split pos="right">
							<feature> 116 </feature>
							<threshold> -6.74839 </threshold>
							<split pos="left">
								<output> 0.06252383 </output>
							</split>
							<split pos="right">
								<feature> 116 </feature>
								<threshold> -3.6809397 </threshold>
								<split pos="left">
									<output> 0.093658574 </output>
								</split>
								<split pos="right">
									<output> 0.044712014 </output>
								</split>
							</split>
						</split>
					</split>
				</split>
			</split>
		</split>
	</tree>
	<tree id="23" weight="0.1">
		<split>
			<feature> 116 </feature>
			<threshold> -30.674526 </threshold>
			<split pos="left">
				<output> 0.0054392675 </output>
			</split>
			<split pos="right">
				<feature> 116 </feature>
				<threshold> -17.177723 </threshold>
				<split pos="left">
					<output> 0.05511183 </output>
				</split>
				<split pos="right">
					<feature> 116 </feature>
					<threshold> -1.8404694 </threshold>
					<split pos="left">
						<feature> 116 </feature>
						<threshold> -4.29443 </threshold>
						<split pos="left">
							<feature> 116 </feature>
							<threshold> -10.429331 </threshold>
							<split pos="left">
								<feature> 116 </feature>
								<threshold> -16.564232 </threshold>
								<split pos="left">
									<output> 0.09183044 </output>
								</split>
								<split pos="right">
									<feature> 116 </feature>
									<threshold> -12.883291 </threshold>
									<split pos="left">
										<output> 0.06345628 </output>
									</split>
									<split pos="right">
										<output> 0.07045963 </output>
									</split>
								</split>
							</split>
							<split pos="right">
								<feature> 116 </feature>
								<threshold> -9.202351 </threshold>
								<split pos="left">
									<output> 0.12583289 </output>
								</split>
								<split pos="right">
									<feature> 116 </feature>
									<threshold> -6.1349 </threshold>
									<split pos="left">
										<output> 0.06272641 </output>
									</split>
									<split pos="right">
										<output> 0.08318583 </output>
									</split>
								</split>
							</split>
						</split>
						<split pos="right">
							<output> 0.13099244 </output>
						</split>
					</split>
					<split pos="right">
						<output> 0.037302867 </output>
					</split>
				</split>
			</split>
		</split>
	</tree>
	<tree id="24" weight="0.1">
		<split>
			<feature> 116 </feature>
			<threshold> -38.03642 </threshold>
			<split pos="left">
				<output> -0.029703468 </output>
			</split>
			<split pos="right">
				<feature> 116 </feature>
				<threshold> -20.245178 </threshold>
				<split pos="left">
					<output> 0.04156983 </output>
				</split>
				<split pos="right">
					<feature> 116 </feature>
					<threshold> -10.429331 </threshold>
					<split pos="left">
						<feature> 116 </feature>
						<threshold> -17.177723 </threshold>
						<split pos="left">
							<output> 0.05699728 </output>
						</split>
						<split pos="right">
							<feature> 116 </feature>
							<threshold> -16.564232 </threshold>
							<split pos="left">
								<output> 0.082634486 </output>
							</split>
							<split pos="right">
								<feature> 116 </feature>
								<threshold> -12.883291 </threshold>
								<split pos="left">
									<output> 0.05711268 </output>
								</split>
								<split pos="right">
									<output> 0.0633923 </output>
								</split>
							</split>
						</split>
					</split>
					<split pos="right">
						<feature> 116 </feature>
						<threshold> -8.5888605 </threshold>
						<split pos="left">
							<output> 0.1073532 </output>
						</split>
						<split pos="right">
							<feature> 116 </feature>
							<threshold> -6.74839 </threshold>
							<split pos="left">
								<output> 0.049963083 </output>
							</split>
							<split pos="right">
								<feature> 116 </feature>
								<threshold> -3.6809397 </threshold>
								<split pos="left">
									<output> 0.076112784 </output>
								</split>
								<split pos="right">
									<output> 0.035345003 </output>
								</split>
							</split>
						</split>
					</split>
				</split>
			</split>
		</split>
	</tree>
	<tree id="25" weight="0.1">
		<split>
			<feature> 116 </feature>
			<threshold> -38.03642 </threshold>
			<split pos="left">
				<output> -0.026731642 </output>
			</split>
			<split pos="right">
				<feature> 116 </feature>
				<threshold> -20.245178 </threshold>
				<split pos="left">
					<output> 0.03739544 </output>
				</split>
				<split pos="right">
					<feature> 116 </feature>
					<threshold> -10.429331 </threshold>
					<split pos="left">
						<feature> 116 </feature>
						<threshold> -14.723762 </threshold>
						<split pos="left">
							<feature> 116 </feature>
							<threshold> -17.177723 </threshold>
							<split pos="left">
								<output> 0.051291168 </output>
							</split>
							<split pos="right">
								<output> 0.064165734 </output>
							</split>
						</split>
						<split pos="right">
							<feature> 116 </feature>
							<threshold> -12.883291 </threshold>
							<split pos="left">
								<output> 0.04433069 </output>
							</split>
							<split pos="right">
								<output> 0.057053838 </output>
							</split>
						</split>
					</split>
					<split pos="right">
						<feature> 116 </feature>
						<threshold> -9.202351 </threshold>
						<split pos="left">
							<output> 0.102564834 </output>
						</split>
						<split pos="right">
							<feature> 116 </feature>
							<threshold> -6.1349 </threshold>
							<split pos="left">
								<feature> 116 </feature>
								<threshold> -7.9753704 </threshold>
								<split pos="left">
									<output> 0.07528301 </output>
								</split>
								<split pos="right">
									<output> 0.039299574 </output>
								</split>
							</split>
							<split pos="right">
								<output> 0.066972494 </output>
							</split>
						</split>
					</split>
				</split>
			</split>
		</split>
	</tree>
	<tree id="26" weight="0.1">
		<split>
			<feature> 116 </feature>
			<threshold> -26.99358 </threshold>
			<split pos="left">
				<output> 0.0122788325 </output>
			</split>
			<split pos="right">
				<feature> 116 </feature>
				<threshold> -12.269801 </threshold>
				<split pos="left">
					<feature> 116 </feature>
					<threshold> -20.245178 </threshold>
					<split pos="left">
						<output> 0.03852848 </output>
					</split>
					<split pos="right">
						<feature> 116 </feature>
						<threshold> -14.723762 </threshold>
						<split pos="left">
							<feature> 116 </feature>
							<threshold> -17.177723 </threshold>
							<split pos="left">
								<output> 0.046163402 </output>
							</split>
							<split pos="right">
								<output> 0.057761207 </output>
							</split>
						</split>
						<split pos="right">
							<output> 0.042862706 </output>
						</split>
					</split>
				</split>
				<split pos="right">
					<feature> 116 </feature>
					<threshold> -7.9753704 </threshold>
					<split pos="left">
						<feature> 116 </feature>
						<threshold> -10.429331 </threshold>
						<split pos="left">
							<output> 0.052118402 </output>
						</split>
						<split pos="right">
							<output> 0.07962385 </output>
						</split>
					</split>
					<split pos="right">
						<feature> 116 </feature>
						<threshold> -6.74839 </threshold>
						<split pos="left">
							<output> 0.027082663 </output>
						</split>
						<split pos="right">
							<feature> 116 </feature>
							<threshold> -3.6809397 </threshold>
							<split pos="left">
								<output> 0.062388465 </output>
							</split>
							<split pos="right">
								<output> 0.02511657 </output>
							</split>
						</split>
					</split>
				</split>
			</split>
		</split>
	</tree>
	<tree id="27" weight="0.1">
		<split>
			<feature> 116 </feature>
			<threshold> -38.03642 </threshold>
			<split pos="left">
				<output> -0.025299517 </output>
			</split>
			<split pos="right">
				<feature> 116 </feature>
				<threshold> -19.018196 </threshold>
				<split pos="left">
					<output> 0.032278985 </output>
				</split>
				<split pos="right">
					<feature> 116 </feature>
					<threshold> -3.6809397 </threshold>
					<split pos="left">
						<feature> 116 </feature>
						<threshold> -4.29443 </threshold>
						<split pos="left">
							<feature> 116 </feature>
							<threshold> -5.52141 </threshold>
							<split pos="left">
								<feature> 116 </feature>
								<threshold> -7.9753704 </threshold>
								<split pos="left">
									<feature> 116 </feature>
									<threshold> -10.429331 </threshold>
									<split pos="left">
										<feature> 116 </feature>
										<threshold> -15.337252 </threshold>
										<split pos="left">
											<output> 0.04812313 </output>
										</split>
										<split pos="right">
											<feature> 116 </feature>
											<threshold> -12.883291 </threshold>
											<split pos="left">
												<output> 0.03761667 </output>
											</split>
											<split pos="right">
												<output> 0.046409637 </output>
											</split>
										</split>
									</split>
									<split pos="right">
										<output> 0.071627356 </output>
									</split>
								</split>
								<split pos="right">
									<output> 0.03651044 </output>
								</split>
							</split>
							<split pos="right">
								<output> 0.058525633 </output>
							</split>
						</split>
						<split pos="right">
							<output> 0.112619564 </output>
						</split>
					</split>
					<split pos="right">
						<output> 0.022603592 </output>
					</split>
				</split>
			</split>
		</split>
	</tree>
	<tree id="28" weight="0.1">
		<split>
			<feature> 116 </feature>
			<threshold> -41.717365 </threshold>
			<split pos="left">
				<output> -0.037572175 </output>
			</split>
			<split pos="right">
				<feature> 116 </feature>
				<threshold> -23.312634 </threshold>
				<split pos="left">
					<output> 0.022661645 </output>
				</split>
				<split pos="right">
					<feature> 116 </feature>
					<threshold> -10.429331 </threshold>
					<split pos="left">
						<feature> 116 </feature>
						<threshold> -17.177723 </threshold>
						<split pos="left">
							<output> 0.036391538 </output>
						</split>
						<split pos="right">
							<feature> 116 </feature>
							<threshold> -16.564232 </threshold>
							<split pos="left">
								<output> 0.05737677 </output>
							</split>
							<split pos="right">
								<feature> 116 </feature>
								<threshold> -12.883291 </threshold>
								<split pos="left">
									<output> 0.037089564 </output>
								</split>
								<split pos="right">
									<output> 0.041742988 </output>
								</split>
							</split>
						</split>
					</split>
					<split pos="right">
						<feature> 116 </feature>
						<threshold> -9.202351 </threshold>
						<split pos="left">
							<output> 0.077150136 </output>
						</split>
						<split pos="right">
							<feature> 116 </feature>
							<threshold> -6.1349 </threshold>
							<split pos="left">
								<feature> 116 </feature>
								<threshold> -7.9753704 </threshold>
								<split pos="left">
									<output> 0.052613176 </output>
								</split>
								<split pos="right">
									<output> 0.027786463 </output>
								</split>
							</split>
							<split pos="right">
								<output> 0.049418233 </output>
							</split>
						</split>
					</split>
				</split>
			</split>
		</split>
	</tree>
	<tree id="29" weight="0.1">
		<split>
			<feature> 116 </feature>
			<threshold> -33.74198 </threshold>
			<split pos="left">
				<output> -0.008597433 </output>
			</split>
			<split pos="right">
				<feature> 116 </feature>
				<threshold> -19.018196 </threshold>
				<split pos="left">
					<output> 0.027291423 </output>
				</split>
				<split pos="right">
					<feature> 116 </feature>
					<threshold> -3.0674496 </threshold>
					<split pos="left">
						<feature> 116 </feature>
						<threshold> -4.29443 </threshold>
						<split pos="left">
							<feature> 116 </feature>
							<threshold> -4.90792 </threshold>
							<split pos="left">
								<feature> 116 </feature>
								<threshold> -7.9753704 </threshold>
								<split pos="left">
									<feature> 116 </feature>
									<threshold> -9.815841 </threshold>
									<split pos="left">
										<feature> 116 </feature>
										<threshold> -10.429331 </threshold>
										<split pos="left">
											<feature> 116 </feature>
											<threshold> -14.723762 </threshold>
											<split pos="left">
												<output> 0.03908136 </output>
											</split>
											<split pos="right">
												<output> 0.03443619 </output>
											</split>
										</split>
										<split pos="right">
											<output> 0.045355286 </output>
										</split>
									</split>
									<split pos="right">
										<output> 0.06317945 </output>
									</split>
								</split>
								<split pos="right">
									<output> 0.032593094 </output>
								</split>
							</split>
							<split pos="right">
								<output> 0.05420634 </output>
							</split>
						</split>
						<split pos="right">
							<output> 0.08530144 </output>
						</split>
					</split>
					<split pos="right">
						<output> 0.013814599 </output>
					</split>
				</split>
			</split>
		</split>
	</tree>
	<tree id="30" weight="0.1">
		<split>
			<feature> 116 </feature>
			<threshold> -41.717365 </threshold>
			<split pos="left">
				<output> -0.032950334 </output>
			</split>
			<split pos="right">
				<feature> 116 </feature>
				<threshold> -23.312634 </threshold>
				<split pos="left">
					<output> 0.018304113 </output>
				</split>
				<split pos="right">
					<feature> 116 </feature>
					<threshold> -3.6809397 </threshold>
					<split pos="left">
						<feature> 116 </feature>
						<threshold> -4.29443 </threshold>
						<split pos="left">
							<feature> 116 </feature>
							<threshold> -5.52141 </threshold>
							<split pos="left">
								<feature> 116 </feature>
								<threshold> -7.3618803 </threshold>
								<split pos="left">
									<feature> 116 </feature>
									<threshold> -10.429331 </threshold>
									<split pos="left">
										<feature> 116 </feature>
										<threshold> -17.177723 </threshold>
										<split pos="left">
											<output> 0.029540185 </output>
										</split>
										<split pos="right">
											<feature> 116 </feature>
											<threshold> -16.564232 </threshold>
											<split pos="left">
												<output> 0.047730416 </output>
											</split>
											<split pos="right">
												<output> 0.03203829 </output>
											</split>
										</split>
									</split>
									<split pos="right">
										<output> 0.045031194 </output>
									</split>
								</split>
								<split pos="right">
									<output> 0.024441006 </output>
								</split>
							</split>
							<split pos="right">
								<output> 0.04360538 </output>
							</split>
						</split>
						<split pos="right">
							<output> 0.08787688 </output>
						</split>
					</split>
					<split pos="right">
						<output> 0.013226247 </output>
					</split>
				</split>
			</split>
		</split>
	</tree>
	<tree id="31" weight="0.1">
		<split>
			<feature> 116 </feature>
			<threshold> -38.64991 </threshold>
			<split pos="left">
				<output> -0.020334238 </output>
			</split>
			<split pos="right">
				<feature> 116 </feature>
				<threshold> -23.312634 </threshold>
				<split pos="left">
					<output> 0.017219163 </output>
				</split>
				<split pos="right">
					<feature> 116 </feature>
					<threshold> -3.6809397 </threshold>
					<split pos="left">
						<feature> 116 </feature>
						<threshold> -4.29443 </threshold>
						<split pos="left">
							<feature> 116 </feature>
							<threshold> -5.52141 </threshold>
							<split pos="left">
								<feature> 116 </feature>
								<threshold> -7.9753704 </threshold>
								<split pos="left">
									<feature> 116 </feature>
									<threshold> -9.815841 </threshold>
									<split pos="left">
										<feature> 116 </feature>
										<threshold> -12.269801 </threshold>
										<split pos="left">
											<feature> 116 </feature>
											<threshold> -14.723762 </threshold>
											<split pos="left">
												<output> 0.029594919 </output>
											</split>
											<split pos="right">
												<output> 0.024046296 </output>
											</split>
										</split>
										<split pos="right">
											<output> 0.032362834 </output>
										</split>
									</split>
									<split pos="right">
										<output> 0.052356962 </output>
									</split>
								</split>
								<split pos="right">
									<output> 0.023111643 </output>
								</split>
							</split>
							<split pos="right">
								<output> 0.039235495 </output>
							</split>
						</split>
						<split pos="right">
							<output> 0.079093136 </output>
						</split>
					</split>
					<split pos="right">
						<output> 0.011904134 </output>
					</split>
				</split>
			</split>
		</split>
	</tree>
	<tree id="32" weight="0.1">
		<split>
			<feature> 116 </feature>
			<threshold> -41.717365 </threshold>
			<split pos="left">
				<output> -0.027631173 </output>
			</split>
			<split pos="right">
				<feature> 116 </feature>
				<threshold> -23.312634 </threshold>
				<split pos="left">
					<output> 0.014931037 </output>
				</split>
				<split pos="right">
					<feature> 116 </feature>
					<threshold> -6.74839 </threshold>
					<split pos="left">
						<feature> 116 </feature>
						<threshold> -7.3618803 </threshold>
						<split pos="left">
							<feature> 116 </feature>
							<threshold> -10.429331 </threshold>
							<split pos="left">
								<feature> 116 </feature>
								<threshold> -17.177723 </threshold>
								<split pos="left">
									<output> 0.023632333 </output>
								</split>
								<split pos="right">
									<feature> 116 </feature>
									<threshold> -15.337252 </threshold>
									<split pos="left">
										<output> 0.034279753 </output>
									</split>
									<split pos="right">
										<feature> 116 </feature>
										<threshold> -12.883291 </threshold>
										<split pos="left">
											<output> 0.020896425 </output>
										</split>
										<split pos="right">
											<output> 0.027868103 </output>
										</split>
									</split>
								</split>
							</split>
							<split pos="right">
								<output> 0.036651716 </output>
							</split>
						</split>
						<split pos="right">
							<output> -0.017804736 </output>
						</split>
					</split>
					<split pos="right">
						<feature> 116 </feature>
						<threshold> -3.6809397 </threshold>
						<split pos="left">
							<output> 0.035464846 </output>
						</split>
						<split pos="right">
							<output> 0.01071393 </output>
						</split>
					</split>
				</split>
			</split>
		</split>
	</tree>
	<tree id="33" weight="0.1">
		<split>
			<feature> 116 </feature>
			<threshold> -41.717365 </threshold>
			<split pos="left">
				<output> -0.024860874 </output>
			</split>
			<split pos="right">
				<feature> 116 </feature>
				<threshold> -23.312634 </threshold>
				<split pos="left">
					<output> 0.013436913 </output>
				</split>
				<split pos="right">
					<feature> 116 </feature>
					<threshold> -6.1349 </threshold>
					<split pos="left">
						<feature> 116 </feature>
						<threshold> -7.3618803 </threshold>
						<split pos="left">
							<feature> 116 </feature>
							<threshold> -10.429331 </threshold>
							<split pos="left">
								<feature> 116 </feature>
								<threshold> -21.47216 </threshold>
								<split pos="left">
									<output> 0.02905337 </output>
								</split>
								<split pos="right">
									<feature> 116 </feature>
									<threshold> -20.85867 </threshold>
									<split pos="left">
										<output> 9.204506E-4 </output>
									</split>
									<split pos="right">
										<feature> 116 </feature>
										<threshold> -17.177723 </threshold>
										<split pos="left">
											<output> 0.021276955 </output>
										</split>
										<split pos="right">
											<feature> 116 </feature>
											<threshold> -16.564232 </threshold>
											<split pos="left">
												<output> 0.036568012 </output>
											</split>
											<split pos="right">
												<output> 0.023343382 </output>
											</split>
										</split>
									</split>
								</split>
							</split>
							<split pos="right">
								<output> 0.03298646 </output>
							</split>
						</split>
						<split pos="right">
							<output> 0.00942864 </output>
						</split>
					</split>
					<split pos="right">
						<output> 0.030280957 </output>
					</split>
				</split>
			</split>
		</split>
	</tree>
	<tree id="34" weight="0.1">
		<split>
			<feature> 116 </feature>
			<threshold> -33.74198 </threshold>
			<split pos="left">
				<output> -0.0067207017 </output>
			</split>
			<split pos="right">
				<feature> 116 </feature>
				<threshold> -17.791214 </threshold>
				<split pos="left">
					<output> 0.016827239 </output>
				</split>
				<split pos="right">
					<feature> 116 </feature>
					<threshold> -3.6809397 </threshold>
					<split pos="left">
						<feature> 116 </feature>
						<threshold> -4.29443 </threshold>
						<split pos="left">
							<feature> 116 </feature>
							<threshold> -4.90792 </threshold>
							<split pos="left">
								<feature> 116 </feature>
								<threshold> -7.9753704 </threshold>
								<split pos="left">
									<feature> 116 </feature>
									<threshold> -9.815841 </threshold>
									<split pos="left">
										<feature> 116 </feature>
										<threshold> -14.723762 </threshold>
										<split pos="left">
											<output> 0.025452698 </output>
										</split>
										<split pos="right">
											<feature> 116 </feature>
											<threshold> -12.883291 </threshold>
											<split pos="left">
												<output> 0.014658447 </output>
											</split>
											<split pos="right">
												<output> 0.023232356 </output>
											</split>
										</split>
									</split>
									<split pos="right">
										<output> 0.040153213 </output>
									</split>
								</split>
								<split pos="right">
									<output> 0.017982367 </output>
								</split>
							</split>
							<split pos="right">
								<output> 0.033933952 </output>
							</split>
						</split>
						<split pos="right">
							<output> 0.064606406 </output>
						</split>
					</split>
					<split pos="right">
						<output> 0.006616492 </output>
					</split>
				</split>
			</split>
		</split>
	</tree>
	<tree id="35" weight="0.1">
		<split>
			<feature> 116 </feature>
			<threshold> -41.717365 </threshold>
			<split pos="left">
				<output> -0.021710502 </output>
			</split>
			<split pos="right">
				<feature> 116 </feature>
				<threshold> -25.766598 </threshold>
				<split pos="left">
					<output> 0.008865339 </output>
				</split>
				<split pos="right">
					<feature> 116 </feature>
					<threshold> -6.74839 </threshold>
					<split pos="left">
						<feature> 116 </feature>
						<threshold> -7.3618803 </threshold>
						<split pos="left">
							<feature> 116 </feature>
							<threshold> -10.429331 </threshold>
							<split pos="left">
								<feature> 116 </feature>
								<threshold> -25.153107 </threshold>
								<split pos="left">
									<output> 0.033841982 </output>
								</split>
								<split pos="right">
									<feature> 116 </feature>
									<threshold> -24.539616 </threshold>
									<split pos="left">
										<output> -0.0011297982 </output>
									</split>
									<split pos="right">
										<feature> 116 </feature>
										<threshold> -17.177723 </threshold>
										<split pos="left">
											<output> 0.017084291 </output>
										</split>
										<split pos="right">
											<feature> 116 </feature>
											<threshold> -16.564232 </threshold>
											<split pos="left">
												<output> 0.030366147 </output>
											</split>
											<split pos="right">
												<output> 0.018876543 </output>
											</split>
										</split>
									</split>
								</split>
							</split>
							<split pos="right">
								<output> 0.026749728 </output>
							</split>
						</split>
						<split pos="right">
							<output> -0.018757569 </output>
						</split>
					</split>
					<split pos="right">
						<output> 0.024748875 </output>
					</split>
				</split>
			</split>
		</split>
	</tree>
	<tree id="36" weight="0.1">
		<split>
			<feature> 116 </feature>
			<threshold> -28.834053 </threshold>
			<split pos="left">
				<output> 3.295192E-4 </output>
			</split>
			<split pos="right">
				<feature> 116 </feature>
				<threshold> -6.74839 </threshold>
				<split pos="left">
					<feature> 116 </feature>
					<threshold> -7.3618803 </threshold>
					<split pos="left">
						<feature> 116 </feature>
						<threshold> -10.429331 </threshold>
						<split pos="left">
							<feature> 116 </feature>
							<threshold> -20.245178 </threshold>
							<split pos="left">
								<output> 0.013601812 </output>
							</split>
							<split pos="right">
								<feature> 116 </feature>
								<threshold> -14.723762 </threshold>
								<split pos="left">
									<feature> 116 </feature>
									<threshold> -17.177723 </threshold>
									<split pos="left">
										<output> 0.016157016 </output>
									</split>
									<split pos="right">
										<output> 0.022140082 </output>
									</split>
								</split>
								<split pos="right">
									<feature> 116 </feature>
									<threshold> -12.883291 </threshold>
									<split pos="left">
										<output> 0.011305097 </output>
									</split>
									<split pos="right">
										<output> 0.018540917 </output>
									</split>
								</split>
							</split>
						</split>
						<split pos="right">
							<output> 0.024072789 </output>
						</split>
					</split>
					<split pos="right">
						<output> -0.016889796 </output>
					</split>
				</split>
				<split pos="right">
					<feature> 116 </feature>
					<threshold> -3.6809397 </threshold>
					<split pos="left">
						<output> 0.02448521 </output>
					</split>
					<split pos="right">
						<output> 0.0034788789 </output>
					</split>
				</split>
			</split>
		</split>
	</tree>
	<tree id="37" weight="0.1">
		<split>
			<feature> 116 </feature>
			<threshold> -41.717365 </threshold>
			<split pos="left">
				<output> -0.019570105 </output>
			</split>
			<split pos="right">
				<feature> 116 </feature>
				<threshold> -25.766598 </threshold>
				<split pos="left">
					<output> 0.0074334443 </output>
				</split>
				<split pos="right">
					<feature> 116 </feature>
					<threshold> -1.8404694 </threshold>
					<split pos="left">
						<feature> 116 </feature>
						<threshold> -4.29443 </threshold>
						<split pos="left">
							<feature> 116 </feature>
							<threshold> -4.90792 </threshold>
							<split pos="left">
								<feature> 116 </feature>
								<threshold> -8.5888605 </threshold>
								<split pos="left">
									<feature> 116 </feature>
									<threshold> -9.815841 </threshold>
									<split pos="left">
										<feature> 116 </feature>
										<threshold> -25.153107 </threshold>
										<split pos="left">
											<output> 0.029097984 </output>
										</split>
										<split pos="right">
											<feature> 116 </feature>
											<threshold> -24.539616 </threshold>
											<split pos="left">
												<output> -0.002376721 </output>
											</split>
											<split pos="right">
												<output> 0.0153573565 </output>
											</split>
										</split>
									</split>
									<split pos="right">
										<output> 0.04895544 </output>
									</split>
								</split>
								<split pos="right">
									<output> 0.012576024 </output>
								</split>
							</split>
							<split pos="right">
								<output> 0.025612095 </output>
							</split>
						</split>
						<split pos="right">
							<output> 0.0454969 </output>
						</split>
					</split>
					<split pos="right">
						<output> 0.0021469493 </output>
					</split>
				</split>
			</split>
		</split>
	</tree>
	<tree id="38" weight="0.1">
		<split>
			<feature> 116 </feature>
			<threshold> -41.717365 </threshold>
			<split pos="left">
				<output> -0.017614745 </output>
			</split>
			<split pos="right">
				<feature> 116 </feature>
				<threshold> -20.245178 </threshold>
				<split pos="left">
					<output> 0.009222847 </output>
				</split>
				<split pos="right">
					<feature> 116 </feature>
					<threshold> -3.6809397 </threshold>
					<split pos="left">
						<feature> 116 </feature>
						<threshold> -4.29443 </threshold>
						<split pos="left">
							<feature> 116 </feature>
							<threshold> -9.202351 </threshold>
							<split pos="left">
								<feature> 116 </feature>
								<threshold> -9.815841 </threshold>
								<split pos="left">
									<feature> 116 </feature>
									<threshold> -12.269801 </threshold>
									<split pos="left">
										<feature> 116 </feature>
										<threshold> -14.723762 </threshold>
										<split pos="left">
											<output> 0.015376755 </output>
										</split>
										<split pos="right">
											<output> 0.010447051 </output>
										</split>
									</split>
									<split pos="right">
										<output> 0.01580559 </output>
									</split>
								</split>
								<split pos="right">
									<output> 0.06873037 </output>
								</split>
							</split>
							<split pos="right">
								<feature> 116 </feature>
								<threshold> -6.74839 </threshold>
								<split pos="left">
									<output> 0.0048924373 </output>
								</split>
								<split pos="right">
									<output> 0.018277276 </output>
								</split>
							</split>
						</split>
						<split pos="right">
							<output> 0.048673663 </output>
						</split>
					</split>
					<split pos="right">
						<output> 0.0023739487 </output>
					</split>
				</split>
			</split>
		</split>
	</tree>
	<tree id="39" weight="0.1">
		<split>
			<feature> 116 </feature>
			<threshold> -38.64991 </threshold>
			<split pos="left">
				<output> -0.011397724 </output>
			</split>
			<split pos="right">
				<feature> 116 </feature>
				<threshold> -6.74839 </threshold>
				<split pos="left">
					<feature> 116 </feature>
					<threshold> -7.3618803 </threshold>
					<split pos="left">
						<feature> 116 </feature>
						<threshold> -10.429331 </threshold>
						<split pos="left">
							<feature> 116 </feature>
							<threshold> -25.766598 </threshold>
							<split pos="left">
								<output> 0.006257715 </output>
							</split>
							<split pos="right">
								<feature> 116 </feature>
								<threshold> -25.153107 </threshold>
								<split pos="left">
									<output> 0.025265975 </output>
								</split>
								<split pos="right">
									<feature> 116 </feature>
									<threshold> -24.539616 </threshold>
									<split pos="left">
										<output> -0.0030612336 </output>
									</split>
									<split pos="right">
										<feature> 116 </feature>
										<threshold> -21.47216 </threshold>
										<split pos="left">
											<output> 0.015390655 </output>
										</split>
										<split pos="right">
											<feature> 116 </feature>
											<threshold> -20.85867 </threshold>
											<split pos="left">
												<output> -0.006382225 </output>
											</split>
											<split pos="right">
												<output> 0.012482676 </output>
											</split>
										</split>
									</split>
								</split>
							</split>
						</split>
						<split pos="right">
							<output> 0.017988406 </output>
						</split>
					</split>
					<split pos="right">
						<output> -0.01695014 </output>
					</split>
				</split>
				<split pos="right">
					<output> 0.016592836 </output>
				</split>
			</split>
		</split>
	</tree>
	<tree id="40" weight="0.1">
		<split>
			<feature> 116 </feature>
			<threshold> -43.55784 </threshold>
			<split pos="left">
				<output> -0.017571747 </output>
			</split>
			<split pos="right">
				<feature> 116 </feature>
				<threshold> -22.699142 </threshold>
				<split pos="left">
					<output> 0.0063693924 </output>
				</split>
				<split pos="right">
					<feature> 116 </feature>
					<threshold> -3.6809397 </threshold>
					<split pos="left">
						<feature> 116 </feature>
						<threshold> -4.29443 </threshold>
						<split pos="left">
							<feature> 116 </feature>
							<threshold> -21.47216 </threshold>
							<split pos="left">
								<output> 0.021233745 </output>
							</split>
							<split pos="right">
								<feature> 116 </feature>
								<threshold> -20.85867 </threshold>
								<split pos="left">
									<output> -0.005745617 </output>
								</split>
								<split pos="right">
									<feature> 116 </feature>
									<threshold> -4.90792 </threshold>
									<split pos="left">
										<feature> 116 </feature>
										<threshold> -9.202351 </threshold>
										<split pos="left">
											<feature> 116 </feature>
											<threshold> -9.815841 </threshold>
											<split pos="left">
												<output> 0.011392234 </output>
											</split>
											<split pos="right">
												<output> 0.060059767 </output>
											</split>
										</split>
										<split pos="right">
											<output> 0.008836788 </output>
										</split>
									</split>
									<split pos="right">
										<output> 0.019566752 </output>
									</split>
								</split>
							</split>
						</split>
						<split pos="right">
							<output> 0.042145748 </output>
						</split>
					</split>
					<split pos="right">
						<output> 4.7896366E-4 </output>
					</split>
				</split>
			</split>
		</split>
	</tree>
	<tree id="41" weight="0.1">
		<split>
			<feature> 116 </feature>
			<threshold> -76.68628 </threshold>
			<split pos="left">
				<output> 0.086891666 </output>
			</split>
			<split pos="right">
				<feature> 116 </feature>
				<threshold> -43.55784 </threshold>
				<split pos="left">
					<output> -0.031402696 </output>
				</split>
				<split pos="right">
					<feature> 116 </feature>
					<threshold> -28.834053 </threshold>
					<split pos="left">
						<output> 0.0027978094 </output>
					</split>
					<split pos="right">
						<feature> 116 </feature>
						<threshold> -6.74839 </threshold>
						<split pos="left">
							<feature> 116 </feature>
							<threshold> -7.3618803 </threshold>
							<split pos="left">
								<feature> 116 </feature>
								<threshold> -10.429331 </threshold>
								<split pos="left">
									<feature> 116 </feature>
									<threshold> -17.177723 </threshold>
									<split pos="left">
										<output> 0.008586077 </output>
									</split>
									<split pos="right">
										<feature> 116 </feature>
										<threshold> -16.564232 </threshold>
										<split pos="left">
											<output> 0.019652156 </output>
										</split>
										<split pos="right">
											<feature> 116 </feature>
											<threshold> -12.883291 </threshold>
											<split pos="left">
												<output> 0.008443148 </output>
											</split>
											<split pos="right">
												<output> 0.011321466 </output>
											</split>
										</split>
									</split>
								</split>
								<split pos="right">
									<output> 0.0145884855 </output>
								</split>
							</split>
							<split pos="right">
								<output> -0.016132394 </output>
							</split>
						</split>
						<split pos="right">
							<output> 0.013773966 </output>
						</split>
					</split>
				</split>
			</split>
		</split>
	</tree>
	<tree id="42" weight="0.1">
		<split>
			<feature> 116 </feature>
			<threshold> -111.041565 </threshold>
			<split pos="left">
				<output> -0.15175213 </output>
			</split>
			<split pos="right">
				<feature> 116 </feature>
				<threshold> -100.61228 </threshold>
				<split pos="left">
					<output> 0.5240051 </output>
				</split>
				<split pos="right">
					<feature> 116 </feature>
					<threshold> -76.68628 </threshold>
					<split pos="left">
						<output> 0.109220155 </output>
					</split>
					<split pos="right">
						<feature> 116 </feature>
						<threshold> -43.55784 </threshold>
						<split pos="left">
							<output> -0.028259587 </output>
						</split>
						<split pos="right">
							<feature> 116 </feature>
							<threshold> -25.766598 </threshold>
							<split pos="left">
								<output> 0.003952737 </output>
							</split>
							<split pos="right">
								<feature> 116 </feature>
								<threshold> -3.6809397 </threshold>
								<split pos="left">
									<feature> 116 </feature>
									<threshold> -4.29443 </threshold>
									<split pos="left">
										<feature> 116 </feature>
										<threshold> -6.74839 </threshold>
										<split pos="left">
											<feature> 116 </feature>
											<threshold> -7.3618803 </threshold>
											<split pos="left">
												<output> 0.009805872 </output>
											</split>
											<split pos="right">
												<output> -0.014515802 </output>
											</split>
										</split>
										<split pos="right">
											<output> 0.01233998 </output>
										</split>
									</split>
									<split pos="right">
										<output> 0.036556993 </output>
									</split>
								</split>
								<split pos="right">
									<output> -9.437394E-4 </output>
								</split>
							</split>
						</split>
					</split>
				</split>
			</split>
		</split>
	</tree>
	<tree id="43" weight="0.1">
		<split>
			<feature> 116 </feature>
			<threshold> -111.041565 </threshold>
			<split pos="left">
				<output> -0.1365765 </output>
			</split>
			<split pos="right">
				<feature> 116 </feature>
				<threshold> -100.61228 </threshold>
				<split pos="left">
					<output> 0.4716057 </output>
				</split>
				<split pos="right">
					<feature> 116 </feature>
					<threshold> -76.68628 </threshold>
					<split pos="left">
						<output> 0.098299205 </output>
					</split>
					<split pos="right">
						<feature> 116 </feature>
						<threshold> -43.55784 </threshold>
						<split pos="left">
							<output> -0.025433931 </output>
						</split>
						<split pos="right">
							<feature> 116 </feature>
							<threshold> -17.177723 </threshold>
							<split pos="left">
								<output> 0.00593875 </output>
							</split>
							<split pos="right">
								<feature> 116 </feature>
								<threshold> -3.6809397 </threshold>
								<split pos="left">
									<feature> 116 </feature>
									<threshold> -4.29443 </threshold>
									<split pos="left">
										<feature> 116 </feature>
										<threshold> -9.202351 </threshold>
										<split pos="left">
											<feature> 116 </feature>
											<threshold> -9.815841 </threshold>
											<split pos="left">
												<output> 0.008736102 </output>
											</split>
											<split pos="right">
												<output> 0.05159817 </output>
											</split>
										</split>
										<split pos="right">
											<output> 0.0069463113 </output>
										</split>
									</split>
									<split pos="right">
										<output> 0.032900527 </output>
									</split>
								</split>
								<split pos="right">
									<output> -8.493869E-4 </output>
								</split>
							</split>
						</split>
					</split>
				</split>
			</split>
		</split>
	</tree>
	<tree id="44" weight="0.1">
		<split>
			<feature> 116 </feature>
			<threshold> -111.041565 </threshold>
			<split pos="left">
				<output> -0.12291867 </output>
			</split>
			<split pos="right">
				<feature> 116 </feature>
				<threshold> -100.61228 </threshold>
				<split pos="left">
					<output> 0.42444476 </output>
				</split>
				<split pos="right">
					<feature> 116 </feature>
					<threshold> -76.68628 </threshold>
					<split pos="left">
						<output> 0.088468246 </output>
					</split>
					<split pos="right">
						<feature> 116 </feature>
						<threshold> -43.55784 </threshold>
						<split pos="left">
							<output> -0.022889249 </output>
						</split>
						<split pos="right">
							<feature> 116 </feature>
							<threshold> -6.74839 </threshold>
							<split pos="left">
								<feature> 116 </feature>
								<threshold> -7.3618803 </threshold>
								<split pos="left">
									<feature> 116 </feature>
									<threshold> -12.269801 </threshold>
									<split pos="left">
										<feature> 116 </feature>
										<threshold> -30.674526 </threshold>
										<split pos="left">
											<output> 5.7300937E-4 </output>
										</split>
										<split pos="right">
											<feature> 116 </feature>
											<threshold> -14.723762 </threshold>
											<split pos="left">
												<output> 0.0074410182 </output>
											</split>
											<split pos="right">
												<output> 0.004214377 </output>
											</split>
										</split>
									</split>
									<split pos="right">
										<output> 0.009772477 </output>
									</split>
								</split>
								<split pos="right">
									<output> -0.0137568675 </output>
								</split>
							</split>
							<split pos="right">
								<output> 0.010382887 </output>
							</split>
						</split>
					</split>
				</split>
			</split>
		</split>
	</tree>
	<tree id="45" weight="0.1">
		<split>
			<feature> 116 </feature>
			<threshold> -111.041565 </threshold>
			<split pos="left">
				<output> -0.11062723 </output>
			</split>
			<split pos="right">
				<feature> 116 </feature>
				<threshold> -107.97413 </threshold>
				<split pos="left">
					<output> 0.79049164 </output>
				</split>
				<split pos="right">
					<feature> 116 </feature>
					<threshold> -77.91325 </threshold>
					<split pos="left">
						<output> 0.09865791 </output>
					</split>
					<split pos="right">
						<feature> 116 </feature>
						<threshold> -43.55784 </threshold>
						<split pos="left">
							<output> -0.019509228 </output>
						</split>
						<split pos="right">
							<feature> 116 </feature>
							<threshold> -22.699142 </threshold>
							<split pos="left">
								<output> 0.00338384 </output>
							</split>
							<split pos="right">
								<feature> 116 </feature>
								<threshold> -21.47216 </threshold>
								<split pos="left">
									<output> 0.015934112 </output>
								</split>
								<split pos="right">
									<feature> 116 </feature>
									<threshold> -20.85867 </threshold>
									<split pos="left">
										<output> -0.008344551 </output>
									</split>
									<split pos="right">
										<feature> 116 </feature>
										<threshold> -3.6809397 </threshold>
										<split pos="left">
											<feature> 116 </feature>
											<threshold> -4.29443 </threshold>
											<split pos="left">
												<output> 0.007132028 </output>
											</split>
											<split pos="right">
												<output> 0.02857143 </output>
											</split>
										</split>
										<split pos="right">
											<output> -0.0018082589 </output>
										</split>
									</split>
								</split>
							</split>
						</split>
					</split>
				</split>
			</split>
		</split>
	</tree>
	<tree id="46" weight="0.1">
		<split>
			<feature> 116 </feature>
			<threshold> -111.041565 </threshold>
			<split pos="left">
				<output> -0.09956459 </output>
			</split>
			<split pos="right">
				<feature> 116 </feature>
				<threshold> -106.13367 </threshold>
				<split pos="left">
					<output> 0.6315787 </output>
				</split>
				<split pos="right">
					<feature> 116 </feature>
					<threshold> -76.68628 </threshold>
					<split pos="left">
						<output> 0.081043504 </output>
					</split>
					<split pos="right">
						<feature> 116 </feature>
						<threshold> -52.760204 </threshold>
						<split pos="left">
							<output> -0.04138989 </output>
						</split>
						<split pos="right">
							<feature> 116 </feature>
							<threshold> -30.674526 </threshold>
							<split pos="left">
								<output> -0.0012484104 </output>
							</split>
							<split pos="right">
								<feature> 116 </feature>
								<threshold> -6.74839 </threshold>
								<split pos="left">
									<feature> 116 </feature>
									<threshold> -7.3618803 </threshold>
									<split pos="left">
										<feature> 116 </feature>
										<threshold> -7.9753704 </threshold>
										<split pos="left">
											<feature> 116 </feature>
											<threshold> -9.815841 </threshold>
											<split pos="left">
												<output> 0.0057259393 </output>
											</split>
											<split pos="right">
												<output> 0.01572259 </output>
											</split>
										</split>
										<split pos="right">
											<output> 4.8311666E-4 </output>
										</split>
									</split>
									<split pos="right">
										<output> -0.0131052565 </output>
									</split>
								</split>
								<split pos="right">
									<output> 0.008603984 </output>
								</split>
							</split>
						</split>
					</split>
				</split>
			</split>
		</split>
	</tree>
	<tree id="47" weight="0.1">
		<split>
			<feature> 116 </feature>
			<threshold> -111.041565 </threshold>
			<split pos="left">
				<output> -0.089607894 </output>
			</split>
			<split pos="right">
				<feature> 116 </feature>
				<threshold> -107.97413 </threshold>
				<split pos="left">
					<output> 0.6482849 </output>
				</split>
				<split pos="right">
					<feature> 116 </feature>
					<threshold> -77.91325 </threshold>
					<split pos="left">
						<output> 0.08025438 </output>
					</split>
					<split pos="right">
						<feature> 116 </feature>
						<threshold> -43.55784 </threshold>
						<split pos="left">
							<output> -0.016411241 </output>
						</split>
						<split pos="right">
							<feature> 116 </feature>
							<threshold> -6.74839 </threshold>
							<split pos="left">
								<feature> 116 </feature>
								<threshold> -7.3618803 </threshold>
								<split pos="left">
									<feature> 116 </feature>
									<threshold> -12.883291 </threshold>
									<split pos="left">
										<feature> 116 </feature>
										<threshold> -14.723762 </threshold>
										<split pos="left">
											<feature> 116 </feature>
											<threshold> -17.177723 </threshold>
											<split pos="left">
												<output> 0.0036840956 </output>
											</split>
											<split pos="right">
												<output> 0.009430801 </output>
											</split>
										</split>
										<split pos="right">
											<output> 7.985185E-4 </output>
										</split>
									</split>
									<split pos="right">
										<output> 0.0071719405 </output>
									</split>
								</split>
								<split pos="right">
									<output> -0.011792537 </output>
								</split>
							</split>
							<split pos="right">
								<output> 0.0077402815 </output>
							</split>
						</split>
					</split>
				</split>
			</split>
		</split>
	</tree>
	<tree id="48" weight="0.1">
		<split>
			<feature> 116 </feature>
			<threshold> -111.041565 </threshold>
			<split pos="left">
				<output> -0.080647096 </output>
			</split>
			<split pos="right">
				<feature> 116 </feature>
				<threshold> -100.61228 </threshold>
				<split pos="left">
					<output> 0.30622005 </output>
				</split>
				<split pos="right">
					<feature> 116 </feature>
					<threshold> -76.68628 </threshold>
					<split pos="left">
						<output> 0.05698755 </output>
					</split>
					<split pos="right">
						<feature> 116 </feature>
						<threshold> -52.760204 </threshold>
						<split pos="left">
							<output> -0.035608694 </output>
						</split>
						<split pos="right">
							<feature> 116 </feature>
							<threshold> -33.12849 </threshold>
							<split pos="left">
								<output> -0.0023690439 </output>
							</split>
							<split pos="right">
								<feature> 116 </feature>
								<threshold> -3.6809397 </threshold>
								<split pos="left">
									<feature> 116 </feature>
									<threshold> -4.29443 </threshold>
									<split pos="left">
										<feature> 116 </feature>
										<threshold> -4.90792 </threshold>
										<split pos="left">
											<feature> 116 </feature>
											<threshold> -9.202351 </threshold>
											<split pos="left">
												<output> 0.0056282277 </output>
											</split>
											<split pos="right">
												<output> 0.0026204886 </output>
											</split>
										</split>
										<split pos="right">
											<output> 0.010916676 </output>
										</split>
									</split>
									<split pos="right">
										<output> 0.024080168 </output>
									</split>
								</split>
								<split pos="right">
									<output> -0.0032570206 </output>
								</split>
							</split>
						</split>
					</split>
				</split>
			</split>
		</split>
	</tree>
	<tree id="49" weight="0.1">
		<split>
			<feature> 116 </feature>
			<threshold> -111.041565 </threshold>
			<split pos="left">
				<output> -0.07258225 </output>
			</split>
			<split pos="right">
				<feature> 116 </feature>
				<threshold> -107.97413 </threshold>
				<split pos="left">
					<output> 0.5528343 </output>
				</split>
				<split pos="right">
					<feature> 116 </feature>
					<threshold> -76.68628 </threshold>
					<split pos="left">
						<output> 0.060342394 </output>
					</split>
					<split pos="right">
						<feature> 116 </feature>
						<threshold> -52.760204 </threshold>
						<split pos="left">
							<output> -0.032048367 </output>
						</split>
						<split pos="right">
							<feature> 116 </feature>
							<threshold> -28.834053 </threshold>
							<split pos="left">
								<output> -5.2545365E-4 </output>
							</split>
							<split pos="right">
								<feature> 116 </feature>
								<threshold> -3.6809397 </threshold>
								<split pos="left">
									<feature> 116 </feature>
									<threshold> -4.29443 </threshold>
									<split pos="left">
										<feature> 116 </feature>
										<threshold> -4.90792 </threshold>
										<split pos="left">
											<feature> 116 </feature>
											<threshold> -9.202351 </threshold>
											<split pos="left">
												<output> 0.0052348254 </output>
											</split>
											<split pos="right">
												<output> 0.002358495 </output>
											</split>
										</split>
										<split pos="right">
											<output> 0.009826134 </output>
										</split>
									</split>
									<split pos="right">
										<output> 0.02167124 </output>
									</split>
								</split>
								<split pos="right">
									<output> -0.002935392 </output>
								</split>
							</split>
						</split>
					</split>
				</split>
			</split>
		</split>
	</tree>
	<tree id="50" weight="0.1">
		<split>
			<feature> 116 </feature>
			<threshold> -36.809437 </threshold>
			<split pos="left">
				<output> -0.00445575 </output>
			</split>
			<split pos="right">
				<feature> 116 </feature>
				<threshold> -6.74839 </threshold>
				<split pos="left">
					<feature> 116 </feature>
					<threshold> -7.3618803 </threshold>
					<split pos="left">
						<feature> 116 </feature>
						<threshold> -10.429331 </threshold>
						<split pos="left">
							<feature> 116 </feature>
							<threshold> -36.195946 </threshold>
							<split pos="left">
								<output> 0.019136388 </output>
							</split>
							<split pos="right">
								<feature> 116 </feature>
								<threshold> -35.582455 </threshold>
								<split pos="left">
									<output> -0.018287813 </output>
								</split>
								<split pos="right">
									<feature> 116 </feature>
									<threshold> -17.177723 </threshold>
									<split pos="left">
										<output> 0.0026517287 </output>
									</split>
									<split pos="right">
										<feature> 116 </feature>
										<threshold> -15.337252 </threshold>
										<split pos="left">
											<output> 0.00837199 </output>
										</split>
										<split pos="right">
											<feature> 116 </feature>
											<threshold> -12.883291 </threshold>
											<split pos="left">
												<output> 6.311548E-4 </output>
											</split>
											<split pos="right">
												<output> 0.004409407 </output>
											</split>
										</split>
									</split>
								</split>
							</split>
						</split>
						<split pos="right">
							<output> 0.0068686786 </output>
						</split>
					</split>
					<split pos="right">
						<output> -0.011104368 </output>
					</split>
				</split>
				<split pos="right">
					<output> 0.0061023547 </output>
				</split>
			</split>
		</split>
	</tree>
	<tree id="51" weight="0.1">
		<split>
			<feature> 116 </feature>
			<threshold> -73.005356 </threshold>
			<split pos="left">
				<output> 0.034780942 </output>
			</split>
			<split pos="right">
				<feature> 116 </feature>
				<threshold> -52.760204 </threshold>
				<split pos="left">
					<output> -0.033614147 </output>
				</split>
				<split pos="right">
					<feature> 116 </feature>
					<threshold> -30.674526 </threshold>
					<split pos="left">
						<output> -0.0010734373 </output>
					</split>
					<split pos="right">
						<feature> 116 </feature>
						<threshold> -3.6809397 </threshold>
						<split pos="left">
							<feature> 116 </feature>
							<threshold> -4.29443 </threshold>
							<split pos="left">
								<feature> 116 </feature>
								<threshold> -6.74839 </threshold>
								<split pos="left">
									<feature> 116 </feature>
									<threshold> -7.9753704 </threshold>
									<split pos="left">
										<feature> 116 </feature>
										<threshold> -9.815841 </threshold>
										<split pos="left">
											<feature> 116 </feature>
											<threshold> -17.177723 </threshold>
											<split pos="left">
												<output> 0.002559103 </output>
											</split>
											<split pos="right">
												<output> 0.0037029888 </output>
											</split>
										</split>
										<split pos="right">
											<output> 0.012088498 </output>
										</split>
									</split>
									<split pos="right">
										<output> -0.0045409063 </output>
									</split>
								</split>
								<split pos="right">
									<output> 0.0056278724 </output>
								</split>
							</split>
							<split pos="right">
								<output> 0.018893959 </output>
							</split>
						</split>
						<split pos="right">
							<output> -0.0032499928 </output>
						</split>
					</split>
				</split>
			</split>
		</split>
	</tree>
	<tree id="52" weight="0.1">
		<split>
			<feature> 116 </feature>
			<threshold> -111.041565 </threshold>
			<split pos="left">
				<output> -0.06835667 </output>
			</split>
			<split pos="right">
				<feature> 116 </feature>
				<threshold> -100.61228 </threshold>
				<split pos="left">
					<output> 0.2540711 </output>
				</split>
				<split pos="right">
					<feature> 116 </feature>
					<threshold> -73.005356 </threshold>
					<split pos="left">
						<output> 0.039924942 </output>
					</split>
					<split pos="right">
						<feature> 116 </feature>
						<threshold> -52.760204 </threshold>
						<split pos="left">
							<output> -0.030252833 </output>
						</split>
						<split pos="right">
							<feature> 116 </feature>
							<threshold> -26.99358 </threshold>
							<split pos="left">
								<output> -2.9958479E-5 </output>
							</split>
							<split pos="right">
								<feature> 116 </feature>
								<threshold> -3.6809397 </threshold>
								<split pos="left">
									<feature> 116 </feature>
									<threshold> -4.29443 </threshold>
									<split pos="left">
										<feature> 116 </feature>
										<threshold> -9.202351 </threshold>
										<split pos="left">
											<feature> 116 </feature>
											<threshold> -9.815841 </threshold>
											<split pos="left">
												<output> 0.0029847333 </output>
											</split>
											<split pos="right">
												<output> 0.039479937 </output>
											</split>
										</split>
										<split pos="right">
											<output> 0.0019485623 </output>
										</split>
									</split>
									<split pos="right">
										<output> 0.017006118 </output>
									</split>
								</split>
								<split pos="right">
									<output> -0.0029236146 </output>
								</split>
							</split>
						</split>
					</split>
				</split>
			</split>
		</split>
	</tree>
	<tree id="53" weight="0.1">
		<split>
			<feature> 116 </feature>
			<threshold> -111.041565 </threshold>
			<split pos="left">
				<output> -0.06152081 </output>
			</split>
			<split pos="right">
				<feature> 116 </feature>
				<threshold> -107.97413 </threshold>
				<split pos="left">
					<output> 0.4691112 </output>
				</split>
				<split pos="right">
					<feature> 116 </feature>
					<threshold> -97.544846 </threshold>
					<split pos="left">
						<output> 0.12280198 </output>
					</split>
					<split pos="right">
						<feature> 116 </feature>
						<threshold> -88.956024 </threshold>
						<split pos="left">
							<output> -0.09423585 </output>
						</split>
						<split pos="right">
							<feature> 116 </feature>
							<threshold> -77.91325 </threshold>
							<split pos="left">
								<output> 0.08758208 </output>
							</split>
							<split pos="right">
								<feature> 116 </feature>
								<threshold> -43.55784 </threshold>
								<split pos="left">
									<output> -0.010881668 </output>
								</split>
								<split pos="right">
									<feature> 116 </feature>
									<threshold> -40.490383 </threshold>
									<split pos="left">
										<output> 0.01689788 </output>
									</split>
									<split pos="right">
										<feature> 116 </feature>
										<threshold> -39.2634 </threshold>
										<split pos="left">
											<output> -0.035237674 </output>
										</split>
										<split pos="right">
											<feature> 116 </feature>
											<threshold> -6.74839 </threshold>
											<split pos="left">
												<output> 0.002480636 </output>
											</split>
											<split pos="right">
												<output> 0.0047004945 </output>
											</split>
										</split>
									</split>
								</split>
							</split>
						</split>
					</split>
				</split>
			</split>
		</split>
	</tree>
	<tree id="54" weight="0.1">
		<split>
			<feature> 116 </feature>
			<threshold> -111.041565 </threshold>
			<split pos="left">
				<output> -0.0553688 </output>
			</split>
			<split pos="right">
				<feature> 116 </feature>
				<threshold> -106.13367 </threshold>
				<split pos="left">
					<output> 0.37359902 </output>
				</split>
				<split pos="right">
					<feature> 116 </feature>
					<threshold> -73.005356 </threshold>
					<split pos="left">
						<output> 0.038218845 </output>
					</split>
					<split pos="right">
						<feature> 116 </feature>
						<threshold> -53.373695 </threshold>
						<split pos="left">
							<output> -0.027522631 </output>
						</split>
						<split pos="right">
							<feature> 116 </feature>
							<threshold> -6.74839 </threshold>
							<split pos="left">
								<feature> 116 </feature>
								<threshold> -7.3618803 </threshold>
								<split pos="left">
									<feature> 116 </feature>
									<threshold> -9.202351 </threshold>
									<split pos="left">
										<feature> 116 </feature>
										<threshold> -9.815841 </threshold>
										<split pos="left">
											<feature> 116 </feature>
											<threshold> -41.717365 </threshold>
											<split pos="left">
												<output> -0.0053934176 </output>
											</split>
											<split pos="right">
												<output> 0.002223191 </output>
											</split>
										</split>
										<split pos="right">
											<output> 0.03529113 </output>
										</split>
									</split>
									<split pos="right">
										<output> -8.132813E-4 </output>
									</split>
								</split>
								<split pos="right">
									<output> -0.009989166 </output>
								</split>
							</split>
							<split pos="right">
								<output> 0.0042343107 </output>
							</split>
						</split>
					</split>
				</split>
			</split>
		</split>
	</tree>
	<tree id="55" weight="0.1">
		<split>
			<feature> 116 </feature>
			<threshold> -109.81459 </threshold>
			<split pos="left">
