## MART
## No. of trees = 1000
## No. of leaves = 10
## No. of threshold candidates = 256
## Learning rate = 0.1
## Stop early = 100

<ensemble>
	<tree id="1" weight="0.1">
		<split>
			<feature> 16 </feature>
			<threshold> 13.421395 </threshold>
			<split pos="left">
				<feature> 16 </feature>
				<threshold> 9.499391 </threshold>
				<split pos="left">
					<feature> 16 </feature>
					<threshold> 2.962723 </threshold>
					<split pos="left">
						<output> 0.6295798 </output>
					</split>
					<split pos="right">
						<feature> 16 </feature>
						<threshold> 7.2115555 </threshold>
						<split pos="left">
							<feature> 16 </feature>
							<threshold> 4.2700562 </threshold>
							<split pos="left">
								<output> 0.7319719 </output>
							</split>
							<split pos="right">
								<feature> 16 </feature>
								<threshold> 4.9237227 </threshold>
								<split pos="left">
									<output> 0.7816294 </output>
								</split>
								<split pos="right">
									<feature> 16 </feature>
									<threshold> 5.9042225 </threshold>
									<split pos="left">
										<output> 0.74807036 </output>
									</split>
									<split pos="right">
										<output> 0.76817876 </output>
									</split>
								</split>
							</split>
						</split>
						<split pos="right">
							<feature> 16 </feature>
							<threshold> 7.865222 </threshold>
							<split pos="left">
								<output> 0.7141341 </output>
							</split>
							<split pos="right">
								<output> 0.73105943 </output>
							</split>
						</split>
					</split>
				</split>
				<split pos="right">
					<feature> 16 </feature>
					<threshold> 10.8067255 </threshold>
					<split pos="left">
						<output> 0.6761716 </output>
					</split>
					<split pos="right">
						<output> 0.6350991 </output>
					</split>
				</split>
			</split>
			<split pos="right">
				<output> 0.5115919 </output>
			</split>
		</split>
	</tree>
	<tree id="2" weight="0.1">
		<split>
			<feature> 16 </feature>
			<threshold> 13.421395 </threshold>
			<split pos="left">
				<feature> 16 </feature>
				<threshold> 9.499391 </threshold>
				<split pos="left">
					<feature> 16 </feature>
					<threshold> 2.962723 </threshold>
					<split pos="left">
						<output> 0.5668477 </output>
					</split>
					<split pos="right">
						<feature> 16 </feature>
						<threshold> 7.2115555 </threshold>
						<split pos="left">
							<feature> 16 </feature>
							<threshold> 4.2700562 </threshold>
							<split pos="left">
								<output> 0.65917224 </output>
							</split>
							<split pos="right">
								<feature> 16 </feature>
								<threshold> 4.9237227 </threshold>
								<split pos="left">
									<output> 0.70350236 </output>
								</split>
								<split pos="right">
									<feature> 16 </feature>
									<threshold> 5.9042225 </threshold>
									<split pos="left">
										<output> 0.67352176 </output>
									</split>
									<split pos="right">
										<output> 0.69098496 </output>
									</split>
								</split>
							</split>
						</split>
						<split pos="right">
							<feature> 16 </feature>
							<threshold> 7.865222 </threshold>
							<split pos="left">
								<output> 0.6424376 </output>
							</split>
							<split pos="right">
								<output> 0.65759236 </output>
							</split>
						</split>
					</split>
				</split>
				<split pos="right">
					<feature> 16 </feature>
					<threshold> 10.8067255 </threshold>
					<split pos="left">
						<output> 0.6085558 </output>
					</split>
					<split pos="right">
						<output> 0.5717116 </output>
					</split>
				</split>
			</split>
			<split pos="right">
				<output> 0.46027502 </output>
			</split>
		</split>
	</tree>
	<tree id="3" weight="0.1">
		<split>
			<feature> 16 </feature>
			<threshold> 13.094562 </threshold>
			<split pos="left">
				<feature> 16 </feature>
				<threshold> 9.499391 </threshold>
				<split pos="left">
					<feature> 16 </feature>
					<threshold> 2.962723 </threshold>
					<split pos="left">
						<output> 0.5097233 </output>
					</split>
					<split pos="right">
						<feature> 16 </feature>
						<threshold> 7.2115555 </threshold>
						<split pos="left">
							<feature> 16 </feature>
							<threshold> 3.6163895 </threshold>
							<split pos="left">
								<output> 0.5780806 </output>
							</split>
							<split pos="right">
								<feature> 16 </feature>
								<threshold> 4.2700562 </threshold>
								<split pos="left">
									<output> 0.6027284 </output>
								</split>
								<split pos="right">
									<feature> 16 </feature>
									<threshold> 4.9237227 </threshold>
									<split pos="left">
										<output> 0.6331825 </output>
									</split>
									<split pos="right">
										<output> 0.6156117 </output>
									</split>
								</split>
							</split>
						</split>
						<split pos="right">
							<output> 0.5874409 </output>
						</split>
					</split>
				</split>
				<split pos="right">
					<feature> 16 </feature>
					<threshold> 10.8067255 </threshold>
					<split pos="left">
						<output> 0.5473804 </output>
					</split>
					<split pos="right">
						<output> 0.5161376 </output>
					</split>
				</split>
			</split>
			<split pos="right">
				<feature> 16 </feature>
				<threshold> 26.16791 </threshold>
				<split pos="left">
					<output> 0.4272068 </output>
				</split>
				<split pos="right">
					<output> 0.29180965 </output>
				</split>
			</split>
		</split>
	</tree>
	<tree id="4" weight="0.1">
		<split>
			<feature> 16 </feature>
			<threshold> 13.421395 </threshold>
			<split pos="left">
				<feature> 16 </feature>
				<threshold> 10.153058 </threshold>
				<split pos="left">
					<feature> 16 </feature>
					<threshold> 1.9822233 </threshold>
					<split pos="left">
						<output> 0.41396928 </output>
					</split>
					<split pos="right">
						<feature> 16 </feature>
						<threshold> 8.192056 </threshold>
						<split pos="left">
							<feature> 16 </feature>
							<threshold> 3.6163895 </threshold>
							<split pos="left">
								<output> 0.50748456 </output>
							</split>
							<split pos="right">
								<feature> 16 </feature>
								<threshold> 7.2115555 </threshold>
								<split pos="left">
									<feature> 16 </feature>
									<threshold> 4.2700562 </threshold>
									<split pos="left">
										<output> 0.5423727 </output>
									</split>
									<split pos="right">
										<feature> 16 </feature>
										<threshold> 4.9237227 </threshold>
										<split pos="left">
											<output> 0.56987935 </output>
										</split>
										<split pos="right">
											<feature> 16 </feature>
											<threshold> 5.9042225 </threshold>
											<split pos="left">
												<output> 0.544551 </output>
											</split>
											<split pos="right">
												<output> 0.56105655 </output>
											</split>
										</split>
									</split>
								</split>
								<split pos="right">
									<output> 0.53571033 </output>
								</split>
							</split>
						</split>
						<split pos="right">
							<output> 0.51836956 </output>
						</split>
					</split>
				</split>
				<split pos="right">
					<output> 0.46859667 </output>
				</split>
			</split>
			<split pos="right">
				<output> 0.3721245 </output>
			</split>
		</split>
	</tree>
	<tree id="5" weight="0.1">
		<split>
			<feature> 16 </feature>
			<threshold> 13.421395 </threshold>
			<split pos="left">
				<feature> 16 </feature>
				<threshold> 10.153058 </threshold>
				<split pos="left">
					<feature> 16 </feature>
					<threshold> 1.9822233 </threshold>
					<split pos="left">
						<output> 0.3725812 </output>
					</split>
					<split pos="right">
						<feature> 16 </feature>
						<threshold> 8.192056 </threshold>
						<split pos="left">
							<feature> 16 </feature>
							<threshold> 3.6163895 </threshold>
							<split pos="left">
								<output> 0.45668933 </output>
							</split>
							<split pos="right">
								<feature> 16 </feature>
								<threshold> 7.2115555 </threshold>
								<split pos="left">
									<feature> 16 </feature>
									<threshold> 4.2700562 </threshold>
									<split pos="left">
										<output> 0.4879826 </output>
									</split>
									<split pos="right">
										<feature> 16 </feature>
										<threshold> 4.9237227 </threshold>
										<split pos="left">
											<output> 0.51283705 </output>
										</split>
										<split pos="right">
											<feature> 16 </feature>
											<threshold> 5.9042225 </threshold>
											<split pos="left">
												<output> 0.4901406 </output>
											</split>
											<split pos="right">
												<output> 0.5048695 </output>
											</split>
										</split>
									</split>
								</split>
								<split pos="right">
									<output> 0.48222542 </output>
								</split>
							</split>
						</split>
						<split pos="right">
							<output> 0.4668955 </output>
						</split>
					</split>
				</split>
				<split pos="right">
					<output> 0.42172074 </output>
				</split>
			</split>
			<split pos="right">
				<output> 0.33564413 </output>
			</split>
		</split>
	</tree>
	<tree id="6" weight="0.1">
		<split>
			<feature> 16 </feature>
			<threshold> 13.421395 </threshold>
			<split pos="left">
				<feature> 16 </feature>
				<threshold> 9.499391 </threshold>
				<split pos="left">
					<feature> 16 </feature>
					<threshold> 2.962723 </threshold>
					<split pos="left">
						<output> 0.37039232 </output>
					</split>
					<split pos="right">
						<feature> 16 </feature>
						<threshold> 7.5383887 </threshold>
						<split pos="left">
							<feature> 16 </feature>
							<threshold> 3.6163895 </threshold>
							<split pos="left">
								<output> 0.4236928 </output>
							</split>
							<split pos="right">
								<feature> 16 </feature>
								<threshold> 6.557889 </threshold>
								<split pos="left">
									<feature> 16 </feature>
									<threshold> 5.9042225 </threshold>
									<split pos="left">
										<output> 0.4462242 </output>
									</split>
									<split pos="right">
										<output> 0.46421072 </output>
									</split>
								</split>
								<split pos="right">
									<output> 0.4419694 </output>
								</split>
							</split>
						</split>
						<split pos="right">
							<output> 0.42738912 </output>
						</split>
					</split>
				</split>
				<split pos="right">
					<feature> 16 </feature>
					<threshold> 11.787227 </threshold>
					<split pos="left">
						<output> 0.39367864 </output>
					</split>
					<split pos="right">
						<output> 0.3670142 </output>
					</split>
				</split>
			</split>
			<split pos="right">
				<feature> 16 </feature>
				<threshold> 26.16791 </threshold>
				<split pos="left">
					<output> 0.30919722 </output>
				</split>
				<split pos="right">
					<output> 0.1918387 </output>
				</split>
			</split>
		</split>
	</tree>
	<tree id="7" weight="0.1">
		<split>
			<feature> 16 </feature>
			<threshold> 13.421395 </threshold>
			<split pos="left">
				<feature> 16 </feature>
				<threshold> 10.153058 </threshold>
				<split pos="left">
					<feature> 16 </feature>
					<threshold> 1.9822233 </threshold>
					<split pos="left">
						<output> 0.29821724 </output>
					</split>
					<split pos="right">
						<feature> 16 </feature>
						<threshold> 8.192056 </threshold>
						<split pos="left">
							<feature> 16 </feature>
							<threshold> 3.6163895 </threshold>
							<split pos="left">
								<output> 0.37134904 </output>
							</split>
							<split pos="right">
								<feature> 16 </feature>
								<threshold> 7.865222 </threshold>
								<split pos="left">
									<feature> 16 </feature>
									<threshold> 7.5383887 </threshold>
									<split pos="left">
										<feature> 16 </feature>
										<threshold> 6.557889 </threshold>
										<split pos="left">
											<feature> 16 </feature>
											<threshold> 5.9042225 </threshold>
											<split pos="left">
												<output> 0.4018254 </output>
											</split>
											<split pos="right">
												<output> 0.41804868 </output>
											</split>
										</split>
										<split pos="right">
											<output> 0.39817327 </output>
										</split>
									</split>
									<split pos="right">
										<output> 0.3547154 </output>
									</split>
								</split>
								<split pos="right">
									<output> 0.42798516 </output>
								</split>
							</split>
						</split>
						<split pos="right">
							<output> 0.37823877 </output>
						</split>
					</split>
				</split>
				<split pos="right">
					<output> 0.34106585 </output>
				</split>
			</split>
			<split pos="right">
				<output> 0.27134663 </output>
			</split>
		</split>
	</tree>
	<tree id="8" weight="0.1">
		<split>
			<feature> 16 </feature>
			<threshold> 14.72873 </threshold>
			<split pos="left">
				<feature> 16 </feature>
				<threshold> 10.153058 </threshold>
				<split pos="left">
					<feature> 16 </feature>
					<threshold> 1.9822233 </threshold>
					<split pos="left">
						<output> 0.26839527 </output>
					</split>
					<split pos="right">
						<feature> 16 </feature>
						<threshold> 8.192056 </threshold>
						<split pos="left">
							<feature> 16 </feature>
							<threshold> 3.6163895 </threshold>
							<split pos="left">
								<output> 0.33422 </output>
							</split>
							<split pos="right">
								<feature> 16 </feature>
								<threshold> 7.865222 </threshold>
								<split pos="left">
									<feature> 16 </feature>
									<threshold> 7.5383887 </threshold>
									<split pos="left">
										<feature> 16 </feature>
										<threshold> 4.2700562 </threshold>
										<split pos="left">
											<output> 0.35438874 </output>
										</split>
										<split pos="right">
											<feature> 16 </feature>
											<threshold> 4.9237227 </threshold>
											<split pos="left">
												<output> 0.37661567 </output>
											</split>
											<split pos="right">
												<output> 0.36182114 </output>
											</split>
										</split>
									</split>
									<split pos="right">
										<output> 0.31912613 </output>
									</split>
								</split>
								<split pos="right">
									<output> 0.3853062 </output>
								</split>
							</split>
						</split>
						<split pos="right">
							<output> 0.34066474 </output>
						</split>
					</split>
				</split>
				<split pos="right">
					<output> 0.3044359 </output>
				</split>
			</split>
			<split pos="right">
				<output> 0.23295636 </output>
			</split>
		</split>
	</tree>
	<tree id="9" weight="0.1">
		<split>
			<feature> 16 </feature>
			<threshold> 14.72873 </threshold>
			<split pos="left">
				<feature> 16 </feature>
				<threshold> 9.499391 </threshold>
				<split pos="left">
					<feature> 16 </feature>
					<threshold> 1.9822233 </threshold>
					<split pos="left">
						<output> 0.24154696 </output>
					</split>
					<split pos="right">
						<feature> 16 </feature>
						<threshold> 2.962723 </threshold>
						<split pos="left">
							<output> 0.2902402 </output>
						</split>
						<split pos="right">
							<feature> 16 </feature>
							<threshold> 7.2115555 </threshold>
							<split pos="left">
								<feature> 16 </feature>
								<threshold> 4.2700562 </threshold>
								<split pos="left">
									<output> 0.31571448 </output>
								</split>
								<split pos="right">
									<feature> 16 </feature>
									<threshold> 4.9237227 </threshold>
									<split pos="left">
										<output> 0.33916485 </output>
									</split>
									<split pos="right">
										<output> 0.3268854 </output>
									</split>
								</split>
							</split>
							<split pos="right">
								<feature> 16 </feature>
								<threshold> 7.865222 </threshold>
								<split pos="left">
									<output> 0.30273864 </output>
								</split>
								<split pos="right">
									<output> 0.3179751 </output>
								</split>
							</split>
						</split>
					</split>
				</split>
				<split pos="right">
					<feature> 16 </feature>
					<threshold> 11.787227 </threshold>
					<split pos="left">
						<output> 0.28762394 </output>
					</split>
					<split pos="right">
						<output> 0.26509324 </output>
					</split>
				</split>
			</split>
			<split pos="right">
				<output> 0.20962274 </output>
			</split>
		</split>
	</tree>
	<tree id="10" weight="0.1">
		<split>
			<feature> 16 </feature>
			<threshold> 14.72873 </threshold>
			<split pos="left">
				<feature> 16 </feature>
				<threshold> 10.153058 </threshold>
				<split pos="left">
					<feature> 16 </feature>
					<threshold> 0.6748898 </threshold>
					<split pos="left">
						<output> 0.025730766 </output>
					</split>
					<split pos="right">
						<feature> 16 </feature>
						<threshold> 2.962723 </threshold>
						<split pos="left">
							<output> 0.24976203 </output>
						</split>
						<split pos="right">
							<feature> 16 </feature>
							<threshold> 7.5383887 </threshold>
							<split pos="left">
								<feature> 16 </feature>
								<threshold> 4.2700562 </threshold>
								<split pos="left">
									<output> 0.2842624 </output>
								</split>
								<split pos="right">
									<feature> 16 </feature>
									<threshold> 4.9237227 </threshold>
									<split pos="left">
										<output> 0.3050832 </output>
									</split>
									<split pos="right">
										<feature> 16 </feature>
										<threshold> 5.9042225 </threshold>
										<split pos="left">
											<output> 0.28714484 </output>
										</split>
										<split pos="right">
											<output> 0.29675704 </output>
										</split>
									</split>
								</split>
							</split>
							<split pos="right">
								<output> 0.2778702 </output>
							</split>
						</split>
					</split>
				</split>
				<split pos="right">
					<feature> 16 </feature>
					<threshold> 14.401896 </threshold>
					<split pos="left">
						<output> 0.24475491 </output>
					</split>
					<split pos="right">
						<output> 0.28831223 </output>
					</split>
				</split>
			</split>
			<split pos="right">
				<output> 0.18897478 </output>
			</split>
		</split>
	</tree>
	<tree id="11" weight="0.1">
		<split>
			<feature> 16 </feature>
			<threshold> 11.787227 </threshold>
			<split pos="left">
				<feature> 16 </feature>
				<threshold> 0.34805647 </threshold>
				<split pos="left">
					<output> -0.120280884 </output>
				</split>
				<split pos="right">
					<feature> 16 </feature>
					<threshold> 9.499391 </threshold>
					<split pos="left">
						<feature> 16 </feature>
						<threshold> 2.962723 </threshold>
						<split pos="left">
							<output> 0.22244705 </output>
						</split>
						<split pos="right">
							<feature> 16 </feature>
							<threshold> 7.2115555 </threshold>
							<split pos="left">
								<feature> 16 </feature>
								<threshold> 4.2700562 </threshold>
								<split pos="left">
									<output> 0.2558917 </output>
								</split>
								<split pos="right">
									<feature> 16 </feature>
									<threshold> 4.9237227 </threshold>
									<split pos="left">
										<output> 0.27469897 </output>
									</split>
									<split pos="right">
										<output> 0.26500607 </output>
									</split>
								</split>
							</split>
							<split pos="right">
								<output> 0.2537256 </output>
							</split>
						</split>
					</split>
					<split pos="right">
						<output> 0.23344412 </output>
					</split>
				</split>
			</split>
			<split pos="right">
				<feature> 16 </feature>
				<threshold> 26.16791 </threshold>
				<split pos="left">
					<feature> 16 </feature>
					<threshold> 14.72873 </threshold>
					<split pos="left">
						<output> 0.21380349 </output>
					</split>
					<split pos="right">
						<output> 0.17754315 </output>
					</split>
				</split>
				<split pos="right">
					<output> 0.08235744 </output>
				</split>
			</split>
		</split>
	</tree>
	<tree id="12" weight="0.1">
		<split>
			<feature> 16 </feature>
			<threshold> 11.787227 </threshold>
			<split pos="left">
				<feature> 16 </feature>
				<threshold> 0.6748898 </threshold>
				<split pos="left">
					<output> 0.0143767 </output>
				</split>
				<split pos="right">
					<feature> 16 </feature>
					<threshold> 9.499391 </threshold>
					<split pos="left">
						<feature> 16 </feature>
						<threshold> 2.962723 </threshold>
						<split pos="left">
							<output> 0.20257816 </output>
						</split>
						<split pos="right">
							<feature> 16 </feature>
							<threshold> 7.2115555 </threshold>
							<split pos="left">
								<feature> 16 </feature>
								<threshold> 4.2700562 </threshold>
								<split pos="left">
									<output> 0.23021631 </output>
								</split>
								<split pos="right">
									<feature> 16 </feature>
									<threshold> 4.9237227 </threshold>
									<split pos="left">
										<output> 0.24710149 </output>
									</split>
									<split pos="right">
										<output> 0.23845214 </output>
									</split>
								</split>
							</split>
							<split pos="right">
								<output> 0.2282879 </output>
							</split>
						</split>
					</split>
					<split pos="right">
						<output> 0.21017547 </output>
					</split>
				</split>
			</split>
			<split pos="right">
				<feature> 16 </feature>
				<threshold> 26.16791 </threshold>
				<split pos="left">
					<feature> 16 </feature>
					<threshold> 15.055564 </threshold>
					<split pos="left">
						<output> 0.1913898 </output>
					</split>
					<split pos="right">
						<output> 0.15901077 </output>
					</split>
				</split>
				<split pos="right">
					<output> 0.074120186 </output>
				</split>
			</split>
		</split>
	</tree>
	<tree id="13" weight="0.1">
		<split>
			<feature> 16 </feature>
			<threshold> 11.787227 </threshold>
			<split pos="left">
				<feature> 16 </feature>
				<threshold> 0.34805647 </threshold>
				<split pos="left">
					<output> -0.10969071 </output>
				</split>
				<split pos="right">
					<feature> 16 </feature>
					<threshold> 9.499391 </threshold>
					<split pos="left">
						<feature> 16 </feature>
						<threshold> 1.9822233 </threshold>
						<split pos="left">
							<output> 0.16283393 </output>
						</split>
						<split pos="right">
							<feature> 16 </feature>
							<threshold> 3.6163895 </threshold>
							<split pos="left">
								<output> 0.19809735 </output>
							</split>
							<split pos="right">
								<feature> 16 </feature>
								<threshold> 7.2115555 </threshold>
								<split pos="left">
									<feature> 16 </feature>
									<threshold> 5.9042225 </threshold>
									<split pos="left">
										<output> 0.21286881 </output>
									</split>
									<split pos="right">
										<output> 0.21931142 </output>
									</split>
								</split>
								<split pos="right">
									<output> 0.20587477 </output>
								</split>
							</split>
						</split>
					</split>
					<split pos="right">
						<output> 0.18897818 </output>
					</split>
				</split>
			</split>
			<split pos="right">
				<feature> 16 </feature>
				<threshold> 26.16791 </threshold>
				<split pos="left">
					<feature> 16 </feature>
					<threshold> 14.72873 </threshold>
					<split pos="left">
						<output> 0.17319436 </output>
					</split>
					<split pos="right">
						<output> 0.14393014 </output>
					</split>
				</split>
				<split pos="right">
					<output> 0.06671678 </output>
				</split>
			</split>
		</split>
	</tree>
	<tree id="14" weight="0.1">
		<split>
			<feature> 16 </feature>
			<threshold> 11.787227 </threshold>
			<split pos="left">
				<feature> 16 </feature>
				<threshold> 1.0017232 </threshold>
				<split pos="left">
					<output> 0.03632226 </output>
				</split>
				<split pos="right">
					<feature> 16 </feature>
					<threshold> 9.499391 </threshold>
					<split pos="left">
						<feature> 16 </feature>
						<threshold> 2.962723 </threshold>
						<split pos="left">
							<output> 0.16516773 </output>
						</split>
						<split pos="right">
							<feature> 16 </feature>
							<threshold> 8.192056 </threshold>
							<split pos="left">
								<feature> 16 </feature>
								<threshold> 7.865222 </threshold>
								<split pos="left">
									<feature> 16 </feature>
									<threshold> 7.5383887 </threshold>
									<split pos="left">
										<feature> 16 </feature>
										<threshold> 4.2700562 </threshold>
										<split pos="left">
											<output> 0.18642196 </output>
										</split>
										<split pos="right">
											<feature> 16 </feature>
											<threshold> 5.5773892 </threshold>
											<split pos="left">
												<output> 0.19859932 </output>
											</split>
											<split pos="right">
												<output> 0.19124809 </output>
											</split>
										</split>
									</split>
									<split pos="right">
										<output> 0.16041441 </output>
									</split>
								</split>
								<split pos="right">
									<output> 0.21837872 </output>
								</split>
							</split>
							<split pos="right">
								<output> 0.182687 </output>
							</split>
						</split>
					</split>
					<split pos="right">
						<output> 0.1702725 </output>
					</split>
				</split>
			</split>
			<split pos="right">
				<output> 0.13629796 </output>
			</split>
		</split>
	</tree>
	<tree id="15" weight="0.1">
		<split>
			<feature> 16 </feature>
			<threshold> 14.72873 </threshold>
			<split pos="left">
				<feature> 16 </feature>
				<threshold> 10.153058 </threshold>
				<split pos="left">
					<feature> 16 </feature>
					<threshold> 0.34805647 </threshold>
					<split pos="left">
						<output> -0.10235376 </output>
					</split>
					<split pos="right">
						<feature> 16 </feature>
						<threshold> 1.9822233 </threshold>
						<split pos="left">
							<output> 0.13117325 </output>
						</split>
						<split pos="right">
							<feature> 16 </feature>
							<threshold> 2.3090565 </threshold>
							<split pos="left">
								<output> 0.2037755 </output>
							</split>
							<split pos="right">
								<feature> 16 </feature>
								<threshold> 2.962723 </threshold>
								<split pos="left">
									<output> 0.13633072 </output>
								</split>
								<split pos="right">
									<feature> 16 </feature>
									<threshold> 8.192056 </threshold>
									<split pos="left">
										<feature> 16 </feature>
										<threshold> 7.865222 </threshold>
										<split pos="left">
											<feature> 16 </feature>
											<threshold> 7.5383887 </threshold>
											<split pos="left">
												<output> 0.17305768 </output>
											</split>
											<split pos="right">
												<output> 0.14438432 </output>
											</split>
										</split>
										<split pos="right">
											<output> 0.19647138 </output>
										</split>
									</split>
									<split pos="right">
										<output> 0.16263618 </output>
									</split>
								</split>
							</split>
						</split>
					</split>
				</split>
				<split pos="right">
					<output> 0.14635058 </output>
				</split>
			</split>
			<split pos="right">
				<output> 0.11029747 </output>
			</split>
		</split>
	</tree>
	<tree id="16" weight="0.1">
		<split>
			<feature> 16 </feature>
			<threshold> 14.72873 </threshold>
			<split pos="left">
				<feature> 16 </feature>
				<threshold> 10.8067255 </threshold>
				<split pos="left">
					<feature> 16 </feature>
					<threshold> 0.34805647 </threshold>
					<split pos="left">
						<output> -0.092118464 </output>
					</split>
					<split pos="right">
						<feature> 16 </feature>
						<threshold> 1.9822233 </threshold>
						<split pos="left">
							<output> 0.11807122 </output>
						</split>
						<split pos="right">
							<feature> 16 </feature>
							<threshold> 8.192056 </threshold>
							<split pos="left">
								<feature> 16 </feature>
								<threshold> 7.865222 </threshold>
								<split pos="left">
									<feature> 16 </feature>
									<threshold> 7.5383887 </threshold>
									<split pos="left">
										<feature> 16 </feature>
										<threshold> 3.6163895 </threshold>
										<split pos="left">
											<output> 0.14413217 </output>
										</split>
										<split pos="right">
											<feature> 16 </feature>
											<threshold> 6.557889 </threshold>
											<split pos="left">
												<output> 0.15828085 </output>
											</split>
											<split pos="right">
												<output> 0.15293168 </output>
											</split>
										</split>
									</split>
									<split pos="right">
										<output> 0.12996559 </output>
									</split>
								</split>
								<split pos="right">
									<output> 0.17686959 </output>
								</split>
							</split>
							<split pos="right">
								<output> 0.1451389 </output>
							</split>
						</split>
					</split>
				</split>
				<split pos="right">
					<output> 0.12919474 </output>
				</split>
			</split>
			<split pos="right">
				<output> 0.0992958 </output>
			</split>
		</split>
	</tree>
	<tree id="17" weight="0.1">
		<split>
			<feature> 16 </feature>
			<threshold> 14.72873 </threshold>
			<split pos="left">
				<feature> 16 </feature>
				<threshold> 10.153058 </threshold>
				<split pos="left">
					<feature> 16 </feature>
					<threshold> 1.0017232 </threshold>
					<split pos="left">
						<output> 0.01959135 </output>
					</split>
					<split pos="right">
						<feature> 16 </feature>
						<threshold> 1.9822233 </threshold>
						<split pos="left">
							<output> 0.11108356 </output>
						</split>
						<split pos="right">
							<feature> 16 </feature>
							<threshold> 2.3090565 </threshold>
							<split pos="left">
								<output> 0.1689851 </output>
							</split>
							<split pos="right">
								<feature> 16 </feature>
								<threshold> 2.962723 </threshold>
								<split pos="left">
									<output> 0.10826739 </output>
								</split>
								<split pos="right">
									<feature> 16 </feature>
									<threshold> 8.192056 </threshold>
									<split pos="left">
										<feature> 16 </feature>
										<threshold> 7.865222 </threshold>
										<split pos="left">
											<feature> 16 </feature>
											<threshold> 7.5383887 </threshold>
											<split pos="left">
												<output> 0.14036885 </output>
											</split>
											<split pos="right">
												<output> 0.11695122 </output>
											</split>
										</split>
										<split pos="right">
											<output> 0.15915027 </output>
										</split>
									</split>
									<split pos="right">
										<output> 0.132033 </output>
									</split>
								</split>
							</split>
						</split>
					</split>
				</split>
				<split pos="right">
					<output> 0.118436344 </output>
				</split>
			</split>
			<split pos="right">
				<output> 0.08941471 </output>
			</split>
		</split>
	</tree>
	<tree id="18" weight="0.1">
		<split>
			<feature> 16 </feature>
			<threshold> 16.689732 </threshold>
			<split pos="left">
				<feature> 16 </feature>
				<threshold> 10.8067255 </threshold>
				<split pos="left">
					<feature> 16 </feature>
					<threshold> 0.34805647 </threshold>
					<split pos="left">
						<output> -0.084865995 </output>
					</split>
					<split pos="right">
						<feature> 16 </feature>
						<threshold> 1.6553899 </threshold>
						<split pos="left">
							<output> 0.0874953 </output>
						</split>
						<split pos="right">
							<feature> 16 </feature>
							<threshold> 10.479892 </threshold>
							<split pos="left">
								<feature> 16 </feature>
								<threshold> 10.153058 </threshold>
								<split pos="left">
									<feature> 16 </feature>
									<threshold> 8.192056 </threshold>
									<split pos="left">
										<feature> 16 </feature>
										<threshold> 7.865222 </threshold>
										<split pos="left">
											<feature> 16 </feature>
											<threshold> 7.5383887 </threshold>
											<split pos="left">
												<output> 0.12503774 </output>
											</split>
											<split pos="right">
												<output> 0.1052547 </output>
											</split>
										</split>
										<split pos="right">
											<output> 0.14323589 </output>
										</split>
									</split>
									<split pos="right">
										<output> 0.11866689 </output>
									</split>
								</split>
								<split pos="right">
									<output> 0.08955855 </output>
								</split>
							</split>
							<split pos="right">
								<output> 0.13957281 </output>
							</split>
						</split>
					</split>
				</split>
				<split pos="right">
					<output> 0.10325384 </output>
				</split>
			</split>
			<split pos="right">
				<output> 0.07514514 </output>
			</split>
		</split>
	</tree>
	<tree id="19" weight="0.1">
		<split>
			<feature> 16 </feature>
			<threshold> 15.055564 </threshold>
			<split pos="left">
				<feature> 16 </feature>
				<threshold> 10.8067255 </threshold>
				<split pos="left">
					<feature> 16 </feature>
					<threshold> 0.6748898 </threshold>
					<split pos="left">
						<output> -0.0076986016 </output>
					</split>
					<split pos="right">
						<feature> 16 </feature>
						<threshold> 1.9822233 </threshold>
						<split pos="left">
							<output> 0.088349015 </output>
						</split>
						<split pos="right">
							<feature> 16 </feature>
							<threshold> 2.3090565 </threshold>
							<split pos="left">
								<output> 0.13957104 </output>
							</split>
							<split pos="right">
								<feature> 16 </feature>
								<threshold> 2.962723 </threshold>
								<split pos="left">
									<output> 0.084943384 </output>
								</split>
								<split pos="right">
									<feature> 16 </feature>
									<threshold> 8.192056 </threshold>
									<split pos="left">
										<feature> 16 </feature>
										<threshold> 7.865222 </threshold>
										<split pos="left">
											<feature> 16 </feature>
											<threshold> 7.5383887 </threshold>
											<split pos="left">
												<output> 0.11375416 </output>
											</split>
											<split pos="right">
												<output> 0.09473143 </output>
											</split>
										</split>
										<split pos="right">
											<output> 0.12891766 </output>
										</split>
									</split>
									<split pos="right">
										<output> 0.10595516 </output>
									</split>
								</split>
							</split>
						</split>
					</split>
				</split>
				<split pos="right">
					<output> 0.093907356 </output>
				</split>
			</split>
			<split pos="right">
				<output> 0.07138486 </output>
			</split>
		</split>
	</tree>
	<tree id="20" weight="0.1">
		<split>
			<feature> 16 </feature>
			<threshold> 16.689732 </threshold>
			<split pos="left">
				<feature> 16 </feature>
				<threshold> 16.362898 </threshold>
				<split pos="left">
					<feature> 16 </feature>
					<threshold> 10.8067255 </threshold>
					<split pos="left">
						<feature> 16 </feature>
						<threshold> 0.34805647 </threshold>
						<split pos="left">
							<output> -0.075609654 </output>
						</split>
						<split pos="right">
							<feature> 16 </feature>
							<threshold> 1.6553899 </threshold>
							<split pos="left">
								<output> 0.07068406 </output>
							</split>
							<split pos="right">
								<feature> 16 </feature>
								<threshold> 10.479892 </threshold>
								<split pos="left">
									<feature> 16 </feature>
									<threshold> 10.153058 </threshold>
									<split pos="left">
										<feature> 16 </feature>
										<threshold> 3.6163895 </threshold>
										<split pos="left">
											<output> 0.09241104 </output>
										</split>
										<split pos="right">
											<feature> 16 </feature>
											<threshold> 6.557889 </threshold>
											<split pos="left">
												<output> 0.104395196 </output>
											</split>
											<split pos="right">
												<output> 0.098039985 </output>
											</split>
										</split>
									</split>
									<split pos="right">
										<output> 0.07000238 </output>
									</split>
								</split>
								<split pos="right">
									<output> 0.115025915 </output>
								</split>
							</split>
						</split>
					</split>
					<split pos="right">
						<output> 0.08102612 </output>
					</split>
				</split>
				<split pos="right">
					<output> 0.18921758 </output>
				</split>
			</split>
			<split pos="right">
				<output> 0.060480904 </output>
			</split>
		</split>
	</tree>
	<tree id="21" weight="0.1">
		<split>
			<feature> 16 </feature>
			<threshold> 13.094562 </threshold>
			<split pos="left">
				<feature> 16 </feature>
				<threshold> 0.34805647 </threshold>
				<split pos="left">
					<output> -0.0680481 </output>
				</split>
				<split pos="right">
					<feature> 16 </feature>
					<threshold> 9.499391 </threshold>
					<split pos="left">
						<feature> 16 </feature>
						<threshold> 1.6553899 </threshold>
						<split pos="left">
							<output> 0.06362044 </output>
						</split>
						<split pos="right">
							<feature> 16 </feature>
							<threshold> 3.6163895 </threshold>
							<split pos="left">
								<output> 0.08315719 </output>
							</split>
							<split pos="right">
								<feature> 16 </feature>
								<threshold> 6.557889 </threshold>
								<split pos="left">
									<feature> 16 </feature>
									<threshold> 5.9042225 </threshold>
									<split pos="left">
										<output> 0.09055461 </output>
									</split>
									<split pos="right">
										<output> 0.10468539 </output>
									</split>
								</split>
								<split pos="right">
									<feature> 16 </feature>
									<threshold> 9.172557 </threshold>
									<split pos="left">
										<feature> 16 </feature>
										<threshold> 8.845723 </threshold>
										<split pos="left">
											<output> 0.089466564 </output>
										</split>
										<split pos="right">
											<output> 0.07704532 </output>
										</split>
									</split>
									<split pos="right">
										<output> 0.10004816 </output>
									</split>
								</split>
							</split>
						</split>
					</split>
					<split pos="right">
						<output> 0.08012391 </output>
					</split>
				</split>
			</split>
			<split pos="right">
				<output> 0.061555382 </output>
			</split>
		</split>
	</tree>
	<tree id="22" weight="0.1">
		<split>
			<feature> 16 </feature>
			<threshold> 26.16791 </threshold>
			<split pos="left">
				<feature> 16 </feature>
				<threshold> 11.787227 </threshold>
				<split pos="left">
					<feature> 16 </feature>
					<threshold> 11.460393 </threshold>
					<split pos="left">
						<feature> 16 </feature>
						<threshold> 10.8067255 </threshold>
						<split pos="left">
							<feature> 16 </feature>
							<threshold> 1.0017232 </threshold>
							<split pos="left">
								<output> 0.0051284293 </output>
							</split>
							<split pos="right">
								<feature> 16 </feature>
								<threshold> 10.479892 </threshold>
								<split pos="left">
									<feature> 16 </feature>
									<threshold> 10.153058 </threshold>
									<split pos="left">
										<feature> 16 </feature>
										<threshold> 3.6163895 </threshold>
										<split pos="left">
											<output> 0.072970696 </output>
										</split>
										<split pos="right">
											<feature> 16 </feature>
											<threshold> 5.5773892 </threshold>
											<split pos="left">
												<output> 0.08584021 </output>
											</split>
											<split pos="right">
												<output> 0.0800206 </output>
											</split>
										</split>
									</split>
									<split pos="right">
										<output> 0.054975033 </output>
									</split>
								</split>
								<split pos="right">
									<output> 0.09551478 </output>
								</split>
							</split>
						</split>
						<split pos="right">
							<output> 0.056335635 </output>
						</split>
					</split>
					<split pos="right">
						<output> 0.10648639 </output>
					</split>
				</split>
				<split pos="right">
					<output> 0.061724268 </output>
				</split>
			</split>
			<split pos="right">
				<output> -0.010341618 </output>
			</split>
		</split>
	</tree>
	<tree id="23" weight="0.1">
		<split>
			<feature> 16 </feature>
			<threshold> 31.39725 </threshold>
			<split pos="left">
				<feature> 16 </feature>
				<threshold> 15.055564 </threshold>
				<split pos="left">
					<feature> 16 </feature>
					<threshold> 9.499391 </threshold>
					<split pos="left">
						<feature> 16 </feature>
						<threshold> 0.34805647 </threshold>
						<split pos="left">
							<output> -0.061756626 </output>
						</split>
						<split pos="right">
							<feature> 16 </feature>
							<threshold> 1.9822233 </threshold>
							<split pos="left">
								<output> 0.055722818 </output>
							</split>
							<split pos="right">
								<feature> 16 </feature>
								<threshold> 2.3090565 </threshold>
								<split pos="left">
									<output> 0.1007631 </output>
								</split>
								<split pos="right">
									<feature> 16 </feature>
									<threshold> 2.962723 </threshold>
									<split pos="left">
										<output> 0.05160184 </output>
									</split>
									<split pos="right">
										<feature> 16 </feature>
										<threshold> 9.172557 </threshold>
										<split pos="left">
											<feature> 16 </feature>
											<threshold> 8.845723 </threshold>
											<split pos="left">
												<output> 0.07417533 </output>
											</split>
											<split pos="right">
												<output> 0.061346866 </output>
											</split>
										</split>
										<split pos="right">
											<output> 0.082054876 </output>
										</split>
									</split>
								</split>
							</split>
						</split>
					</split>
					<split pos="right">
						<output> 0.06404193 </output>
					</split>
				</split>
				<split pos="right">
					<output> 0.048374977 </output>
				</split>
			</split>
			<split pos="right">
				<output> -0.11284264 </output>
			</split>
		</split>
	</tree>
	<tree id="24" weight="0.1">
		<split>
			<feature> 16 </feature>
			<threshold> 32.70458 </threshold>
			<split pos="left">
				<feature> 16 </feature>
				<threshold> 17.3434 </threshold>
				<split pos="left">
					<feature> 16 </feature>
					<threshold> 9.499391 </threshold>
					<split pos="left">
						<feature> 16 </feature>
						<threshold> 1.0017232 </threshold>
						<split pos="left">
							<output> 0.0021759612 </output>
						</split>
						<split pos="right">
							<feature> 16 </feature>
							<threshold> 3.6163895 </threshold>
							<split pos="left">
								<output> 0.058988873 </output>
							</split>
							<split pos="right">
								<feature> 16 </feature>
								<threshold> 5.5773892 </threshold>
								<split pos="left">
									<output> 0.069849655 </output>
								</split>
								<split pos="right">
									<feature> 16 </feature>
									<threshold> 5.9042225 </threshold>
									<split pos="left">
										<output> 0.04440289 </output>
									</split>
									<split pos="right">
										<feature> 16 </feature>
										<threshold> 6.557889 </threshold>
										<split pos="left">
											<output> 0.07880661 </output>
										</split>
										<split pos="right">
											<output> 0.06488188 </output>
										</split>
									</split>
								</split>
							</split>
						</split>
					</split>
					<split pos="right">
						<feature> 16 </feature>
						<threshold> 16.362898 </threshold>
						<split pos="left">
							<output> 0.05531594 </output>
						</split>
						<split pos="right">
							<output> 0.08989191 </output>
						</split>
					</split>
				</split>
				<split pos="right">
					<output> 0.040039197 </output>
				</split>
			</split>
			<split pos="right">
				<output> -0.1304996 </output>
			</split>
		</split>
	</tree>
	<tree id="25" weight="0.1">
		<split>
			<feature> 16 </feature>
			<threshold> 26.16791 </threshold>
			<split pos="left">
				<feature> 16 </feature>
				<threshold> 11.787227 </threshold>
				<split pos="left">
					<feature> 16 </feature>
					<threshold> 11.460393 </threshold>
					<split pos="left">
						<feature> 16 </feature>
						<threshold> 10.8067255 </threshold>
						<split pos="left">
							<feature> 16 </feature>
							<threshold> 0.34805647 </threshold>
							<split pos="left">
								<output> -0.055798445 </output>
							</split>
							<split pos="right">
								<feature> 16 </feature>
								<threshold> 10.479892 </threshold>
								<split pos="left">
									<feature> 16 </feature>
									<threshold> 10.153058 </threshold>
									<split pos="left">
										<feature> 16 </feature>
										<threshold> 1.6553899 </threshold>
										<split pos="left">
											<output> 0.040277414 </output>
										</split>
										<split pos="right">
											<feature> 16 </feature>
											<threshold> 2.3090565 </threshold>
											<split pos="left">
												<output> 0.06901256 </output>
											</split>
											<split pos="right">
												<output> 0.058855545 </output>
											</split>
										</split>
									</split>
									<split pos="right">
										<output> 0.037557486 </output>
									</split>
								</split>
								<split pos="right">
									<output> 0.07402449 </output>
								</split>
							</split>
						</split>
						<split pos="right">
							<output> 0.038749795 </output>
						</split>
					</split>
					<split pos="right">
						<output> 0.08390198 </output>
					</split>
				</split>
				<split pos="right">
					<output> 0.04490899 </output>
				</split>
			</split>
			<split pos="right">
				<output> -0.012416762 </output>
			</split>
		</split>
	</tree>
	<tree id="26" weight="0.1">
		<split>
			<feature> 16 </feature>
			<threshold> 32.70458 </threshold>
			<split pos="left">
				<feature> 16 </feature>
				<threshold> 16.689732 </threshold>
				<split pos="left">
					<feature> 16 </feature>
					<threshold> 16.362898 </threshold>
					<split pos="left">
						<feature> 16 </feature>
						<threshold> 15.709231 </threshold>
						<split pos="left">
							<feature> 16 </feature>
							<threshold> 9.499391 </threshold>
							<split pos="left">
								<feature> 16 </feature>
								<threshold> 0.34805647 </threshold>
								<split pos="left">
									<output> -0.050218213 </output>
								</split>
								<split pos="right">
									<feature> 16 </feature>
									<threshold> 2.962723 </threshold>
									<split pos="left">
										<output> 0.04446531 </output>
									</split>
									<split pos="right">
										<feature> 16 </feature>
										<threshold> 9.172557 </threshold>
										<split pos="left">
											<feature> 16 </feature>
											<threshold> 8.845723 </threshold>
											<split pos="left">
												<output> 0.054169074 </output>
											</split>
											<split pos="right">
												<output> 0.04283967 </output>
											</split>
										</split>
										<split pos="right">
											<output> 0.061470516 </output>
										</split>
									</split>
								</split>
							</split>
							<split pos="right">
								<output> 0.046592724 </output>
							</split>
						</split>
						<split pos="right">
							<output> 0.0066841342 </output>
						</split>
					</split>
					<split pos="right">
						<output> 0.13964953 </output>
					</split>
				</split>
				<split pos="right">
					<output> 0.0326252 </output>
				</split>
			</split>
			<split pos="right">
				<output> -0.11620512 </output>
			</split>
		</split>
	</tree>
	<tree id="27" weight="0.1">
		<split>
			<feature> 16 </feature>
			<threshold> 31.39725 </threshold>
			<split pos="left">
				<feature> 16 </feature>
				<threshold> 14.72873 </threshold>
				<split pos="left">
					<feature> 16 </feature>
					<threshold> 14.401896 </threshold>
					<split pos="left">
						<feature> 16 </feature>
						<threshold> 13.421395 </threshold>
						<split pos="left">
							<feature> 16 </feature>
							<threshold> 0.6748898 </threshold>
							<split pos="left">
								<output> -0.0121063525 </output>
							</split>
							<split pos="right">
								<feature> 16 </feature>
								<threshold> 9.499391 </threshold>
								<split pos="left">
									<feature> 16 </feature>
									<threshold> 4.2700562 </threshold>
									<split pos="left">
										<output> 0.04346947 </output>
									</split>
									<split pos="right">
										<feature> 16 </feature>
										<threshold> 5.5773892 </threshold>
										<split pos="left">
											<output> 0.053923387 </output>
										</split>
										<split pos="right">
											<feature> 16 </feature>
											<threshold> 5.9042225 </threshold>
											<split pos="left">
												<output> 0.028651068 </output>
											</split>
											<split pos="right">
												<output> 0.049321003 </output>
											</split>
										</split>
									</split>
								</split>
								<split pos="right">
									<output> 0.043091998 </output>
								</split>
							</split>
						</split>
						<split pos="right">
							<output> 0.025652064 </output>
						</split>
					</split>
					<split pos="right">
						<output> 0.08738352 </output>
					</split>
				</split>
				<split pos="right">
					<output> 0.031570863 </output>
				</split>
			</split>
			<split pos="right">
				<output> -0.08404739 </output>
			</split>
		</split>
	</tree>
	<tree id="28" weight="0.1">
		<split>
			<feature> 16 </feature>
			<threshold> 25.841076 </threshold>
			<split pos="left">
				<feature> 16 </feature>
				<threshold> 19.304401 </threshold>
				<split pos="left">
					<feature> 16 </feature>
					<threshold> 17.3434 </threshold>
					<split pos="left">
						<feature> 16 </feature>
						<threshold> 16.362898 </threshold>
						<split pos="left">
							<feature> 16 </feature>
							<threshold> 15.709231 </threshold>
							<split pos="left">
								<feature> 16 </feature>
								<threshold> 10.8067255 </threshold>
								<split pos="left">
									<feature> 16 </feature>
									<threshold> 10.479892 </threshold>
									<split pos="left">
										<feature> 16 </feature>
										<threshold> 10.153058 </threshold>
										<split pos="left">
											<feature> 16 </feature>
											<threshold> -1.939777 </threshold>
											<split pos="left">
												<output> 0.18588647 </output>
											</split>
											<split pos="right">
												<output> 0.042702317 </output>
											</split>
										</split>
										<split pos="right">
											<output> 0.024825301 </output>
										</split>
									</split>
									<split pos="right">
										<output> 0.057644818 </output>
									</split>
								</split>
								<split pos="right">
									<output> 0.036574554 </output>
								</split>
							</split>
							<split pos="right">
								<output> 0.0028609491 </output>
							</split>
						</split>
						<split pos="right">
							<output> 0.066037506 </output>
						</split>
					</split>
					<split pos="right">
						<output> -0.031098962 </output>
					</split>
				</split>
				<split pos="right">
					<output> 0.06408334 </output>
				</split>
			</split>
			<split pos="right">
				<output> -0.01083663 </output>
			</split>
		</split>
	</tree>
	<tree id="29" weight="0.1">
		<split>
			<feature> 16 </feature>
			<threshold> 32.70458 </threshold>
			<split pos="left">
				<feature> 16 </feature>
				<threshold> 16.689732 </threshold>
				<split pos="left">
					<feature> 16 </feature>
					<threshold> 16.362898 </threshold>
					<split pos="left">
						<feature> 16 </feature>
						<threshold> 15.709231 </threshold>
						<split pos="left">
							<feature> 16 </feature>
							<threshold> 0.34805647 </threshold>
							<split pos="left">
								<output> -0.053897005 </output>
							</split>
							<split pos="right">
								<feature> 16 </feature>
								<threshold> 10.8067255 </threshold>
								<split pos="left">
									<feature> 16 </feature>
									<threshold> 10.479892 </threshold>
									<split pos="left">
										<feature> 16 </feature>
										<threshold> 10.153058 </threshold>
										<split pos="left">
											<feature> 16 </feature>
											<threshold> 1.9822233 </threshold>
											<split pos="left">
												<output> 0.026845058 </output>
											</split>
											<split pos="right">
												<output> 0.038949754 </output>
											</split>
										</split>
										<split pos="right">
											<output> 0.02234077 </output>
										</split>
									</split>
									<split pos="right">
										<output> 0.05188491 </output>
									</split>
								</split>
								<split pos="right">
									<output> 0.032907855 </output>
								</split>
							</split>
						</split>
						<split pos="right">
							<output> 0.0025669653 </output>
						</split>
					</split>
					<split pos="right">
						<output> 0.11592381 </output>
					</split>
				</split>
				<split pos="right">
					<output> 0.023522742 </output>
				</split>
			</split>
			<split pos="right">
				<output> -0.095098786 </output>
			</split>
		</split>
	</tree>
	<tree id="30" weight="0.1">
		<split>
			<feature> 16 </feature>
			<threshold> 32.70458 </threshold>
			<split pos="left">
				<feature> 16 </feature>
				<threshold> 19.304401 </threshold>
				<split pos="left">
					<feature> 16 </feature>
					<threshold> 17.3434 </threshold>
					<split pos="left">
						<feature> 16 </feature>
						<threshold> 16.362898 </threshold>
						<split pos="left">
							<feature> 16 </feature>
							<threshold> 15.709231 </threshold>
							<split pos="left">
								<feature> 16 </feature>
								<threshold> -1.939777 </threshold>
								<split pos="left">
									<output> 0.1726876 </output>
								</split>
								<split pos="right">
									<feature> 16 </feature>
									<threshold> 0.34805647 </threshold>
									<split pos="left">
										<output> -0.1922834 </output>
									</split>
									<split pos="right">
										<feature> 16 </feature>
										<threshold> 9.499391 </threshold>
										<split pos="left">
											<feature> 16 </feature>
											<threshold> 1.6553899 </threshold>
											<split pos="left">
												<output> 0.020951733 </output>
											</split>
											<split pos="right">
												<output> 0.03526465 </output>
											</split>
										</split>
										<split pos="right">
											<output> 0.030501466 </output>
										</split>
									</split>
								</split>
							</split>
							<split pos="right">
								<output> 0.002318354 </output>
							</split>
						</split>
						<split pos="right">
							<output> 0.053662173 </output>
						</split>
					</split>
					<split pos="right">
						<output> -0.030358715 </output>
					</split>
				</split>
				<split pos="right">
					<output> 0.04658462 </output>
				</split>
			</split>
			<split pos="right">
				<output> -0.08558773 </output>
			</split>
		</split>
	</tree>
	<tree id="31" weight="0.1">
		<split>
			<feature> 16 </feature>
			<threshold> 25.841076 </threshold>
			<split pos="left">
				<feature> 16 </feature>
				<threshold> 25.514242 </threshold>
				<split pos="left">
					<feature> 16 </feature>
					<threshold> 19.304401 </threshold>
					<split pos="left">
						<feature> 16 </feature>
						<threshold> 17.3434 </threshold>
						<split pos="left">
							<feature> 16 </feature>
							<threshold> 16.362898 </threshold>
							<split pos="left">
								<feature> 16 </feature>
								<threshold> 15.709231 </threshold>
								<split pos="left">
									<feature> 16 </feature>
									<threshold> -1.939777 </threshold>
									<split pos="left">
										<output> 0.15541875 </output>
									</split>
									<split pos="right">
										<feature> 16 </feature>
										<threshold> 0.34805647 </threshold>
										<split pos="left">
											<output> -0.1730558 </output>
										</split>
										<split pos="right">
											<feature> 16 </feature>
											<threshold> 10.8067255 </threshold>
											<split pos="left">
												<output> 0.031169193 </output>
											</split>
											<split pos="right">
												<output> 0.026569 </output>
											</split>
										</split>
									</split>
								</split>
								<split pos="right">
									<output> 0.0020786214 </output>
								</split>
							</split>
							<split pos="right">
								<output> 0.048293766 </output>
							</split>
						</split>
						<split pos="right">
							<output> -0.027321458 </output>
						</split>
					</split>
					<split pos="right">
						<output> 0.04654269 </output>
					</split>
				</split>
				<split pos="right">
					<output> 0.15779781 </output>
				</split>
			</split>
			<split pos="right">
				<output> -0.013410497 </output>
			</split>
		</split>
	</tree>
	<tree id="32" weight="0.1">
		<split>
			<feature> 16 </feature>
			<threshold> 26.16791 </threshold>
			<split pos="left">
				<feature> 16 </feature>
				<threshold> 19.304401 </threshold>
				<split pos="left">
					<feature> 16 </feature>
					<threshold> 17.3434 </threshold>
					<split pos="left">
						<feature> 16 </feature>
						<threshold> 16.362898 </threshold>
						<split pos="left">
							<feature> 16 </feature>
							<threshold> 15.709231 </threshold>
							<split pos="left">
								<feature> 16 </feature>
								<threshold> 1.0017232 </threshold>
								<split pos="left">
									<output> -0.009684306 </output>
								</split>
								<split pos="right">
									<feature> 16 </feature>
									<threshold> 1.3285565 </threshold>
									<split pos="left">
										<output> 0.055036493 </output>
									</split>
									<split pos="right">
										<feature> 16 </feature>
										<threshold> 1.6553899 </threshold>
										<split pos="left">
											<output> -0.035523728 </output>
										</split>
										<split pos="right">
											<feature> 16 </feature>
											<threshold> 8.192056 </threshold>
											<split pos="left">
												<output> 0.029139522 </output>
											</split>
											<split pos="right">
												<output> 0.025161492 </output>
											</split>
										</split>
									</split>
								</split>
							</split>
							<split pos="right">
								<output> 0.0018711272 </output>
							</split>
						</split>
						<split pos="right">
							<output> 0.04346435 </output>
						</split>
					</split>
					<split pos="right">
						<output> -0.024594253 </output>
					</split>
				</split>
				<split pos="right">
					<output> 0.044797063 </output>
				</split>
			</split>
			<split pos="right">
				<output> -0.01398178 </output>
			</split>
		</split>
	</tree>
	<tree id="33" weight="0.1">
		<split>
			<feature> 16 </feature>
			<threshold> 32.70458 </threshold>
			<split pos="left">
				<feature> 16 </feature>
				<threshold> 32.377747 </threshold>
				<split pos="left">
					<feature> 16 </feature>
					<threshold> 22.572739 </threshold>
					<split pos="left">
						<feature> 16 </feature>
						<threshold> 20.611736 </threshold>
						<split pos="left">
							<feature> 16 </feature>
							<threshold> 16.689732 </threshold>
							<split pos="left">
								<feature> 16 </feature>
								<threshold> 16.362898 </threshold>
								<split pos="left">
									<feature> 16 </feature>
									<threshold> 15.055564 </threshold>
									<split pos="left">
										<feature> 16 </feature>
										<threshold> 13.748229 </threshold>
										<split pos="left">
											<feature> 16 </feature>
											<threshold> 13.421395 </threshold>
											<split pos="left">
												<output> 0.024725707 </output>
											</split>
											<split pos="right">
												<output> -0.03362804 </output>
											</split>
										</split>
										<split pos="right">
											<output> 0.03756874 </output>
										</split>
									</split>
									<split pos="right">
										<output> 0.008089923 </output>
									</split>
								</split>
								<split pos="right">
									<output> 0.08978801 </output>
								</split>
							</split>
							<split pos="right">
								<output> -1.2457655E-4 </output>
							</split>
						</split>
						<split pos="right">
							<output> 0.0706895 </output>
						</split>
					</split>
					<split pos="right">
						<output> 0.0053181457 </output>
					</split>
				</split>
				<split pos="right">
					<output> 0.54075724 </output>
				</split>
			</split>
			<split pos="right">
				<output> -0.074289486 </output>
			</split>
		</split>
	</tree>
	<tree id="34" weight="0.1">
		<split>
			<feature> 16 </feature>
			<threshold> 31.39725 </threshold>
			<split pos="left">
				<feature> 16 </feature>
				<threshold> 31.070415 </threshold>
				<split pos="left">
					<feature> 16 </feature>
					<threshold> 30.416748 </threshold>
					<split pos="left">
						<feature> 16 </feature>
						<threshold> 29.436247 </threshold>
						<split pos="left">
							<feature> 16 </feature>
							<threshold> 26.16791 </threshold>
							<split pos="left">
								<feature> 16 </feature>
								<threshold> 23.880074 </threshold>
								<split pos="left">
									<feature> 16 </feature>
									<threshold> 22.572739 </threshold>
									<split pos="left">
										<feature> 16 </feature>
										<threshold> 20.611736 </threshold>
										<split pos="left">
											<feature> 16 </feature>
											<threshold> 16.689732 </threshold>
											<split pos="left">
												<output> 0.02193802 </output>
											</split>
											<split pos="right">
												<output> -1.1479935E-4 </output>
											</split>
										</split>
										<split pos="right">
											<output> 0.06360684 </output>
										</split>
									</split>
									<split pos="right">
										<output> -0.042459324 </output>
									</split>
								</split>
								<split pos="right">
									<output> 0.06348709 </output>
								</split>
							</split>
							<split pos="right">
								<output> -0.037540272 </output>
							</split>
						</split>
						<split pos="right">
							<output> 0.14151709 </output>
						</split>
					</split>
					<split pos="right">
						<output> -0.29760933 </output>
					</split>
				</split>
				<split pos="right">
					<output> 0.18825358 </output>
				</split>
			</split>
			<split pos="right">
				<output> -0.05641405 </output>
			</split>
		</split>
	</tree>
	<tree id="35" weight="0.1">
		<split>
			<feature> 16 </feature>
			<threshold> 31.39725 </threshold>
			<split pos="left">
				<feature> 16 </feature>
				<threshold> 31.070415 </threshold>
				<split pos="left">
					<feature> 16 </feature>
					<threshold> 30.416748 </threshold>
					<split pos="left">
						<feature> 16 </feature>
						<threshold> 29.436247 </threshold>
						<split pos="left">
							<feature> 16 </feature>
							<threshold> 26.16791 </threshold>
							<split pos="left">
								<feature> 16 </feature>
								<threshold> 19.304401 </threshold>
								<split pos="left">
									<feature> 16 </feature>
									<threshold> 17.3434 </threshold>
									<split pos="left">
										<feature> 16 </feature>
										<threshold> 16.362898 </threshold>
										<split pos="left">
											<feature> 16 </feature>
											<threshold> 15.709231 </threshold>
											<split pos="left">
												<output> 0.019696921 </output>
											</split>
											<split pos="right">
												<output> -0.0013123507 </output>
											</split>
										</split>
										<split pos="right">
											<output> 0.03499643 </output>
										</split>
									</split>
									<split pos="right">
										<output> -0.022106042 </output>
									</split>
								</split>
								<split pos="right">
									<output> 0.035039186 </output>
								</split>
							</split>
							<split pos="right">
								<output> -0.033786964 </output>
							</split>
						</split>
						<split pos="right">
							<output> 0.127366 </output>
						</split>
					</split>
					<split pos="right">
						<output> -0.26784763 </output>
					</split>
				</split>
				<split pos="right">
					<output> 0.16942689 </output>
				</split>
			</split>
			<split pos="right">
				<output> -0.050771672 </output>
			</split>
		</split>
	</tree>
	<tree id="36" weight="0.1">
		<split>
			<feature> 16 </feature>
			<threshold> 22.572739 </threshold>
			<split pos="left">
				<feature> 16 </feature>
				<threshold> 19.304401 </threshold>
				<split pos="left">
					<feature> 16 </feature>
					<threshold> 17.3434 </threshold>
					<split pos="left">
						<feature> 16 </feature>
						<threshold> -1.939777 </threshold>
						<split pos="left">
							<output> 0.1342092 </output>
						</split>
						<split pos="right">
							<feature> 16 </feature>
							<threshold> 0.34805647 </threshold>
							<split pos="left">
								<output> -0.16141741 </output>
							</split>
							<split pos="right">
								<feature> 16 </feature>
								<threshold> 16.362898 </threshold>
								<split pos="left">
									<feature> 16 </feature>
									<threshold> 15.055564 </threshold>
									<split pos="left">
										<feature> 16 </feature>
										<threshold> 13.748229 </threshold>
										<split pos="left">
											<feature> 16 </feature>
											<threshold> 13.421395 </threshold>
											<split pos="left">
												<output> 0.018159091 </output>
											</split>
											<split pos="right">
												<output> -0.034425028 </output>
											</split>
										</split>
										<split pos="right">
											<output> 0.0296481 </output>
										</split>
									</split>
									<split pos="right">
										<output> 0.004176706 </output>
									</split>
								</split>
								<split pos="right">
									<output> 0.031498455 </output>
								</split>
							</split>
						</split>
					</split>
					<split pos="right">
						<output> -0.01989532 </output>
					</split>
				</split>
				<split pos="right">
					<output> 0.044491418 </output>
				</split>
			</split>
			<split pos="right">
				<output> -1.6955983E-4 </output>
			</split>
		</split>
	</tree>
	<tree id="37" weight="0.1">
		<split>
			<feature> 16 </feature>
			<threshold> 32.70458 </threshold>
			<split pos="left">
				<feature> 16 </feature>
				<threshold> 32.377747 </threshold>
				<split pos="left">
					<feature> 16 </feature>
					<threshold> 19.304401 </threshold>
					<split pos="left">
						<feature> 16 </feature>
						<threshold> 17.3434 </threshold>
						<split pos="left">
							<feature> 16 </feature>
							<threshold> -1.939777 </threshold>
							<split pos="left">
								<output> 0.120788515 </output>
							</split>
							<split pos="right">
								<feature> 16 </feature>
								<threshold> 0.34805647 </threshold>
								<split pos="left">
									<output> -0.14527579 </output>
								</split>
								<split pos="right">
									<feature> 16 </feature>
									<threshold> 16.362898 </threshold>
									<split pos="left">
										<feature> 16 </feature>
										<threshold> 14.72873 </threshold>
										<split pos="left">
											<feature> 16 </feature>
											<threshold> 14.401896 </threshold>
											<split pos="left">
												<output> 0.015753739 </output>
											</split>
											<split pos="right">
												<output> 0.052572016 </output>
											</split>
										</split>
										<split pos="right">
											<output> 0.0050759716 </output>
										</split>
									</split>
									<split pos="right">
										<output> 0.028347418 </output>
									</split>
								</split>
							</split>
						</split>
						<split pos="right">
							<output> -0.017927468 </output>
						</split>
					</split>
					<split pos="right">
						<output> 0.023776835 </output>
					</split>
				</split>
				<split pos="right">
					<output> 0.49741694 </output>
				</split>
			</split>
			<split pos="right">
				<output> -0.056126587 </output>
			</split>
		</split>
	</tree>
	<tree id="38" weight="0.1">
		<split>
			<feature> 16 </feature>
			<threshold> 22.572739 </threshold>
			<split pos="left">
				<feature> 16 </feature>
				<threshold> 20.611736 </threshold>
				<split pos="left">
					<feature> 16 </feature>
					<threshold> 16.689732 </threshold>
					<split pos="left">
						<feature> 16 </feature>
						<threshold> 16.362898 </threshold>
						<split pos="left">
							<feature> 16 </feature>
							<threshold> 15.709231 </threshold>
							<split pos="left">
								<feature> 16 </feature>
								<threshold> -1.939777 </threshold>
								<split pos="left">
									<output> 0.108709514 </output>
								</split>
								<split pos="right">
									<feature> 16 </feature>
									<threshold> 0.34805647 </threshold>
									<split pos="left">
										<output> -0.13074854 </output>
									</split>
									<split pos="right">
										<feature> 16 </feature>
										<threshold> 8.192056 </threshold>
										<split pos="left">
											<feature> 16 </feature>
											<threshold> 7.865222 </threshold>
											<split pos="left">
												<output> 0.014896717 </output>
											</split>
											<split pos="right">
												<output> 0.031393696 </output>
											</split>
										</split>
										<split pos="right">
											<output> 0.012803361 </output>
										</split>
									</split>
								</split>
							</split>
							<split pos="right">
								<output> -0.0021059602 </output>
							</split>
						</split>
						<split pos="right">
							<output> 0.06913093 </output>
						</split>
					</split>
					<split pos="right">
						<output> -0.0010359188 </output>
					</split>
				</split>
				<split pos="right">
					<output> 0.04691152 </output>
				</split>
			</split>
			<split pos="right">
				<output> -0.0021856187 </output>
			</split>
		</split>
	</tree>
	<tree id="39" weight="0.1">
		<split>
			<feature> 16 </feature>
			<threshold> 43.49003 </threshold>
			<split pos="left">
				<feature> 16 </feature>
				<threshold> 35.972897 </threshold>
				<split pos="left">
					<feature> 16 </feature>
					<threshold> 32.70458 </threshold>
					<split pos="left">
						<feature> 16 </feature>
						<threshold> 32.377747 </threshold>
						<split pos="left">
							<feature> 16 </feature>
							<threshold> 31.070415 </threshold>
							<split pos="left">
								<feature> 16 </feature>
								<threshold> 30.416748 </threshold>
								<split pos="left">
									<feature> 16 </feature>
									<threshold> 29.436247 </threshold>
									<split pos="left">
										<feature> 16 </feature>
										<threshold> 25.841076 </threshold>
										<split pos="left">
											<feature> 16 </feature>
											<threshold> 25.514242 </threshold>
											<split pos="left">
												<output> 0.01220512 </output>
											</split>
											<split pos="right">
												<output> 0.12501413 </output>
											</split>
										</split>
										<split pos="right">
											<output> -0.029272575 </output>
										</split>
									</split>
									<split pos="right">
										<output> 0.1124867 </output>
									</split>
								</split>
								<split pos="right">
									<output> -0.24320477 </output>
								</split>
							</split>
							<split pos="right">
								<output> 0.06833587 </output>
							</split>
						</split>
						<split pos="right">
							<output> 0.44789347 </output>
						</split>
					</split>
					<split pos="right">
						<output> -0.10318127 </output>
					</split>
				</split>
				<split pos="right">
					<output> 0.1447295 </output>
				</split>
			</split>
			<split pos="right">
				<output> -0.28116158 </output>
			</split>
		</split>
	</tree>
	<tree id="40" weight="0.1">
		<split>
			<feature> 16 </feature>
			<threshold> 31.39725 </threshold>
			<split pos="left">
				<feature> 16 </feature>
				<threshold> 31.070415 </threshold>
				<split pos="left">
					<feature> 16 </feature>
					<threshold> 30.416748 </threshold>
					<split pos="left">
						<feature> 16 </feature>
						<threshold> 29.436247 </threshold>
						<split pos="left">
							<feature> 16 </feature>
							<threshold> 26.16791 </threshold>
							<split pos="left">
								<feature> 16 </feature>
								<threshold> 23.880074 </threshold>
								<split pos="left">
									<feature> 16 </feature>
									<threshold> 22.572739 </threshold>
									<split pos="left">
										<feature> 16 </feature>
										<threshold> 19.304401 </threshold>
										<split pos="left">
											<feature> 16 </feature>
											<threshold> 17.3434 </threshold>
											<split pos="left">
												<output> 0.011647113 </output>
											</split>
											<split pos="right">
												<output> -0.017223125 </output>
											</split>
										</split>
										<split pos="right">
											<output> 0.033974312 </output>
										</split>
									</split>
									<split pos="right">
										<output> -0.045074936 </output>
									</split>
								</split>
								<split pos="right">
									<output> 0.048276678 </output>
								</split>
							</split>
							<split pos="right">
								<output> -0.029621797 </output>
							</split>
						</split>
						<split pos="right">
							<output> 0.10123859 </output>
						</split>
					</split>
					<split pos="right">
						<output> -0.21888483 </output>
					</split>
				</split>
				<split pos="right">
					<output> 0.14351188 </output>
				</split>
			</split>
			<split pos="right">
				<output> -0.04227469 </output>
			</split>
		</split>
	</tree>
	<tree id="41" weight="0.1">
		<split>
			<feature> 16 </feature>
			<threshold> 43.49003 </threshold>
			<split pos="left">
				<feature> 16 </feature>
				<threshold> 34.011906 </threshold>
				<split pos="left">
					<feature> 16 </feature>
					<threshold> 32.70458 </threshold>
					<split pos="left">
						<feature> 16 </feature>
						<threshold> 32.377747 </threshold>
						<split pos="left">
							<feature> 16 </feature>
							<threshold> 31.39725 </threshold>
							<split pos="left">
								<feature> 16 </feature>
								<threshold> 31.070415 </threshold>
								<split pos="left">
									<feature> 16 </feature>
									<threshold> 30.416748 </threshold>
									<split pos="left">
										<feature> 16 </feature>
										<threshold> 29.436247 </threshold>
										<split pos="left">
											<feature> 16 </feature>
											<threshold> 25.841076 </threshold>
											<split pos="left">
												<output> 0.010150243 </output>
											</split>
											<split pos="right">
												<output> -0.024529202 </output>
											</split>
										</split>
										<split pos="right">
											<output> 0.09111462 </output>
										</split>
									</split>
									<split pos="right">
										<output> -0.19699699 </output>
									</split>
								</split>
								<split pos="right">
									<output> 0.12915775 </output>
								</split>
							</split>
							<split pos="right">
								<output> -0.0780285 </output>
							</split>
						</split>
						<split pos="right">
							<output> 0.40733173 </output>
						</split>
					</split>
					<split pos="right">
						<output> -0.16442794 </output>
					</split>
				</split>
				<split pos="right">
					<output> 0.10490428 </output>
				</split>
			</split>
			<split pos="right">
				<output> -0.24881768 </output>
			</split>
		</split>
	</tree>
	<tree id="42" weight="0.1">
		<split>
			<feature> 16 </feature>
			<threshold> 43.49003 </threshold>
			<split pos="left">
				<feature> 16 </feature>
				<threshold> 41.202206 </threshold>
				<split pos="left">
					<feature> 16 </feature>
					<threshold> 37.280224 </threshold>
					<split pos="left">
						<feature> 16 </feature>
						<threshold> 35.972897 </threshold>
						<split pos="left">
							<feature> 16 </feature>
							<threshold> 32.70458 </threshold>
							<split pos="left">
								<feature> 16 </feature>
								<threshold> 32.377747 </threshold>
								<split pos="left">
									<feature> 16 </feature>
									<threshold> 19.304401 </threshold>
									<split pos="left">
										<feature> 16 </feature>
										<threshold> 17.997066 </threshold>
										<split pos="left">
											<feature> 16 </feature>
											<threshold> 17.670233 </threshold>
											<split pos="left">
												<output> 0.009246291 </output>
											</split>
											<split pos="right">
												<output> 0.04010751 </output>
											</split>
										</split>
										<split pos="right">
											<output> -0.019272035 </output>
										</split>
									</split>
									<split pos="right">
										<output> 0.016159814 </output>
									</split>
								</split>
								<split pos="right">
									<output> 0.36659858 </output>
								</split>
							</split>
							<split pos="right">
								<output> -0.08082382 </output>
							</split>
						</split>
						<split pos="right">
							<output> 0.25503114 </output>
						</split>
					</split>
					<split pos="right">
						<output> -0.17486651 </output>
					</split>
				</split>
				<split pos="right">
					<output> 0.37013602 </output>
				</split>
			</split>
			<split pos="right">
				<output> -0.22393619 </output>
			</split>
		</split>
	</tree>
	<tree id="43" weight="0.1">
		<split>
			<feature> 16 </feature>
			<threshold> 22.572739 </threshold>
			<split pos="left">
				<feature> 16 </feature>
				<threshold> 19.304401 </threshold>
				<split pos="left">
					<feature> 16 </feature>
					<threshold> 16.689732 </threshold>
					<split pos="left">
						<feature> 16 </feature>
						<threshold> 16.362898 </threshold>
						<split pos="left">
							<feature> 16 </feature>
							<threshold> 15.709231 </threshold>
							<split pos="left">
								<feature> 16 </feature>
								<threshold> 13.748229 </threshold>
								<split pos="left">
									<feature> 16 </feature>
									<threshold> 13.421395 </threshold>
									<split pos="left">
										<feature> 16 </feature>
										<threshold> 1.0017232 </threshold>
										<split pos="left">
											<output> -0.020010052 </output>
										</split>
										<split pos="right">
											<feature> 16 </feature>
											<threshold> 1.3285565 </threshold>
											<split pos="left">
												<output> 0.033694547 </output>
											</split>
											<split pos="right">
												<output> 0.008830513 </output>
											</split>
										</split>
									</split>
									<split pos="right">
										<output> -0.038168546 </output>
									</split>
								</split>
								<split pos="right">
									<output> 0.014684959 </output>
								</split>
							</split>
							<split pos="right">
								<output> -0.00622416 </output>
							</split>
						</split>
						<split pos="right">
							<output> 0.05789329 </output>
						</split>
					</split>
					<split pos="right">
						<output> -0.013290052 </output>
					</split>
				</split>
				<split pos="right">
					<output> 0.027952462 </output>
				</split>
			</split>
			<split pos="right">
				<output> -0.004318408 </output>
			</split>
		</split>
	</tree>
	<tree id="44" weight="0.1">
		<split>
			<feature> 16 </feature>
			<threshold> 22.572739 </threshold>
			<split pos="left">
				<feature> 16 </feature>
				<threshold> 20.611736 </threshold>
				<split pos="left">
					<feature> 16 </feature>
					<threshold> 20.284903 </threshold>
					<split pos="left">
						<feature> 16 </feature>
						<threshold> 19.304401 </threshold>
						<split pos="left">
							<feature> 16 </feature>
							<threshold> 16.689732 </threshold>
							<split pos="left">
								<feature> 16 </feature>
								<threshold> 16.362898 </threshold>
								<split pos="left">
									<feature> 16 </feature>
									<threshold> 14.72873 </threshold>
									<split pos="left">
										<feature> 16 </feature>
										<threshold> 14.401896 </threshold>
										<split pos="left">
											<feature> 16 </feature>
											<threshold> 13.421395 </threshold>
											<split pos="left">
												<output> 0.008051288 </output>
											</split>
											<split pos="right">
												<output> -0.0045275297 </output>
											</split>
										</split>
										<split pos="right">
											<output> 0.04024589 </output>
										</split>
									</split>
									<split pos="right">
										<output> -0.001140147 </output>
									</split>
								</split>
								<split pos="right">
									<output> 0.052104432 </output>
								</split>
							</split>
							<split pos="right">
								<output> -0.011971667 </output>
							</split>
						</split>
						<split pos="right">
							<output> 0.02983079 </output>
						</split>
					</split>
					<split pos="right">
						<output> -0.037782285 </output>
					</split>
				</split>
				<split pos="right">
					<output> 0.03217952 </output>
				</split>
			</split>
			<split pos="right">
				<output> -0.0038869395 </output>
			</split>
		</split>
	</tree>
	<tree id="45" weight="0.1">
		<split>
			<feature> 16 </feature>
			<threshold> 43.49003 </threshold>
			<split pos="left">
				<feature> 16 </feature>
				<threshold> 34.011906 </threshold>
				<split pos="left">
					<feature> 16 </feature>
					<threshold> 32.70458 </threshold>
					<split pos="left">
						<feature> 16 </feature>
						<threshold> 32.377747 </threshold>
						<split pos="left">
							<feature> 16 </feature>
							<threshold> 31.39725 </threshold>
							<split pos="left">
								<feature> 16 </feature>
								<threshold> 31.070415 </threshold>
								<split pos="left">
									<feature> 16 </feature>
									<threshold> 30.416748 </threshold>
									<split pos="left">
										<feature> 16 </feature>
										<threshold> 29.436247 </threshold>
										<split pos="left">
											<feature> 16 </feature>
											<threshold> 25.841076 </threshold>
											<split pos="left">
												<output> 0.0067044534 </output>
											</split>
											<split pos="right">
												<output> -0.022870988 </output>
											</split>
										</split>
										<split pos="right">
											<output> 0.081206955 </output>
										</split>
									</split>
									<split pos="right">
										<output> -0.17809172 </output>
									</split>
								</split>
								<split pos="right">
									<output> 0.11544901 </output>
								</split>
							</split>
							<split pos="right">
								<output> -0.07102106 </output>
							</split>
						</split>
						<split pos="right">
							<output> 0.33075908 </output>
						</split>
					</split>
					<split pos="right">
						<output> -0.13908215 </output>
					</split>
				</split>
				<split pos="right">
					<output> 0.09255377 </output>
				</split>
			</split>
			<split pos="right">
				<output> -0.20072207 </output>
			</split>
		</split>
	</tree>
	<tree id="46" weight="0.1">
		<split>
			<feature> 16 </feature>
			<threshold> 43.49003 </threshold>
			<split pos="left">
				<feature> 16 </feature>
				<threshold> 34.011906 </threshold>
				<split pos="left">
					<feature> 16 </feature>
					<threshold> 32.70458 </threshold>
					<split pos="left">
						<feature> 16 </feature>
						<threshold> 32.377747 </threshold>
						<split pos="left">
							<feature> 16 </feature>
							<threshold> 23.55324 </threshold>
							<split pos="left">
								<feature> 16 </feature>
								<threshold> 23.226406 </threshold>
								<split pos="left">
									<feature> 16 </feature>
									<threshold> 22.572739 </threshold>
									<split pos="left">
										<feature> 16 </feature>
										<threshold> 20.93857 </threshold>
										<split pos="left">
											<feature> 16 </feature>
											<threshold> 16.689732 </threshold>
											<split pos="left">
												<output> 0.006368868 </output>
											</split>
											<split pos="right">
												<output> -0.0022242756 </output>
											</split>
										</split>
										<split pos="right">
											<output> 0.031060185 </output>
										</split>
									</split>
									<split pos="right">
										<output> -0.033279248 </output>
									</split>
								</split>
								<split pos="right">
									<output> -0.11594793 </output>
								</split>
							</split>
							<split pos="right">
								<output> 0.01846557 </output>
							</split>
						</split>
						<split pos="right">
							<output> 0.2976834 </output>
						</split>
					</split>
					<split pos="right">
						<output> -0.12517361 </output>
					</split>
				</split>
				<split pos="right">
					<output> 0.083298214 </output>
				</split>
			</split>
			<split pos="right">
				<output> -0.18064988 </output>
			</split>
		</split>
	</tree>
	<tree id="47" weight="0.1">
		<split>
			<feature> 16 </feature>
			<threshold> 25.841076 </threshold>
			<split pos="left">
				<feature> 16 </feature>
				<threshold> 25.514242 </threshold>
				<split pos="left">
					<feature> 16 </feature>
					<threshold> 24.860575 </threshold>
					<split pos="left">
						<feature> 16 </feature>
						<threshold> 23.880074 </threshold>
						<split pos="left">
							<feature> 16 </feature>
							<threshold> 22.572739 </threshold>
							<split pos="left">
								<feature> 16 </feature>
								<threshold> 19.304401 </threshold>
								<split pos="left">
									<feature> 16 </feature>
									<threshold> 17.997066 </threshold>
									<split pos="left">
										<feature> 16 </feature>
										<threshold> 17.670233 </threshold>
										<split pos="left">
											<feature> 16 </feature>
											<threshold> 17.3434 </threshold>
											<split pos="left">
												<output> 0.0056486013 </output>
											</split>
											<split pos="right">
												<output> -0.041398946 </output>
											</split>
										</split>
										<split pos="right">
											<output> 0.038175926 </output>
										</split>
									</split>
									<split pos="right">
										<output> -0.015249543 </output>
									</split>
								</split>
								<split pos="right">
									<output> 0.020759089 </output>
								</split>
							</split>
							<split pos="right">
								<output> -0.038609248 </output>
							</split>
						</split>
						<split pos="right">
							<output> 0.0777684 </output>
						</split>
					</split>
					<split pos="right">
						<output> -0.09288904 </output>
					</split>
				</split>
				<split pos="right">
					<output> 0.103361055 </output>
				</split>
			</split>
			<split pos="right">
				<output> -0.009225504 </output>
			</split>
		</split>
	</tree>
	<tree id="48" weight="0.1">
		<split>
			<feature> 16 </feature>
			<threshold> 43.49003 </threshold>
			<split pos="left">
				<feature> 16 </feature>
				<threshold> 41.202206 </threshold>
				<split pos="left">
					<feature> 16 </feature>
					<threshold> 37.280224 </threshold>
					<split pos="left">
						<feature> 16 </feature>
						<threshold> 35.972897 </threshold>
						<split pos="left">
							<feature> 16 </feature>
							<threshold> 31.39725 </threshold>
							<split pos="left">
								<feature> 16 </feature>
								<threshold> 31.070415 </threshold>
								<split pos="left">
									<feature> 16 </feature>
									<threshold> 30.416748 </threshold>
									<split pos="left">
										<feature> 16 </feature>
										<threshold> 29.436247 </threshold>
										<split pos="left">
											<feature> 16 </feature>
											<threshold> 25.841076 </threshold>
											<split pos="left">
												<output> 0.0049320906 </output>
											</split>
											<split pos="right">
												<output> -0.021508442 </output>
											</split>
										</split>
										<split pos="right">
											<output> 0.07216309 </output>
										</split>
									</split>
									<split pos="right">
										<output> -0.1612074 </output>
									</split>
								</split>
								<split pos="right">
									<output> 0.10297801 </output>
								</split>
							</split>
							<split pos="right">
								<output> -0.04954235 </output>
							</split>
						</split>
						<split pos="right">
							<output> 0.21368451 </output>
						</split>
					</split>
					<split pos="right">
						<output> -0.1732219 </output>
					</split>
				</split>
				<split pos="right">
					<output> 0.31728044 </output>
				</split>
			</split>
			<split pos="right">
				<output> -0.16166227 </output>
			</split>
		</split>
	</tree>
	<tree id="49" weight="0.1">
		<split>
			<feature> 16 </feature>
			<threshold> 34.011906 </threshold>
			<split pos="left">
				<feature> 16 </feature>
				<threshold> 32.70458 </threshold>
				<split pos="left">
					<feature> 16 </feature>
					<threshold> 32.377747 </threshold>
					<split pos="left">
						<feature> 16 </feature>
						<threshold> 23.55324 </threshold>
						<split pos="left">
							<feature> 16 </feature>
							<threshold> 23.226406 </threshold>
							<split pos="left">
								<feature> 16 </feature>
								<threshold> 22.572739 </threshold>
								<split pos="left">
									<feature> 16 </feature>
									<threshold> 19.304401 </threshold>
									<split pos="left">
										<feature> 16 </feature>
										<threshold> 17.997066 </threshold>
										<split pos="left">
											<feature> 16 </feature>
											<threshold> 17.670233 </threshold>
											<split pos="left">
												<output> 0.004411904 </output>
											</split>
											<split pos="right">
												<output> 0.033865314 </output>
											</split>
										</split>
										<split pos="right">
											<output> -0.014221535 </output>
										</split>
									</split>
									<split pos="right">
										<output> 0.018192468 </output>
									</split>
								</split>
								<split pos="right">
									<output> -0.02658448 </output>
								</split>
							</split>
							<split pos="right">
								<output> -0.100984134 </output>
							</split>
						</split>
						<split pos="right">
							<output> 0.0156571 </output>
						</split>
					</split>
					<split pos="right">
						<output> 0.27379185 </output>
					</split>
				</split>
				<split pos="right">
					<output> -0.10677928 </output>
				</split>
			</split>
			<split pos="right">
				<output> 0.052507974 </output>
			</split>
		</split>
	</tree>
	<tree id="50" weight="0.1">
		<split>
			<feature> 16 </feature>
			<threshold> 36.953392 </threshold>
			<split pos="left">
				<feature> 16 </feature>
				<threshold> 36.29973 </threshold>
				<split pos="left">
					<feature> 16 </feature>
					<threshold> 31.39725 </threshold>
					<split pos="left">
						<feature> 16 </feature>
						<threshold> 31.070415 </threshold>
						<split pos="left">
							<feature> 16 </feature>
							<threshold> 30.416748 </threshold>
							<split pos="left">
								<feature> 16 </feature>
								<threshold> 29.436247 </threshold>
								<split pos="left">
									<feature> 16 </feature>
									<threshold> 26.16791 </threshold>
									<split pos="left">
										<feature> 16 </feature>
										<threshold> 23.55324 </threshold>
										<split pos="left">
											<feature> 16 </feature>
											<threshold> 23.226406 </threshold>
											<split pos="left">
												<output> 0.0038798645 </output>
											</split>
											<split pos="right">
												<output> -0.09088421 </output>
											</split>
										</split>
										<split pos="right">
											<output> 0.03282382 </output>
										</split>
									</split>
									<split pos="right">
										<output> -0.02305434 </output>
									</split>
								</split>
								<split pos="right">
									<output> 0.06338088 </output>
								</split>
							</split>
							<split pos="right">
								<output> -0.14665195 </output>
							</split>
						</split>
						<split pos="right">
							<output> 0.09111575 </output>
						</split>
					</split>
					<split pos="right">
						<output> -0.03400721 </output>
					</split>
				</split>
				<split pos="right">
					<output> 0.4401137 </output>
				</split>
			</split>
			<split pos="right">
				<output> -0.07308686 </output>
			</split>
		</split>
	</tree>
	<tree id="51" weight="0.1">
		<split>
			<feature> 16 </feature>
			<threshold> 43.49003 </threshold>
			<split pos="left">
				<feature> 16 </feature>
				<threshold> 41.202206 </threshold>
				<split pos="left">
					<feature> 16 </feature>
					<threshold> 37.280224 </threshold>
					<split pos="left">
						<feature> 16 </feature>
						<threshold> 35.972897 </threshold>
						<split pos="left">
							<feature> 16 </feature>
							<threshold> 31.39725 </threshold>
							<split pos="left">
								<feature> 16 </feature>
								<threshold> 31.070415 </threshold>
								<split pos="left">
									<feature> 16 </feature>
									<threshold> 30.416748 </threshold>
									<split pos="left">
										<feature> 16 </feature>
										<threshold> 28.128912 </threshold>
										<split pos="left">
											<feature> 16 </feature>
											<threshold> 27.475245 </threshold>
											<split pos="left">
												<output> 0.0034891583 </output>
											</split>
											<split pos="right">
												<output> -0.11212024 </output>
											</split>
										</split>
										<split pos="right">
											<output> 0.03617696 </output>
										</split>
									</split>
									<split pos="right">
										<output> -0.13198704 </output>
									</split>
								</split>
								<split pos="right">
									<output> 0.08200508 </output>
								</split>
							</split>
							<split pos="right">
								<output> -0.03888685 </output>
							</split>
						</split>
						<split pos="right">
							<output> 0.17579126 </output>
						</split>
					</split>
					<split pos="right">
						<output> -0.15384214 </output>
					</split>
				</split>
				<split pos="right">
					<output> 0.28760985 </output>
				</split>
			</split>
			<split pos="right">
				<output> -0.14343806 </output>
			</split>
		</split>
	</tree>
	<tree id="52" weight="0.1">
		<split>
			<feature> 16 </feature>
			<threshold> 34.011906 </threshold>
			<split pos="left">
				<feature> 16 </feature>
				<threshold> 32.70458 </threshold>
				<split pos="left">
					<feature> 16 </feature>
					<threshold> 32.377747 </threshold>
					<split pos="left">
						<feature> 16 </feature>
						<threshold> 23.55324 </threshold>
						<split pos="left">
							<feature> 16 </feature>
							<threshold> 23.226406 </threshold>
							<split pos="left">
								<feature> 16 </feature>
								<threshold> 22.572739 </threshold>
								<split pos="left">
									<feature> 16 </feature>
									<threshold> 20.93857 </threshold>
									<split pos="left">
										<feature> 16 </feature>
										<threshold> 19.958069 </threshold>
										<split pos="left">
											<feature> 16 </feature>
											<threshold> 19.304401 </threshold>
											<split pos="left">
												<output> 0.0026425805 </output>
											</split>
											<split pos="right">
												<output> 0.04117881 </output>
											</split>
										</split>
										<split pos="right">
											<output> -0.01238442 </output>
										</split>
									</split>
									<split pos="right">
										<output> 0.022840202 </output>
									</split>
								</split>
								<split pos="right">
									<output> -0.024662424 </output>
								</split>
							</split>
							<split pos="right">
								<output> -0.08214469 </output>
							</split>
						</split>
						<split pos="right">
							<output> 0.012341102 </output>
						</split>
					</split>
					<split pos="right">
						<output> 0.25370196 </output>
					</split>
				</split>
				<split pos="right">
					<output> -0.08881178 </output>
				</split>
			</split>
			<split pos="right">
				<output> 0.04729279 </output>
			</split>
		</split>
	</tree>
	<tree id="53" weight="0.1">
		<split>
			<feature> 16 </feature>
			<threshold> 25.841076 </threshold>
			<split pos="left">
				<feature> 16 </feature>
				<threshold> 25.514242 </threshold>
				<split pos="left">
					<feature> 16 </feature>
					<threshold> 24.860575 </threshold>
					<split pos="left">
						<feature> 16 </feature>
						<threshold> 23.880074 </threshold>
						<split pos="left">
							<feature> 16 </feature>
							<threshold> 22.572739 </threshold>
							<split pos="left">
								<feature> 16 </feature>
								<threshold> 20.611736 </threshold>
								<split pos="left">
									<feature> 16 </feature>
									<threshold> 20.284903 </threshold>
									<split pos="left">
										<feature> 16 </feature>
										<threshold> 19.304401 </threshold>
										<split pos="left">
											<feature> 16 </feature>
											<threshold> 16.689732 </threshold>
											<split pos="left">
												<output> 0.003258 </output>
											</split>
											<split pos="right">
												<output> -0.011098313 </output>
											</split>
										</split>
										<split pos="right">
											<output> 0.019085683 </output>
										</split>
									</split>
									<split pos="right">
										<output> -0.038336933 </output>
									</split>
								</split>
								<split pos="right">
									<output> 0.01913339 </output>
								</split>
							</split>
							<split pos="right">
								<output> -0.027134027 </output>
							</split>
						</split>
						<split pos="right">
							<output> 0.06306523 </output>
						</split>
					</split>
					<split pos="right">
						<output> -0.09052792 </output>
					</split>
				</split>
				<split pos="right">
					<output> 0.08610246 </output>
				</split>
			</split>
			<split pos="right">
				<output> -0.009050962 </output>
			</split>
		</split>
	</tree>
	<tree id="54" weight="0.1">
		<split>
			<feature> 16 </feature>
			<threshold> 36.953392 </threshold>
			<split pos="left">
				<feature> 16 </feature>
				<threshold> 36.29973 </threshold>
				<split pos="left">
					<feature> 16 </feature>
					<threshold> 34.011906 </threshold>
					<split pos="left">
						<feature> 16 </feature>
						<threshold> 32.70458 </threshold>
						<split pos="left">
							<feature> 16 </feature>
							<threshold> 32.377747 </threshold>
							<split pos="left">
								<feature> 16 </feature>
								<threshold> 31.39725 </threshold>
								<split pos="left">
									<feature> 16 </feature>
									<threshold> 31.070415 </threshold>
									<split pos="left">
										<feature> 16 </feature>
										<threshold> 30.416748 </threshold>
										<split pos="left">
											<feature> 16 </feature>
											<threshold> 29.436247 </threshold>
											<split pos="left">
												<output> 0.002445485 </output>
											</split>
											<split pos="right">
												<output> 0.053096075 </output>
											</split>
										</split>
										<split pos="right">
											<output> -0.11911691 </output>
										</split>
									</split>
									<split pos="right">
										<output> 0.073475435 </output>
									</split>
								</split>
								<split pos="right">
									<output> -0.05449347 </output>
								</split>
							</split>
							<split pos="right">
								<output> 0.22923693 </output>
							</split>
						</split>
						<split pos="right">
							<output> -0.07902586 </output>
