## MART
## No. of trees = 1000
## No. of leaves = 10
## No. of threshold candidates = 256
## Learning rate = 0.1
## Stop early = 100

<ensemble>
	<tree id="1" weight="0.1">
		<split>
			<feature> 59 </feature>
			<threshold> 0.090909 </threshold>
			<split pos="left">
				<feature> 59 </feature>
				<threshold> 0.028986 </threshold>
				<split pos="left">
					<feature> 59 </feature>
					<threshold> 0.026316 </threshold>
					<split pos="left">
						<feature> 59 </feature>
						<threshold> 0.025641 </threshold>
						<split pos="left">
							<feature> 59 </feature>
							<threshold> 0.025 </threshold>
							<split pos="left">
								<feature> 59 </feature>
								<threshold> 0.02381 </threshold>
								<split pos="left">
									<feature> 59 </feature>
									<threshold> 0.020408 </threshold>
									<split pos="left">
										<feature> 59 </feature>
										<threshold> 0.012346 </threshold>
										<split pos="left">
											<feature> 59 </feature>
											<threshold> 0.007634 </threshold>
											<split pos="left">
												<output> 0.58284134 </output>
											</split>
											<split pos="right">
												<output> 0.22222222 </output>
											</split>
										</split>
										<split pos="right">
											<output> 0.7894737 </output>
										</split>
									</split>
									<split pos="right">
										<output> 0.38709676 </output>
									</split>
								</split>
								<split pos="right">
									<output> 0.8095238 </output>
								</split>
							</split>
							<split pos="right">
								<output> 0.33333334 </output>
							</split>
						</split>
						<split pos="right">
							<output> 0.8 </output>
						</split>
					</split>
					<split pos="right">
						<output> 0.45833334 </output>
					</split>
				</split>
				<split pos="right">
					<output> 0.6855801 </output>
				</split>
			</split>
			<split pos="right">
				<output> 0.8142521 </output>
			</split>
		</split>
	</tree>
	<tree id="2" weight="0.1">
		<split>
			<feature> 59 </feature>
			<threshold> 0.090909 </threshold>
			<split pos="left">
				<feature> 59 </feature>
				<threshold> 0.028986 </threshold>
				<split pos="left">
					<feature> 59 </feature>
					<threshold> 0.026316 </threshold>
					<split pos="left">
						<feature> 59 </feature>
						<threshold> 0.025641 </threshold>
						<split pos="left">
							<feature> 59 </feature>
							<threshold> 0.025 </threshold>
							<split pos="left">
								<feature> 59 </feature>
								<threshold> 0.02381 </threshold>
								<split pos="left">
									<feature> 59 </feature>
									<threshold> 0.020408 </threshold>
									<split pos="left">
										<feature> 59 </feature>
										<threshold> 0.010582 </threshold>
										<split pos="left">
											<feature> 59 </feature>
											<threshold> 0.007634 </threshold>
											<split pos="left">
												<output> 0.52387613 </output>
											</split>
											<split pos="right">
												<output> -0.022222223 </output>
											</split>
										</split>
										<split pos="right">
											<output> 0.70569116 </output>
										</split>
									</split>
									<split pos="right">
										<output> 0.34838712 </output>
									</split>
								</split>
								<split pos="right">
									<output> 0.72857136 </output>
								</split>
							</split>
							<split pos="right">
								<output> 0.3 </output>
							</split>
						</split>
						<split pos="right">
							<output> 0.72 </output>
						</split>
					</split>
					<split pos="right">
						<output> 0.4124998 </output>
					</split>
				</split>
				<split pos="right">
					<output> 0.6170447 </output>
				</split>
			</split>
			<split pos="right">
				<output> 0.7346588 </output>
			</split>
		</split>
	</tree>
	<tree id="3" weight="0.1">
		<split>
			<feature> 59 </feature>
			<threshold> 0.090909 </threshold>
			<split pos="left">
				<feature> 59 </feature>
				<threshold> 0.028986 </threshold>
				<split pos="left">
					<feature> 59 </feature>
					<threshold> 0.026316 </threshold>
					<split pos="left">
						<feature> 59 </feature>
						<threshold> 0.025641 </threshold>
						<split pos="left">
							<feature> 59 </feature>
							<threshold> 0.025 </threshold>
							<split pos="left">
								<feature> 59 </feature>
								<threshold> 0.02381 </threshold>
								<split pos="left">
									<feature> 59 </feature>
									<threshold> 0.022989 </threshold>
									<split pos="left">
										<feature> 59 </feature>
										<threshold> 0.022727 </threshold>
										<split pos="left">
											<feature> 59 </feature>
											<threshold> 0.020408 </threshold>
											<split pos="left">
												<output> 0.4732186 </output>
											</split>
											<split pos="right">
												<output> 0.29487267 </output>
											</split>
										</split>
										<split pos="right">
											<output> 1.9264516 </output>
										</split>
									</split>
									<split pos="right">
										<output> 0.19917889 </output>
									</split>
								</split>
								<split pos="right">
									<output> 0.6557143 </output>
								</split>
							</split>
							<split pos="right">
								<output> 0.27 </output>
							</split>
						</split>
						<split pos="right">
							<output> 0.6479998 </output>
						</split>
					</split>
					<split pos="right">
						<output> 0.37125024 </output>
					</split>
				</split>
				<split pos="right">
					<output> 0.5551004 </output>
				</split>
			</split>
			<split pos="right">
				<output> 0.658359 </output>
			</split>
		</split>
	</tree>
	<tree id="4" weight="0.1">
		<split>
			<feature> 59 </feature>
			<threshold> 0.1 </threshold>
			<split pos="left">
				<feature> 59 </feature>
				<threshold> 0.033333 </threshold>
				<split pos="left">
					<feature> 59 </feature>
					<threshold> 0.032258 </threshold>
					<split pos="left">
						<feature> 59 </feature>
						<threshold> 0.030303 </threshold>
						<split pos="left">
							<feature> 59 </feature>
							<threshold> 0.028986 </threshold>
							<split pos="left">
								<feature> 59 </feature>
								<threshold> 0.026316 </threshold>
								<split pos="left">
									<feature> 59 </feature>
									<threshold> 0.025641 </threshold>
									<split pos="left">
										<feature> 59 </feature>
										<threshold> 0.025 </threshold>
										<split pos="left">
											<feature> 59 </feature>
											<threshold> 0.02381 </threshold>
											<split pos="left">
												<output> 0.4262293 </output>
											</split>
											<split pos="right">
												<output> 0.59014285 </output>
											</split>
										</split>
										<split pos="right">
											<output> 0.24300002 </output>
										</split>
									</split>
									<split pos="right">
										<output> 0.58320004 </output>
									</split>
								</split>
								<split pos="right">
									<output> 0.33412492 </output>
								</split>
							</split>
							<split pos="right">
								<output> 0.46877307 </output>
							</split>
						</split>
						<split pos="right">
							<output> 0.5475611 </output>
						</split>
					</split>
					<split pos="right">
						<output> 0.31422746 </output>
					</split>
				</split>
				<split pos="right">
					<output> 0.5034597 </output>
				</split>
			</split>
			<split pos="right">
				<output> 0.6037015 </output>
			</split>
		</split>
	</tree>
	<tree id="5" weight="0.1">
		<split>
			<feature> 59 </feature>
			<threshold> 0.111111 </threshold>
			<split pos="left">
				<feature> 59 </feature>
				<threshold> 0.033333 </threshold>
				<split pos="left">
					<feature> 59 </feature>
					<threshold> 0.032258 </threshold>
					<split pos="left">
						<feature> 59 </feature>
						<threshold> 0.030303 </threshold>
						<split pos="left">
							<feature> 59 </feature>
							<threshold> 0.029412 </threshold>
							<split pos="left">
								<feature> 59 </feature>
								<threshold> 0.028986 </threshold>
								<split pos="left">
									<feature> 59 </feature>
									<threshold> 0.026316 </threshold>
									<split pos="left">
										<feature> 59 </feature>
										<threshold> 0.025641 </threshold>
										<split pos="left">
											<feature> 59 </feature>
											<threshold> 0.025 </threshold>
											<split pos="left">
												<output> 0.38102025 </output>
											</split>
											<split pos="right">
												<output> 0.2187 </output>
											</split>
										</split>
										<split pos="right">
											<output> 0.5248802 </output>
										</split>
									</split>
									<split pos="right">
										<output> 0.30071267 </output>
									</split>
								</split>
								<split pos="right">
									<output> 0.576874 </output>
								</split>
							</split>
							<split pos="right">
								<output> 0.32617372 </output>
							</split>
						</split>
						<split pos="right">
							<output> 0.49280494 </output>
						</split>
					</split>
					<split pos="right">
						<output> 0.28280464 </output>
					</split>
				</split>
				<split pos="right">
					<output> 0.4574839 </output>
				</split>
			</split>
			<split pos="right">
				<output> 0.55769986 </output>
			</split>
		</split>
	</tree>
	<tree id="6" weight="0.1">
		<split>
			<feature> 59 </feature>
			<threshold> 0.130435 </threshold>
			<split pos="left">
				<feature> 59 </feature>
				<threshold> 0.033333 </threshold>
				<split pos="left">
					<feature> 59 </feature>
					<threshold> 0.032258 </threshold>
					<split pos="left">
						<feature> 59 </feature>
						<threshold> 0.030303 </threshold>
						<split pos="left">
							<feature> 59 </feature>
							<threshold> 0.029412 </threshold>
							<split pos="left">
								<feature> 59 </feature>
								<threshold> 0.028986 </threshold>
								<split pos="left">
									<feature> 59 </feature>
									<threshold> 0.028571 </threshold>
									<split pos="left">
										<feature> 59 </feature>
										<threshold> 0.018519 </threshold>
										<split pos="left">
											<feature> 59 </feature>
											<threshold> 0.017857 </threshold>
											<split pos="left">
												<output> 0.34321237 </output>
											</split>
											<split pos="right">
												<output> 1.7224367 </output>
											</split>
										</split>
										<split pos="right">
											<output> 0.3059873 </output>
										</split>
									</split>
									<split pos="right">
										<output> -0.18769209 </output>
									</split>
								</split>
								<split pos="right">
									<output> 0.5191865 </output>
								</split>
							</split>
							<split pos="right">
								<output> 0.2935563 </output>
							</split>
						</split>
						<split pos="right">
							<output> 0.44352454 </output>
						</split>
					</split>
					<split pos="right">
						<output> 0.25452423 </output>
					</split>
				</split>
				<split pos="right">
					<output> 0.41823643 </output>
				</split>
			</split>
			<split pos="right">
				<output> 0.52413714 </output>
			</split>
		</split>
	</tree>
	<tree id="7" weight="0.1">
		<split>
			<feature> 59 </feature>
			<threshold> 0.111111 </threshold>
			<split pos="left">
				<feature> 59 </feature>
				<threshold> 0.033333 </threshold>
				<split pos="left">
					<feature> 59 </feature>
					<threshold> 0.032258 </threshold>
					<split pos="left">
						<feature> 59 </feature>
						<threshold> 0.030303 </threshold>
						<split pos="left">
							<feature> 59 </feature>
							<threshold> 0.029412 </threshold>
							<split pos="left">
								<feature> 59 </feature>
								<threshold> 0.028986 </threshold>
								<split pos="left">
									<feature> 59 </feature>
									<threshold> 0.028571 </threshold>
									<split pos="left">
										<feature> 59 </feature>
										<threshold> 0.018519 </threshold>
										<split pos="left">
											<feature> 59 </feature>
											<threshold> 0.017857 </threshold>
											<split pos="left">
												<output> 0.3095657 </output>
											</split>
											<split pos="right">
												<output> 1.5501931 </output>
											</split>
										</split>
										<split pos="right">
											<output> 0.27538842 </output>
										</split>
									</split>
									<split pos="right">
										<output> -0.16892289 </output>
									</split>
								</split>
								<split pos="right">
									<output> 0.46726793 </output>
								</split>
							</split>
							<split pos="right">
								<output> 0.26420066 </output>
							</split>
						</split>
						<split pos="right">
							<output> 0.39917165 </output>
						</split>
					</split>
					<split pos="right">
						<output> 0.2290718 </output>
					</split>
				</split>
				<split pos="right">
					<output> 0.36940458 </output>
				</split>
			</split>
			<split pos="right">
				<output> 0.45185 </output>
			</split>
		</split>
	</tree>
	<tree id="8" weight="0.1">
		<split>
			<feature> 59 </feature>
			<threshold> 0.165919 </threshold>
			<split pos="left">
				<feature> 59 </feature>
				<threshold> 0.033333 </threshold>
				<split pos="left">
					<feature> 59 </feature>
					<threshold> 0.032258 </threshold>
					<split pos="left">
						<feature> 59 </feature>
						<threshold> 0.030303 </threshold>
						<split pos="left">
							<feature> 59 </feature>
							<threshold> 0.010582 </threshold>
							<split pos="left">
								<feature> 59 </feature>
								<threshold> 0.007634 </threshold>
								<split pos="left">
									<feature> 59 </feature>
									<threshold> 0.003774 </threshold>
									<split pos="left">
										<feature> 59 </feature>
										<threshold> 0.0 </threshold>
										<split pos="left">
											<output> 0.2782698 </output>
										</split>
										<split pos="right">
											<output> -0.30399638 </output>
										</split>
									</split>
									<split pos="right">
										<output> 0.6960036 </output>
									</split>
								</split>
								<split pos="right">
									<output> -0.21332462 </output>
								</split>
							</split>
							<split pos="right">
								<output> 0.29539233 </output>
							</split>
						</split>
						<split pos="right">
							<output> 0.35925457 </output>
						</split>
					</split>
					<split pos="right">
						<output> 0.20616466 </output>
					</split>
				</split>
				<split pos="right">
					<feature> 59 </feature>
					<threshold> 0.111111 </threshold>
					<split pos="left">
						<output> 0.33250085 </output>
					</split>
					<split pos="right">
						<output> 0.35812506 </output>
					</split>
				</split>
			</split>
			<split pos="right">
				<output> 0.46110347 </output>
			</split>
		</split>
	</tree>
	<tree id="9" weight="0.1">
		<split>
			<feature> 59 </feature>
			<threshold> 0.142857 </threshold>
			<split pos="left">
				<feature> 59 </feature>
				<threshold> 0.033333 </threshold>
				<split pos="left">
					<feature> 59 </feature>
					<threshold> 0.032258 </threshold>
					<split pos="left">
						<feature> 59 </feature>
						<threshold> 0.030303 </threshold>
						<split pos="left">
							<feature> 59 </feature>
							<threshold> 0.018519 </threshold>
							<split pos="left">
								<feature> 59 </feature>
								<threshold> 0.017857 </threshold>
								<split pos="left">
									<feature> 59 </feature>
									<threshold> 0.010582 </threshold>
									<split pos="left">
										<feature> 59 </feature>
										<threshold> 0.007634 </threshold>
										<split pos="left">
											<feature> 59 </feature>
											<threshold> 0.003774 </threshold>
											<split pos="left">
												<output> 0.25225547 </output>
											</split>
											<split pos="right">
												<output> 0.6264032 </output>
											</split>
										</split>
										<split pos="right">
											<output> -0.19199216 </output>
										</split>
									</split>
									<split pos="right">
										<output> 0.40233588 </output>
									</split>
								</split>
								<split pos="right">
									<output> 1.3656344 </output>
								</split>
							</split>
							<split pos="right">
								<output> 0.23258911 </output>
							</split>
						</split>
						<split pos="right">
							<output> 0.32332912 </output>
						</split>
					</split>
					<split pos="right">
						<output> 0.18554822 </output>
					</split>
				</split>
				<split pos="right">
					<output> 0.30896983 </output>
				</split>
			</split>
			<split pos="right">
				<output> 0.41322 </output>
			</split>
		</split>
	</tree>
	<tree id="10" weight="0.1">
		<split>
			<feature> 59 </feature>
			<threshold> 0.165919 </threshold>
			<split pos="left">
				<feature> 59 </feature>
				<threshold> 0.033333 </threshold>
				<split pos="left">
					<feature> 59 </feature>
					<threshold> 0.03125 </threshold>
					<split pos="left">
						<feature> 59 </feature>
						<threshold> 0.030303 </threshold>
						<split pos="left">
							<feature> 59 </feature>
							<threshold> 0.027027 </threshold>
							<split pos="left">
								<feature> 59 </feature>
								<threshold> 0.026316 </threshold>
								<split pos="left">
									<feature> 59 </feature>
									<threshold> 0.025641 </threshold>
									<split pos="left">
										<feature> 59 </feature>
										<threshold> 0.025 </threshold>
										<split pos="left">
											<feature> 59 </feature>
											<threshold> 0.02381 </threshold>
											<split pos="left">
												<output> 0.22554335 </output>
											</split>
											<split pos="right">
												<output> 0.3820908 </output>
											</split>
										</split>
										<split pos="right">
											<output> 0.085894294 </output>
										</split>
									</split>
									<split pos="right">
										<output> 0.36145622 </output>
									</split>
								</split>
								<split pos="right">
									<output> -0.11680965 </output>
								</split>
							</split>
							<split pos="right">
								<output> 0.25061503 </output>
							</split>
						</split>
						<split pos="right">
							<output> 0.4095148 </output>
						</split>
					</split>
					<split pos="right">
						<output> 0.17992227 </output>
					</split>
				</split>
				<split pos="right">
					<output> 0.27823317 </output>
				</split>
			</split>
			<split pos="right">
				<output> 0.37349993 </output>
			</split>
		</split>
	</tree>
	<tree id="11" weight="0.1">
		<split>
			<feature> 59 </feature>
			<threshold> 0.130435 </threshold>
			<split pos="left">
				<feature> 59 </feature>
				<threshold> 0.033333 </threshold>
				<split pos="left">
					<feature> 59 </feature>
					<threshold> 0.03125 </threshold>
					<split pos="left">
						<feature> 59 </feature>
						<threshold> 0.030303 </threshold>
						<split pos="left">
							<feature> 59 </feature>
							<threshold> 0.029412 </threshold>
							<split pos="left">
								<feature> 59 </feature>
								<threshold> 0.028986 </threshold>
								<split pos="left">
									<feature> 59 </feature>
									<threshold> 0.028571 </threshold>
									<split pos="left">
										<feature> 59 </feature>
										<threshold> 0.018519 </threshold>
										<split pos="left">
											<feature> 59 </feature>
											<threshold> 0.017857 </threshold>
											<split pos="left">
												<output> 0.20288618 </output>
											</split>
											<split pos="right">
												<output> 1.2065167 </output>
											</split>
										</split>
										<split pos="right">
											<output> 0.17195798 </output>
										</split>
									</split>
									<split pos="right">
										<output> -0.22989024 </output>
									</split>
								</split>
								<split pos="right">
									<output> 0.3426815 </output>
								</split>
							</split>
							<split pos="right">
								<output> 0.159921 </output>
							</split>
						</split>
						<split pos="right">
							<output> 0.3685632 </output>
						</split>
					</split>
					<split pos="right">
						<output> 0.16193011 </output>
					</split>
				</split>
				<split pos="right">
					<output> 0.2442441 </output>
				</split>
			</split>
			<split pos="right">
				<output> 0.31230757 </output>
			</split>
		</split>
	</tree>
	<tree id="12" weight="0.1">
		<split>
			<feature> 59 </feature>
			<threshold> 0.165919 </threshold>
			<split pos="left">
				<feature> 59 </feature>
				<threshold> 0.045455 </threshold>
				<split pos="left">
					<feature> 59 </feature>
					<threshold> 0.027027 </threshold>
					<split pos="left">
						<feature> 59 </feature>
						<threshold> 0.026316 </threshold>
						<split pos="left">
							<feature> 59 </feature>
							<threshold> 0.02381 </threshold>
							<split pos="left">
								<feature> 59 </feature>
								<threshold> 0.022989 </threshold>
								<split pos="left">
									<feature> 59 </feature>
									<threshold> 0.022727 </threshold>
									<split pos="left">
										<feature> 59 </feature>
										<threshold> 0.018182 </threshold>
										<split pos="left">
											<feature> 59 </feature>
											<threshold> 0.017857 </threshold>
											<split pos="left">
												<output> 0.18369389 </output>
											</split>
											<split pos="right">
												<output> 1.4191984 </output>
											</split>
										</split>
										<split pos="right">
											<output> 0.07916 </output>
										</split>
									</split>
									<split pos="right">
										<output> 1.5023956 </output>
									</split>
								</split>
								<split pos="right">
									<output> -0.052149788 </output>
								</split>
							</split>
							<split pos="right">
								<output> 0.25423828 </output>
							</split>
						</split>
						<split pos="right">
							<output> -0.12232451 </output>
						</split>
					</split>
					<split pos="right">
						<output> 0.20217027 </output>
					</split>
				</split>
				<split pos="right">
					<output> 0.22475554 </output>
				</split>
			</split>
			<split pos="right">
				<output> 0.304772 </output>
			</split>
		</split>
	</tree>
	<tree id="13" weight="0.1">
		<split>
			<feature> 59 </feature>
			<threshold> 0.222222 </threshold>
			<split pos="left">
				<feature> 59 </feature>
				<threshold> 0.090909 </threshold>
				<split pos="left">
					<feature> 59 </feature>
					<threshold> 0.027027 </threshold>
					<split pos="left">
						<feature> 59 </feature>
						<threshold> 0.026316 </threshold>
						<split pos="left">
							<feature> 59 </feature>
							<threshold> 0.025641 </threshold>
							<split pos="left">
								<feature> 59 </feature>
								<threshold> 0.025 </threshold>
								<split pos="left">
									<feature> 59 </feature>
									<threshold> 0.02439 </threshold>
									<split pos="left">
										<feature> 59 </feature>
										<threshold> 0.018182 </threshold>
										<split pos="left">
											<feature> 59 </feature>
											<threshold> 0.017857 </threshold>
											<split pos="left">
												<output> 0.16460966 </output>
											</split>
											<split pos="right">
												<output> 1.2772785 </output>
											</split>
										</split>
										<split pos="right">
											<output> 0.10291395 </output>
										</split>
									</split>
									<split pos="right">
										<output> 0.38062721 </output>
									</split>
								</split>
								<split pos="right">
									<output> 0.03468523 </output>
								</split>
							</split>
							<split pos="right">
								<output> 0.2826909 </output>
							</split>
						</split>
						<split pos="right">
							<output> -0.110092014 </output>
						</split>
					</split>
					<split pos="right">
						<output> 0.18630274 </output>
					</split>
				</split>
				<split pos="right">
					<output> 0.21850976 </output>
				</split>
			</split>
			<split pos="right">
				<output> 0.38776472 </output>
			</split>
		</split>
	</tree>
	<tree id="14" weight="0.1">
		<split>
			<feature> 59 </feature>
			<threshold> 0.222222 </threshold>
			<split pos="left">
				<feature> 59 </feature>
				<threshold> 0.090909 </threshold>
				<split pos="left">
					<feature> 59 </feature>
					<threshold> 0.027027 </threshold>
					<split pos="left">
						<feature> 59 </feature>
						<threshold> 0.026316 </threshold>
						<split pos="left">
							<feature> 59 </feature>
							<threshold> 0.02381 </threshold>
							<split pos="left">
								<feature> 59 </feature>
								<threshold> 0.022989 </threshold>
								<split pos="left">
									<feature> 59 </feature>
									<threshold> 0.022727 </threshold>
									<split pos="left">
										<feature> 59 </feature>
										<threshold> 0.020408 </threshold>
										<split pos="left">
											<feature> 59 </feature>
											<threshold> 0.02 </threshold>
											<split pos="left">
												<output> 0.14834535 </output>
											</split>
											<split pos="right">
												<output> 0.55354345 </output>
											</split>
										</split>
										<split pos="right">
											<output> 0.015767192 </output>
										</split>
									</split>
									<split pos="right">
										<output> 1.3418646 </output>
									</split>
								</split>
								<split pos="right">
									<output> -0.057226196 </output>
								</split>
							</split>
							<split pos="right">
								<output> 0.20940362 </output>
							</split>
						</split>
						<split pos="right">
							<output> -0.0990828 </output>
						</split>
					</split>
					<split pos="right">
						<output> 0.16756102 </output>
					</split>
				</split>
				<split pos="right">
					<output> 0.19648549 </output>
				</split>
			</split>
			<split pos="right">
				<output> 0.34905428 </output>
			</split>
		</split>
	</tree>
	<tree id="15" weight="0.1">
		<split>
			<feature> 59 </feature>
			<threshold> 0.165919 </threshold>
			<split pos="left">
				<feature> 59 </feature>
				<threshold> 0.045455 </threshold>
				<split pos="left">
					<feature> 59 </feature>
					<threshold> 0.040816 </threshold>
					<split pos="left">
						<feature> 59 </feature>
						<threshold> 0.033333 </threshold>
						<split pos="left">
							<feature> 59 </feature>
							<threshold> 0.03125 </threshold>
							<split pos="left">
								<feature> 59 </feature>
								<threshold> 0.030303 </threshold>
								<split pos="left">
									<feature> 59 </feature>
									<threshold> 0.029412 </threshold>
									<split pos="left">
										<feature> 59 </feature>
										<threshold> 0.028986 </threshold>
										<split pos="left">
											<feature> 59 </feature>
											<threshold> 0.028571 </threshold>
											<split pos="left">
												<output> 0.13355689 </output>
											</split>
											<split pos="right">
												<output> -0.26250464 </output>
											</split>
										</split>
										<split pos="right">
											<output> 0.2528099 </output>
										</split>
									</split>
									<split pos="right">
										<output> 0.08832549 </output>
									</split>
								</split>
								<split pos="right">
									<output> 0.27610353 </output>
								</split>
							</split>
							<split pos="right">
								<output> 0.090133585 </output>
							</split>
						</split>
						<split pos="right">
							<output> 0.20570637 </output>
						</split>
					</split>
					<split pos="right">
						<output> 0.109122306 </output>
					</split>
				</split>
				<split pos="right">
					<output> 0.16217822 </output>
				</split>
			</split>
			<split pos="right">
				<output> 0.22575063 </output>
			</split>
		</split>
	</tree>
	<tree id="16" weight="0.1">
		<split>
			<feature> 59 </feature>
			<threshold> 0.222222 </threshold>
			<split pos="left">
				<feature> 59 </feature>
				<threshold> 0.090909 </threshold>
				<split pos="left">
					<feature> 59 </feature>
					<threshold> 0.010582 </threshold>
					<split pos="left">
						<feature> 59 </feature>
						<threshold> 0.007634 </threshold>
						<split pos="left">
							<feature> 59 </feature>
							<threshold> 0.003774 </threshold>
							<split pos="left">
								<feature> 59 </feature>
								<threshold> 0.0 </threshold>
								<split pos="left">
									<output> 0.11928463 </output>
								</split>
								<split pos="right">
									<output> -0.4046858 </output>
								</split>
							</split>
							<split pos="right">
								<output> 0.4578994 </output>
							</split>
						</split>
						<split pos="right">
							<output> -0.27865648 </output>
						</split>
					</split>
					<split pos="right">
						<output> 0.13458508 </output>
					</split>
				</split>
				<split pos="right">
					<feature> 59 </feature>
					<threshold> 0.165919 </threshold>
					<split pos="left">
						<feature> 59 </feature>
						<threshold> 0.130435 </threshold>
						<split pos="left">
							<feature> 59 </feature>
							<threshold> 0.092593 </threshold>
							<split pos="left">
								<output> 1.4078268 </output>
							</split>
							<split pos="right">
								<output> 0.146177 </output>
							</split>
						</split>
						<split pos="right">
							<output> 0.15939575 </output>
						</split>
					</split>
					<split pos="right">
						<output> 0.1782746 </output>
					</split>
				</split>
			</split>
			<split pos="right">
				<output> 0.2915016 </output>
			</split>
		</split>
	</tree>
	<tree id="17" weight="0.1">
		<split>
			<feature> 59 </feature>
			<threshold> 0.222222 </threshold>
			<split pos="left">
				<feature> 59 </feature>
				<threshold> 0.1 </threshold>
				<split pos="left">
					<feature> 59 </feature>
					<threshold> 0.027027 </threshold>
					<split pos="left">
						<feature> 59 </feature>
						<threshold> 0.026316 </threshold>
						<split pos="left">
							<feature> 59 </feature>
							<threshold> 0.025641 </threshold>
							<split pos="left">
								<feature> 59 </feature>
								<threshold> 0.025 </threshold>
								<split pos="left">
									<feature> 59 </feature>
									<threshold> 0.02381 </threshold>
									<split pos="left">
										<feature> 59 </feature>
										<threshold> 0.018182 </threshold>
										<split pos="left">
											<feature> 59 </feature>
											<threshold> 0.017857 </threshold>
											<split pos="left">
												<output> 0.10773645 </output>
											</split>
											<split pos="right">
												<output> 1.1079019 </output>
											</split>
										</split>
										<split pos="right">
											<output> 0.021938851 </output>
										</split>
									</split>
									<split pos="right">
										<output> 0.23131423 </output>
									</split>
								</split>
								<split pos="right">
									<output> -0.01653784 </output>
								</split>
							</split>
							<split pos="right">
								<output> 0.20666726 </output>
							</split>
						</split>
						<split pos="right">
							<output> -0.115988776 </output>
						</split>
					</split>
					<split pos="right">
						<output> 0.12284911 </output>
					</split>
				</split>
				<split pos="right">
					<output> 0.14514133 </output>
				</split>
			</split>
			<split pos="right">
				<output> 0.26237348 </output>
			</split>
		</split>
	</tree>
	<tree id="18" weight="0.1">
		<split>
			<feature> 59 </feature>
			<threshold> 0.222222 </threshold>
			<split pos="left">
				<feature> 59 </feature>
				<threshold> 0.1 </threshold>
				<split pos="left">
					<feature> 59 </feature>
					<threshold> 0.010582 </threshold>
					<split pos="left">
						<feature> 59 </feature>
						<threshold> 0.007634 </threshold>
						<split pos="left">
							<feature> 59 </feature>
							<threshold> 0.003774 </threshold>
							<split pos="left">
								<feature> 59 </feature>
								<threshold> 0.0 </threshold>
								<split pos="left">
									<output> 0.09721514 </output>
								</split>
								<split pos="right">
									<output> -0.37499088 </output>
								</split>
							</split>
							<split pos="right">
								<output> 0.40133578 </output>
							</split>
						</split>
						<split pos="right">
							<output> -0.2615645 </output>
						</split>
					</split>
					<split pos="right">
						<output> 0.11051983 </output>
					</split>
				</split>
				<split pos="right">
					<feature> 59 </feature>
					<threshold> 0.165919 </threshold>
					<split pos="left">
						<feature> 59 </feature>
						<threshold> 0.105263 </threshold>
						<split pos="left">
							<output> 0.27007917 </output>
						</split>
						<split pos="right">
							<feature> 59 </feature>
							<threshold> 0.130435 </threshold>
							<split pos="left">
								<output> 0.11812078 </output>
							</split>
							<split pos="right">
								<output> 0.12898459 </output>
							</split>
						</split>
					</split>
					<split pos="right">
						<output> 0.14585367 </output>
					</split>
				</split>
			</split>
			<split pos="right">
				<output> 0.23611248 </output>
			</split>
		</split>
	</tree>
	<tree id="19" weight="0.1">
		<split>
			<feature> 59 </feature>
			<threshold> 0.235294 </threshold>
			<split pos="left">
				<feature> 59 </feature>
				<threshold> 0.090909 </threshold>
				<split pos="left">
					<feature> 59 </feature>
					<threshold> 0.010582 </threshold>
					<split pos="left">
						<feature> 59 </feature>
						<threshold> 0.007634 </threshold>
						<split pos="left">
							<feature> 59 </feature>
							<threshold> 0.003774 </threshold>
							<split pos="left">
								<feature> 59 </feature>
								<threshold> 0.0 </threshold>
								<split pos="left">
									<output> 0.08720431 </output>
								</split>
								<split pos="right">
									<output> -0.33749178 </output>
								</split>
							</split>
							<split pos="right">
								<output> 0.36120218 </output>
							</split>
						</split>
						<split pos="right">
							<output> -0.23540805 </output>
						</split>
					</split>
					<split pos="right">
						<output> 0.09784883 </output>
					</split>
				</split>
				<split pos="right">
					<feature> 59 </feature>
					<threshold> 0.165919 </threshold>
					<split pos="left">
						<feature> 59 </feature>
						<threshold> 0.130435 </threshold>
						<split pos="left">
							<feature> 59 </feature>
							<threshold> 0.092593 </threshold>
							<split pos="left">
								<output> 1.2437072 </output>
							</split>
							<split pos="right">
								<output> 0.10589363 </output>
							</split>
						</split>
						<split pos="right">
							<output> 0.11612869 </output>
						</split>
					</split>
					<split pos="right">
						<output> 0.13132925 </output>
					</split>
				</split>
			</split>
			<split pos="right">
				<output> 0.21315356 </output>
			</split>
		</split>
	</tree>
	<tree id="20" weight="0.1">
		<split>
			<feature> 59 </feature>
			<threshold> 0.222222 </threshold>
			<split pos="left">
				<feature> 59 </feature>
				<threshold> 0.111111 </threshold>
				<split pos="left">
					<feature> 59 </feature>
					<threshold> 0.027027 </threshold>
					<split pos="left">
						<feature> 59 </feature>
						<threshold> 0.026316 </threshold>
						<split pos="left">
							<feature> 59 </feature>
							<threshold> 0.025641 </threshold>
							<split pos="left">
								<feature> 59 </feature>
								<threshold> 0.025 </threshold>
								<split pos="left">
									<feature> 59 </feature>
									<threshold> 0.02439 </threshold>
									<split pos="left">
										<feature> 59 </feature>
										<threshold> 0.018182 </threshold>
										<split pos="left">
											<feature> 59 </feature>
											<threshold> 0.017857 </threshold>
											<split pos="left">
												<output> 0.078908764 </output>
											</split>
											<split pos="right">
												<output> 0.9762748 </output>
											</split>
										</split>
										<split pos="right">
											<output> 0.025311092 </output>
										</split>
									</split>
									<split pos="right">
										<output> 0.2508417 </output>
									</split>
								</split>
								<split pos="right">
									<output> -0.035720926 </output>
								</split>
							</split>
							<split pos="right">
								<output> 0.1651638 </output>
							</split>
						</split>
						<split pos="right">
							<output> -0.12522678 </output>
						</split>
					</split>
					<split pos="right">
						<output> 0.090700895 </output>
					</split>
				</split>
				<split pos="right">
					<output> 0.10849741 </output>
				</split>
			</split>
			<split pos="right">
				<output> 0.19127718 </output>
			</split>
		</split>
	</tree>
	<tree id="21" weight="0.1">
		<split>
			<feature> 59 </feature>
			<threshold> 0.235294 </threshold>
			<split pos="left">
				<feature> 59 </feature>
				<threshold> 0.090909 </threshold>
				<split pos="left">
					<feature> 59 </feature>
					<threshold> 0.010582 </threshold>
					<split pos="left">
						<feature> 59 </feature>
						<threshold> 0.007634 </threshold>
						<split pos="left">
							<feature> 59 </feature>
							<threshold> 0.003774 </threshold>
							<split pos="left">
								<feature> 59 </feature>
								<threshold> 0.0 </threshold>
								<split pos="left">
									<output> 0.0710729 </output>
								</split>
								<split pos="right">
									<output> -0.31163347 </output>
								</split>
							</split>
							<split pos="right">
								<output> 0.31719106 </output>
							</split>
						</split>
						<split pos="right">
							<output> -0.21975811 </output>
						</split>
					</split>
					<split pos="right">
						<output> 0.079003364 </output>
					</split>
				</split>
				<split pos="right">
					<feature> 59 </feature>
					<threshold> 0.165919 </threshold>
					<split pos="left">
						<feature> 59 </feature>
						<threshold> 0.130435 </threshold>
						<split pos="left">
							<feature> 59 </feature>
							<threshold> 0.092593 </threshold>
							<split pos="left">
								<output> 1.1102664 </output>
							</split>
							<split pos="right">
								<output> 0.08552913 </output>
							</split>
						</split>
						<split pos="right">
							<output> 0.09363453 </output>
						</split>
					</split>
					<split pos="right">
						<output> 0.10735498 </output>
					</split>
				</split>
			</split>
			<split pos="right">
				<output> 0.17267138 </output>
			</split>
		</split>
	</tree>
	<tree id="22" weight="0.1">
		<split>
			<feature> 59 </feature>
			<threshold> 0.235294 </threshold>
			<split pos="left">
				<feature> 59 </feature>
				<threshold> 0.111111 </threshold>
				<split pos="left">
					<feature> 59 </feature>
					<threshold> 0.045455 </threshold>
					<split pos="left">
						<feature> 59 </feature>
						<threshold> 0.040816 </threshold>
						<split pos="left">
							<feature> 59 </feature>
							<threshold> 0.033333 </threshold>
							<split pos="left">
								<feature> 59 </feature>
								<threshold> 0.03125 </threshold>
								<split pos="left">
									<feature> 59 </feature>
									<threshold> 0.030303 </threshold>
									<split pos="left">
										<feature> 59 </feature>
										<threshold> 0.029412 </threshold>
										<split pos="left">
											<feature> 59 </feature>
											<threshold> 0.028986 </threshold>
											<split pos="left">
												<output> 0.06349024 </output>
											</split>
											<split pos="right">
												<output> 0.16397823 </output>
											</split>
										</split>
										<split pos="right">
											<output> 0.015942153 </output>
										</split>
									</split>
									<split pos="right">
										<output> 0.18494256 </output>
									</split>
								</split>
								<split pos="right">
									<output> 0.017569542 </output>
								</split>
							</split>
							<split pos="right">
								<output> 0.12158696 </output>
							</split>
						</split>
						<split pos="right">
							<output> 0.034660526 </output>
						</split>
					</split>
					<split pos="right">
						<output> 0.073399164 </output>
					</split>
				</split>
				<split pos="right">
					<output> 0.08791634 </output>
				</split>
			</split>
			<split pos="right">
				<output> 0.15540373 </output>
			</split>
		</split>
	</tree>
	<tree id="23" weight="0.1">
		<split>
			<feature> 59 </feature>
			<threshold> 0.165919 </threshold>
			<split pos="left">
				<feature> 59 </feature>
				<threshold> 0.083333 </threshold>
				<split pos="left">
					<feature> 59 </feature>
					<threshold> 0.08 </threshold>
					<split pos="left">
						<feature> 59 </feature>
						<threshold> 0.045455 </threshold>
						<split pos="left">
							<feature> 59 </feature>
							<threshold> 0.040816 </threshold>
							<split pos="left">
								<feature> 59 </feature>
								<threshold> 0.033333 </threshold>
								<split pos="left">
									<feature> 59 </feature>
									<threshold> 0.03125 </threshold>
									<split pos="left">
										<feature> 59 </feature>
										<threshold> 0.030303 </threshold>
										<split pos="left">
											<feature> 59 </feature>
											<threshold> 0.029412 </threshold>
											<split pos="left">
												<output> 0.05745326 </output>
											</split>
											<split pos="right">
												<output> 0.014347974 </output>
											</split>
										</split>
										<split pos="right">
											<output> 0.16644818 </output>
										</split>
									</split>
									<split pos="right">
										<output> 0.015812622 </output>
									</split>
								</split>
								<split pos="right">
									<output> 0.109426886 </output>
								</split>
							</split>
							<split pos="right">
								<output> 0.031194327 </output>
							</split>
						</split>
						<split pos="right">
							<output> 0.069389366 </output>
						</split>
					</split>
					<split pos="right">
						<output> 0.045831047 </output>
					</split>
				</split>
				<split pos="right">
					<output> 0.07060127 </output>
				</split>
			</split>
			<split pos="right">
				<output> 0.099111974 </output>
			</split>
		</split>
	</tree>
	<tree id="24" weight="0.1">
		<split>
			<feature> 59 </feature>
			<threshold> 0.235294 </threshold>
			<split pos="left">
				<feature> 59 </feature>
				<threshold> 0.1 </threshold>
				<split pos="left">
					<feature> 59 </feature>
					<threshold> 0.044444 </threshold>
					<split pos="left">
						<feature> 59 </feature>
						<threshold> 0.040816 </threshold>
						<split pos="left">
							<feature> 59 </feature>
							<threshold> 0.033333 </threshold>
							<split pos="left">
								<feature> 59 </feature>
								<threshold> 0.03125 </threshold>
								<split pos="left">
									<feature> 59 </feature>
									<threshold> 0.030303 </threshold>
									<split pos="left">
										<feature> 59 </feature>
										<threshold> 0.029412 </threshold>
										<split pos="left">
											<feature> 59 </feature>
											<threshold> 0.028986 </threshold>
											<split pos="left">
												<output> 0.05161108 </output>
											</split>
											<split pos="right">
												<output> 0.14183497 </output>
											</split>
										</split>
										<split pos="right">
											<output> 0.012913171 </output>
										</split>
									</split>
									<split pos="right">
										<output> 0.14980347 </output>
									</split>
								</split>
								<split pos="right">
									<output> 0.014231387 </output>
								</split>
							</split>
							<split pos="right">
								<output> 0.09848512 </output>
							</split>
						</split>
						<split pos="right">
							<output> 0.0046257204 </output>
						</split>
					</split>
					<split pos="right">
						<output> 0.05831188 </output>
					</split>
				</split>
				<split pos="right">
					<output> 0.06930215 </output>
				</split>
			</split>
			<split pos="right">
				<output> 0.12995265 </output>
			</split>
		</split>
	</tree>
	<tree id="25" weight="0.1">
		<split>
			<feature> 59 </feature>
			<threshold> 0.222222 </threshold>
			<split pos="left">
				<feature> 59 </feature>
				<threshold> 0.130435 </threshold>
				<split pos="left">
					<feature> 59 </feature>
					<threshold> 0.083333 </threshold>
					<split pos="left">
						<feature> 59 </feature>
						<threshold> 0.08 </threshold>
						<split pos="left">
							<feature> 59 </feature>
							<threshold> 0.044444 </threshold>
							<split pos="left">
								<feature> 59 </feature>
								<threshold> 0.040816 </threshold>
								<split pos="left">
									<feature> 59 </feature>
									<threshold> 0.039216 </threshold>
									<split pos="left">
										<feature> 59 </feature>
										<threshold> 0.038462 </threshold>
										<split pos="left">
											<feature> 59 </feature>
											<threshold> 0.035714 </threshold>
											<split pos="left">
												<output> 0.046648543 </output>
											</split>
											<split pos="right">
												<output> -0.011945464 </output>
											</split>
										</split>
										<split pos="right">
											<output> -0.6497005 </output>
										</split>
									</split>
									<split pos="right">
										<output> 0.117867246 </output>
									</split>
								</split>
								<split pos="right">
									<output> 0.004163193 </output>
								</split>
							</split>
							<split pos="right">
								<output> 0.05657889 </output>
							</split>
						</split>
						<split pos="right">
							<output> 0.035418656 </output>
						</split>
					</split>
					<split pos="right">
						<output> 0.055128988 </output>
					</split>
				</split>
				<split pos="right">
					<output> 0.06689508 </output>
				</split>
			</split>
			<split pos="right">
				<output> 0.11667038 </output>
			</split>
		</split>
	</tree>
	<tree id="26" weight="0.1">
		<split>
			<feature> 59 </feature>
			<threshold> 0.235294 </threshold>
			<split pos="left">
				<feature> 59 </feature>
				<threshold> 0.130435 </threshold>
				<split pos="left">
					<feature> 59 </feature>
					<threshold> 0.083333 </threshold>
					<split pos="left">
						<feature> 59 </feature>
						<threshold> 0.08 </threshold>
						<split pos="left">
							<feature> 59 </feature>
							<threshold> 0.044444 </threshold>
							<split pos="left">
								<feature> 59 </feature>
								<threshold> 0.040816 </threshold>
								<split pos="left">
									<feature> 59 </feature>
									<threshold> 0.033333 </threshold>
									<split pos="left">
										<feature> 59 </feature>
										<threshold> 0.03125 </threshold>
										<split pos="left">
											<feature> 59 </feature>
											<threshold> 0.030303 </threshold>
											<split pos="left">
												<output> 0.04183194 </output>
											</split>
											<split pos="right">
												<output> 0.13015826 </output>
											</split>
										</split>
										<split pos="right">
											<output> 0.008143381 </output>
										</split>
									</split>
									<split pos="right">
										<output> 0.084193155 </output>
									</split>
								</split>
								<split pos="right">
									<output> 0.0037469633 </output>
								</split>
							</split>
							<split pos="right">
								<output> 0.050919857 </output>
							</split>
						</split>
						<split pos="right">
							<output> 0.03187709 </output>
						</split>
					</split>
					<split pos="right">
						<output> 0.049623013 </output>
					</split>
				</split>
				<split pos="right">
					<output> 0.060241044 </output>
				</split>
			</split>
			<split pos="right">
				<output> 0.10529389 </output>
			</split>
		</split>
	</tree>
	<tree id="27" weight="0.1">
		<split>
			<feature> 59 </feature>
			<threshold> 0.165919 </threshold>
			<split pos="left">
				<feature> 59 </feature>
				<threshold> 0.083333 </threshold>
				<split pos="left">
					<feature> 59 </feature>
					<threshold> 0.074074 </threshold>
					<split pos="left">
						<feature> 59 </feature>
						<threshold> 0.045455 </threshold>
						<split pos="left">
							<feature> 59 </feature>
							<threshold> 0.040816 </threshold>
							<split pos="left">
								<feature> 59 </feature>
								<threshold> 0.033333 </threshold>
								<split pos="left">
									<feature> 59 </feature>
									<threshold> 0.032258 </threshold>
									<split pos="left">
										<feature> 59 </feature>
										<threshold> 0.030303 </threshold>
										<split pos="left">
											<feature> 59 </feature>
											<threshold> 0.018182 </threshold>
											<split pos="left">
												<output> 0.03783193 </output>
											</split>
											<split pos="right">
												<output> 0.02266414 </output>
											</split>
										</split>
										<split pos="right">
											<output> 0.06450238 </output>
										</split>
									</split>
									<split pos="right">
										<output> -0.0055997605 </output>
									</split>
								</split>
								<split pos="right">
									<output> 0.07577404 </output>
								</split>
							</split>
							<split pos="right">
								<output> 0.020342764 </output>
							</split>
						</split>
						<split pos="right">
							<output> 0.051712234 </output>
						</split>
					</split>
					<split pos="right">
						<output> 0.030668268 </output>
					</split>
				</split>
				<split pos="right">
					<output> 0.04587284 </output>
				</split>
			</split>
			<split pos="right">
				<output> 0.066153266 </output>
			</split>
		</split>
	</tree>
	<tree id="28" weight="0.1">
		<split>
			<feature> 59 </feature>
			<threshold> 0.235294 </threshold>
			<split pos="left">
				<feature> 59 </feature>
				<threshold> 0.130435 </threshold>
				<split pos="left">
					<feature> 59 </feature>
					<threshold> 0.083333 </threshold>
					<split pos="left">
						<feature> 59 </feature>
						<threshold> 0.074074 </threshold>
						<split pos="left">
							<feature> 59 </feature>
							<threshold> 0.044444 </threshold>
							<split pos="left">
								<feature> 59 </feature>
								<threshold> 0.040816 </threshold>
								<split pos="left">
									<feature> 59 </feature>
									<threshold> 0.039216 </threshold>
									<split pos="left">
										<feature> 59 </feature>
										<threshold> 0.038462 </threshold>
										<split pos="left">
											<feature> 59 </feature>
											<threshold> 0.035714 </threshold>
											<split pos="left">
												<output> 0.034027945 </output>
											</split>
											<split pos="right">
												<output> -0.02674759 </output>
											</split>
										</split>
										<split pos="right">
											<output> -0.6007272 </output>
										</split>
									</split>
									<split pos="right">
										<output> 0.09008354 </output>
									</split>
								</split>
								<split pos="right">
									<output> 0.0013380619 </output>
								</split>
							</split>
							<split pos="right">
								<output> 0.046439253 </output>
							</split>
						</split>
						<split pos="right">
							<output> 0.027596578 </output>
						</split>
					</split>
					<split pos="right">
						<output> 0.04009064 </output>
					</split>
				</split>
				<split pos="right">
					<output> 0.048474558 </output>
				</split>
			</split>
			<split pos="right">
				<output> 0.088168465 </output>
			</split>
		</split>
	</tree>
	<tree id="29" weight="0.1">
		<split>
			<feature> 59 </feature>
			<threshold> 0.235294 </threshold>
			<split pos="left">
				<feature> 59 </feature>
				<threshold> 0.130435 </threshold>
				<split pos="left">
					<feature> 59 </feature>
					<threshold> 0.083333 </threshold>
					<split pos="left">
						<feature> 59 </feature>
						<threshold> 0.08 </threshold>
						<split pos="left">
							<feature> 59 </feature>
							<threshold> 0.010582 </threshold>
							<split pos="left">
								<feature> 59 </feature>
								<threshold> 0.007634 </threshold>
								<split pos="left">
									<feature> 59 </feature>
									<threshold> 0.003774 </threshold>
									<split pos="left">
										<feature> 59 </feature>
										<threshold> 0.0 </threshold>
										<split pos="left">
											<output> 0.03045397 </output>
										</split>
										<split pos="right">
											<output> -0.31375965 </output>
										</split>
									</split>
									<split pos="right">
										<output> 0.25218254 </output>
									</split>
								</split>
								<split pos="right">
									<output> -0.23107179 </output>
								</split>
							</split>
							<split pos="right">
								<output> 0.037218943 </output>
							</split>
						</split>
						<split pos="right">
							<output> 0.022862695 </output>
						</split>
					</split>
					<split pos="right">
						<output> 0.036053993 </output>
					</split>
				</split>
				<split pos="right">
					<feature> 59 </feature>
					<threshold> 0.165919 </threshold>
					<split pos="left">
						<output> 0.03934968 </output>
					</split>
					<split pos="right">
						<output> 0.0467555 </output>
					</split>
				</split>
			</split>
			<split pos="right">
				<output> 0.07932553 </output>
			</split>
		</split>
	</tree>
	<tree id="30" weight="0.1">
		<split>
			<feature> 59 </feature>
			<threshold> 0.222222 </threshold>
			<split pos="left">
				<feature> 59 </feature>
				<threshold> 0.111111 </threshold>
				<split pos="left">
					<feature> 59 </feature>
					<threshold> 0.010582 </threshold>
					<split pos="left">
						<feature> 59 </feature>
						<threshold> 0.007634 </threshold>
						<split pos="left">
							<feature> 59 </feature>
							<threshold> 0.003774 </threshold>
							<split pos="left">
								<feature> 59 </feature>
								<threshold> 0.0 </threshold>
								<split pos="left">
									<output> 0.02744172 </output>
								</split>
								<split pos="right">
									<output> -0.28238368 </output>
								</split>
							</split>
							<split pos="right">
								<output> 0.2269643 </output>
							</split>
						</split>
						<split pos="right">
							<output> -0.20796461 </output>
						</split>
					</split>
					<split pos="right">
						<feature> 59 </feature>
						<threshold> 0.054054 </threshold>
						<split pos="left">
							<output> 0.0712047 </output>
						</split>
						<split pos="right">
							<output> 0.029942181 </output>
						</split>
					</split>
				</split>
				<split pos="right">
					<feature> 59 </feature>
					<threshold> 0.121212 </threshold>
					<split pos="left">
						<output> 0.105862 </output>
					</split>
					<split pos="right">
						<feature> 59 </feature>
						<threshold> 0.165919 </threshold>
						<split pos="left">
							<output> 0.034070186 </output>
						</split>
						<split pos="right">
							<output> 0.042064458 </output>
						</split>
					</split>
				</split>
			</split>
			<split pos="right">
				<output> 0.071199514 </output>
			</split>
		</split>
	</tree>
	<tree id="31" weight="0.1">
		<split>
			<feature> 59 </feature>
			<threshold> 0.235294 </threshold>
			<split pos="left">
				<feature> 59 </feature>
				<threshold> 0.130435 </threshold>
				<split pos="left">
					<feature> 59 </feature>
					<threshold> 0.083333 </threshold>
					<split pos="left">
						<feature> 59 </feature>
						<threshold> 0.074074 </threshold>
						<split pos="left">
							<feature> 59 </feature>
							<threshold> 0.045455 </threshold>
							<split pos="left">
								<feature> 59 </feature>
								<threshold> 0.035714 </threshold>
								<split pos="left">
									<feature> 59 </feature>
									<threshold> 0.033333 </threshold>
									<split pos="left">
										<feature> 59 </feature>
										<threshold> 0.03125 </threshold>
										<split pos="left">
											<feature> 59 </feature>
											<threshold> 0.030303 </threshold>
											<split pos="left">
												<output> 0.024705691 </output>
											</split>
											<split pos="right">
												<output> 0.09644695 </output>
											</split>
										</split>
										<split pos="right">
											<output> -0.009708851 </output>
										</split>
									</split>
									<split pos="right">
										<output> 0.21354109 </output>
									</split>
								</split>
								<split pos="right">
									<output> 0.0070233867 </output>
								</split>
							</split>
							<split pos="right">
								<output> 0.034717098 </output>
							</split>
						</split>
						<split pos="right">
							<output> 0.018954182 </output>
						</split>
					</split>
					<split pos="right">
						<output> 0.029282542 </output>
					</split>
				</split>
				<split pos="right">
					<output> 0.035374004 </output>
				</split>
			</split>
			<split pos="right">
				<output> 0.064280845 </output>
			</split>
		</split>
	</tree>
	<tree id="32" weight="0.1">
		<split>
			<feature> 59 </feature>
			<threshold> 0.1875 </threshold>
			<split pos="left">
				<feature> 59 </feature>
				<threshold> 0.173913 </threshold>
				<split pos="left">
					<feature> 59 </feature>
					<threshold> 0.142857 </threshold>
					<split pos="left">
						<feature> 59 </feature>
						<threshold> 0.083333 </threshold>
						<split pos="left">
							<feature> 59 </feature>
							<threshold> 0.074074 </threshold>
							<split pos="left">
								<feature> 59 </feature>
								<threshold> 0.066667 </threshold>
								<split pos="left">
									<feature> 59 </feature>
									<threshold> 0.054054 </threshold>
									<split pos="left">
										<feature> 59 </feature>
										<threshold> 0.045455 </threshold>
										<split pos="left">
											<feature> 59 </feature>
											<threshold> 0.035714 </threshold>
											<split pos="left">
												<output> 0.022317618 </output>
											</split>
											<split pos="right">
												<output> 0.0063211187 </output>
											</split>
										</split>
										<split pos="right">
											<output> 0.0923065 </output>
										</split>
									</split>
									<split pos="right">
										<output> 0.01518468 </output>
									</split>
								</split>
								<split pos="right">
									<output> 0.038102802 </output>
								</split>
							</split>
							<split pos="right">
								<output> 0.017058522 </output>
							</split>
						</split>
						<split pos="right">
							<output> 0.026915507 </output>
						</split>
					</split>
					<split pos="right">
						<output> 0.0370743 </output>
					</split>
				</split>
				<split pos="right">
					<output> -0.031234113 </output>
				</split>
			</split>
			<split pos="right">
				<output> 0.045212727 </output>
			</split>
		</split>
	</tree>
	<tree id="33" weight="0.1">
		<split>
			<feature> 59 </feature>
			<threshold> 0.235294 </threshold>
			<split pos="left">
				<feature> 59 </feature>
				<threshold> 0.111111 </threshold>
				<split pos="left">
					<feature> 59 </feature>
					<threshold> 0.083333 </threshold>
					<split pos="left">
						<feature> 59 </feature>
						<threshold> 0.074074 </threshold>
						<split pos="left">
							<feature> 59 </feature>
							<threshold> 0.066667 </threshold>
							<split pos="left">
								<feature> 59 </feature>
								<threshold> 0.057143 </threshold>
								<split pos="left">
									<feature> 59 </feature>
									<threshold> 0.045455 </threshold>
									<split pos="left">
										<feature> 59 </feature>
										<threshold> 0.035714 </threshold>
										<split pos="left">
											<feature> 59 </feature>
											<threshold> 0.033333 </threshold>
											<split pos="left">
												<output> 0.019977603 </output>
											</split>
											<split pos="right">
												<output> 0.18995513 </output>
											</split>
										</split>
										<split pos="right">
											<output> 0.0056889416 </output>
										</split>
									</split>
									<split pos="right">
										<output> 0.05708969 </output>
									</split>
								</split>
								<split pos="right">
									<output> 0.013187903 </output>
								</split>
							</split>
							<split pos="right">
								<output> 0.03429214 </output>
							</split>
						</split>
						<split pos="right">
							<output> 0.015352164 </output>
						</split>
					</split>
					<split pos="right">
						<output> 0.023301091 </output>
					</split>
				</split>
				<split pos="right">
					<output> 0.027366227 </output>
				</split>
			</split>
			<split pos="right">
				<output> 0.053344693 </output>
			</split>
		</split>
	</tree>
	<tree id="34" weight="0.1">
		<split>
			<feature> 59 </feature>
			<threshold> 0.235294 </threshold>
			<split pos="left">
				<feature> 59 </feature>
				<threshold> 0.130435 </threshold>
				<split pos="left">
					<feature> 59 </feature>
					<threshold> 0.083333 </threshold>
					<split pos="left">
						<feature> 59 </feature>
						<threshold> 0.074074 </threshold>
						<split pos="left">
							<feature> 59 </feature>
							<threshold> 0.066667 </threshold>
							<split pos="left">
								<feature> 59 </feature>
								<threshold> 0.054054 </threshold>
								<split pos="left">
									<feature> 59 </feature>
									<threshold> 0.045455 </threshold>
									<split pos="left">
										<feature> 59 </feature>
										<threshold> 0.035714 </threshold>
										<split pos="left">
											<feature> 59 </feature>
											<threshold> 0.033333 </threshold>
											<split pos="left">
												<output> 0.017966488 </output>
											</split>
											<split pos="right">
												<output> 0.17095958 </output>
											</split>
										</split>
										<split pos="right">
											<output> 0.005120103 </output>
										</split>
									</split>
									<split pos="right">
										<output> 0.0773677 </output>
									</split>
								</split>
								<split pos="right">
									<output> 0.01178522 </output>
								</split>
							</split>
							<split pos="right">
								<output> 0.030861381 </output>
							</split>
						</split>
						<split pos="right">
							<output> 0.013820757 </output>
						</split>
					</split>
					<split pos="right">
						<output> 0.02119223 </output>
					</split>
				</split>
				<split pos="right">
					<output> 0.025770113 </output>
				</split>
			</split>
			<split pos="right">
				<output> 0.04802033 </output>
			</split>
		</split>
	</tree>
	<tree id="35" weight="0.1">
		<split>
			<feature> 59 </feature>
			<threshold> 0.222222 </threshold>
			<split pos="left">
				<feature> 59 </feature>
				<threshold> 0.142857 </threshold>
				<split pos="left">
					<feature> 59 </feature>
					<threshold> 0.083333 </threshold>
					<split pos="left">
						<feature> 59 </feature>
						<threshold> 0.08 </threshold>
						<split pos="left">
							<feature> 59 </feature>
							<threshold> 0.076923 </threshold>
							<split pos="left">
								<feature> 59 </feature>
								<threshold> 0.044444 </threshold>
								<split pos="left">
									<feature> 59 </feature>
									<threshold> 0.040816 </threshold>
									<split pos="left">
										<feature> 59 </feature>
										<threshold> 0.039216 </threshold>
										<split pos="left">
											<feature> 59 </feature>
											<threshold> 0.038462 </threshold>
											<split pos="left">
												<output> 0.016233163 </output>
											</split>
											<split pos="right">
												<output> -0.55391216 </output>
											</split>
										</split>
										<split pos="right">
											<output> 0.06781755 </output>
										</split>
									</split>
									<split pos="right">
										<output> -0.012053518 </output>
									</split>
								</split>
								<split pos="right">
									<output> 0.019792367 </output>
								</split>
							</split>
							<split pos="right">
								<output> 0.14097811 </output>
							</split>
						</split>
						<split pos="right">
							<output> 0.011064486 </output>
						</split>
					</split>
					<split pos="right">
						<output> 0.019437794 </output>
					</split>
				</split>
				<split pos="right">
					<output> 0.025132077 </output>
				</split>
			</split>
			<split pos="right">
				<output> 0.043090086 </output>
			</split>
		</split>
	</tree>
	<tree id="36" weight="0.1">
		<split>
			<feature> 59 </feature>
			<threshold> 0.1875 </threshold>
			<split pos="left">
				<feature> 59 </feature>
				<threshold> 0.173913 </threshold>
				<split pos="left">
					<feature> 59 </feature>
					<threshold> 0.165919 </threshold>
					<split pos="left">
						<feature> 59 </feature>
						<threshold> 0.083333 </threshold>
						<split pos="left">
							<feature> 59 </feature>
							<threshold> 0.074074 </threshold>
							<split pos="left">
								<feature> 59 </feature>
								<threshold> 0.066667 </threshold>
								<split pos="left">
									<feature> 59 </feature>
									<threshold> 0.054054 </threshold>
									<split pos="left">
										<feature> 59 </feature>
										<threshold> 0.045455 </threshold>
										<split pos="left">
											<feature> 59 </feature>
											<threshold> 0.035714 </threshold>
											<split pos="left">
												<output> 0.014590908 </output>
											</split>
											<split pos="right">
												<output> 0.003350174 </output>
											</split>
										</split>
										<split pos="right">
											<output> 0.067651786 </output>
										</split>
									</split>
									<split pos="right">
										<output> 0.008628101 </output>
									</split>
								</split>
								<split pos="right">
									<output> 0.025795719 </output>
								</split>
							</split>
							<split pos="right">
								<output> 0.010919969 </output>
							</split>
						</split>
						<split pos="right">
							<output> 0.017510653 </output>
						</split>
					</split>
					<split pos="right">
						<output> 0.0258667 </output>
					</split>
				</split>
				<split pos="right">
					<output> -0.035939064 </output>
				</split>
			</split>
			<split pos="right">
				<output> 0.030282898 </output>
			</split>
		</split>
	</tree>
	<tree id="37" weight="0.1">
		<split>
			<feature> 59 </feature>
			<threshold> 0.266667 </threshold>
			<split pos="left">
				<feature> 59 </feature>
				<threshold> 0.238095 </threshold>
				<split pos="left">
					<feature> 59 </feature>
					<threshold> 0.130435 </threshold>
					<split pos="left">
						<feature> 59 </feature>
						<threshold> 0.125 </threshold>
						<split pos="left">
							<feature> 59 </feature>
							<threshold> 0.083333 </threshold>
							<split pos="left">
								<feature> 59 </feature>
								<threshold> 0.074074 </threshold>
								<split pos="left">
									<feature> 59 </feature>
									<threshold> 0.066667 </threshold>
									<split pos="left">
										<feature> 59 </feature>
										<threshold> 0.054054 </threshold>
										<split pos="left">
											<feature> 59 </feature>
											<threshold> 0.045455 </threshold>
											<split pos="left">
												<output> 0.013102854 </output>
											</split>
											<split pos="right">
												<output> 0.060887005 </output>
											</split>
										</split>
										<split pos="right">
											<output> 0.007764537 </output>
										</split>
									</split>
									<split pos="right">
										<output> 0.023216266 </output>
									</split>
								</split>
								<split pos="right">
									<output> 0.009826563 </output>
								</split>
							</split>
							<split pos="right">
								<output> 0.015409584 </output>
							</split>
						</split>
						<split pos="right">
							<output> -0.14830266 </output>
						</split>
					</split>
					<split pos="right">
						<output> 0.01873556 </output>
					</split>
				</split>
				<split pos="right">
					<output> 0.05198676 </output>
				</split>
			</split>
			<split pos="right">
				<output> -0.036067612 </output>
			</split>
		</split>
	</tree>
	<tree id="38" weight="0.1">
		<split>
			<feature> 59 </feature>
			<threshold> 0.266667 </threshold>
			<split pos="left">
				<feature> 59 </feature>
				<threshold> 0.238095 </threshold>
				<split pos="left">
					<feature> 59 </feature>
					<threshold> 0.165919 </threshold>
					<split pos="left">
						<feature> 59 </feature>
						<threshold> 0.157895 </threshold>
						<split pos="left">
							<feature> 59 </feature>
							<threshold> 0.083333 </threshold>
							<split pos="left">
								<feature> 59 </feature>
								<threshold> 0.074074 </threshold>
								<split pos="left">
									<feature> 59 </feature>
									<threshold> 0.073171 </threshold>
									<split pos="left">
										<feature> 59 </feature>
										<threshold> 0.044444 </threshold>
										<split pos="left">
											<feature> 59 </feature>
											<threshold> 0.043478 </threshold>
											<split pos="left">
												<output> 0.011806687 </output>
											</split>
											<split pos="right">
												<output> -0.29746374 </output>
											</split>
										</split>
										<split pos="right">
											<output> 0.016646737 </output>
										</split>
									</split>
									<split pos="right">
										<output> 0.12679842 </output>
									</split>
								</split>
								<split pos="right">
									<output> 0.008844955 </output>
								</split>
							</split>
							<split pos="right">
								<output> 0.014130444 </output>
							</split>
						</split>
						<split pos="right">
							<output> -0.7969942 </output>
						</split>
					</split>
					<split pos="right">
						<output> 0.01834216 </output>
					</split>
				</split>
				<split pos="right">
					<output> 0.046773005 </output>
				</split>
			</split>
			<split pos="right">
				<output> -0.03246092 </output>
			</split>
		</split>
	</tree>
	<tree id="39" weight="0.1">
		<split>
			<feature> 59 </feature>
			<threshold> 0.266667 </threshold>
			<split pos="left">
				<feature> 59 </feature>
				<threshold> 0.238095 </threshold>
				<split pos="left">
					<feature> 59 </feature>
					<threshold> 0.142857 </threshold>
					<split pos="left">
						<feature> 59 </feature>
						<threshold> 0.090909 </threshold>
						<split pos="left">
							<feature> 59 </feature>
							<threshold> 0.010582 </threshold>
							<split pos="left">
								<feature> 59 </feature>
								<threshold> 0.007634 </threshold>
								<split pos="left">
									<feature> 59 </feature>
									<threshold> 0.003774 </threshold>
									<split pos="left">
										<feature> 59 </feature>
										<threshold> 0.0 </threshold>
										<split pos="left">
											<output> 0.010645531 </output>
										</split>
										<split pos="right">
											<output> -0.26821545 </output>
										</split>
									</split>
									<split pos="right">
										<output> 0.19019777 </output>
									</split>
								</split>
								<split pos="right">
									<output> -0.20123823 </output>
								</split>
							</split>
							<split pos="right">
								<output> 0.01152475 </output>
							</split>
						</split>
						<split pos="right">
							<feature> 59 </feature>
							<threshold> 0.092593 </threshold>
							<split pos="left">
								<output> 0.9366194 </output>
							</split>
							<split pos="right">
								<output> 0.012828233 </output>
							</split>
						</split>
					</split>
					<split pos="right">
						<output> 0.016442839 </output>
					</split>
				</split>
				<split pos="right">
					<output> 0.04210889 </output>
				</split>
			</split>
			<split pos="right">
				<output> -0.029215725 </output>
			</split>
		</split>
	</tree>
	<tree id="40" weight="0.1">
		<split>
			<feature> 59 </feature>
			<threshold> 0.266667 </threshold>
			<split pos="left">
				<feature> 59 </feature>
				<threshold> 0.238095 </threshold>
				<split pos="left">
					<feature> 59 </feature>
					<threshold> 0.130435 </threshold>
					<split pos="left">
						<feature> 59 </feature>
						<threshold> 0.125 </threshold>
						<split pos="left">
							<feature> 59 </feature>
							<threshold> 0.083333 </threshold>
							<split pos="left">
								<feature> 59 </feature>
								<threshold> 0.08 </threshold>
								<split pos="left">
									<feature> 59 </feature>
									<threshold> 0.076923 </threshold>
									<split pos="left">
										<feature> 59 </feature>
										<threshold> 0.044444 </threshold>
										<split pos="left">
											<feature> 59 </feature>
											<threshold> 0.040816 </threshold>
											<split pos="left">
												<output> 0.009618974 </output>
											</split>
											<split pos="right">
												<output> -0.014619635 </output>
											</split>
										</split>
										<split pos="right">
											<output> 0.011887957 </output>
										</split>
									</split>
									<split pos="right">
										<output> 0.12276868 </output>
									</split>
								</split>
								<split pos="right">
									<output> 0.0058463584 </output>
								</split>
							</split>
							<split pos="right">
								<output> 0.011200237 </output>
							</split>
						</split>
						<split pos="right">
							<output> -0.13616832 </output>
						</split>
					</split>
					<split pos="right">
						<output> 0.013703718 </output>
					</split>
				</split>
				<split pos="right">
					<output> 0.03789789 </output>
				</split>
			</split>
			<split pos="right">
				<output> -0.026294103 </output>
			</split>
		</split>
	</tree>
	<tree id="41" weight="0.1">
		<split>
			<feature> 59 </feature>
			<threshold> 0.384615 </threshold>
			<split pos="left">
				<feature> 59 </feature>
				<threshold> 0.266667 </threshold>
				<split pos="left">
					<feature> 59 </feature>
					<threshold> 0.238095 </threshold>
					<split pos="left">
						<feature> 59 </feature>
						<threshold> 0.165919 </threshold>
						<split pos="left">
							<feature> 59 </feature>
							<threshold> 0.157895 </threshold>
							<split pos="left">
								<feature> 59 </feature>
								<threshold> 0.095238 </threshold>
								<split pos="left">
									<feature> 59 </feature>
									<threshold> 0.054054 </threshold>
									<split pos="left">
										<feature> 59 </feature>
										<threshold> 0.045455 </threshold>
										<split pos="left">
											<feature> 59 </feature>
											<threshold> 0.035714 </threshold>
											<split pos="left">
												<output> 0.008654145 </output>
											</split>
											<split pos="right">
												<output> -7.757754E-4 </output>
											</split>
										</split>
										<split pos="right">
											<output> 0.05079233 </output>
										</split>
									</split>
									<split pos="right">
										<output> 0.0077927513 </output>
									</split>
								</split>
								<split pos="right">
									<output> 0.010359139 </output>
								</split>
							</split>
							<split pos="right">
								<output> -0.7203095 </output>
							</split>
						</split>
						<split pos="right">
							<output> 0.013492446 </output>
						</split>
					</split>
					<split pos="right">
						<output> 0.034096584 </output>
					</split>
				</split>
				<split pos="right">
					<output> -0.03474995 </output>
				</split>
			</split>
			<split pos="right">
				<output> 0.16461377 </output>
			</split>
		</split>
	</tree>
	<tree id="42" weight="0.1">
		<split>
			<feature> 59 </feature>
			<threshold> 0.384615 </threshold>
			<split pos="left">
				<feature> 59 </feature>
				<threshold> 0.266667 </threshold>
				<split pos="left">
					<feature> 59 </feature>
					<threshold> 0.238095 </threshold>
					<split pos="left">
						<feature> 59 </feature>
						<threshold> 0.165919 </threshold>
						<split pos="left">
							<feature> 59 </feature>
							<threshold> 0.157895 </threshold>
							<split pos="left">
								<feature> 59 </feature>
								<threshold> 0.083333 </threshold>
								<split pos="left">
									<feature> 59 </feature>
									<threshold> 0.074074 </threshold>
									<split pos="left">
										<feature> 59 </feature>
										<threshold> 0.073171 </threshold>
										<split pos="left">
											<feature> 59 </feature>
											<threshold> 0.066667 </threshold>
											<split pos="left">
												<output> 0.007783438 </output>
											</split>
											<split pos="right">
												<output> 0.015337253 </output>
											</split>
										</split>
										<split pos="right">
											<output> 0.110998265 </output>
										</split>
									</split>
									<split pos="right">
										<output> 0.0051489836 </output>
									</split>
								</split>
								<split pos="right">
									<output> 0.0092471475 </output>
								</split>
							</split>
							<split pos="right">
								<output> -0.64827853 </output>
							</split>
						</split>
						<split pos="right">
							<output> 0.0121417865 </output>
						</split>
					</split>
					<split pos="right">
						<output> 0.030696617 </output>
					</split>
				</split>
				<split pos="right">
					<output> -0.031275973 </output>
				</split>
			</split>
			<split pos="right">
				<output> 0.14815201 </output>
			</split>
		</split>
	</tree>
	<tree id="43" weight="0.1">
		<split>
			<feature> 59 </feature>
			<threshold> 0.571429 </threshold>
			<split pos="left">
				<feature> 59 </feature>
				<threshold> 0.266667 </threshold>
				<split pos="left">
					<feature> 59 </feature>
					<threshold> 0.238095 </threshold>
					<split pos="left">
						<feature> 59 </feature>
						<threshold> 0.165919 </threshold>
						<split pos="left">
							<feature> 59 </feature>
							<threshold> 0.157895 </threshold>
							<split pos="left">
								<feature> 59 </feature>
								<threshold> 0.083333 </threshold>
								<split pos="left">
									<feature> 59 </feature>
									<threshold> 0.074074 </threshold>
									<split pos="left">
										<feature> 59 </feature>
										<threshold> 0.073171 </threshold>
										<split pos="left">
											<feature> 59 </feature>
											<threshold> 0.0625 </threshold>
											<split pos="left">
												<output> 0.0069620223 </output>
											</split>
											<split pos="right">
												<output> 0.012251718 </output>
											</split>
										</split>
										<split pos="right">
											<output> 0.09989845 </output>
										</split>
									</split>
									<split pos="right">
										<output> 0.004632699 </output>
									</split>
								</split>
								<split pos="right">
									<output> 0.008322476 </output>
								</split>
							</split>
							<split pos="right">
								<output> -0.5834507 </output>
							</split>
						</split>
						<split pos="right">
							<output> 0.010927847 </output>
						</split>
					</split>
					<split pos="right">
						<output> 0.027621385 </output>
					</split>
				</split>
				<split pos="right">
					<output> -0.020426542 </output>
				</split>
			</split>
			<split pos="right">
				<output> 0.8076541 </output>
			</split>
		</split>
	</tree>
	<tree id="44" weight="0.1">
		<split>
			<feature> 59 </feature>
			<threshold> 0.384615 </threshold>
			<split pos="left">
				<feature> 59 </feature>
				<threshold> 0.266667 </threshold>
				<split pos="left">
					<feature> 59 </feature>
					<threshold> 0.235294 </threshold>
					<split pos="left">
						<feature> 59 </feature>
						<threshold> 0.230769 </threshold>
						<split pos="left">
							<feature> 59 </feature>
							<threshold> 0.1875 </threshold>
							<split pos="left">
								<feature> 59 </feature>
								<threshold> 0.173913 </threshold>
								<split pos="left">
									<feature> 59 </feature>
									<threshold> 0.166667 </threshold>
									<split pos="left">
										<feature> 59 </feature>
										<threshold> 0.165919 </threshold>
										<split pos="left">
											<feature> 59 </feature>
											<threshold> 0.157895 </threshold>
											<split pos="left">
												<output> 0.0066015134 </output>
											</split>
											<split pos="right">
												<output> -0.5251056 </output>
											</split>
										</split>
										<split pos="right">
											<output> 0.012873579 </output>
										</split>
									</split>
									<split pos="right">
										<output> 1.1465956 </output>
									</split>
								</split>
								<split pos="right">
									<output> -0.042723574 </output>
								</split>
							</split>
							<split pos="right">
								<output> 0.011557311 </output>
							</split>
						</split>
						<split pos="right">
							<output> -0.20354554 </output>
						</split>
					</split>
					<split pos="right">
						<output> 0.024865372 </output>
					</split>
				</split>
				<split pos="right">
					<output> -0.026104558 </output>
				</split>
			</split>
			<split pos="right">
				<output> 0.13311742 </output>
			</split>
		</split>
	</tree>
	<tree id="45" weight="0.1">
		<split>
			<feature> 59 </feature>
			<threshold> 0.571429 </threshold>
			<split pos="left">
				<feature> 59 </feature>
				<threshold> 0.266667 </threshold>
				<split pos="left">
					<feature> 59 </feature>
					<threshold> 0.238095 </threshold>
					<split pos="left">
						<feature> 59 </feature>
						<threshold> 0.111111 </threshold>
						<split pos="left">
							<feature> 59 </feature>
							<threshold> 0.010582 </threshold>
							<split pos="left">
								<feature> 59 </feature>
								<threshold> 0.007634 </threshold>
								<split pos="left">
									<feature> 59 </feature>
									<threshold> 0.003774 </threshold>
									<split pos="left">
										<feature> 59 </feature>
										<threshold> 0.0 </threshold>
										<split pos="left">
											<output> 0.00562965 </output>
										</split>
										<split pos="right">
											<output> -0.24535592 </output>
										</split>
									</split>
									<split pos="right">
										<output> 0.167216 </output>
									</split>
								</split>
								<split pos="right">
									<output> -0.18507642 </output>
								</split>
							</split>
							<split pos="right">
								<output> 0.006347046 </output>
							</split>
						</split>
						<split pos="right">
							<feature> 59 </feature>
							<threshold> 0.121212 </threshold>
							<split pos="left">
								<output> 0.07229562 </output>
							</split>
							<split pos="right">
								<output> 0.007651584 </output>
							</split>
						</split>
					</split>
					<split pos="right">
						<output> 0.022372669 </output>
					</split>
				</split>
				<split pos="right">
					<output> -0.016635684 </output>
				</split>
			</split>
			<split pos="right">
				<output> 0.713577 </output>
			</split>
		</split>
	</tree>
	<tree id="46" weight="0.1">
		<split>
			<feature> 59 </feature>
			<threshold> 0.384615 </threshold>
			<split pos="left">
				<feature> 59 </feature>
				<threshold> 0.266667 </threshold>
				<split pos="left">
					<feature> 59 </feature>
					<threshold> 0.263158 </threshold>
					<split pos="left">
						<feature> 59 </feature>
						<threshold> 0.222222 </threshold>
						<split pos="left">
							<feature> 59 </feature>
							<threshold> 0.1875 </threshold>
							<split pos="left">
								<feature> 59 </feature>
								<threshold> 0.173913 </threshold>
								<split pos="left">
									<feature> 59 </feature>
									<threshold> 0.166667 </threshold>
									<split pos="left">
										<feature> 59 </feature>
										<threshold> 0.165919 </threshold>
										<split pos="left">
											<feature> 59 </feature>
											<threshold> 0.157895 </threshold>
											<split pos="left">
												<output> 0.005341123 </output>
											</split>
											<split pos="right">
												<output> -0.47336018 </output>
											</split>
										</split>
										<split pos="right">
											<output> 0.010822458 </output>
										</split>
									</split>
									<split pos="right">
										<output> 1.0311708 </output>
									</split>
								</split>
								<split pos="right">
									<output> -0.039215986 </output>
								</split>
							</split>
							<split pos="right">
								<output> 0.009509074 </output>
							</split>
						</split>
						<split pos="right">
							<output> 0.019670084 </output>
						</split>
					</split>
					<split pos="right">
						<output> 0.54013944 </output>
					</split>
				</split>
				<split pos="right">
					<output> -0.021831252 </output>
				</split>
			</split>
			<split pos="right">
				<output> 0.119474106 </output>
			</split>
		</split>
	</tree>
	<tree id="47" weight="0.1">
		<split>
			<feature> 59 </feature>
			<threshold> 0.571429 </threshold>
			<split pos="left">
				<feature> 59 </feature>
				<threshold> 0.375 </threshold>
				<split pos="left">
					<feature> 59 </feature>
					<threshold> 0.266667 </threshold>
					<split pos="left">
						<feature> 59 </feature>
						<threshold> 0.263158 </threshold>
						<split pos="left">
							<feature> 59 </feature>
							<threshold> 0.238095 </threshold>
							<split pos="left">
								<feature> 59 </feature>
								<threshold> 0.230769 </threshold>
								<split pos="left">
									<feature> 59 </feature>
									<threshold> 0.130435 </threshold>
									<split pos="left">
										<feature> 59 </feature>
										<threshold> 0.125 </threshold>
										<split pos="left">
											<feature> 59 </feature>
											<threshold> 0.010582 </threshold>
											<split pos="left">
												<output> 0.0044901376 </output>
											</split>
											<split pos="right">
												<output> 0.0053139087 </output>
											</split>
										</split>
										<split pos="right">
											<output> -0.12730372 </output>
										</split>
									</split>
									<split pos="right">
										<output> 0.006763837 </output>
									</split>
								</split>
								<split pos="right">
									<output> -0.16276395 </output>
								</split>
							</split>
							<split pos="right">
								<output> 0.01778003 </output>
							</split>
						</split>
						<split pos="right">
							<output> 0.4861255 </output>
						</split>
					</split>
					<split pos="right">
						<output> -0.019672157 </output>
					</split>
				</split>
				<split pos="right">
					<output> 0.09262591 </output>
				</split>
			</split>
			<split pos="right">
				<output> 0.6302718 </output>
			</split>
		</split>
	</tree>
	<tree id="48" weight="0.1">
		<split>
			<feature> 59 </feature>
			<threshold> 0.571429 </threshold>
			<split pos="left">
				<feature> 59 </feature>
				<threshold> 0.307692 </threshold>
				<split pos="left">
					<feature> 59 </feature>
					<threshold> 0.266667 </threshold>
					<split pos="left">
						<feature> 59 </feature>
						<threshold> 0.263158 </threshold>
						<split pos="left">
							<feature> 59 </feature>
							<threshold> 0.222222 </threshold>
							<split pos="left">
								<feature> 59 </feature>
								<threshold> 0.1875 </threshold>
								<split pos="left">
									<feature> 59 </feature>
									<threshold> 0.173913 </threshold>
									<split pos="left">
										<feature> 59 </feature>
										<threshold> 0.166667 </threshold>
										<split pos="left">
											<feature> 59 </feature>
											<threshold> 0.165919 </threshold>
											<split pos="left">
												<output> 0.0043292623 </output>
											</split>
											<split pos="right">
												<output> 0.009065364 </output>
											</split>
										</split>
										<split pos="right">
											<output> 0.92737746 </output>
										</split>
									</split>
									<split pos="right">
										<output> -0.035971504 </output>
									</split>
								</split>
								<split pos="right">
									<output> 0.00788123 </output>
								</split>
							</split>
							<split pos="right">
								<output> 0.015953707 </output>
							</split>
						</split>
						<split pos="right">
							<output> 0.4375129 </output>
						</split>
					</split>
					<split pos="right">
						<output> -0.04389983 </output>
					</split>
				</split>
				<split pos="right">
					<output> 0.03660105 </output>
				</split>
			</split>
			<split pos="right">
				<output> 0.5672447 </output>
			</split>
		</split>
	</tree>
	<tree id="49" weight="0.1">
		<split>
			<feature> 59 </feature>
			<threshold> 0.384615 </threshold>
			<split pos="left">
				<feature> 59 </feature>
				<threshold> 0.266667 </threshold>
				<split pos="left">
					<feature> 59 </feature>
					<threshold> 0.263158 </threshold>
					<split pos="left">
						<feature> 59 </feature>
						<threshold> 0.222222 </threshold>
						<split pos="left">
							<feature> 59 </feature>
							<threshold> 0.111111 </threshold>
							<split pos="left">
								<feature> 59 </feature>
								<threshold> 0.010582 </threshold>
								<split pos="left">
									<feature> 59 </feature>
									<threshold> 0.007634 </threshold>
									<split pos="left">
										<feature> 59 </feature>
										<threshold> 0.003774 </threshold>
										<split pos="left">
											<feature> 59 </feature>
											<threshold> 0.0 </threshold>
											<split pos="left">
												<output> 0.0036695148 </output>
											</split>
											<split pos="right">
												<output> -0.22223638 </output>
											</split>
										</split>
										<split pos="right">
											<output> 0.14907837 </output>
										</split>
									</split>
									<split pos="right">
										<output> -0.16798483 </output>
									</split>
								</split>
								<split pos="right">
									<output> 0.0042140386 </output>
								</split>
							</split>
							<split pos="right">
								<output> 0.005266632 </output>
							</split>
						</split>
						<split pos="right">
							<output> 0.014362652 </output>
						</split>
					</split>
					<split pos="right">
						<output> 0.39376166 </output>
					</split>
				</split>
				<split pos="right">
					<output> -0.01618448 </output>
				</split>
			</split>
			<split pos="right">
				<output> 0.09168528 </output>
			</split>
		</split>
	</tree>
	<tree id="50" weight="0.1">
		<split>
			<feature> 59 </feature>
			<threshold> 0.307692 </threshold>
			<split pos="left">
				<feature> 59 </feature>
				<threshold> 0.266667 </threshold>
				<split pos="left">
					<feature> 59 </feature>
					<threshold> 0.263158 </threshold>
					<split pos="left">
						<feature> 59 </feature>
						<threshold> 0.25 </threshold>
						<split pos="left">
							<feature> 59 </feature>
							<threshold> 0.222222 </threshold>
							<split pos="left">
								<feature> 59 </feature>
								<threshold> 0.1875 </threshold>
								<split pos="left">
									<feature> 59 </feature>
									<threshold> 0.173913 </threshold>
									<split pos="left">
										<feature> 59 </feature>
										<threshold> 0.166667 </threshold>
										<split pos="left">
											<feature> 59 </feature>
											<threshold> 0.165919 </threshold>
											<split pos="left">
												<output> 0.0034959437 </output>
											</split>
											<split pos="right">
												<output> 0.0076316237 </output>
											</split>
										</split>
										<split pos="right">
											<output> 0.834113 </output>
										</split>
									</split>
									<split pos="right">
										<output> -0.03289941 </output>
									</split>
								</split>
								<split pos="right">
									<output> 0.0065675084 </output>
								</split>
							</split>
							<split pos="right">
								<output> 0.013066653 </output>
							</split>
						</split>
						<split pos="right">
							<output> -0.6787583 </output>
						</split>
					</split>
					<split pos="right">
						<output> 0.3543855 </output>
					</split>
				</split>
				<split pos="right">
					<output> -0.037890356 </output>
				</split>
			</split>
			<split pos="right">
				<output> 0.03487824 </output>
			</split>
		</split>
	</tree>
	<tree id="51" weight="0.1">
		<split>
			<feature> 59 </feature>
			<threshold> 0.571429 </threshold>
			<split pos="left">
				<feature> 59 </feature>
				<threshold> 0.545455 </threshold>
				<split pos="left">
					<feature> 59 </feature>
					<threshold> 0.307692 </threshold>
					<split pos="left">
						<feature> 59 </feature>
						<threshold> 0.266667 </threshold>
						<split pos="left">
							<feature> 59 </feature>
							<threshold> 0.263158 </threshold>
							<split pos="left">
								<feature> 59 </feature>
								<threshold> 0.25 </threshold>
								<split pos="left">
									<feature> 59 </feature>
									<threshold> 0.222222 </threshold>
									<split pos="left">
										<feature> 59 </feature>
										<threshold> 0.111111 </threshold>
										<split pos="left">
											<feature> 59 </feature>
											<threshold> 0.010582 </threshold>
											<split pos="left">
												<output> 0.0029379078 </output>
											</split>
											<split pos="right">
												<output> 0.0034381242 </output>
											</split>
										</split>
										<split pos="right">
											<output> 0.0043181297 </output>
										</split>
									</split>
									<split pos="right">
										<output> 0.011757973 </output>
									</split>
								</split>
								<split pos="right">
									<output> -0.61088246 </output>
								</split>
							</split>
							<split pos="right">
								<output> 0.31894702 </output>
							</split>
						</split>
						<split pos="right">
							<output> -0.03410292 </output>
						</split>
					</split>
					<split pos="right">
						<output> 0.03041529 </output>
					</split>
				</split>
				<split pos="right">
					<output> -1.0394778 </output>
				</split>
			</split>
			<split pos="right">
				<output> 0.49786392 </output>
			</split>
		</split>
	</tree>
	<tree id="52" weight="0.1">
		<split>
			<feature> 59 </feature>
			<threshold> 0.571429 </threshold>
			<split pos="left">
				<feature> 59 </feature>
				<threshold> 0.545455 </threshold>
				<split pos="left">
					<feature> 59 </feature>
					<threshold> 0.5 </threshold>
					<split pos="left">
						<feature> 59 </feature>
						<threshold> 0.307692 </threshold>
						<split pos="left">
							<feature> 59 </feature>
							<threshold> 0.266667 </threshold>
							<split pos="left">
								<feature> 59 </feature>
								<threshold> 0.263158 </threshold>
								<split pos="left">
									<feature> 59 </feature>
									<threshold> 0.25 </threshold>
									<split pos="left">
										<feature> 59 </feature>
										<threshold> 0.235294 </threshold>
										<split pos="left">
											<feature> 59 </feature>
											<threshold> 0.230769 </threshold>
											<split pos="left">
												<output> 0.002978443 </output>
											</split>
											<split pos="right">
												<output> -0.17516086 </output>
											</split>
										</split>
										<split pos="right">
											<output> 0.0106331855 </output>
										</split>
									</split>
									<split pos="right">
										<output> -0.5497942 </output>
									</split>
								</split>
								<split pos="right">
									<output> 0.28705233 </output>
								</split>
							</split>
							<split pos="right">
								<output> -0.03069254 </output>
							</split>
						</split>
						<split pos="right">
							<output> 0.026653452 </output>
						</split>
					</split>
					<split pos="right">
						<output> 0.95748067 </output>
					</split>
				</split>
				<split pos="right">
					<output> -0.93553007 </output>
				</split>
			</split>
			<split pos="right">
				<output> 0.4480775 </output>
			</split>
		</split>
	</tree>
	<tree id="53" weight="0.1">
		<split>
			<feature> 59 </feature>
			<threshold> 0.384615 </threshold>
			<split pos="left">
				<feature> 59 </feature>
				<threshold> 0.266667 </threshold>
				<split pos="left">
					<feature> 59 </feature>
					<threshold> 0.263158 </threshold>
					<split pos="left">
						<feature> 59 </feature>
						<threshold> 0.25 </threshold>
						<split pos="left">
							<feature> 59 </feature>
							<threshold> 0.222222 </threshold>
							<split pos="left">
								<feature> 59 </feature>
								<threshold> 0.1875 </threshold>
								<split pos="left">
									<feature> 59 </feature>
									<threshold> 0.173913 </threshold>
									<split pos="left">
										<feature> 59 </feature>
										<threshold> 0.166667 </threshold>
										<split pos="left">
											<feature> 59 </feature>
											<threshold> 0.165919 </threshold>
											<split pos="left">
												<output> 0.0024981862 </output>
											</split>
											<split pos="right">
												<output> 0.0061389348 </output>
											</split>
										</split>
										<split pos="right">
											<output> 0.7499721 </output>
										</split>
									</split>
									<split pos="right">
										<output> -0.030340951 </output>
									</split>
								</split>
								<split pos="right">
									<output> 0.005180662 </output>
								</split>
							</split>
							<split pos="right">
								<output> 0.009544167 </output>
							</split>
						</split>
						<split pos="right">
							<output> -0.49481472 </output>
						</split>
					</split>
					<split pos="right">
						<output> 0.25834706 </output>
					</split>
				</split>
				<split pos="right">
					<output> -0.011286474 </output>
				</split>
			</split>
			<split pos="right">
				<output> 0.07149487 </output>
			</split>
		</split>
	</tree>
	<tree id="54" weight="0.1">
		<split>
			<feature> 59 </feature>
			<threshold> 0.571429 </threshold>
			<split pos="left">
				<feature> 59 </feature>
				<threshold> 0.545455 </threshold>
				<split pos="left">
					<feature> 59 </feature>
					<threshold> 0.5 </threshold>
					<split pos="left">
						<feature> 59 </feature>
						<threshold> 0.307692 </threshold>
						<split pos="left">
							<feature> 59 </feature>
							<threshold> 0.266667 </threshold>
							<split pos="left">
								<feature> 59 </feature>
								<threshold> 0.263158 </threshold>
								<split pos="left">
									<feature> 59 </feature>
									<threshold> 0.25 </threshold>
									<split pos="left">
										<feature> 59 </feature>
										<threshold> 0.222222 </threshold>
										<split pos="left">
											<feature> 59 </feature>
											<threshold> 0.1875 </threshold>
											<split pos="left">
												<output> 0.002333837 </output>
											</split>
											<split pos="right">
												<output> 0.0046624495 </output>
											</split>
										</split>
										<split pos="right">
											<output> 0.008592636 </output>
										</split>
									</split>
									<split pos="right">
										<output> -0.44533327 </output>
									</split>
								</split>
								<split pos="right">
									<output> 0.23251238 </output>
								</split>
							</split>
							<split pos="right">
								<output> -0.02649344 </output>
							</split>
						</split>
						<split pos="right">
							<output> 0.023988813 </output>
						</split>
					</split>
					<split pos="right">
						<output> 0.85458314 </output>
					</split>
				</split>
				<split pos="right">
					<output> -0.8491265 </output>
				</split>
			</split>
			<split pos="right">
				<output> 0.39612025 </output>
			</split>
		</split>
	</tree>
	<tree id="55" weight="0.1">
		<split>
			<feature> 59 </feature>
			<threshold> 0.375 </threshold>
			<split pos="left">
				<feature> 59 </feature>
				<threshold> 0.266667 </threshold>
				<split pos="left">
