## MART
## No. of trees = 1000
## No. of leaves = 10
## No. of threshold candidates = 256
## Learning rate = 0.1
## Stop early = 100

<ensemble>
	<tree id="1" weight="0.1">
		<split>
			<feature> 109 </feature>
			<threshold> 9.306832 </threshold>
			<split pos="left">
				<feature> 109 </feature>
				<threshold> 6.4865794 </threshold>
				<split pos="left">
					<feature> 109 </feature>
					<threshold> 4.7944274 </threshold>
					<split pos="left">
						<feature> 109 </feature>
						<threshold> 3.1022763 </threshold>
						<split pos="left">
							<feature> 109 </feature>
							<threshold> 0.0 </threshold>
							<split pos="left">
								<output> 0.58284175 </output>
							</split>
							<split pos="right">
								<output> 0.523988 </output>
							</split>
						</split>
						<split pos="right">
							<output> 0.5923105 </output>
						</split>
					</split>
					<split pos="right">
						<output> 0.6188166 </output>
					</split>
				</split>
				<split pos="right">
					<feature> 109 </feature>
					<threshold> 7.896706 </threshold>
					<split pos="left">
						<output> 0.6499285 </output>
					</split>
					<split pos="right">
						<output> 0.707711 </output>
					</split>
				</split>
			</split>
			<split pos="right">
				<feature> 109 </feature>
				<threshold> 14.947339 </threshold>
				<split pos="left">
					<feature> 109 </feature>
					<threshold> 11.84506 </threshold>
					<split pos="left">
						<output> 0.7691732 </output>
					</split>
					<split pos="right">
						<output> 0.83095634 </output>
					</split>
				</split>
				<split pos="right">
					<feature> 109 </feature>
					<threshold> 18.04961 </threshold>
					<split pos="left">
						<output> 0.8978589 </output>
					</split>
					<split pos="right">
						<output> 1.0129734 </output>
					</split>
				</split>
			</split>
		</split>
	</tree>
	<tree id="2" weight="0.1">
		<split>
			<feature> 109 </feature>
			<threshold> 9.306832 </threshold>
			<split pos="left">
				<feature> 109 </feature>
				<threshold> 6.4865794 </threshold>
				<split pos="left">
					<feature> 109 </feature>
					<threshold> 4.7944274 </threshold>
					<split pos="left">
						<feature> 109 </feature>
						<threshold> 3.1022763 </threshold>
						<split pos="left">
							<feature> 109 </feature>
							<threshold> 0.0 </threshold>
							<split pos="left">
								<output> 0.52387655 </output>
							</split>
							<split pos="right">
								<output> 0.47158495 </output>
							</split>
						</split>
						<split pos="right">
							<output> 0.53304756 </output>
						</split>
					</split>
					<split pos="right">
						<output> 0.5570521 </output>
					</split>
				</split>
				<split pos="right">
					<feature> 109 </feature>
					<threshold> 7.896706 </threshold>
					<split pos="left">
						<output> 0.5848535 </output>
					</split>
					<split pos="right">
						<output> 0.63721746 </output>
					</split>
				</split>
			</split>
			<split pos="right">
				<feature> 109 </feature>
				<threshold> 17.203537 </threshold>
				<split pos="left">
					<feature> 109 </feature>
					<threshold> 13.819238 </threshold>
					<split pos="left">
						<feature> 109 </feature>
						<threshold> 11.84506 </threshold>
						<split pos="left">
							<output> 0.6922496 </output>
						</split>
						<split pos="right">
							<output> 0.73661894 </output>
						</split>
					</split>
					<split pos="right">
						<output> 0.7899214 </output>
					</split>
				</split>
				<split pos="right">
					<output> 0.897232 </output>
				</split>
			</split>
		</split>
	</tree>
	<tree id="3" weight="0.1">
		<split>
			<feature> 109 </feature>
			<threshold> 9.306832 </threshold>
			<split pos="left">
				<feature> 109 </feature>
				<threshold> 6.4865794 </threshold>
				<split pos="left">
					<feature> 109 </feature>
					<threshold> 4.7944274 </threshold>
					<split pos="left">
						<feature> 109 </feature>
						<threshold> 3.1022763 </threshold>
						<split pos="left">
							<feature> 109 </feature>
							<threshold> 0.0 </threshold>
							<split pos="left">
								<output> 0.4732107 </output>
							</split>
							<split pos="right">
								<output> 0.42443487 </output>
							</split>
						</split>
						<split pos="right">
							<output> 0.4797628 </output>
						</split>
					</split>
					<split pos="right">
						<output> 0.5013242 </output>
					</split>
				</split>
				<split pos="right">
					<output> 0.5510309 </output>
				</split>
			</split>
			<split pos="right">
				<feature> 109 </feature>
				<threshold> 15.229364 </threshold>
				<split pos="left">
					<feature> 109 </feature>
					<threshold> 12.127086 </threshold>
					<split pos="left">
						<output> 0.62529814 </output>
					</split>
					<split pos="right">
						<output> 0.6786914 </output>
					</split>
				</split>
				<split pos="right">
					<feature> 109 </feature>
					<threshold> 22.844025 </threshold>
					<split pos="left">
						<feature> 109 </feature>
						<threshold> 18.04961 </threshold>
						<split pos="left">
							<output> 0.72870904 </output>
						</split>
						<split pos="right">
							<output> 0.79018253 </output>
						</split>
					</split>
					<split pos="right">
						<output> 0.89679646 </output>
					</split>
				</split>
			</split>
		</split>
	</tree>
	<tree id="4" weight="0.1">
		<split>
			<feature> 109 </feature>
			<threshold> 8.460756 </threshold>
			<split pos="left">
				<feature> 109 </feature>
				<threshold> 4.7944274 </threshold>
				<split pos="left">
					<feature> 109 </feature>
					<threshold> 3.1022763 </threshold>
					<split pos="left">
						<feature> 109 </feature>
						<threshold> 0.0 </threshold>
						<split pos="left">
							<output> 0.42623177 </output>
						</split>
						<split pos="right">
							<output> 0.3819894 </output>
						</split>
					</split>
					<split pos="right">
						<output> 0.43184146 </output>
					</split>
				</split>
				<split pos="right">
					<output> 0.47010195 </output>
				</split>
			</split>
			<split pos="right">
				<feature> 109 </feature>
				<threshold> 14.947339 </threshold>
				<split pos="left">
					<feature> 109 </feature>
					<threshold> 10.434934 </threshold>
					<split pos="left">
						<output> 0.53862256 </output>
					</split>
					<split pos="right">
						<feature> 109 </feature>
						<threshold> 12.691136 </threshold>
						<split pos="left">
							<output> 0.57998866 </output>
						</split>
						<split pos="right">
							<output> 0.61228585 </output>
						</split>
					</split>
				</split>
				<split pos="right">
					<feature> 109 </feature>
					<threshold> 22.279976 </threshold>
					<split pos="left">
						<feature> 109 </feature>
						<threshold> 18.04961 </threshold>
						<split pos="left">
							<output> 0.6544868 </output>
						</split>
						<split pos="right">
							<output> 0.7090238 </output>
						</split>
					</split>
					<split pos="right">
						<output> 0.79883873 </output>
					</split>
				</split>
			</split>
		</split>
	</tree>
	<tree id="5" weight="0.1">
		<split>
			<feature> 109 </feature>
			<threshold> 8.460756 </threshold>
			<split pos="left">
				<feature> 109 </feature>
				<threshold> 6.4865794 </threshold>
				<split pos="left">
					<feature> 109 </feature>
					<threshold> 4.7944274 </threshold>
					<split pos="left">
						<feature> 109 </feature>
						<threshold> 3.1022763 </threshold>
						<split pos="left">
							<feature> 109 </feature>
							<threshold> 0.0 </threshold>
							<split pos="left">
								<output> 0.38101485 </output>
							</split>
							<split pos="right">
								<output> 0.34378386 </output>
							</split>
						</split>
						<split pos="right">
							<output> 0.38863426 </output>
						</split>
					</split>
					<split pos="right">
						<output> 0.40399975 </output>
					</split>
				</split>
				<split pos="right">
					<output> 0.4327869 </output>
				</split>
			</split>
			<split pos="right">
				<feature> 109 </feature>
				<threshold> 14.947339 </threshold>
				<split pos="left">
					<feature> 109 </feature>
					<threshold> 10.152908 </threshold>
					<split pos="left">
						<output> 0.48065594 </output>
					</split>
					<split pos="right">
						<feature> 109 </feature>
						<threshold> 12.691136 </threshold>
						<split pos="left">
							<output> 0.520475 </output>
						</split>
						<split pos="right">
							<output> 0.5511365 </output>
						</split>
					</split>
				</split>
				<split pos="right">
					<feature> 109 </feature>
					<threshold> 22.844025 </threshold>
					<split pos="left">
						<output> 0.6107712 </output>
					</split>
					<split pos="right">
						<output> 0.72735864 </output>
					</split>
				</split>
			</split>
		</split>
	</tree>
	<tree id="6" weight="0.1">
		<split>
			<feature> 109 </feature>
			<threshold> 9.870883 </threshold>
			<split pos="left">
				<feature> 109 </feature>
				<threshold> 7.3326554 </threshold>
				<split pos="left">
					<feature> 109 </feature>
					<threshold> 4.7944274 </threshold>
					<split pos="left">
						<feature> 109 </feature>
						<threshold> 3.1022763 </threshold>
						<split pos="left">
							<feature> 109 </feature>
							<threshold> 0.0 </threshold>
							<split pos="left">
								<output> 0.3432135 </output>
							</split>
							<split pos="right">
								<output> 0.30941167 </output>
							</split>
						</split>
						<split pos="right">
							<output> 0.34972066 </output>
						</split>
					</split>
					<split pos="right">
						<output> 0.36824965 </output>
					</split>
				</split>
				<split pos="right">
					<feature> 109 </feature>
					<threshold> 8.460756 </threshold>
					<split pos="left">
						<output> 0.39964187 </output>
					</split>
					<split pos="right">
						<output> 0.42968237 </output>
					</split>
				</split>
			</split>
			<split pos="right">
				<feature> 109 </feature>
				<threshold> 18.04961 </threshold>
				<split pos="left">
					<feature> 109 </feature>
					<threshold> 13.819238 </threshold>
					<split pos="left">
						<feature> 109 </feature>
						<threshold> 11.84506 </threshold>
						<split pos="left">
							<output> 0.4616492 </output>
						</split>
						<split pos="right">
							<output> 0.4827635 </output>
						</split>
					</split>
					<split pos="right">
						<output> 0.52113384 </output>
					</split>
				</split>
				<split pos="right">
					<output> 0.6011174 </output>
				</split>
			</split>
		</split>
	</tree>
	<tree id="7" weight="0.1">
		<split>
			<feature> 109 </feature>
			<threshold> 9.870883 </threshold>
			<split pos="left">
				<feature> 109 </feature>
				<threshold> 7.3326554 </threshold>
				<split pos="left">
					<feature> 109 </feature>
					<threshold> 4.7944274 </threshold>
					<split pos="left">
						<feature> 109 </feature>
						<threshold> 3.3843014 </threshold>
						<split pos="left">
							<feature> 109 </feature>
							<threshold> 3.1022763 </threshold>
							<split pos="left">
								<feature> 109 </feature>
								<threshold> 0.0 </threshold>
								<split pos="left">
									<output> 0.30956668 </output>
								</split>
								<split pos="right">
									<output> 0.27847198 </output>
								</split>
							</split>
							<split pos="right">
								<output> 0.4430577 </output>
							</split>
						</split>
						<split pos="right">
							<output> 0.30325767 </output>
						</split>
					</split>
					<split pos="right">
						<output> 0.33133158 </output>
					</split>
				</split>
				<split pos="right">
					<output> 0.37470013 </output>
				</split>
			</split>
			<split pos="right">
				<feature> 109 </feature>
				<threshold> 18.04961 </threshold>
				<split pos="left">
					<feature> 109 </feature>
					<threshold> 13.819238 </threshold>
					<split pos="left">
						<feature> 109 </feature>
						<threshold> 11.84506 </threshold>
						<split pos="left">
							<output> 0.41522017 </output>
						</split>
						<split pos="right">
							<output> 0.43438202 </output>
						</split>
					</split>
					<split pos="right">
						<output> 0.46920136 </output>
					</split>
				</split>
				<split pos="right">
					<output> 0.54112375 </output>
				</split>
			</split>
		</split>
	</tree>
	<tree id="8" weight="0.1">
		<split>
			<feature> 109 </feature>
			<threshold> 8.460756 </threshold>
			<split pos="left">
				<feature> 109 </feature>
				<threshold> 6.4865794 </threshold>
				<split pos="left">
					<feature> 109 </feature>
					<threshold> 4.7944274 </threshold>
					<split pos="left">
						<feature> 109 </feature>
						<threshold> 3.3843014 </threshold>
						<split pos="left">
							<feature> 109 </feature>
							<threshold> 3.1022763 </threshold>
							<split pos="left">
								<feature> 109 </feature>
								<threshold> 0.0 </threshold>
								<split pos="left">
									<output> 0.2782698 </output>
								</split>
								<split pos="right">
									<output> 0.2506215 </output>
								</split>
							</split>
							<split pos="right">
								<output> 0.39874995 </output>
							</split>
						</split>
						<split pos="right">
							<output> 0.27295825 </output>
						</split>
					</split>
					<split pos="right">
						<output> 0.29365695 </output>
					</split>
				</split>
				<split pos="right">
					<output> 0.3150319 </output>
				</split>
			</split>
			<split pos="right">
				<feature> 109 </feature>
				<threshold> 14.947339 </threshold>
				<split pos="left">
					<feature> 109 </feature>
					<threshold> 10.152908 </threshold>
					<split pos="left">
						<output> 0.35098895 </output>
					</split>
					<split pos="right">
						<feature> 109 </feature>
						<threshold> 12.127086 </threshold>
						<split pos="left">
							<output> 0.37726912 </output>
						</split>
						<split pos="right">
							<output> 0.39829716 </output>
						</split>
					</split>
				</split>
				<split pos="right">
					<output> 0.4590784 </output>
				</split>
			</split>
		</split>
	</tree>
	<tree id="9" weight="0.1">
		<split>
			<feature> 109 </feature>
			<threshold> 8.460756 </threshold>
			<split pos="left">
				<feature> 109 </feature>
				<threshold> 6.4865794 </threshold>
				<split pos="left">
					<feature> 109 </feature>
					<threshold> 4.7944274 </threshold>
					<split pos="left">
						<feature> 109 </feature>
						<threshold> 3.3843014 </threshold>
						<split pos="left">
							<feature> 109 </feature>
							<threshold> 3.1022763 </threshold>
							<split pos="left">
								<feature> 109 </feature>
								<threshold> 0.0 </threshold>
								<split pos="left">
									<output> 0.2522567 </output>
								</split>
								<split pos="right">
									<output> 0.22555739 </output>
								</split>
							</split>
							<split pos="right">
								<output> 0.35887733 </output>
							</split>
						</split>
						<split pos="right">
							<output> 0.24564564 </output>
						</split>
					</split>
					<split pos="right">
						<output> 0.26433253 </output>
					</split>
				</split>
				<split pos="right">
					<output> 0.28366235 </output>
				</split>
			</split>
			<split pos="right">
				<feature> 109 </feature>
				<threshold> 17.203537 </threshold>
				<split pos="left">
					<feature> 109 </feature>
					<threshold> 12.127086 </threshold>
					<split pos="left">
						<feature> 109 </feature>
						<threshold> 10.152908 </threshold>
						<split pos="left">
							<output> 0.31586224 </output>
						</split>
						<split pos="right">
							<output> 0.33932802 </output>
						</split>
					</split>
					<split pos="right">
						<output> 0.3662022 </output>
					</split>
				</split>
				<split pos="right">
					<output> 0.43305743 </output>
				</split>
			</split>
		</split>
	</tree>
	<tree id="10" weight="0.1">
		<split>
			<feature> 109 </feature>
			<threshold> 8.460756 </threshold>
			<split pos="left">
				<feature> 109 </feature>
				<threshold> 6.4865794 </threshold>
				<split pos="left">
					<feature> 109 </feature>
					<threshold> 4.7944274 </threshold>
					<split pos="left">
						<feature> 109 </feature>
						<threshold> 3.3843014 </threshold>
						<split pos="left">
							<feature> 109 </feature>
							<threshold> 3.1022763 </threshold>
							<split pos="left">
								<feature> 109 </feature>
								<threshold> 0.0 </threshold>
								<split pos="left">
									<output> 0.22554812 </output>
								</split>
								<split pos="right">
									<output> 0.20300409 </output>
								</split>
							</split>
							<split pos="right">
								<output> 0.32298875 </output>
							</split>
						</split>
						<split pos="right">
							<output> 0.22108631 </output>
						</split>
					</split>
					<split pos="right">
						<output> 0.23795334 </output>
					</split>
				</split>
				<split pos="right">
					<output> 0.2552621 </output>
				</split>
			</split>
			<split pos="right">
				<feature> 109 </feature>
				<threshold> 18.04961 </threshold>
				<split pos="left">
					<feature> 109 </feature>
					<threshold> 13.819238 </threshold>
					<split pos="left">
						<feature> 109 </feature>
						<threshold> 10.152908 </threshold>
						<split pos="left">
							<output> 0.28436193 </output>
						</split>
						<split pos="right">
							<output> 0.30978042 </output>
						</split>
					</split>
					<split pos="right">
						<output> 0.34071225 </output>
					</split>
				</split>
				<split pos="right">
					<output> 0.39783993 </output>
				</split>
			</split>
		</split>
	</tree>
	<tree id="11" weight="0.1">
		<split>
			<feature> 109 </feature>
			<threshold> 8.460756 </threshold>
			<split pos="left">
				<feature> 109 </feature>
				<threshold> 6.4865794 </threshold>
				<split pos="left">
					<feature> 109 </feature>
					<threshold> 4.7944274 </threshold>
					<split pos="left">
						<feature> 109 </feature>
						<threshold> 3.3843014 </threshold>
						<split pos="left">
							<feature> 109 </feature>
							<threshold> 3.1022763 </threshold>
							<split pos="left">
								<feature> 109 </feature>
								<threshold> 0.0 </threshold>
								<split pos="left">
									<output> 0.20288676 </output>
								</split>
								<split pos="right">
									<output> 0.18270597 </output>
								</split>
							</split>
							<split pos="right">
								<output> 0.2906885 </output>
							</split>
						</split>
						<split pos="right">
							<output> 0.1989859 </output>
						</split>
					</split>
					<split pos="right">
						<output> 0.2140791 </output>
					</split>
				</split>
				<split pos="right">
					<output> 0.22975732 </output>
				</split>
			</split>
			<split pos="right">
				<feature> 109 </feature>
				<threshold> 19.741756 </threshold>
				<split pos="left">
					<feature> 109 </feature>
					<threshold> 13.819238 </threshold>
					<split pos="left">
						<feature> 109 </feature>
						<threshold> 10.152908 </threshold>
						<split pos="left">
							<output> 0.2558624 </output>
						</split>
						<split pos="right">
							<output> 0.27884147 </output>
						</split>
					</split>
					<split pos="right">
						<output> 0.30966523 </output>
					</split>
				</split>
				<split pos="right">
					<output> 0.37585545 </output>
				</split>
			</split>
		</split>
	</tree>
	<tree id="12" weight="0.1">
		<split>
			<feature> 109 </feature>
			<threshold> 8.460756 </threshold>
			<split pos="left">
				<feature> 109 </feature>
				<threshold> 7.3326554 </threshold>
				<split pos="left">
					<feature> 109 </feature>
					<threshold> 4.7944274 </threshold>
					<split pos="left">
						<feature> 109 </feature>
						<threshold> 1.1281006 </threshold>
						<split pos="left">
							<feature> 109 </feature>
							<threshold> 0.0 </threshold>
							<split pos="left">
								<output> 0.18369454 </output>
							</split>
							<split pos="right">
								<output> 0.07410125 </output>
							</split>
						</split>
						<split pos="right">
							<output> 0.18651354 </output>
						</split>
					</split>
					<split pos="right">
						<output> 0.19397923 </output>
					</split>
				</split>
				<split pos="right">
					<output> 0.21386261 </output>
				</split>
			</split>
			<split pos="right">
				<feature> 109 </feature>
				<threshold> 19.741756 </threshold>
				<split pos="left">
					<feature> 109 </feature>
					<threshold> 13.819238 </threshold>
					<split pos="left">
						<feature> 109 </feature>
						<threshold> 10.434934 </threshold>
						<split pos="left">
							<output> 0.2317534 </output>
						</split>
						<split pos="right">
							<output> 0.25201073 </output>
						</split>
					</split>
					<split pos="right">
						<feature> 109 </feature>
						<threshold> 15.51139 </threshold>
						<split pos="left">
							<output> 0.26860452 </output>
						</split>
						<split pos="right">
							<output> 0.28504473 </output>
						</split>
					</split>
				</split>
				<split pos="right">
					<output> 0.33829734 </output>
				</split>
			</split>
		</split>
	</tree>
	<tree id="13" weight="0.1">
		<split>
			<feature> 109 </feature>
			<threshold> 9.870883 </threshold>
			<split pos="left">
				<feature> 109 </feature>
				<threshold> 7.896706 </threshold>
				<split pos="left">
					<feature> 109 </feature>
					<threshold> 4.7944274 </threshold>
					<split pos="left">
						<feature> 109 </feature>
						<threshold> 3.3843014 </threshold>
						<split pos="left">
							<feature> 109 </feature>
							<threshold> 3.1022763 </threshold>
							<split pos="left">
								<feature> 109 </feature>
								<threshold> 2.8202512 </threshold>
								<split pos="left">
									<feature> 109 </feature>
									<threshold> 1.4101257 </threshold>
									<split pos="left">
										<feature> 109 </feature>
										<threshold> 0.0 </threshold>
										<split pos="left">
											<output> 0.16461033 </output>
										</split>
										<split pos="right">
											<output> 0.073374696 </output>
										</split>
									</split>
									<split pos="right">
										<output> 0.20616397 </output>
									</split>
								</split>
								<split pos="right">
									<output> 0.13088408 </output>
								</split>
							</split>
							<split pos="right">
								<output> 0.24296907 </output>
							</split>
						</split>
						<split pos="right">
							<output> 0.16044562 </output>
						</split>
					</split>
					<split pos="right">
						<output> 0.17673142 </output>
					</split>
				</split>
				<split pos="right">
					<output> 0.2042581 </output>
				</split>
			</split>
			<split pos="right">
				<feature> 109 </feature>
				<threshold> 22.844025 </threshold>
				<split pos="left">
					<output> 0.24016237 </output>
				</split>
				<split pos="right">
					<output> 0.3398391 </output>
				</split>
			</split>
		</split>
	</tree>
	<tree id="14" weight="0.1">
		<split>
			<feature> 109 </feature>
			<threshold> 9.870883 </threshold>
			<split pos="left">
				<feature> 109 </feature>
				<threshold> 7.896706 </threshold>
				<split pos="left">
					<feature> 109 </feature>
					<threshold> 4.7944274 </threshold>
					<split pos="left">
						<feature> 109 </feature>
						<threshold> 3.3843014 </threshold>
						<split pos="left">
							<feature> 109 </feature>
							<threshold> 3.1022763 </threshold>
							<split pos="left">
								<feature> 109 </feature>
								<threshold> 2.8202512 </threshold>
								<split pos="left">
									<feature> 109 </feature>
									<threshold> 1.4101257 </threshold>
									<split pos="left">
										<feature> 109 </feature>
										<threshold> 0.0 </threshold>
										<split pos="left">
											<output> 0.148346 </output>
										</split>
										<split pos="right">
											<output> 0.06603718 </output>
										</split>
									</split>
									<split pos="right">
										<output> 0.18554483 </output>
									</split>
								</split>
								<split pos="right">
									<output> 0.117795885 </output>
								</split>
							</split>
							<split pos="right">
								<output> 0.21867245 </output>
							</split>
						</split>
						<split pos="right">
							<output> 0.14440808 </output>
						</split>
					</split>
					<split pos="right">
						<output> 0.15898606 </output>
					</split>
				</split>
				<split pos="right">
					<output> 0.18390614 </output>
				</split>
			</split>
			<split pos="right">
				<feature> 109 </feature>
				<threshold> 19.741756 </threshold>
				<split pos="left">
					<output> 0.21262461 </output>
				</split>
				<split pos="right">
					<output> 0.27601007 </output>
				</split>
			</split>
		</split>
	</tree>
	<tree id="15" weight="0.1">
		<split>
			<feature> 109 </feature>
			<threshold> 8.460756 </threshold>
			<split pos="left">
				<feature> 109 </feature>
				<threshold> 7.3326554 </threshold>
				<split pos="left">
					<feature> 109 </feature>
					<threshold> 4.2303767 </threshold>
					<split pos="left">
						<feature> 109 </feature>
						<threshold> 3.3843014 </threshold>
						<split pos="left">
							<feature> 109 </feature>
							<threshold> 3.1022763 </threshold>
							<split pos="left">
								<feature> 109 </feature>
								<threshold> 2.8202512 </threshold>
								<split pos="left">
									<feature> 109 </feature>
									<threshold> 2.5382261 </threshold>
									<split pos="left">
										<feature> 109 </feature>
										<threshold> 0.0 </threshold>
										<split pos="left">
											<output> 0.13355805 </output>
										</split>
										<split pos="right">
											<output> 0.10995602 </output>
										</split>
									</split>
									<split pos="right">
										<output> 0.19224818 </output>
									</split>
								</split>
								<split pos="right">
									<output> 0.10601631 </output>
								</split>
							</split>
							<split pos="right">
								<output> 0.1968048 </output>
							</split>
						</split>
						<split pos="right">
							<output> 0.12098506 </output>
						</split>
					</split>
					<split pos="right">
						<output> 0.14077424 </output>
					</split>
				</split>
				<split pos="right">
					<output> 0.15623352 </output>
				</split>
			</split>
			<split pos="right">
				<feature> 109 </feature>
				<threshold> 15.51139 </threshold>
				<split pos="left">
					<output> 0.1794542 </output>
				</split>
				<split pos="right">
					<output> 0.22553176 </output>
				</split>
			</split>
		</split>
	</tree>
	<tree id="16" weight="0.1">
		<split>
			<feature> 109 </feature>
			<threshold> 9.870883 </threshold>
			<split pos="left">
				<feature> 109 </feature>
				<threshold> 7.3326554 </threshold>
				<split pos="left">
					<feature> 109 </feature>
					<threshold> 4.7944274 </threshold>
					<split pos="left">
						<feature> 109 </feature>
						<threshold> 3.3843014 </threshold>
						<split pos="left">
							<feature> 109 </feature>
							<threshold> 3.1022763 </threshold>
							<split pos="left">
								<feature> 109 </feature>
								<threshold> 2.8202512 </threshold>
								<split pos="left">
									<feature> 109 </feature>
									<threshold> 1.1281006 </threshold>
									<split pos="left">
										<feature> 109 </feature>
										<threshold> 0.0 </threshold>
										<split pos="left">
											<output> 0.11928463 </output>
										</split>
										<split pos="right">
											<output> 0.04175452 </output>
										</split>
									</split>
									<split pos="right">
										<output> 0.15285096 </output>
									</split>
								</split>
								<split pos="right">
									<output> 0.09541438 </output>
								</split>
							</split>
							<split pos="right">
								<output> 0.17712386 </output>
							</split>
						</split>
						<split pos="right">
							<output> 0.11676034 </output>
						</split>
					</split>
					<split pos="right">
						<output> 0.12700002 </output>
					</split>
				</split>
				<split pos="right">
					<output> 0.14503656 </output>
				</split>
			</split>
			<split pos="right">
				<feature> 109 </feature>
				<threshold> 23.126049 </threshold>
				<split pos="left">
					<output> 0.1749851 </output>
				</split>
				<split pos="right">
					<output> 0.2594639 </output>
				</split>
			</split>
		</split>
	</tree>
	<tree id="17" weight="0.1">
		<split>
			<feature> 109 </feature>
			<threshold> 10.716959 </threshold>
			<split pos="left">
				<feature> 109 </feature>
				<threshold> 7.896706 </threshold>
				<split pos="left">
					<feature> 109 </feature>
					<threshold> 4.7944274 </threshold>
					<split pos="left">
						<feature> 109 </feature>
						<threshold> 3.6663265 </threshold>
						<split pos="left">
							<feature> 109 </feature>
							<threshold> 3.3843014 </threshold>
							<split pos="left">
								<feature> 109 </feature>
								<threshold> 3.1022763 </threshold>
								<split pos="left">
									<feature> 109 </feature>
									<threshold> 2.8202512 </threshold>
									<split pos="left">
										<feature> 109 </feature>
										<threshold> 0.8460755 </threshold>
										<split pos="left">
											<feature> 109 </feature>
											<threshold> 0.0 </threshold>
											<split pos="left">
												<output> 0.10773649 </output>
											</split>
											<split pos="right">
												<output> -0.09207788 </output>
											</split>
										</split>
										<split pos="right">
											<output> 0.13471743 </output>
										</split>
									</split>
									<split pos="right">
										<output> 0.085873134 </output>
									</split>
								</split>
								<split pos="right">
									<output> 0.1594119 </output>
								</split>
							</split>
							<split pos="right">
								<output> 0.052810196 </output>
							</split>
						</split>
						<split pos="right">
							<output> 0.11157491 </output>
						</split>
					</split>
					<split pos="right">
						<output> 0.1155637 </output>
					</split>
				</split>
				<split pos="right">
					<output> 0.13457488 </output>
				</split>
			</split>
			<split pos="right">
				<output> 0.16549315 </output>
			</split>
		</split>
	</tree>
	<tree id="18" weight="0.1">
		<split>
			<feature> 109 </feature>
			<threshold> 11.84506 </threshold>
			<split pos="left">
				<feature> 109 </feature>
				<threshold> 7.896706 </threshold>
				<split pos="left">
					<feature> 109 </feature>
					<threshold> 4.7944274 </threshold>
					<split pos="left">
						<feature> 109 </feature>
						<threshold> 3.6663265 </threshold>
						<split pos="left">
							<feature> 109 </feature>
							<threshold> 3.3843014 </threshold>
							<split pos="left">
								<feature> 109 </feature>
								<threshold> 3.1022763 </threshold>
								<split pos="left">
									<feature> 109 </feature>
									<threshold> 2.8202512 </threshold>
									<split pos="left">
										<feature> 109 </feature>
										<threshold> 0.8460755 </threshold>
										<split pos="left">
											<feature> 109 </feature>
											<threshold> 0.0 </threshold>
											<split pos="left">
												<output> 0.09721514 </output>
											</split>
											<split pos="right">
												<output> -0.08286998 </output>
											</split>
										</split>
										<split pos="right">
											<output> 0.1212455 </output>
										</split>
									</split>
									<split pos="right">
										<output> 0.07728599 </output>
									</split>
								</split>
								<split pos="right">
									<output> 0.14347054 </output>
								</split>
							</split>
							<split pos="right">
								<output> 0.04752999 </output>
							</split>
						</split>
						<split pos="right">
							<output> 0.10041992 </output>
						</split>
					</split>
					<split pos="right">
						<output> 0.103970654 </output>
					</split>
				</split>
				<split pos="right">
					<output> 0.12217278 </output>
				</split>
			</split>
			<split pos="right">
				<output> 0.15340006 </output>
			</split>
		</split>
	</tree>
	<tree id="19" weight="0.1">
		<split>
			<feature> 109 </feature>
			<threshold> 12.127086 </threshold>
			<split pos="left">
				<feature> 109 </feature>
				<threshold> 7.896706 </threshold>
				<split pos="left">
					<feature> 109 </feature>
					<threshold> 4.7944274 </threshold>
					<split pos="left">
						<feature> 109 </feature>
						<threshold> 3.6663265 </threshold>
						<split pos="left">
							<feature> 109 </feature>
							<threshold> 3.3843014 </threshold>
							<split pos="left">
								<feature> 109 </feature>
								<threshold> 3.1022763 </threshold>
								<split pos="left">
									<feature> 109 </feature>
									<threshold> 2.8202512 </threshold>
									<split pos="left">
										<feature> 109 </feature>
										<threshold> 2.5382261 </threshold>
										<split pos="left">
											<feature> 109 </feature>
											<threshold> 0.0 </threshold>
											<split pos="left">
												<output> 0.08720431 </output>
											</split>
											<split pos="right">
												<output> 0.0705527 </output>
											</split>
										</split>
										<split pos="right">
											<output> 0.13214149 </output>
										</split>
									</split>
									<split pos="right">
										<output> 0.069557354 </output>
									</split>
								</split>
								<split pos="right">
									<output> 0.12912366 </output>
								</split>
							</split>
							<split pos="right">
								<output> 0.04277687 </output>
							</split>
						</split>
						<split pos="right">
							<output> 0.09037639 </output>
						</split>
					</split>
					<split pos="right">
						<output> 0.09358664 </output>
					</split>
				</split>
				<split pos="right">
					<output> 0.11022054 </output>
				</split>
			</split>
			<split pos="right">
				<output> 0.1391861 </output>
			</split>
		</split>
	</tree>
	<tree id="20" weight="0.1">
		<split>
			<feature> 109 </feature>
			<threshold> 12.691136 </threshold>
			<split pos="left">
				<feature> 109 </feature>
				<threshold> 7.896706 </threshold>
				<split pos="left">
					<feature> 109 </feature>
					<threshold> 6.4865794 </threshold>
					<split pos="left">
						<feature> 109 </feature>
						<threshold> 3.6663265 </threshold>
						<split pos="left">
							<feature> 109 </feature>
							<threshold> 3.3843014 </threshold>
							<split pos="left">
								<feature> 109 </feature>
								<threshold> 3.1022763 </threshold>
								<split pos="left">
									<feature> 109 </feature>
									<threshold> 2.8202512 </threshold>
									<split pos="left">
										<feature> 109 </feature>
										<threshold> 0.8460755 </threshold>
										<split pos="left">
											<feature> 109 </feature>
											<threshold> 0.0 </threshold>
											<split pos="left">
												<output> 0.07890789 </output>
											</split>
											<split pos="right">
												<output> -0.08163834 </output>
											</split>
										</split>
										<split pos="right">
											<output> 0.1005678 </output>
										</split>
									</split>
									<split pos="right">
										<output> 0.06260156 </output>
									</split>
								</split>
								<split pos="right">
									<output> 0.11621123 </output>
								</split>
							</split>
							<split pos="right">
								<output> 0.038497582 </output>
							</split>
						</split>
						<split pos="right">
							<output> 0.081614085 </output>
						</split>
					</split>
					<split pos="right">
						<output> 0.08616762 </output>
					</split>
				</split>
				<split pos="right">
					<output> 0.09949302 </output>
				</split>
			</split>
			<split pos="right">
				<output> 0.12744375 </output>
			</split>
		</split>
	</tree>
	<tree id="21" weight="0.1">
		<split>
			<feature> 109 </feature>
			<threshold> 13.819238 </threshold>
			<split pos="left">
				<feature> 109 </feature>
				<threshold> 7.896706 </threshold>
				<split pos="left">
					<feature> 109 </feature>
					<threshold> 6.4865794 </threshold>
					<split pos="left">
						<feature> 109 </feature>
						<threshold> 3.6663265 </threshold>
						<split pos="left">
							<feature> 109 </feature>
							<threshold> 3.3843014 </threshold>
							<split pos="left">
								<feature> 109 </feature>
								<threshold> 3.1022763 </threshold>
								<split pos="left">
									<feature> 109 </feature>
									<threshold> 2.8202512 </threshold>
									<split pos="left">
										<feature> 109 </feature>
										<threshold> 0.8460755 </threshold>
										<split pos="left">
											<feature> 109 </feature>
											<threshold> 0.0 </threshold>
											<split pos="left">
												<output> 0.0710729 </output>
											</split>
											<split pos="right">
												<output> -0.07347446 </output>
											</split>
										</split>
										<split pos="right">
											<output> 0.0905116 </output>
										</split>
									</split>
									<split pos="right">
										<output> 0.05634132 </output>
									</split>
								</split>
								<split pos="right">
									<output> 0.10459018 </output>
								</split>
							</split>
							<split pos="right">
								<output> 0.03464845 </output>
							</split>
						</split>
						<split pos="right">
							<output> 0.073443614 </output>
						</split>
					</split>
					<split pos="right">
						<output> 0.07754619 </output>
					</split>
				</split>
				<split pos="right">
					<output> 0.0902963 </output>
				</split>
			</split>
			<split pos="right">
				<output> 0.11919405 </output>
			</split>
		</split>
	</tree>
	<tree id="22" weight="0.1">
		<split>
			<feature> 109 </feature>
			<threshold> 13.819238 </threshold>
			<split pos="left">
				<feature> 109 </feature>
				<threshold> 7.896706 </threshold>
				<split pos="left">
					<feature> 109 </feature>
					<threshold> 6.4865794 </threshold>
					<split pos="left">
						<feature> 109 </feature>
						<threshold> 3.6663265 </threshold>
						<split pos="left">
							<feature> 109 </feature>
							<threshold> 3.3843014 </threshold>
							<split pos="left">
								<feature> 109 </feature>
								<threshold> 3.1022763 </threshold>
								<split pos="left">
									<feature> 109 </feature>
									<threshold> 2.8202512 </threshold>
									<split pos="left">
										<feature> 109 </feature>
										<threshold> 2.5382261 </threshold>
										<split pos="left">
											<feature> 109 </feature>
											<threshold> 1.9741759 </threshold>
											<split pos="left">
												<output> 0.0634888 </output>
											</split>
											<split pos="right">
												<output> 0.03684027 </output>
											</split>
										</split>
										<split pos="right">
											<output> 0.09981988 </output>
										</split>
									</split>
									<split pos="right">
										<output> 0.050707243 </output>
									</split>
								</split>
								<split pos="right">
									<output> 0.09413103 </output>
								</split>
							</split>
							<split pos="right">
								<output> 0.031183736 </output>
							</split>
						</split>
						<split pos="right">
							<output> 0.06610332 </output>
						</split>
					</split>
					<split pos="right">
						<output> 0.06980958 </output>
					</split>
				</split>
				<split pos="right">
					<output> 0.08127154 </output>
				</split>
			</split>
			<split pos="right">
				<output> 0.10729352 </output>
			</split>
		</split>
	</tree>
	<tree id="23" weight="0.1">
		<split>
			<feature> 109 </feature>
			<threshold> 14.947339 </threshold>
			<split pos="left">
				<feature> 109 </feature>
				<threshold> 7.896706 </threshold>
				<split pos="left">
					<feature> 109 </feature>
					<threshold> 6.4865794 </threshold>
					<split pos="left">
						<feature> 109 </feature>
						<threshold> 3.6663265 </threshold>
						<split pos="left">
							<feature> 109 </feature>
							<threshold> 3.3843014 </threshold>
							<split pos="left">
								<feature> 109 </feature>
								<threshold> 3.1022763 </threshold>
								<split pos="left">
									<feature> 109 </feature>
									<threshold> 2.8202512 </threshold>
									<split pos="left">
										<feature> 109 </feature>
										<threshold> 0.8460755 </threshold>
										<split pos="left">
											<feature> 109 </feature>
											<threshold> 0.0 </threshold>
											<split pos="left">
												<output> 0.057450306 </output>
											</split>
											<split pos="right">
												<output> -0.072476014 </output>
											</split>
										</split>
										<split pos="right">
											<output> 0.0753022 </output>
										</split>
									</split>
									<split pos="right">
										<output> 0.045636524 </output>
									</split>
								</split>
								<split pos="right">
									<output> 0.08471785 </output>
								</split>
							</split>
							<split pos="right">
								<output> 0.0280644 </output>
							</split>
						</split>
						<split pos="right">
							<output> 0.05949725 </output>
						</split>
					</split>
					<split pos="right">
						<output> 0.06279845 </output>
					</split>
				</split>
				<split pos="right">
					<output> 0.073711306 </output>
				</split>
			</split>
			<split pos="right">
				<output> 0.100871876 </output>
			</split>
		</split>
	</tree>
	<tree id="24" weight="0.1">
		<split>
			<feature> 109 </feature>
			<threshold> 16.921513 </threshold>
			<split pos="left">
				<feature> 109 </feature>
				<threshold> 7.896706 </threshold>
				<split pos="left">
					<feature> 109 </feature>
					<threshold> 6.4865794 </threshold>
					<split pos="left">
						<feature> 109 </feature>
						<threshold> 3.6663265 </threshold>
						<split pos="left">
							<feature> 109 </feature>
							<threshold> 3.3843014 </threshold>
							<split pos="left">
								<feature> 109 </feature>
								<threshold> 3.1022763 </threshold>
								<split pos="left">
									<feature> 109 </feature>
									<threshold> 1.9741759 </threshold>
									<split pos="left">
										<feature> 109 </feature>
										<threshold> 1.4101257 </threshold>
										<split pos="left">
											<feature> 109 </feature>
											<threshold> 0.0 </threshold>
											<split pos="left">
												<output> 0.051612567 </output>
											</split>
											<split pos="right">
												<output> 0.012813239 </output>
											</split>
										</split>
										<split pos="right">
											<output> 0.2482787 </output>
										</split>
									</split>
									<split pos="right">
										<output> 0.044191737 </output>
									</split>
								</split>
								<split pos="right">
									<output> 0.07624631 </output>
								</split>
							</split>
							<split pos="right">
								<output> 0.02525909 </output>
							</split>
						</split>
						<split pos="right">
							<output> 0.053545088 </output>
						</split>
					</split>
					<split pos="right">
						<output> 0.05653556 </output>
					</split>
				</split>
				<split pos="right">
					<output> 0.06746786 </output>
				</split>
			</split>
			<split pos="right">
				<output> 0.09928931 </output>
			</split>
		</split>
	</tree>
	<tree id="25" weight="0.1">
		<split>
			<feature> 109 </feature>
			<threshold> 18.04961 </threshold>
			<split pos="left">
				<feature> 109 </feature>
				<threshold> 7.896706 </threshold>
				<split pos="left">
					<feature> 109 </feature>
					<threshold> 6.4865794 </threshold>
					<split pos="left">
						<feature> 109 </feature>
						<threshold> 6.204554 </threshold>
						<split pos="left">
							<feature> 109 </feature>
							<threshold> 4.7944274 </threshold>
							<split pos="left">
								<feature> 109 </feature>
								<threshold> 0.8460755 </threshold>
								<split pos="left">
									<feature> 109 </feature>
									<threshold> 0.0 </threshold>
									<split pos="left">
										<output> 0.046598896 </output>
									</split>
									<split pos="right">
										<output> -0.06650949 </output>
									</split>
								</split>
								<split pos="right">
									<output> 0.047829304 </output>
								</split>
							</split>
							<split pos="right">
								<output> 0.049841397 </output>
							</split>
						</split>
						<split pos="right">
							<output> 0.042670608 </output>
						</split>
					</split>
					<split pos="right">
						<output> 0.050891683 </output>
					</split>
				</split>
				<split pos="right">
					<feature> 109 </feature>
					<threshold> 11.84506 </threshold>
					<split pos="left">
						<output> 0.057695165 </output>
					</split>
					<split pos="right">
						<feature> 109 </feature>
						<threshold> 15.229364 </threshold>
						<split pos="left">
							<output> 0.06320824 </output>
						</split>
						<split pos="right">
							<output> 0.06869747 </output>
						</split>
					</split>
				</split>
			</split>
			<split pos="right">
				<output> 0.09460557 </output>
			</split>
		</split>
	</tree>
	<tree id="26" weight="0.1">
		<split>
			<feature> 109 </feature>
			<threshold> 24.818195 </threshold>
			<split pos="left">
				<feature> 109 </feature>
				<threshold> 10.152908 </threshold>
				<split pos="left">
					<feature> 109 </feature>
					<threshold> 7.3326554 </threshold>
					<split pos="left">
						<feature> 109 </feature>
						<threshold> 7.05063 </threshold>
						<split pos="left">
							<feature> 109 </feature>
							<threshold> 6.4865794 </threshold>
							<split pos="left">
								<feature> 109 </feature>
								<threshold> 5.9225287 </threshold>
								<split pos="left">
									<feature> 109 </feature>
									<threshold> 4.7944274 </threshold>
									<split pos="left">
										<feature> 109 </feature>
										<threshold> 3.3843014 </threshold>
										<split pos="left">
											<feature> 109 </feature>
											<threshold> 3.1022763 </threshold>
											<split pos="left">
												<output> 0.04182104 </output>
											</split>
											<split pos="right">
												<output> 0.06383853 </output>
											</split>
										</split>
										<split pos="right">
											<output> 0.040354177 </output>
										</split>
									</split>
									<split pos="right">
										<output> 0.046565842 </output>
									</split>
								</split>
								<split pos="right">
									<output> 0.039233636 </output>
								</split>
							</split>
							<split pos="right">
								<output> 0.05338978 </output>
							</split>
						</split>
						<split pos="right">
							<output> 0.026913526 </output>
						</split>
					</split>
					<split pos="right">
						<output> 0.04969234 </output>
					</split>
				</split>
				<split pos="right">
					<output> 0.06053697 </output>
				</split>
			</split>
			<split pos="right">
				<output> 0.1440466 </output>
			</split>
		</split>
	</tree>
	<tree id="27" weight="0.1">
		<split>
			<feature> 109 </feature>
			<threshold> 22.279976 </threshold>
			<split pos="left">
				<feature> 109 </feature>
				<threshold> 9.024807 </threshold>
				<split pos="left">
					<feature> 109 </feature>
					<threshold> 7.3326554 </threshold>
					<split pos="left">
						<feature> 109 </feature>
						<threshold> 7.05063 </threshold>
						<split pos="left">
							<feature> 109 </feature>
							<threshold> 6.4865794 </threshold>
							<split pos="left">
								<feature> 109 </feature>
								<threshold> 5.9225287 </threshold>
								<split pos="left">
									<feature> 109 </feature>
									<threshold> 5.358478 </threshold>
									<split pos="left">
										<feature> 109 </feature>
										<threshold> 5.0764527 </threshold>
										<split pos="left">
											<feature> 109 </feature>
											<threshold> 4.7944274 </threshold>
											<split pos="left">
												<output> 0.03782069 </output>
											</split>
											<split pos="right">
												<output> 0.05541563 </output>
											</split>
										</split>
										<split pos="right">
											<output> 0.026081413 </output>
										</split>
									</split>
									<split pos="right">
										<output> 0.04330611 </output>
									</split>
								</split>
								<split pos="right">
									<output> 0.035305735 </output>
								</split>
							</split>
							<split pos="right">
								<output> 0.048050612 </output>
							</split>
						</split>
						<split pos="right">
							<output> 0.024221007 </output>
						</split>
					</split>
					<split pos="right">
						<output> 0.043668255 </output>
					</split>
				</split>
				<split pos="right">
					<output> 0.052264884 </output>
				</split>
			</split>
			<split pos="right">
				<output> 0.10498647 </output>
			</split>
		</split>
	</tree>
	<tree id="28" weight="0.1">
		<split>
			<feature> 109 </feature>
			<threshold> 24.818195 </threshold>
			<split pos="left">
				<feature> 109 </feature>
				<threshold> 10.434934 </threshold>
				<split pos="left">
					<feature> 109 </feature>
					<threshold> 7.3326554 </threshold>
					<split pos="left">
						<feature> 109 </feature>
						<threshold> 7.05063 </threshold>
						<split pos="left">
							<feature> 109 </feature>
							<threshold> 6.4865794 </threshold>
							<split pos="left">
								<feature> 109 </feature>
								<threshold> 5.9225287 </threshold>
								<split pos="left">
									<feature> 109 </feature>
									<threshold> 5.358478 </threshold>
									<split pos="left">
										<feature> 109 </feature>
										<threshold> 5.0764527 </threshold>
										<split pos="left">
											<feature> 109 </feature>
											<threshold> 4.7944274 </threshold>
											<split pos="left">
												<output> 0.033975273 </output>
											</split>
											<split pos="right">
												<output> 0.049873106 </output>
											</split>
										</split>
										<split pos="right">
											<output> 0.023473551 </output>
										</split>
									</split>
									<split pos="right">
										<output> 0.03898098 </output>
									</split>
								</split>
								<split pos="right">
									<output> 0.031777065 </output>
								</split>
							</split>
							<split pos="right">
								<output> 0.043249175 </output>
							</split>
						</split>
						<split pos="right">
							<output> 0.02180005 </output>
						</split>
					</split>
					<split pos="right">
						<output> 0.04015652 </output>
					</split>
				</split>
				<split pos="right">
					<output> 0.0493771 </output>
				</split>
			</split>
			<split pos="right">
				<output> 0.11912214 </output>
			</split>
		</split>
	</tree>
	<tree id="29" weight="0.1">
		<split>
			<feature> 109 </feature>
			<threshold> 20.869854 </threshold>
			<split pos="left">
				<feature> 109 </feature>
				<threshold> 9.024807 </threshold>
				<split pos="left">
					<feature> 109 </feature>
					<threshold> 7.3326554 </threshold>
					<split pos="left">
						<feature> 109 </feature>
						<threshold> 7.05063 </threshold>
						<split pos="left">
							<feature> 109 </feature>
							<threshold> 6.4865794 </threshold>
							<split pos="left">
								<feature> 109 </feature>
								<threshold> 3.6663265 </threshold>
								<split pos="left">
									<feature> 109 </feature>
									<threshold> 3.3843014 </threshold>
									<split pos="left">
										<feature> 109 </feature>
										<threshold> 3.1022763 </threshold>
										<split pos="left">
											<feature> 109 </feature>
											<threshold> 0.8460755 </threshold>
											<split pos="left">
												<output> 0.030429712 </output>
											</split>
											<split pos="right">
												<output> 0.036911845 </output>
											</split>
										</split>
										<split pos="right">
											<output> 0.050274868 </output>
										</split>
									</split>
									<split pos="right">
										<output> 0.006734581 </output>
									</split>
								</split>
								<split pos="right">
									<output> 0.03171105 </output>
								</split>
							</split>
							<split pos="right">
								<output> 0.03892243 </output>
							</split>
						</split>
						<split pos="right">
							<output> 0.019619873 </output>
						</split>
					</split>
					<split pos="right">
						<output> 0.035283346 </output>
					</split>
				</split>
				<split pos="right">
					<output> 0.041678872 </output>
				</split>
			</split>
			<split pos="right">
				<output> 0.07751833 </output>
			</split>
		</split>
	</tree>
	<tree id="30" weight="0.1">
		<split>
			<feature> 109 </feature>
			<threshold> 25.946293 </threshold>
			<split pos="left">
				<feature> 109 </feature>
				<threshold> 12.691136 </threshold>
				<split pos="left">
					<feature> 109 </feature>
					<threshold> 7.3326554 </threshold>
					<split pos="left">
						<feature> 109 </feature>
						<threshold> 7.05063 </threshold>
						<split pos="left">
							<feature> 109 </feature>
							<threshold> 6.4865794 </threshold>
							<split pos="left">
								<feature> 109 </feature>
								<threshold> 5.9225287 </threshold>
								<split pos="left">
									<feature> 109 </feature>
									<threshold> 5.358478 </threshold>
									<split pos="left">
										<feature> 109 </feature>
										<threshold> 5.0764527 </threshold>
										<split pos="left">
											<feature> 109 </feature>
											<threshold> 4.7944274 </threshold>
											<split pos="left">
												<output> 0.027430015 </output>
											</split>
											<split pos="right">
												<output> 0.041715898 </output>
											</split>
										</split>
										<split pos="right">
											<output> 0.017954832 </output>
										</split>
									</split>
									<split pos="right">
										<output> 0.031907175 </output>
									</split>
								</split>
								<split pos="right">
									<output> 0.025428927 </output>
								</split>
							</split>
							<split pos="right">
								<output> 0.035025228 </output>
							</split>
						</split>
						<split pos="right">
							<output> 0.017658472 </output>
						</split>
					</split>
					<split pos="right">
						<output> 0.033244465 </output>
					</split>
				</split>
				<split pos="right">
					<output> 0.042721044 </output>
				</split>
			</split>
			<split pos="right">
				<output> 0.11193009 </output>
			</split>
		</split>
	</tree>
	<tree id="31" weight="0.1">
		<split>
			<feature> 109 </feature>
			<threshold> 17.203537 </threshold>
			<split pos="left">
				<feature> 109 </feature>
				<threshold> 7.896706 </threshold>
				<split pos="left">
					<feature> 109 </feature>
					<threshold> 7.614681 </threshold>
					<split pos="left">
						<feature> 109 </feature>
						<threshold> 7.3326554 </threshold>
						<split pos="left">
							<feature> 109 </feature>
							<threshold> 7.05063 </threshold>
							<split pos="left">
								<feature> 109 </feature>
								<threshold> 6.4865794 </threshold>
								<split pos="left">
									<feature> 109 </feature>
									<threshold> 6.204554 </threshold>
									<split pos="left">
										<feature> 109 </feature>
										<threshold> 3.6663265 </threshold>
										<split pos="left">
											<feature> 109 </feature>
											<threshold> 3.3843014 </threshold>
											<split pos="left">
												<output> 0.024725663 </output>
											</split>
											<split pos="right">
												<output> 0.0033183452 </output>
											</split>
										</split>
										<split pos="right">
											<output> 0.026487546 </output>
										</split>
									</split>
									<split pos="right">
										<output> 0.022060838 </output>
									</split>
								</split>
								<split pos="right">
									<output> 0.031528752 </output>
								</split>
							</split>
							<split pos="right">
								<output> 0.015891617 </output>
							</split>
						</split>
						<split pos="right">
							<output> 0.03880343 </output>
						</split>
					</split>
					<split pos="right">
						<output> 0.0165472 </output>
					</split>
				</split>
				<split pos="right">
					<output> 0.031610977 </output>
				</split>
			</split>
			<split pos="right">
				<output> 0.05107627 </output>
			</split>
		</split>
	</tree>
	<tree id="32" weight="0.1">
		<split>
			<feature> 109 </feature>
			<threshold> 24.818195 </threshold>
			<split pos="left">
				<feature> 109 </feature>
				<threshold> 10.434934 </threshold>
				<split pos="left">
					<feature> 109 </feature>
					<threshold> 7.3326554 </threshold>
					<split pos="left">
						<feature> 109 </feature>
						<threshold> 7.05063 </threshold>
						<split pos="left">
							<feature> 109 </feature>
							<threshold> 6.4865794 </threshold>
							<split pos="left">
								<feature> 109 </feature>
								<threshold> 5.9225287 </threshold>
								<split pos="left">
									<feature> 109 </feature>
									<threshold> 5.358478 </threshold>
									<split pos="left">
										<feature> 109 </feature>
										<threshold> 5.0764527 </threshold>
										<split pos="left">
											<feature> 109 </feature>
											<threshold> 4.7944274 </threshold>
											<split pos="left">
												<output> 0.022275578 </output>
											</split>
											<split pos="right">
												<output> 0.03489525 </output>
											</split>
										</split>
										<split pos="right">
											<output> 0.013510666 </output>
										</split>
									</split>
									<split pos="right">
										<output> 0.026068794 </output>
									</split>
								</split>
								<split pos="right">
									<output> 0.02046468 </output>
								</split>
							</split>
							<split pos="right">
								<output> 0.028369682 </output>
							</split>
						</split>
						<split pos="right">
							<output> 0.014302332 </output>
						</split>
					</split>
					<split pos="right">
						<output> 0.025905523 </output>
					</split>
				</split>
				<split pos="right">
					<output> 0.03230501 </output>
				</split>
			</split>
			<split pos="right">
				<output> 0.0850947 </output>
			</split>
		</split>
	</tree>
	<tree id="33" weight="0.1">
		<split>
			<feature> 109 </feature>
			<threshold> 25.946293 </threshold>
			<split pos="left">
				<feature> 109 </feature>
				<threshold> 14.947339 </threshold>
				<split pos="left">
					<feature> 109 </feature>
					<threshold> 14.665314 </threshold>
					<split pos="left">
						<feature> 109 </feature>
						<threshold> 13.819238 </threshold>
						<split pos="left">
							<feature> 109 </feature>
							<threshold> 7.896706 </threshold>
							<split pos="left">
								<feature> 109 </feature>
								<threshold> 7.614681 </threshold>
								<split pos="left">
									<feature> 109 </feature>
									<threshold> 7.3326554 </threshold>
									<split pos="left">
										<feature> 109 </feature>
										<threshold> 7.05063 </threshold>
										<split pos="left">
											<feature> 109 </feature>
											<threshold> 6.4865794 </threshold>
											<split pos="left">
												<output> 0.020030698 </output>
											</split>
											<split pos="right">
												<output> 0.02553641 </output>
											</split>
										</split>
										<split pos="right">
											<output> 0.01287231 </output>
										</split>
									</split>
									<split pos="right">
										<output> 0.032333527 </output>
									</split>
								</split>
								<split pos="right">
									<output> 0.012302307 </output>
								</split>
							</split>
							<split pos="right">
								<output> 0.024401605 </output>
							</split>
						</split>
						<split pos="right">
							<output> 0.037976388 </output>
						</split>
					</split>
					<split pos="right">
						<output> -0.008454358 </output>
					</split>
				</split>
				<split pos="right">
					<output> 0.0339449 </output>
				</split>
			</split>
			<split pos="right">
				<output> 0.08711757 </output>
			</split>
		</split>
	</tree>
	<tree id="34" weight="0.1">
		<split>
			<feature> 109 </feature>
			<threshold> 23.126049 </threshold>
			<split pos="left">
				<feature> 109 </feature>
				<threshold> 13.819238 </threshold>
				<split pos="left">
					<feature> 109 </feature>
					<threshold> 7.896706 </threshold>
					<split pos="left">
						<feature> 109 </feature>
						<threshold> 7.614681 </threshold>
						<split pos="left">
							<feature> 109 </feature>
							<threshold> 7.3326554 </threshold>
							<split pos="left">
								<feature> 109 </feature>
								<threshold> 7.05063 </threshold>
								<split pos="left">
									<feature> 109 </feature>
									<threshold> 6.4865794 </threshold>
									<split pos="left">
										<feature> 109 </feature>
										<threshold> 5.9225287 </threshold>
										<split pos="left">
											<feature> 109 </feature>
											<threshold> 5.358478 </threshold>
											<split pos="left">
												<output> 0.017981704 </output>
											</split>
											<split pos="right">
												<output> 0.021459188 </output>
											</split>
										</split>
										<split pos="right">
											<output> 0.016416024 </output>
										</split>
									</split>
									<split pos="right">
										<output> 0.022980396 </output>
									</split>
								</split>
								<split pos="right">
									<output> 0.011585467 </output>
								</split>
							</split>
							<split pos="right">
								<output> 0.029098965 </output>
							</split>
						</split>
						<split pos="right">
							<output> 0.01107214 </output>
						</split>
					</split>
					<split pos="right">
						<output> 0.021960659 </output>
					</split>
				</split>
				<split pos="right">
					<output> 0.02823584 </output>
				</split>
			</split>
			<split pos="right">
				<output> 0.05923654 </output>
			</split>
		</split>
	</tree>
	<tree id="35" weight="0.1">
		<split>
			<feature> 109 </feature>
			<threshold> 25.946293 </threshold>
			<split pos="left">
				<feature> 109 </feature>
				<threshold> 15.229364 </threshold>
				<split pos="left">
					<feature> 109 </feature>
					<threshold> 8.460756 </threshold>
					<split pos="left">
						<feature> 109 </feature>
						<threshold> 8.178731 </threshold>
						<split pos="left">
							<feature> 109 </feature>
							<threshold> 7.896706 </threshold>
							<split pos="left">
								<feature> 109 </feature>
								<threshold> 7.614681 </threshold>
								<split pos="left">
									<feature> 109 </feature>
									<threshold> 7.3326554 </threshold>
									<split pos="left">
										<feature> 109 </feature>
										<threshold> 7.05063 </threshold>
										<split pos="left">
											<feature> 109 </feature>
											<threshold> 6.4865794 </threshold>
											<split pos="left">
												<output> 0.016277691 </output>
											</split>
											<split pos="right">
												<output> 0.020685386 </output>
											</split>
										</split>
										<split pos="right">
											<output> 0.010426573 </output>
										</split>
									</split>
									<split pos="right">
										<output> 0.026188977 </output>
									</split>
								</split>
								<split pos="right">
									<output> 0.009964962 </output>
								</split>
							</split>
							<split pos="right">
								<output> 0.027125476 </output>
							</split>
						</split>
						<split pos="right">
							<output> 0.009696783 </output>
						</split>
					</split>
					<split pos="right">
						<output> 0.020202164 </output>
					</split>
				</split>
				<split pos="right">
					<output> 0.027824253 </output>
				</split>
			</split>
			<split pos="right">
				<output> 0.07247774 </output>
			</split>
		</split>
	</tree>
	<tree id="36" weight="0.1">
		<split>
			<feature> 109 </feature>
			<threshold> 25.946293 </threshold>
			<split pos="left">
				<feature> 109 </feature>
				<threshold> 16.921513 </threshold>
				<split pos="left">
					<feature> 109 </feature>
					<threshold> 8.460756 </threshold>
					<split pos="left">
						<feature> 109 </feature>
						<threshold> 8.178731 </threshold>
						<split pos="left">
							<feature> 109 </feature>
							<threshold> 7.896706 </threshold>
							<split pos="left">
								<feature> 109 </feature>
								<threshold> 7.614681 </threshold>
								<split pos="left">
									<feature> 109 </feature>
									<threshold> 7.3326554 </threshold>
									<split pos="left">
										<feature> 109 </feature>
										<threshold> 7.05063 </threshold>
										<split pos="left">
											<feature> 109 </feature>
											<threshold> 6.4865794 </threshold>
											<split pos="left">
												<output> 0.014593206 </output>
											</split>
											<split pos="right">
												<output> 0.018615063 </output>
											</split>
										</split>
										<split pos="right">
											<output> 0.009383952 </output>
										</split>
									</split>
									<split pos="right">
										<output> 0.023570435 </output>
									</split>
								</split>
								<split pos="right">
									<output> 0.008968673 </output>
								</split>
							</split>
							<split pos="right">
								<output> 0.024413424 </output>
							</split>
						</split>
						<split pos="right">
							<output> 0.008727716 </output>
						</split>
					</split>
					<split pos="right">
						<output> 0.01851572 </output>
					</split>
				</split>
				<split pos="right">
					<output> 0.027071359 </output>
				</split>
			</split>
			<split pos="right">
				<output> 0.06523119 </output>
			</split>
		</split>
	</tree>
	<tree id="37" weight="0.1">
		<split>
			<feature> 109 </feature>
			<threshold> 20.869854 </threshold>
			<split pos="left">
				<feature> 109 </feature>
				<threshold> 20.58783 </threshold>
				<split pos="left">
					<feature> 109 </feature>
					<threshold> 19.741756 </threshold>
					<split pos="left">
						<feature> 109 </feature>
						<threshold> 10.152908 </threshold>
						<split pos="left">
							<feature> 109 </feature>
							<threshold> 7.3326554 </threshold>
							<split pos="left">
								<feature> 109 </feature>
								<threshold> 7.05063 </threshold>
								<split pos="left">
									<feature> 109 </feature>
									<threshold> 6.4865794 </threshold>
									<split pos="left">
										<feature> 109 </feature>
										<threshold> 6.204554 </threshold>
										<split pos="left">
											<feature> 109 </feature>
											<threshold> 0.8460755 </threshold>
											<split pos="left">
												<output> 0.0130695235 </output>
											</split>
											<split pos="right">
												<output> 0.014495501 </output>
											</split>
										</split>
										<split pos="right">
											<output> 0.011075513 </output>
										</split>
									</split>
									<split pos="right">
										<output> 0.016753493 </output>
									</split>
								</split>
								<split pos="right">
									<output> 0.008445548 </output>
								</split>
							</split>
							<split pos="right">
								<output> 0.014975051 </output>
							</split>
						</split>
						<split pos="right">
							<output> 0.017883642 </output>
						</split>
					</split>
					<split pos="right">
						<output> 0.046439104 </output>
					</split>
				</split>
				<split pos="right">
					<output> -0.04406341 </output>
				</split>
			</split>
			<split pos="right">
				<output> 0.03685454 </output>
			</split>
		</split>
	</tree>
	<tree id="38" weight="0.1">
		<split>
			<feature> 109 </feature>
			<threshold> 25.946293 </threshold>
			<split pos="left">
				<feature> 109 </feature>
				<threshold> 25.664268 </threshold>
				<split pos="left">
					<feature> 109 </feature>
					<threshold> 25.382244 </threshold>
					<split pos="left">
						<feature> 109 </feature>
						<threshold> 14.947339 </threshold>
						<split pos="left">
							<feature> 109 </feature>
							<threshold> 14.665314 </threshold>
							<split pos="left">
								<feature> 109 </feature>
								<threshold> 13.819238 </threshold>
								<split pos="left">
									<feature> 109 </feature>
									<threshold> 7.896706 </threshold>
									<split pos="left">
										<feature> 109 </feature>
										<threshold> 7.614681 </threshold>
										<split pos="left">
											<feature> 109 </feature>
											<threshold> 7.3326554 </threshold>
											<split pos="left">
												<output> 0.011873004 </output>
											</split>
											<split pos="right">
												<output> 0.019715155 </output>
											</split>
										</split>
										<split pos="right">
											<output> 0.0065745097 </output>
										</split>
									</split>
									<split pos="right">
										<output> 0.014281761 </output>
									</split>
								</split>
								<split pos="right">
									<output> 0.025690274 </output>
								</split>
							</split>
							<split pos="right">
								<output> -0.016093459 </output>
							</split>
						</split>
						<split pos="right">
							<output> 0.020038858 </output>
						</split>
					</split>
					<split pos="right">
						<output> 0.14701404 </output>
					</split>
				</split>
				<split pos="right">
					<output> -0.0938544 </output>
				</split>
			</split>
			<split pos="right">
				<output> 0.055021185 </output>
			</split>
		</split>
	</tree>
	<tree id="39" weight="0.1">
		<split>
			<feature> 109 </feature>
			<threshold> 25.946293 </threshold>
			<split pos="left">
				<feature> 109 </feature>
				<threshold> 25.664268 </threshold>
				<split pos="left">
					<feature> 109 </feature>
					<threshold> 25.382244 </threshold>
					<split pos="left">
						<feature> 109 </feature>
						<threshold> 17.203537 </threshold>
						<split pos="left">
							<feature> 109 </feature>
							<threshold> 9.024807 </threshold>
							<split pos="left">
								<feature> 109 </feature>
								<threshold> 8.742782 </threshold>
								<split pos="left">
									<feature> 109 </feature>
									<threshold> 8.460756 </threshold>
									<split pos="left">
										<feature> 109 </feature>
										<threshold> 8.178731 </threshold>
										<split pos="left">
											<feature> 109 </feature>
											<threshold> 7.896706 </threshold>
											<split pos="left">
												<output> 0.01071679 </output>
											</split>
											<split pos="right">
												<output> 0.019046644 </output>
											</split>
										</split>
										<split pos="right">
											<output> 0.00492849 </output>
										</split>
									</split>
									<split pos="right">
										<output> 0.017927255 </output>
									</split>
								</split>
								<split pos="right">
									<output> 0.005590054 </output>
								</split>
							</split>
							<split pos="right">
								<output> 0.013585282 </output>
							</split>
						</split>
						<split pos="right">
							<output> 0.020097556 </output>
						</split>
					</split>
					<split pos="right">
						<output> 0.13231233 </output>
					</split>
				</split>
				<split pos="right">
					<output> -0.08446929 </output>
				</split>
			</split>
			<split pos="right">
				<output> 0.04952391 </output>
			</split>
		</split>
	</tree>
	<tree id="40" weight="0.1">
		<split>
			<feature> 109 </feature>
			<threshold> 31.304756 </threshold>
			<split pos="left">
				<feature> 109 </feature>
				<threshold> 18.04961 </threshold>
				<split pos="left">
					<feature> 109 </feature>
					<threshold> 9.870883 </threshold>
					<split pos="left">
						<feature> 109 </feature>
						<threshold> 0.8460755 </threshold>
						<split pos="left">
							<feature> 109 </feature>
							<threshold> 0.0 </threshold>
							<split pos="left">
								<output> 0.009594656 </output>
							</split>
							<split pos="right">
								<output> -0.09216072 </output>
							</split>
						</split>
						<split pos="right">
							<feature> 109 </feature>
							<threshold> 1.9741759 </threshold>
							<split pos="left">
								<output> 0.060942285 </output>
							</split>
							<split pos="right">
								<output> 0.01044838 </output>
							</split>
						</split>
					</split>
					<split pos="right">
						<feature> 109 </feature>
						<threshold> 17.485561 </threshold>
						<split pos="left">
							<feature> 109 </feature>
							<threshold> 17.203537 </threshold>
							<split pos="left">
								<feature> 109 </feature>
								<threshold> 14.665314 </threshold>
								<split pos="left">
									<output> 0.013340719 </output>
								</split>
								<split pos="right">
									<output> 0.009810378 </output>
								</split>
							</split>
							<split pos="right">
								<output> 0.03342182 </output>
							</split>
						</split>
						<split pos="right">
							<output> 0.0050264276 </output>
						</split>
					</split>
				</split>
				<split pos="right">
					<output> 0.020406468 </output>
				</split>
			</split>
			<split pos="right">
				<output> 0.084212355 </output>
			</split>
		</split>
	</tree>
	<tree id="41" weight="0.1">
		<split>
			<feature> 109 </feature>
			<threshold> 31.304756 </threshold>
			<split pos="left">
				<feature> 109 </feature>
				<threshold> 18.04961 </threshold>
				<split pos="left">
					<feature> 109 </feature>
					<threshold> 10.716959 </threshold>
					<split pos="left">
						<feature> 109 </feature>
						<threshold> 3.6663265 </threshold>
						<split pos="left">
							<feature> 109 </feature>
							<threshold> 3.3843014 </threshold>
							<split pos="left">
								<feature> 109 </feature>
								<threshold> 3.1022763 </threshold>
								<split pos="left">
									<feature> 109 </feature>
									<threshold> 1.9741759 </threshold>
									<split pos="left">
										<feature> 109 </feature>
										<threshold> 1.4101257 </threshold>
										<split pos="left">
											<feature> 109 </feature>
											<threshold> 0.0 </threshold>
											<split pos="left">
												<output> 0.008621867 </output>
											</split>
											<split pos="right">
												<output> -0.022039624 </output>
											</split>
										</split>
										<split pos="right">
											<output> 0.17948101 </output>
										</split>
									</split>
									<split pos="right">
										<output> 8.5184263E-4 </output>
									</split>
								</split>
								<split pos="right">
									<output> 0.026163107 </output>
								</split>
							</split>
							<split pos="right">
								<output> -0.010882472 </output>
							</split>
						</split>
						<split pos="right">
							<output> 0.009588954 </output>
						</split>
					</split>
					<split pos="right">
						<output> 0.01152177 </output>
					</split>
				</split>
				<split pos="right">
					<output> 0.018365528 </output>
				</split>
			</split>
			<split pos="right">
				<output> 0.07578981 </output>
			</split>
		</split>
	</tree>
	<tree id="42" weight="0.1">
		<split>
			<feature> 109 </feature>
			<threshold> 50.482414 </threshold>
			<split pos="left">
				<feature> 109 </feature>
				<threshold> 22.279976 </threshold>
				<split pos="left">
					<feature> 109 </feature>
					<threshold> 21.997952 </threshold>
					<split pos="left">
						<feature> 109 </feature>
						<threshold> 20.869854 </threshold>
						<split pos="left">
							<feature> 109 </feature>
							<threshold> 20.58783 </threshold>
							<split pos="left">
								<feature> 109 </feature>
								<threshold> 19.741756 </threshold>
								<split pos="left">
									<feature> 109 </feature>
									<threshold> 18.895683 </threshold>
									<split pos="left">
										<feature> 109 </feature>
										<threshold> 18.04961 </threshold>
										<split pos="left">
											<feature> 109 </feature>
											<threshold> 10.434934 </threshold>
											<split pos="left">
												<output> 0.007902506 </output>
											</split>
											<split pos="right">
												<output> 0.010302411 </output>
											</split>
										</split>
										<split pos="right">
											<output> 0.034556463 </output>
										</split>
									</split>
									<split pos="right">
										<output> -0.010756669 </output>
									</split>
								</split>
								<split pos="right">
									<output> 0.033902172 </output>
								</split>
							</split>
							<split pos="right">
								<output> -0.047547832 </output>
							</split>
						</split>
						<split pos="right">
							<output> 0.036071416 </output>
						</split>
					</split>
					<split pos="right">
						<output> -0.06380237 </output>
					</split>
				</split>
				<split pos="right">
					<output> 0.025538307 </output>
				</split>
			</split>
			<split pos="right">
				<output> 0.38722762 </output>
			</split>
		</split>
	</tree>
	<tree id="43" weight="0.1">
		<split>
			<feature> 109 </feature>
			<threshold> 50.482414 </threshold>
			<split pos="left">
				<feature> 109 </feature>
				<threshold> 24.818195 </threshold>
				<split pos="left">
					<feature> 109 </feature>
					<threshold> 24.536171 </threshold>
					<split pos="left">
						<feature> 109 </feature>
						<threshold> 23.126049 </threshold>
						<split pos="left">
							<feature> 109 </feature>
							<threshold> 13.537212 </threshold>
							<split pos="left">
								<feature> 109 </feature>
								<threshold> 13.255187 </threshold>
								<split pos="left">
									<feature> 109 </feature>
									<threshold> 12.691136 </threshold>
									<split pos="left">
										<feature> 109 </feature>
										<threshold> 7.3326554 </threshold>
										<split pos="left">
											<feature> 109 </feature>
											<threshold> 7.05063 </threshold>
											<split pos="left">
												<output> 0.0070278547 </output>
											</split>
											<split pos="right">
												<output> 0.0025478166 </output>
											</split>
										</split>
										<split pos="right">
											<output> 0.008194344 </output>
										</split>
									</split>
									<split pos="right">
										<output> 0.013527899 </output>
									</split>
								</split>
								<split pos="right">
									<output> -0.0013202971 </output>
								</split>
							</split>
							<split pos="right">
								<output> 0.010869741 </output>
							</split>
						</split>
						<split pos="right">
							<output> 0.031312257 </output>
						</split>
					</split>
					<split pos="right">
						<output> -0.074890584 </output>
					</split>
				</split>
				<split pos="right">
					<output> 0.029393716 </output>
				</split>
			</split>
			<split pos="right">
				<output> 0.3485049 </output>
			</split>
		</split>
	</tree>
	<tree id="44" weight="0.1">
		<split>
			<feature> 109 </feature>
			<threshold> 31.304756 </threshold>
			<split pos="left">
				<feature> 109 </feature>
				<threshold> 18.04961 </threshold>
				<split pos="left">
					<feature> 109 </feature>
					<threshold> 8.460756 </threshold>
					<split pos="left">
						<feature> 109 </feature>
						<threshold> 8.178731 </threshold>
						<split pos="left">
							<feature> 109 </feature>
							<threshold> 7.896706 </threshold>
							<split pos="left">
								<feature> 109 </feature>
								<threshold> 7.614681 </threshold>
								<split pos="left">
									<feature> 109 </feature>
									<threshold> 7.3326554 </threshold>
									<split pos="left">
										<feature> 109 </feature>
										<threshold> 7.05063 </threshold>
										<split pos="left">
											<feature> 109 </feature>
											<threshold> 6.4865794 </threshold>
											<split pos="left">
												<output> 0.0062573915 </output>
											</split>
											<split pos="right">
												<output> 0.009322458 </output>
											</split>
										</split>
										<split pos="right">
											<output> 0.0022934626 </output>
										</split>
									</split>
									<split pos="right">
										<output> 0.013059848 </output>
									</split>
								</split>
								<split pos="right">
									<output> 0.0012322612 </output>
								</split>
							</split>
							<split pos="right">
								<output> 0.013529745 </output>
							</split>
						</split>
						<split pos="right">
							<output> 8.2358497E-4 </output>
						</split>
					</split>
					<split pos="right">
						<output> 0.00802178 </output>
					</split>
				</split>
				<split pos="right">
					<output> 0.013357093 </output>
				</split>
			</split>
			<split pos="right">
				<output> 0.060808245 </output>
			</split>
		</split>
	</tree>
	<tree id="45" weight="0.1">
		<split>
			<feature> 109 </feature>
			<threshold> 50.482414 </threshold>
			<split pos="left">
				<feature> 109 </feature>
				<threshold> 49.072292 </threshold>
				<split pos="left">
					<feature> 109 </feature>
					<threshold> 45.405975 </threshold>
					<split pos="left">
						<feature> 109 </feature>
						<threshold> 40.61156 </threshold>
						<split pos="left">
							<feature> 109 </feature>
							<threshold> 38.919415 </threshold>
							<split pos="left">
								<feature> 109 </feature>
								<threshold> 38.63739 </threshold>
								<split pos="left">
									<feature> 109 </feature>
									<threshold> 25.946293 </threshold>
									<split pos="left">
										<feature> 109 </feature>
										<threshold> 25.664268 </threshold>
										<split pos="left">
											<feature> 109 </feature>
											<threshold> 25.382244 </threshold>
											<split pos="left">
												<output> 0.006314393 </output>
											</split>
											<split pos="right">
												<output> 0.108374834 </output>
											</split>
										</split>
										<split pos="right">
											<output> -0.0867284 </output>
										</split>
									</split>
									<split pos="right">
										<output> 0.028647754 </output>
									</split>
								</split>
								<split pos="right">
									<output> -0.60821724 </output>
								</split>
							</split>
							<split pos="right">
								<output> 0.2538517 </output>
							</split>
						</split>
						<split pos="right">
							<output> -0.1748839 </output>
						</split>
					</split>
					<split pos="right">
						<output> 0.36546698 </output>
					</split>
				</split>
				<split pos="right">
					<output> -0.60821724 </output>
				</split>
			</split>
			<split pos="right">
				<output> 0.30757374 </output>
			</split>
		</split>
	</tree>
	<tree id="46" weight="0.1">
		<split>
			<feature> 109 </feature>
			<threshold> 31.304756 </threshold>
			<split pos="left">
				<feature> 109 </feature>
				<threshold> 14.947339 </threshold>
				<split pos="left">
					<feature> 109 </feature>
					<threshold> 14.665314 </threshold>
					<split pos="left">
						<feature> 109 </feature>
						<threshold> 13.819238 </threshold>
						<split pos="left">
							<feature> 109 </feature>
							<threshold> 0.8460755 </threshold>
							<split pos="left">
								<feature> 109 </feature>
								<threshold> 0.0 </threshold>
								<split pos="left">
									<output> 0.0049788295 </output>
								</split>
								<split pos="right">
									<output> -0.083491 </output>
								</split>
							</split>
							<split pos="right">
								<feature> 109 </feature>
								<threshold> 1.6921508 </threshold>
								<split pos="left">
									<output> 0.054736122 </output>
								</split>
								<split pos="right">
									<feature> 109 </feature>
									<threshold> 2.5382261 </threshold>
									<split pos="left">
										<output> -0.015680432 </output>
									</split>
									<split pos="right">
										<feature> 109 </feature>
										<threshold> 2.8202512 </threshold>
										<split pos="left">
											<output> 0.036132276 </output>
										</split>
										<split pos="right">
											<output> 0.00586876 </output>
										</split>
									</split>
								</split>
							</split>
						</split>
						<split pos="right">
							<output> 0.015727302 </output>
						</split>
					</split>
					<split pos="right">
						<output> -0.021526193 </output>
					</split>
				</split>
				<split pos="right">
					<output> 0.009600503 </output>
				</split>
			</split>
			<split pos="right">
				<output> 0.051506586 </output>
			</split>
		</split>
	</tree>
	<tree id="47" weight="0.1">
		<split>
			<feature> 109 </feature>
			<threshold> 50.482414 </threshold>
			<split pos="left">
				<feature> 109 </feature>
				<threshold> 49.072292 </threshold>
				<split pos="left">
					<feature> 109 </feature>
					<threshold> 45.405975 </threshold>
					<split pos="left">
						<feature> 109 </feature>
						<threshold> 44.559902 </threshold>
						<split pos="left">
							<feature> 109 </feature>
							<threshold> 22.279976 </threshold>
							<split pos="left">
								<feature> 109 </feature>
								<threshold> 21.997952 </threshold>
								<split pos="left">
									<feature> 109 </feature>
									<threshold> 20.869854 </threshold>
									<split pos="left">
										<feature> 109 </feature>
										<threshold> 20.58783 </threshold>
										<split pos="left">
											<feature> 109 </feature>
											<threshold> 19.741756 </threshold>
											<split pos="left">
												<output> 0.0049495953 </output>
											</split>
											<split pos="right">
												<output> 0.026498774 </output>
											</split>
										</split>
										<split pos="right">
											<output> -0.046806037 </output>
										</split>
									</split>
									<split pos="right">
										<output> 0.028450135 </output>
									</split>
								</split>
								<split pos="right">
									<output> -0.061436653 </output>
								</split>
							</split>
							<split pos="right">
								<output> 0.016552906 </output>
							</split>
						</split>
						<split pos="right">
							<output> -0.4292129 </output>
						</split>
					</split>
					<split pos="right">
						<output> 0.3237695 </output>
					</split>
				</split>
				<split pos="right">
					<output> -0.5525461 </output>
				</split>
			</split>
			<split pos="right">
				<output> 0.27166557 </output>
			</split>
		</split>
	</tree>
	<tree id="48" weight="0.1">
		<split>
			<feature> 109 </feature>
			<threshold> 44.841927 </threshold>
			<split pos="left">
				<feature> 109 </feature>
				<threshold> 44.559902 </threshold>
				<split pos="left">
					<feature> 109 </feature>
					<threshold> 43.14978 </threshold>
					<split pos="left">
						<feature> 109 </feature>
						<threshold> 40.893585 </threshold>
						<split pos="left">
							<feature> 109 </feature>
							<threshold> 38.919415 </threshold>
							<split pos="left">
								<feature> 109 </feature>
								<threshold> 38.07334 </threshold>
								<split pos="left">
									<feature> 109 </feature>
									<threshold> 36.945244 </threshold>
									<split pos="left">
										<feature> 109 </feature>
										<threshold> 36.381195 </threshold>
										<split pos="left">
											<feature> 109 </feature>
											<threshold> 31.304756 </threshold>
											<split pos="left">
												<output> 0.004657229 </output>
											</split>
											<split pos="right">
												<output> 0.06524688 </output>
											</split>
										</split>
										<split pos="right">
											<output> -0.26074487 </output>
										</split>
									</split>
									<split pos="right">
										<output> 0.2329893 </output>
									</split>
								</split>
								<split pos="right">
									<output> -0.24557406 </output>
								</split>
							</split>
							<split pos="right">
								<output> 0.21625043 </output>
							</split>
						</split>
						<split pos="right">
							<output> -0.27935326 </output>
						</split>
					</split>
					<split pos="right">
						<output> 0.29135397 </output>
					</split>
				</split>
				<split pos="right">
					<output> -0.7672439 </output>
				</split>
			</split>
			<split pos="right">
				<output> 0.17815377 </output>
			</split>
		</split>
	</tree>
	<tree id="49" weight="0.1">
		<split>
			<feature> 109 </feature>
			<threshold> 50.482414 </threshold>
			<split pos="left">
				<feature> 109 </feature>
				<threshold> 49.072292 </threshold>
				<split pos="left">
					<feature> 109 </feature>
					<threshold> 45.405975 </threshold>
					<split pos="left">
						<feature> 109 </feature>
						<threshold> 40.61156 </threshold>
						<split pos="left">
							<feature> 109 </feature>
							<threshold> 38.919415 </threshold>
							<split pos="left">
								<feature> 109 </feature>
								<threshold> 38.63739 </threshold>
								<split pos="left">
									<feature> 109 </feature>
									<threshold> 22.279976 </threshold>
									<split pos="left">
										<feature> 109 </feature>
										<threshold> 21.997952 </threshold>
										<split pos="left">
											<feature> 109 </feature>
											<threshold> 20.869854 </threshold>
											<split pos="left">
												<output> 0.0040165093 </output>
											</split>
											<split pos="right">
												<output> 0.025139058 </output>
											</split>
										</split>
										<split pos="right">
											<output> -0.055757493 </output>
										</split>
									</split>
									<split pos="right">
										<output> 0.014206568 </output>
									</split>
								</split>
								<split pos="right">
									<output> -0.52964413 </output>
								</split>
							</split>
							<split pos="right">
								<output> 0.20003559 </output>
							</split>
						</split>
						<split pos="right">
							<output> -0.14198811 </output>
						</split>
					</split>
					<split pos="right">
						<output> 0.27357712 </output>
					</split>
				</split>
				<split pos="right">
					<output> -0.5151069 </output>
				</split>
			</split>
			<split pos="right">
				<output> 0.2266836 </output>
			</split>
		</split>
	</tree>
	<tree id="50" weight="0.1">
		<split>
			<feature> 109 </feature>
			<threshold> 31.304756 </threshold>
			<split pos="left">
				<feature> 109 </feature>
				<threshold> 28.484512 </threshold>
				<split pos="left">
					<feature> 109 </feature>
					<threshold> 25.946293 </threshold>
					<split pos="left">
						<feature> 109 </feature>
						<threshold> 25.664268 </threshold>
						<split pos="left">
							<feature> 109 </feature>
							<threshold> 25.382244 </threshold>
							<split pos="left">
								<feature> 109 </feature>
								<threshold> 25.10022 </threshold>
								<split pos="left">
									<feature> 109 </feature>
									<threshold> 24.818195 </threshold>
									<split pos="left">
										<feature> 109 </feature>
										<threshold> 23.972122 </threshold>
										<split pos="left">
											<feature> 109 </feature>
											<threshold> 23.126049 </threshold>
											<split pos="left">
												<output> 0.0036992116 </output>
											</split>
											<split pos="right">
												<output> 0.048982807 </output>
											</split>
										</split>
										<split pos="right">
											<output> -0.041859332 </output>
										</split>
									</split>
									<split pos="right">
										<output> 0.07484432 </output>
									</split>
								</split>
								<split pos="right">
									<output> -0.06470235 </output>
								</split>
							</split>
							<split pos="right">
								<output> 0.09303559 </output>
							</split>
						</split>
						<split pos="right">
							<output> -0.08255791 </output>
						</split>
					</split>
					<split pos="right">
						<output> 0.033557106 </output>
					</split>
				</split>
				<split pos="right">
					<output> -0.02260203 </output>
				</split>
			</split>
			<split pos="right">
				<output> 0.038127128 </output>
			</split>
		</split>
	</tree>
	<tree id="51" weight="0.1">
		<split>
			<feature> 109 </feature>
			<threshold> 50.482414 </threshold>
			<split pos="left">
				<feature> 109 </feature>
				<threshold> 47.944195 </threshold>
				<split pos="left">
					<feature> 109 </feature>
					<threshold> 45.405975 </threshold>
					<split pos="left">
						<feature> 109 </feature>
						<threshold> 44.559902 </threshold>
						<split pos="left">
							<feature> 109 </feature>
							<threshold> 43.14978 </threshold>
							<split pos="left">
								<feature> 109 </feature>
								<threshold> 40.893585 </threshold>
								<split pos="left">
									<feature> 109 </feature>
									<threshold> 38.919415 </threshold>
									<split pos="left">
										<feature> 109 </feature>
										<threshold> 38.07334 </threshold>
										<split pos="left">
											<feature> 109 </feature>
											<threshold> 36.945244 </threshold>
											<split pos="left">
												<output> 0.0034128062 </output>
											</split>
											<split pos="right">
												<output> 0.20445684 </output>
											</split>
										</split>
										<split pos="right">
											<output> -0.21613212 </output>
										</split>
									</split>
									<split pos="right">
										<output> 0.17138882 </output>
									</split>
								</split>
								<split pos="right">
									<output> -0.2410318 </output>
								</split>
							</split>
							<split pos="right">
								<output> 0.27260473 </output>
							</split>
						</split>
						<split pos="right">
							<output> -0.33857265 </output>
						</split>
					</split>
					<split pos="right">
						<output> 0.33122256 </output>
					</split>
				</split>
				<split pos="right">
					<output> -0.3886984 </output>
				</split>
			</split>
			<split pos="right">
				<output> 0.20020248 </output>
			</split>
		</split>
	</tree>
	<tree id="52" weight="0.1">
		<split>
			<feature> 109 </feature>
			<threshold> 44.841927 </threshold>
			<split pos="left">
				<feature> 109 </feature>
				<threshold> 44.559902 </threshold>
				<split pos="left">
					<feature> 109 </feature>
					<threshold> 43.14978 </threshold>
					<split pos="left">
						<feature> 109 </feature>
						<threshold> 40.61156 </threshold>
						<split pos="left">
							<feature> 109 </feature>
							<threshold> 38.919415 </threshold>
							<split pos="left">
								<feature> 109 </feature>
								<threshold> 38.63739 </threshold>
								<split pos="left">
									<feature> 109 </feature>
									<threshold> 31.304756 </threshold>
									<split pos="left">
										<feature> 109 </feature>
										<threshold> 30.740707 </threshold>
										<split pos="left">
											<feature> 109 </feature>
											<threshold> 14.947339 </threshold>
											<split pos="left">
												<output> 0.0027102905 </output>
											</split>
											<split pos="right">
												<output> 0.0061598346 </output>
											</split>
										</split>
										<split pos="right">
											<output> -0.065151155 </output>
										</split>
									</split>
									<split pos="right">
										<output> 0.036032718 </output>
									</split>
								</split>
								<split pos="right">
									<output> -0.45887923 </output>
								</split>
							</split>
							<split pos="right">
								<output> 0.1590804 </output>
							</split>
						</split>
						<split pos="right">
							<output> -0.21490605 </output>
						</split>
					</split>
					<split pos="right">
						<output> 0.24534433 </output>
					</split>
				</split>
				<split pos="right">
					<output> -0.6462761 </output>
				</split>
			</split>
			<split pos="right">
				<output> 0.13236314 </output>
			</split>
		</split>
	</tree>
	<tree id="53" weight="0.1">
		<split>
			<feature> 109 </feature>
			<threshold> 25.946293 </threshold>
			<split pos="left">
				<feature> 109 </feature>
				<threshold> 25.664268 </threshold>
				<split pos="left">
					<feature> 109 </feature>
					<threshold> 25.382244 </threshold>
					<split pos="left">
						<feature> 109 </feature>
						<threshold> 25.10022 </threshold>
						<split pos="left">
							<feature> 109 </feature>
							<threshold> 24.818195 </threshold>
							<split pos="left">
								<feature> 109 </feature>
								<threshold> 23.972122 </threshold>
								<split pos="left">
									<feature> 109 </feature>
									<threshold> 23.126049 </threshold>
									<split pos="left">
										<feature> 109 </feature>
										<threshold> 21.997952 </threshold>
										<split pos="left">
											<feature> 109 </feature>
											<threshold> 20.869854 </threshold>
											<split pos="left">
												<output> 0.0026467857 </output>
											</split>
											<split pos="right">
												<output> 0.021299928 </output>
											</split>
										</split>
										<split pos="right">
											<output> -0.01227855 </output>
										</split>
									</split>
									<split pos="right">
										<output> 0.043128446 </output>
									</split>
								</split>
								<split pos="right">
									<output> -0.038630486 </output>
								</split>
							</split>
							<split pos="right">
								<output> 0.06640267 </output>
							</split>
						</split>
						<split pos="right">
							<output> -0.059189532 </output>
						</split>
					</split>
					<split pos="right">
						<output> 0.082775176 </output>
					</split>
				</split>
				<split pos="right">
					<output> -0.07525943 </output>
				</split>
			</split>
			<split pos="right">
				<output> 0.016406124 </output>
			</split>
		</split>
	</tree>
	<tree id="54" weight="0.1">
		<split>
			<feature> 109 </feature>
			<threshold> 50.482414 </threshold>
			<split pos="left">
				<feature> 109 </feature>
				<threshold> 47.944195 </threshold>
				<split pos="left">
					<feature> 109 </feature>
					<threshold> 44.841927 </threshold>
					<split pos="left">
						<feature> 109 </feature>
						<threshold> 44.559902 </threshold>
						<split pos="left">
							<feature> 109 </feature>
							<threshold> 43.14978 </threshold>
							<split pos="left">
								<feature> 109 </feature>
								<threshold> 40.61156 </threshold>
								<split pos="left">
									<feature> 109 </feature>
									<threshold> 38.919415 </threshold>
									<split pos="left">
										<feature> 109 </feature>
										<threshold> 38.07334 </threshold>
										<split pos="left">
											<feature> 109 </feature>
											<threshold> 36.945244 </threshold>
											<split pos="left">
												<output> 0.002447617 </output>
											</split>
											<split pos="right">
												<output> 0.17876756 </output>
											</split>
										</split>
										<split pos="right">
											<output> -0.19055484 </output>
										</split>
									</split>
									<split pos="right">
										<output> 0.14153183 </output>
									</split>
								</split>
								<split pos="right">
									<output> -0.19505598 </output>
								</split>
							</split>
							<split pos="right">
								<output> 0.2191693 </output>
							</split>
						</split>
						<split pos="right">
							<output> -0.5832892 </output>
						</split>
					</split>
					<split pos="right">
						<output> 0.25354964 </output>
					</split>
				</split>
				<split pos="right">
					<output> -0.3647055 </output>
				</split>
			</split>
			<split pos="right">
				<output> 0.16530555 </output>
			</split>
		</split>
	</tree>
	<tree id="55" weight="0.1">
		<split>
			<feature> 109 </feature>
			<threshold> 29.048561 </threshold>
			<split pos="left">
				<feature> 109 </feature>
				<threshold> 28.484512 </threshold>
				<split pos="left">
					<feature> 109 </feature>
					<threshold> 28.202488 </threshold>
					<split pos="left">
						<feature> 109 </feature>
						<threshold> 27.920464 </threshold>
						<split pos="left">
							<feature> 109 </feature>
							<threshold> 27.63844 </threshold>
							<split pos="left">
								<feature> 109 </feature>
