## MART
## No. of trees = 1000
## No. of leaves = 10
## No. of threshold candidates = 256
## Learning rate = 0.1
## Stop early = 100

<ensemble>
	<tree id="1" weight="0.1">
		<split>
			<feature> 91 </feature>
			<threshold> 0.0 </threshold>
			<split pos="left">
				<output> 0.7233671 </output>
			</split>
			<split pos="right">
				<feature> 91 </feature>
				<threshold> 651581.1 </threshold>
				<split pos="left">
					<output> 0.6402637 </output>
				</split>
				<split pos="right">
					<feature> 91 </feature>
					<threshold> 3257905.5 </threshold>
					<split pos="left">
						<feature> 91 </feature>
						<threshold> 1954743.4 </threshold>
						<split pos="left">
							<feature> 91 </feature>
							<threshold> 1303162.2 </threshold>
							<split pos="left">
								<output> 0.140625 </output>
							</split>
							<split pos="right">
								<output> 0.11111111 </output>
							</split>
						</split>
						<split pos="right">
							<feature> 91 </feature>
							<threshold> 2606324.5 </threshold>
							<split pos="left">
								<output> 0.3 </output>
							</split>
							<split pos="right">
								<output> 0.14285715 </output>
							</split>
						</split>
					</split>
					<split pos="right">
						<output> 0.0 </output>
					</split>
				</split>
			</split>
		</split>
	</tree>
	<tree id="2" weight="0.1">
		<split>
			<feature> 91 </feature>
			<threshold> 0.0 </threshold>
			<split pos="left">
				<output> 0.6511557 </output>
			</split>
			<split pos="right">
				<feature> 91 </feature>
				<threshold> 651581.1 </threshold>
				<split pos="left">
					<output> 0.577533 </output>
				</split>
				<split pos="right">
					<feature> 91 </feature>
					<threshold> 3257905.5 </threshold>
					<split pos="left">
						<feature> 91 </feature>
						<threshold> 1954743.4 </threshold>
						<split pos="left">
							<feature> 91 </feature>
							<threshold> 1303162.2 </threshold>
							<split pos="left">
								<output> 0.12656242 </output>
							</split>
							<split pos="right">
								<output> 0.099999994 </output>
							</split>
						</split>
						<split pos="right">
							<feature> 91 </feature>
							<threshold> 2606324.5 </threshold>
							<split pos="left">
								<output> 0.27 </output>
							</split>
							<split pos="right">
								<output> 0.1285714 </output>
							</split>
						</split>
					</split>
					<split pos="right">
						<output> 0.0 </output>
					</split>
				</split>
			</split>
		</split>
	</tree>
	<tree id="3" weight="0.1">
		<split>
			<feature> 91 </feature>
			<threshold> 0.0 </threshold>
			<split pos="left">
				<output> 0.58464897 </output>
			</split>
			<split pos="right">
				<feature> 91 </feature>
				<threshold> 651581.1 </threshold>
				<split pos="left">
					<output> 0.5162498 </output>
				</split>
				<split pos="right">
					<feature> 91 </feature>
					<threshold> 3257905.5 </threshold>
					<split pos="left">
						<feature> 91 </feature>
						<threshold> 1954743.4 </threshold>
						<split pos="left">
							<feature> 91 </feature>
							<threshold> 1303162.2 </threshold>
							<split pos="left">
								<output> 0.11390635 </output>
							</split>
							<split pos="right">
								<output> 0.089999996 </output>
							</split>
						</split>
						<split pos="right">
							<feature> 91 </feature>
							<threshold> 2606324.5 </threshold>
							<split pos="left">
								<output> 0.24299999 </output>
							</split>
							<split pos="right">
								<output> 0.11571426 </output>
							</split>
						</split>
					</split>
					<split pos="right">
						<output> 0.0 </output>
					</split>
				</split>
			</split>
		</split>
	</tree>
	<tree id="4" weight="0.1">
		<split>
			<feature> 91 </feature>
			<threshold> 0.0 </threshold>
			<split pos="left">
				<output> 0.5279482 </output>
			</split>
			<split pos="right">
				<feature> 91 </feature>
				<threshold> 651581.1 </threshold>
				<split pos="left">
					<output> 0.46810877 </output>
				</split>
				<split pos="right">
					<feature> 91 </feature>
					<threshold> 3257905.5 </threshold>
					<split pos="left">
						<feature> 91 </feature>
						<threshold> 1954743.4 </threshold>
						<split pos="left">
							<feature> 91 </feature>
							<threshold> 1303162.2 </threshold>
							<split pos="left">
								<output> 0.102515675 </output>
							</split>
							<split pos="right">
								<output> 0.081000015 </output>
							</split>
						</split>
						<split pos="right">
							<feature> 91 </feature>
							<threshold> 2606324.5 </threshold>
							<split pos="left">
								<output> 0.21869998 </output>
							</split>
							<split pos="right">
								<output> 0.10414285 </output>
							</split>
						</split>
					</split>
					<split pos="right">
						<output> 0.0 </output>
					</split>
				</split>
			</split>
		</split>
	</tree>
	<tree id="5" weight="0.1">
		<split>
			<feature> 91 </feature>
			<threshold> 0.0 </threshold>
			<split pos="left">
				<output> 0.47386488 </output>
			</split>
			<split pos="right">
				<feature> 91 </feature>
				<threshold> 651581.1 </threshold>
				<split pos="left">
					<output> 0.42120984 </output>
				</split>
				<split pos="right">
					<feature> 91 </feature>
					<threshold> 3257905.5 </threshold>
					<split pos="left">
						<feature> 91 </feature>
						<threshold> 1954743.4 </threshold>
						<split pos="left">
							<feature> 91 </feature>
							<threshold> 1303162.2 </threshold>
							<split pos="left">
								<output> 0.092264146 </output>
							</split>
							<split pos="right">
								<output> 0.072900005 </output>
							</split>
						</split>
						<split pos="right">
							<feature> 91 </feature>
							<threshold> 2606324.5 </threshold>
							<split pos="left">
								<output> 0.19682997 </output>
							</split>
							<split pos="right">
								<output> 0.09372855 </output>
							</split>
						</split>
					</split>
					<split pos="right">
						<output> 0.0 </output>
					</split>
				</split>
			</split>
		</split>
	</tree>
	<tree id="6" weight="0.1">
		<split>
			<feature> 91 </feature>
			<threshold> 0.0 </threshold>
			<split pos="left">
				<output> 0.42665476 </output>
			</split>
			<split pos="right">
				<feature> 91 </feature>
				<threshold> 651581.1 </threshold>
				<split pos="left">
					<output> 0.37593627 </output>
				</split>
				<split pos="right">
					<feature> 91 </feature>
					<threshold> 3257905.5 </threshold>
					<split pos="left">
						<feature> 91 </feature>
						<threshold> 1954743.4 </threshold>
						<split pos="left">
							<feature> 91 </feature>
							<threshold> 1303162.2 </threshold>
							<split pos="left">
								<output> 0.083037734 </output>
							</split>
							<split pos="right">
								<output> 0.06560999 </output>
							</split>
						</split>
						<split pos="right">
							<feature> 91 </feature>
							<threshold> 2606324.5 </threshold>
							<split pos="left">
								<output> 0.177147 </output>
							</split>
							<split pos="right">
								<output> 0.08435572 </output>
							</split>
						</split>
					</split>
					<split pos="right">
						<output> 0.0 </output>
					</split>
				</split>
			</split>
		</split>
	</tree>
	<tree id="7" weight="0.1">
		<split>
			<feature> 91 </feature>
			<threshold> 0.0 </threshold>
			<split pos="left">
				<output> 0.38492867 </output>
			</split>
			<split pos="right">
				<feature> 91 </feature>
				<threshold> 651581.1 </threshold>
				<split pos="left">
					<output> 0.34191027 </output>
				</split>
				<split pos="right">
					<feature> 91 </feature>
					<threshold> 3257905.5 </threshold>
					<split pos="left">
						<feature> 91 </feature>
						<threshold> 1954743.4 </threshold>
						<split pos="left">
							<feature> 91 </feature>
							<threshold> 1303162.2 </threshold>
							<split pos="left">
								<output> 0.07473382 </output>
							</split>
							<split pos="right">
								<output> 0.059048984 </output>
							</split>
						</split>
						<split pos="right">
							<feature> 91 </feature>
							<threshold> 2606324.5 </threshold>
							<split pos="left">
								<output> 0.15943229 </output>
							</split>
							<split pos="right">
								<output> 0.07592017 </output>
							</split>
						</split>
					</split>
					<split pos="right">
						<output> 0.0 </output>
					</split>
				</split>
			</split>
		</split>
	</tree>
	<tree id="8" weight="0.1">
		<split>
			<feature> 91 </feature>
			<threshold> 0.0 </threshold>
			<split pos="left">
				<output> 0.345719 </output>
			</split>
			<split pos="right">
				<feature> 91 </feature>
				<threshold> 651581.1 </threshold>
				<split pos="left">
					<output> 0.30585435 </output>
				</split>
				<split pos="right">
					<feature> 91 </feature>
					<threshold> 3257905.5 </threshold>
					<split pos="left">
						<feature> 91 </feature>
						<threshold> 1954743.4 </threshold>
						<split pos="left">
							<feature> 91 </feature>
							<threshold> 1303162.2 </threshold>
							<split pos="left">
								<output> 0.067260414 </output>
							</split>
							<split pos="right">
								<output> 0.053144082 </output>
							</split>
						</split>
						<split pos="right">
							<feature> 91 </feature>
							<threshold> 2606324.5 </threshold>
							<split pos="left">
								<output> 0.14348906 </output>
							</split>
							<split pos="right">
								<output> 0.06832815 </output>
							</split>
						</split>
					</split>
					<split pos="right">
						<output> 0.0 </output>
					</split>
				</split>
			</split>
		</split>
	</tree>
	<tree id="9" weight="0.1">
		<split>
			<feature> 91 </feature>
			<threshold> 0.0 </threshold>
			<split pos="left">
				<output> 0.31219319 </output>
			</split>
			<split pos="right">
				<feature> 91 </feature>
				<threshold> 651581.1 </threshold>
				<split pos="left">
					<output> 0.27487874 </output>
				</split>
				<split pos="right">
					<feature> 91 </feature>
					<threshold> 3257905.5 </threshold>
					<split pos="left">
						<feature> 91 </feature>
						<threshold> 1954743.4 </threshold>
						<split pos="left">
							<feature> 91 </feature>
							<threshold> 1303162.2 </threshold>
							<split pos="left">
								<output> 0.060534477 </output>
							</split>
							<split pos="right">
								<output> 0.047829688 </output>
							</split>
						</split>
						<split pos="right">
							<feature> 91 </feature>
							<threshold> 2606324.5 </threshold>
							<split pos="left">
								<output> 0.12914017 </output>
							</split>
							<split pos="right">
								<output> 0.06149531 </output>
							</split>
						</split>
					</split>
					<split pos="right">
						<output> 0.0 </output>
					</split>
				</split>
			</split>
		</split>
	</tree>
	<tree id="10" weight="0.1">
		<split>
			<feature> 91 </feature>
			<threshold> 0.0 </threshold>
			<split pos="left">
				<output> 0.2809187 </output>
			</split>
			<split pos="right">
				<feature> 91 </feature>
				<threshold> 651581.1 </threshold>
				<split pos="left">
					<output> 0.24912004 </output>
				</split>
				<split pos="right">
					<feature> 91 </feature>
					<threshold> 3257905.5 </threshold>
					<split pos="left">
						<feature> 91 </feature>
						<threshold> 1954743.4 </threshold>
						<split pos="left">
							<feature> 91 </feature>
							<threshold> 1303162.2 </threshold>
							<split pos="left">
								<output> 0.054481022 </output>
							</split>
							<split pos="right">
								<output> 0.043046713 </output>
							</split>
						</split>
						<split pos="right">
							<feature> 91 </feature>
							<threshold> 2606324.5 </threshold>
							<split pos="left">
								<output> 0.11622614 </output>
							</split>
							<split pos="right">
								<output> 0.05534578 </output>
							</split>
						</split>
					</split>
					<split pos="right">
						<output> 0.0 </output>
					</split>
				</split>
			</split>
		</split>
	</tree>
	<tree id="11" weight="0.1">
		<split>
			<feature> 91 </feature>
			<threshold> 0.0 </threshold>
			<split pos="left">
				<output> 0.25184804 </output>
			</split>
			<split pos="right">
				<feature> 91 </feature>
				<threshold> 651581.1 </threshold>
				<split pos="left">
					<output> 0.22392151 </output>
				</split>
				<split pos="right">
					<feature> 91 </feature>
					<threshold> 3257905.5 </threshold>
					<split pos="left">
						<feature> 91 </feature>
						<threshold> 1954743.4 </threshold>
						<split pos="left">
							<feature> 91 </feature>
							<threshold> 1303162.2 </threshold>
							<split pos="left">
								<output> 0.049032874 </output>
							</split>
							<split pos="right">
								<output> 0.038742054 </output>
							</split>
						</split>
						<split pos="right">
							<feature> 91 </feature>
							<threshold> 2606324.5 </threshold>
							<split pos="left">
								<output> 0.104603544 </output>
							</split>
							<split pos="right">
								<output> 0.04981119 </output>
							</split>
						</split>
					</split>
					<split pos="right">
						<output> 0.0 </output>
					</split>
				</split>
			</split>
		</split>
	</tree>
	<tree id="12" weight="0.1">
		<split>
			<feature> 91 </feature>
			<threshold> 0.0 </threshold>
			<split pos="left">
				<output> 0.22724946 </output>
			</split>
			<split pos="right">
				<feature> 91 </feature>
				<threshold> 651581.1 </threshold>
				<split pos="left">
					<output> 0.20081916 </output>
				</split>
				<split pos="right">
					<feature> 91 </feature>
					<threshold> 3257905.5 </threshold>
					<split pos="left">
						<feature> 91 </feature>
						<threshold> 1954743.4 </threshold>
						<split pos="left">
							<feature> 91 </feature>
							<threshold> 1303162.2 </threshold>
							<split pos="left">
								<output> 0.044129584 </output>
							</split>
							<split pos="right">
								<output> 0.034867838 </output>
							</split>
						</split>
						<split pos="right">
							<feature> 91 </feature>
							<threshold> 2606324.5 </threshold>
							<split pos="left">
								<output> 0.09414319 </output>
							</split>
							<split pos="right">
								<output> 0.04483009 </output>
							</split>
						</split>
					</split>
					<split pos="right">
						<output> 0.0 </output>
					</split>
				</split>
			</split>
		</split>
	</tree>
	<tree id="13" weight="0.1">
		<split>
			<feature> 91 </feature>
			<threshold> 0.0 </threshold>
			<split pos="left">
				<output> 0.20393999 </output>
			</split>
			<split pos="right">
				<feature> 91 </feature>
				<threshold> 651581.1 </threshold>
				<split pos="left">
					<output> 0.1799663 </output>
				</split>
				<split pos="right">
					<feature> 91 </feature>
					<threshold> 3257905.5 </threshold>
					<split pos="left">
						<feature> 91 </feature>
						<threshold> 1954743.4 </threshold>
						<split pos="left">
							<feature> 91 </feature>
							<threshold> 1303162.2 </threshold>
							<split pos="left">
								<output> 0.039716706 </output>
							</split>
							<split pos="right">
								<output> 0.031381074 </output>
							</split>
						</split>
						<split pos="right">
							<feature> 91 </feature>
							<threshold> 2606324.5 </threshold>
							<split pos="left">
								<output> 0.084728874 </output>
							</split>
							<split pos="right">
								<output> 0.040347096 </output>
							</split>
						</split>
					</split>
					<split pos="right">
						<output> 0.0 </output>
					</split>
				</split>
			</split>
		</split>
	</tree>
	<tree id="14" weight="0.1">
		<split>
			<feature> 91 </feature>
			<threshold> 0.0 </threshold>
			<split pos="left">
				<output> 0.1841921 </output>
			</split>
			<split pos="right">
				<feature> 91 </feature>
				<threshold> 651581.1 </threshold>
				<split pos="left">
					<output> 0.16307634 </output>
				</split>
				<split pos="right">
					<feature> 91 </feature>
					<threshold> 3257905.5 </threshold>
					<split pos="left">
						<feature> 91 </feature>
						<threshold> 1954743.4 </threshold>
						<split pos="left">
							<feature> 91 </feature>
							<threshold> 1303162.2 </threshold>
							<split pos="left">
								<output> 0.03574493 </output>
							</split>
							<split pos="right">
								<output> 0.028242955 </output>
							</split>
						</split>
						<split pos="right">
							<feature> 91 </feature>
							<threshold> 2606324.5 </threshold>
							<split pos="left">
								<output> 0.07625596 </output>
							</split>
							<split pos="right">
								<output> 0.036312364 </output>
							</split>
						</split>
					</split>
					<split pos="right">
						<output> 0.0 </output>
					</split>
				</split>
			</split>
		</split>
	</tree>
	<tree id="15" weight="0.1">
		<split>
			<feature> 91 </feature>
			<threshold> 0.0 </threshold>
			<split pos="left">
				<output> 0.16513595 </output>
			</split>
			<split pos="right">
				<feature> 91 </feature>
				<threshold> 651581.1 </threshold>
				<split pos="left">
					<output> 0.14717884 </output>
				</split>
				<split pos="right">
					<feature> 91 </feature>
					<threshold> 3257905.5 </threshold>
					<split pos="left">
						<feature> 91 </feature>
						<threshold> 1954743.4 </threshold>
						<split pos="left">
							<feature> 91 </feature>
							<threshold> 1303162.2 </threshold>
							<split pos="left">
								<output> 0.03217051 </output>
							</split>
							<split pos="right">
								<output> 0.025418656 </output>
							</split>
						</split>
						<split pos="right">
							<feature> 91 </feature>
							<threshold> 2606324.5 </threshold>
							<split pos="left">
								<output> 0.068630375 </output>
							</split>
							<split pos="right">
								<output> 0.03268113 </output>
							</split>
						</split>
					</split>
					<split pos="right">
						<output> 0.0 </output>
					</split>
				</split>
			</split>
		</split>
	</tree>
	<tree id="16" weight="0.1">
		<split>
			<feature> 91 </feature>
			<threshold> 0.0 </threshold>
			<split pos="left">
				<output> 0.14912145 </output>
			</split>
			<split pos="right">
				<feature> 91 </feature>
				<threshold> 651581.1 </threshold>
				<split pos="left">
					<output> 0.13219298 </output>
				</split>
				<split pos="right">
					<feature> 91 </feature>
					<threshold> 3257905.5 </threshold>
					<split pos="left">
						<feature> 91 </feature>
						<threshold> 1954743.4 </threshold>
						<split pos="left">
							<feature> 91 </feature>
							<threshold> 1303162.2 </threshold>
							<split pos="left">
								<output> 0.028953511 </output>
							</split>
							<split pos="right">
								<output> 0.0228768 </output>
							</split>
						</split>
						<split pos="right">
							<feature> 91 </feature>
							<threshold> 2606324.5 </threshold>
							<split pos="left">
								<output> 0.06176735 </output>
							</split>
							<split pos="right">
								<output> 0.02941304 </output>
							</split>
						</split>
					</split>
					<split pos="right">
						<output> 0.0 </output>
					</split>
				</split>
			</split>
		</split>
	</tree>
	<tree id="17" weight="0.1">
		<split>
			<feature> 91 </feature>
			<threshold> 0.0 </threshold>
			<split pos="left">
				<output> 0.13397972 </output>
			</split>
			<split pos="right">
				<feature> 91 </feature>
				<threshold> 651581.1 </threshold>
				<split pos="left">
					<output> 0.117981054 </output>
				</split>
				<split pos="right">
					<feature> 91 </feature>
					<threshold> 3257905.5 </threshold>
					<split pos="left">
						<feature> 91 </feature>
						<threshold> 1954743.4 </threshold>
						<split pos="left">
							<feature> 91 </feature>
							<threshold> 1303162.2 </threshold>
							<split pos="left">
								<output> 0.026058154 </output>
							</split>
							<split pos="right">
								<output> 0.02058911 </output>
							</split>
						</split>
						<split pos="right">
							<feature> 91 </feature>
							<threshold> 2606324.5 </threshold>
							<split pos="left">
								<output> 0.05559057 </output>
							</split>
							<split pos="right">
								<output> 0.02647173 </output>
							</split>
						</split>
					</split>
					<split pos="right">
						<output> 0.0 </output>
					</split>
				</split>
			</split>
		</split>
	</tree>
	<tree id="18" weight="0.1">
		<split>
			<feature> 91 </feature>
			<threshold> 0.0 </threshold>
			<split pos="left">
				<output> 0.12045099 </output>
			</split>
			<split pos="right">
				<feature> 91 </feature>
				<threshold> 651581.1 </threshold>
				<split pos="left">
					<output> 0.10629799 </output>
				</split>
				<split pos="right">
					<feature> 91 </feature>
					<threshold> 3257905.5 </threshold>
					<split pos="left">
						<feature> 91 </feature>
						<threshold> 1954743.4 </threshold>
						<split pos="left">
							<feature> 91 </feature>
							<threshold> 1303162.2 </threshold>
							<split pos="left">
								<output> 0.023452282 </output>
							</split>
							<split pos="right">
								<output> 0.018530203 </output>
							</split>
						</split>
						<split pos="right">
							<feature> 91 </feature>
							<threshold> 2606324.5 </threshold>
							<split pos="left">
								<output> 0.050031506 </output>
							</split>
							<split pos="right">
								<output> 0.023824533 </output>
							</split>
						</split>
					</split>
					<split pos="right">
						<output> 0.0 </output>
					</split>
				</split>
			</split>
		</split>
	</tree>
	<tree id="19" weight="0.1">
		<split>
			<feature> 91 </feature>
			<threshold> 0.0 </threshold>
			<split pos="left">
				<output> 0.10867171 </output>
			</split>
			<split pos="right">
				<feature> 91 </feature>
				<threshold> 651581.1 </threshold>
				<split pos="left">
					<output> 0.0961234 </output>
				</split>
				<split pos="right">
					<feature> 91 </feature>
					<threshold> 3257905.5 </threshold>
					<split pos="left">
						<feature> 91 </feature>
						<threshold> 1954743.4 </threshold>
						<split pos="left">
							<feature> 91 </feature>
							<threshold> 1303162.2 </threshold>
							<split pos="left">
								<output> 0.021107022 </output>
							</split>
							<split pos="right">
								<output> 0.016677195 </output>
							</split>
						</split>
						<split pos="right">
							<feature> 91 </feature>
							<threshold> 2606324.5 </threshold>
							<split pos="left">
								<output> 0.045028377 </output>
							</split>
							<split pos="right">
								<output> 0.021442112 </output>
							</split>
						</split>
					</split>
					<split pos="right">
						<output> 0.0 </output>
					</split>
				</split>
			</split>
		</split>
	</tree>
	<tree id="20" weight="0.1">
		<split>
			<feature> 91 </feature>
			<threshold> 0.0 </threshold>
			<split pos="left">
				<output> 0.097754285 </output>
			</split>
			<split pos="right">
				<feature> 91 </feature>
				<threshold> 651581.1 </threshold>
				<split pos="left">
					<output> 0.08600526 </output>
				</split>
				<split pos="right">
					<feature> 91 </feature>
					<threshold> 3257905.5 </threshold>
					<split pos="left">
						<feature> 91 </feature>
						<threshold> 1954743.4 </threshold>
						<split pos="left">
							<feature> 91 </feature>
							<threshold> 1303162.2 </threshold>
							<split pos="left">
								<output> 0.018996296 </output>
							</split>
							<split pos="right">
								<output> 0.015009463 </output>
							</split>
						</split>
						<split pos="right">
							<feature> 91 </feature>
							<threshold> 2606324.5 </threshold>
							<split pos="left">
								<output> 0.04052552 </output>
							</split>
							<split pos="right">
								<output> 0.019297894 </output>
							</split>
						</split>
					</split>
					<split pos="right">
						<output> 0.0 </output>
					</split>
				</split>
			</split>
		</split>
	</tree>
	<tree id="21" weight="0.1">
		<split>
			<feature> 91 </feature>
			<threshold> 0.0 </threshold>
			<split pos="left">
				<output> 0.087904684 </output>
			</split>
			<split pos="right">
				<feature> 91 </feature>
				<threshold> 651581.1 </threshold>
				<split pos="left">
					<output> 0.07776794 </output>
				</split>
				<split pos="right">
					<feature> 91 </feature>
					<threshold> 3257905.5 </threshold>
					<split pos="left">
						<feature> 91 </feature>
						<threshold> 1954743.4 </threshold>
						<split pos="left">
							<feature> 91 </feature>
							<threshold> 1303162.2 </threshold>
							<split pos="left">
								<output> 0.017096743 </output>
							</split>
							<split pos="right">
								<output> 0.013508512 </output>
							</split>
						</split>
						<split pos="right">
							<feature> 91 </feature>
							<threshold> 2606324.5 </threshold>
							<split pos="left">
								<output> 0.03647298 </output>
							</split>
							<split pos="right">
								<output> 0.017368091 </output>
							</split>
						</split>
					</split>
					<split pos="right">
						<output> 0.0 </output>
					</split>
				</split>
			</split>
		</split>
	</tree>
	<tree id="22" weight="0.1">
		<split>
			<feature> 91 </feature>
			<threshold> 0.0 </threshold>
			<split pos="left">
				<output> 0.079101466 </output>
			</split>
			<split pos="right">
				<feature> 91 </feature>
				<threshold> 651581.1 </threshold>
				<split pos="left">
					<output> 0.06996199 </output>
				</split>
				<split pos="right">
					<feature> 91 </feature>
					<threshold> 3257905.5 </threshold>
					<split pos="left">
						<feature> 91 </feature>
						<threshold> 1954743.4 </threshold>
						<split pos="left">
							<feature> 91 </feature>
							<threshold> 1303162.2 </threshold>
							<split pos="left">
								<output> 0.015387058 </output>
							</split>
							<split pos="right">
								<output> 0.012157664 </output>
							</split>
						</split>
						<split pos="right">
							<feature> 91 </feature>
							<threshold> 2606324.5 </threshold>
							<split pos="left">
								<output> 0.03282572 </output>
							</split>
							<split pos="right">
								<output> 0.015631285 </output>
							</split>
						</split>
					</split>
					<split pos="right">
						<output> 0.0 </output>
					</split>
				</split>
			</split>
		</split>
	</tree>
	<tree id="23" weight="0.1">
		<split>
			<feature> 91 </feature>
			<threshold> 0.0 </threshold>
			<split pos="left">
				<output> 0.07125241 </output>
			</split>
			<split pos="right">
				<feature> 91 </feature>
				<threshold> 651581.1 </threshold>
				<split pos="left">
					<output> 0.06274472 </output>
				</split>
				<split pos="right">
					<feature> 91 </feature>
					<threshold> 3257905.5 </threshold>
					<split pos="left">
						<feature> 91 </feature>
						<threshold> 1954743.4 </threshold>
						<split pos="left">
							<feature> 91 </feature>
							<threshold> 1303162.2 </threshold>
							<split pos="left">
								<output> 0.0138483085 </output>
							</split>
							<split pos="right">
								<output> 0.010941916 </output>
							</split>
						</split>
						<split pos="right">
							<feature> 91 </feature>
							<threshold> 2606324.5 </threshold>
							<split pos="left">
								<output> 0.029543106 </output>
							</split>
							<split pos="right">
								<output> 0.014068178 </output>
							</split>
						</split>
					</split>
					<split pos="right">
						<output> 0.0 </output>
					</split>
				</split>
			</split>
		</split>
	</tree>
	<tree id="24" weight="0.1">
		<split>
			<feature> 91 </feature>
			<threshold> 0.0 </threshold>
			<split pos="left">
				<output> 0.06418522 </output>
			</split>
			<split pos="right">
				<feature> 91 </feature>
				<threshold> 651581.1 </threshold>
				<split pos="left">
					<output> 0.05647559 </output>
				</split>
				<split pos="right">
					<feature> 91 </feature>
					<threshold> 3257905.5 </threshold>
					<split pos="left">
						<feature> 91 </feature>
						<threshold> 1954743.4 </threshold>
						<split pos="left">
							<feature> 91 </feature>
							<threshold> 1303162.2 </threshold>
							<split pos="left">
								<output> 0.012463553 </output>
							</split>
							<split pos="right">
								<output> 0.009847707 </output>
							</split>
						</split>
						<split pos="right">
							<feature> 91 </feature>
							<threshold> 2606324.5 </threshold>
							<split pos="left">
								<output> 0.026588831 </output>
							</split>
							<split pos="right">
								<output> 0.012661346 </output>
							</split>
						</split>
					</split>
					<split pos="right">
						<output> 0.0 </output>
					</split>
				</split>
			</split>
		</split>
	</tree>
	<tree id="25" weight="0.1">
		<split>
			<feature> 91 </feature>
			<threshold> 0.0 </threshold>
			<split pos="left">
				<output> 0.05768585 </output>
			</split>
			<split pos="right">
				<feature> 91 </feature>
				<threshold> 651581.1 </threshold>
				<split pos="left">
					<output> 0.051008884 </output>
				</split>
				<split pos="right">
					<feature> 91 </feature>
					<threshold> 3257905.5 </threshold>
					<split pos="left">
						<feature> 91 </feature>
						<threshold> 1954743.4 </threshold>
						<split pos="left">
							<feature> 91 </feature>
							<threshold> 1303162.2 </threshold>
							<split pos="left">
								<output> 0.011217135 </output>
							</split>
							<split pos="right">
								<output> 0.008862927 </output>
							</split>
						</split>
						<split pos="right">
							<feature> 91 </feature>
							<threshold> 2606324.5 </threshold>
							<split pos="left">
								<output> 0.023929918 </output>
							</split>
							<split pos="right">
								<output> 0.011395221 </output>
							</split>
						</split>
					</split>
					<split pos="right">
						<output> 0.0 </output>
					</split>
				</split>
			</split>
		</split>
	</tree>
	<tree id="26" weight="0.1">
		<split>
			<feature> 91 </feature>
			<threshold> 0.0 </threshold>
			<split pos="left">
				<output> 0.051896393 </output>
			</split>
			<split pos="right">
				<feature> 91 </feature>
				<threshold> 651581.1 </threshold>
				<split pos="left">
					<output> 0.045984507 </output>
				</split>
				<split pos="right">
					<feature> 91 </feature>
					<threshold> 3257905.5 </threshold>
					<split pos="left">
						<feature> 91 </feature>
						<threshold> 1954743.4 </threshold>
						<split pos="left">
							<feature> 91 </feature>
							<threshold> 1303162.2 </threshold>
							<split pos="left">
								<output> 0.010095431 </output>
							</split>
							<split pos="right">
								<output> 0.00797664 </output>
							</split>
						</split>
						<split pos="right">
							<feature> 91 </feature>
							<threshold> 2606324.5 </threshold>
							<split pos="left">
								<output> 0.021536982 </output>
							</split>
							<split pos="right">
								<output> 0.010255699 </output>
							</split>
						</split>
					</split>
					<split pos="right">
						<output> 0.0 </output>
					</split>
				</split>
			</split>
		</split>
	</tree>
	<tree id="27" weight="0.1">
		<split>
			<feature> 91 </feature>
			<threshold> 0.0 </threshold>
			<split pos="left">
				<output> 0.046714608 </output>
			</split>
			<split pos="right">
				<feature> 91 </feature>
				<threshold> 651581.1 </threshold>
				<split pos="left">
					<output> 0.041460324 </output>
				</split>
				<split pos="right">
					<feature> 91 </feature>
					<threshold> 3257905.5 </threshold>
					<split pos="left">
						<feature> 91 </feature>
						<threshold> 1954743.4 </threshold>
						<split pos="left">
							<feature> 91 </feature>
							<threshold> 1303162.2 </threshold>
							<split pos="left">
								<output> 0.009085894 </output>
							</split>
							<split pos="right">
								<output> 0.0071789753 </output>
							</split>
						</split>
						<split pos="right">
							<feature> 91 </feature>
							<threshold> 2606324.5 </threshold>
							<split pos="left">
								<output> 0.019383252 </output>
							</split>
							<split pos="right">
								<output> 0.009230102 </output>
							</split>
						</split>
					</split>
					<split pos="right">
						<output> 0.0 </output>
					</split>
				</split>
			</split>
		</split>
	</tree>
	<tree id="28" weight="0.1">
		<split>
			<feature> 91 </feature>
			<threshold> 0.0 </threshold>
			<split pos="left">
				<output> 0.042167965 </output>
			</split>
			<split pos="right">
				<feature> 91 </feature>
				<threshold> 651581.1 </threshold>
				<split pos="left">
					<output> 0.037383243 </output>
				</split>
				<split pos="right">
					<feature> 91 </feature>
					<threshold> 3257905.5 </threshold>
					<split pos="left">
						<feature> 91 </feature>
						<threshold> 1954743.4 </threshold>
						<split pos="left">
							<feature> 91 </feature>
							<threshold> 1303162.2 </threshold>
							<split pos="left">
								<output> 0.008177299 </output>
							</split>
							<split pos="right">
								<output> 0.006461082 </output>
							</split>
						</split>
						<split pos="right">
							<feature> 91 </feature>
							<threshold> 2606324.5 </threshold>
							<split pos="left">
								<output> 0.017444933 </output>
							</split>
							<split pos="right">
								<output> 0.008307108 </output>
							</split>
						</split>
					</split>
					<split pos="right">
						<output> 0.0 </output>
					</split>
				</split>
			</split>
		</split>
	</tree>
	<tree id="29" weight="0.1">
		<split>
			<feature> 91 </feature>
			<threshold> 0.0 </threshold>
			<split pos="left">
				<output> 0.037851926 </output>
			</split>
			<split pos="right">
				<feature> 91 </feature>
				<threshold> 651581.1 </threshold>
				<split pos="left">
					<output> 0.03359591 </output>
				</split>
				<split pos="right">
					<feature> 91 </feature>
					<threshold> 3257905.5 </threshold>
					<split pos="left">
						<feature> 91 </feature>
						<threshold> 1954743.4 </threshold>
						<split pos="left">
							<feature> 91 </feature>
							<threshold> 1303162.2 </threshold>
							<split pos="left">
								<output> 0.0073595787 </output>
							</split>
							<split pos="right">
								<output> 0.005814969 </output>
							</split>
						</split>
						<split pos="right">
							<feature> 91 </feature>
							<threshold> 2606324.5 </threshold>
							<split pos="left">
								<output> 0.015700495 </output>
							</split>
							<split pos="right">
								<output> 0.007476398 </output>
							</split>
						</split>
					</split>
					<split pos="right">
						<output> 0.0 </output>
					</split>
				</split>
			</split>
		</split>
	</tree>
	<tree id="30" weight="0.1">
		<split>
			<feature> 91 </feature>
			<threshold> 0.0 </threshold>
			<split pos="left">
				<output> 0.034069907 </output>
			</split>
			<split pos="right">
				<feature> 91 </feature>
				<threshold> 651581.1 </threshold>
				<split pos="left">
					<output> 0.030140758 </output>
				</split>
				<split pos="right">
					<feature> 91 </feature>
					<threshold> 3257905.5 </threshold>
					<split pos="left">
						<feature> 91 </feature>
						<threshold> 1954743.4 </threshold>
						<split pos="left">
							<feature> 91 </feature>
							<threshold> 1303162.2 </threshold>
							<split pos="left">
								<output> 0.006623663 </output>
							</split>
							<split pos="right">
								<output> 0.005233473 </output>
							</split>
						</split>
						<split pos="right">
							<feature> 91 </feature>
							<threshold> 2606324.5 </threshold>
							<split pos="left">
								<output> 0.014130426 </output>
							</split>
							<split pos="right">
								<output> 0.0067287725 </output>
							</split>
						</split>
					</split>
					<split pos="right">
						<output> 0.0 </output>
					</split>
				</split>
			</split>
		</split>
	</tree>
	<tree id="31" weight="0.1">
		<split>
			<feature> 91 </feature>
			<threshold> 0.0 </threshold>
			<split pos="left">
				<output> 0.030678434 </output>
			</split>
			<split pos="right">
				<feature> 91 </feature>
				<threshold> 651581.1 </threshold>
				<split pos="left">
					<output> 0.027096894 </output>
				</split>
				<split pos="right">
					<feature> 91 </feature>
					<threshold> 3257905.5 </threshold>
					<split pos="left">
						<feature> 91 </feature>
						<threshold> 1954743.4 </threshold>
						<split pos="left">
							<feature> 91 </feature>
							<threshold> 1303162.2 </threshold>
							<split pos="left">
								<output> 0.0059612556 </output>
							</split>
							<split pos="right">
								<output> 0.004710136 </output>
							</split>
						</split>
						<split pos="right">
							<feature> 91 </feature>
							<threshold> 2606324.5 </threshold>
							<split pos="left">
								<output> 0.012717402 </output>
							</split>
							<split pos="right">
								<output> 0.0060558957 </output>
							</split>
						</split>
					</split>
					<split pos="right">
						<output> 0.0 </output>
					</split>
				</split>
			</split>
		</split>
	</tree>
	<tree id="32" weight="0.1">
		<split>
			<feature> 91 </feature>
			<threshold> 0.0 </threshold>
			<split pos="left">
				<output> 0.027615504 </output>
			</split>
			<split pos="right">
				<feature> 91 </feature>
				<threshold> 651581.1 </threshold>
				<split pos="left">
					<output> 0.024413709 </output>
				</split>
				<split pos="right">
					<feature> 91 </feature>
					<threshold> 3257905.5 </threshold>
					<split pos="left">
						<feature> 91 </feature>
						<threshold> 1954743.4 </threshold>
						<split pos="left">
							<feature> 91 </feature>
							<threshold> 1303162.2 </threshold>
							<split pos="left">
								<output> 0.0053651333 </output>
							</split>
							<split pos="right">
								<output> 0.0042391354 </output>
							</split>
						</split>
						<split pos="right">
							<feature> 91 </feature>
							<threshold> 2606324.5 </threshold>
							<split pos="left">
								<output> 0.011445606 </output>
							</split>
							<split pos="right">
								<output> 0.0054503125 </output>
							</split>
						</split>
					</split>
					<split pos="right">
						<output> 0.0 </output>
					</split>
				</split>
			</split>
		</split>
	</tree>
	<tree id="33" weight="0.1">
		<split>
			<feature> 91 </feature>
			<threshold> 0.0 </threshold>
			<split pos="left">
				<output> 0.024869567 </output>
			</split>
			<split pos="right">
				<feature> 91 </feature>
				<threshold> 651581.1 </threshold>
				<split pos="left">
					<output> 0.022052163 </output>
				</split>
				<split pos="right">
					<feature> 91 </feature>
					<threshold> 3257905.5 </threshold>
					<split pos="left">
						<feature> 91 </feature>
						<threshold> 1954743.4 </threshold>
						<split pos="left">
							<feature> 91 </feature>
							<threshold> 1303162.2 </threshold>
							<split pos="left">
								<output> 0.0048286673 </output>
							</split>
							<split pos="right">
								<output> 0.003815205 </output>
							</split>
						</split>
						<split pos="right">
							<feature> 91 </feature>
							<threshold> 2606324.5 </threshold>
							<split pos="left">
								<output> 0.0103010535 </output>
							</split>
							<split pos="right">
								<output> 0.0049052876 </output>
							</split>
						</split>
					</split>
					<split pos="right">
						<output> 0.0 </output>
					</split>
				</split>
			</split>
		</split>
	</tree>
	<tree id="34" weight="0.1">
		<split>
			<feature> 91 </feature>
			<threshold> 0.0 </threshold>
			<split pos="left">
				<output> 0.022409052 </output>
			</split>
			<split pos="right">
				<feature> 91 </feature>
				<threshold> 651581.1 </threshold>
				<split pos="left">
					<output> 0.019786444 </output>
				</split>
				<split pos="right">
					<feature> 91 </feature>
					<threshold> 3257905.5 </threshold>
					<split pos="left">
						<feature> 91 </feature>
						<threshold> 1954743.4 </threshold>
						<split pos="left">
							<feature> 91 </feature>
							<threshold> 1303162.2 </threshold>
							<split pos="left">
								<output> 0.004345732 </output>
							</split>
							<split pos="right">
								<output> 0.0034336662 </output>
							</split>
						</split>
						<split pos="right">
							<feature> 91 </feature>
							<threshold> 2606324.5 </threshold>
							<split pos="left">
								<output> 0.009270954 </output>
							</split>
							<split pos="right">
								<output> 0.0044147456 </output>
							</split>
						</split>
					</split>
					<split pos="right">
						<output> 0.0 </output>
					</split>
				</split>
			</split>
		</split>
	</tree>
	<tree id="35" weight="0.1">
		<split>
			<feature> 91 </feature>
			<threshold> 0.0 </threshold>
			<split pos="left">
				<output> 0.020176101 </output>
			</split>
			<split pos="right">
				<feature> 91 </feature>
				<threshold> 651581.1 </threshold>
				<split pos="left">
					<output> 0.017771678 </output>
				</split>
				<split pos="right">
					<feature> 91 </feature>
					<threshold> 3257905.5 </threshold>
					<split pos="left">
						<feature> 91 </feature>
						<threshold> 1954743.4 </threshold>
						<split pos="left">
							<feature> 91 </feature>
							<threshold> 1303162.2 </threshold>
							<split pos="left">
								<output> 0.003911197 </output>
							</split>
							<split pos="right">
								<output> 0.0030903204 </output>
							</split>
						</split>
						<split pos="right">
							<feature> 91 </feature>
							<threshold> 2606324.5 </threshold>
							<split pos="left">
								<output> 0.008343851 </output>
							</split>
							<split pos="right">
								<output> 0.003973258 </output>
							</split>
						</split>
					</split>
					<split pos="right">
						<output> 0.0 </output>
					</split>
				</split>
			</split>
		</split>
	</tree>
	<tree id="36" weight="0.1">
		<split>
			<feature> 91 </feature>
			<threshold> 0.0 </threshold>
			<split pos="left">
				<output> 0.018123725 </output>
			</split>
			<split pos="right">
				<feature> 91 </feature>
				<threshold> 651581.1 </threshold>
				<split pos="left">
					<output> 0.016058818 </output>
				</split>
				<split pos="right">
					<feature> 91 </feature>
					<threshold> 3257905.5 </threshold>
					<split pos="left">
						<feature> 91 </feature>
						<threshold> 1954743.4 </threshold>
						<split pos="left">
							<feature> 91 </feature>
							<threshold> 1303162.2 </threshold>
							<split pos="left">
								<output> 0.0035200359 </output>
							</split>
							<split pos="right">
								<output> 0.002781282 </output>
							</split>
						</split>
						<split pos="right">
							<feature> 91 </feature>
							<threshold> 2606324.5 </threshold>
							<split pos="left">
								<output> 0.0075094937 </output>
							</split>
							<split pos="right">
								<output> 0.0035759339 </output>
							</split>
						</split>
					</split>
					<split pos="right">
						<output> 0.0 </output>
					</split>
				</split>
			</split>
		</split>
	</tree>
	<tree id="37" weight="0.1">
		<split>
			<feature> 91 </feature>
			<threshold> 0.0 </threshold>
			<split pos="left">
				<output> 0.016333383 </output>
			</split>
			<split pos="right">
				<feature> 91 </feature>
				<threshold> 651581.1 </threshold>
				<split pos="left">
					<output> 0.014431151 </output>
				</split>
				<split pos="right">
					<feature> 91 </feature>
					<threshold> 3257905.5 </threshold>
					<split pos="left">
						<feature> 91 </feature>
						<threshold> 1954743.4 </threshold>
						<split pos="left">
							<feature> 91 </feature>
							<threshold> 1303162.2 </threshold>
							<split pos="left">
								<output> 0.0031680819 </output>
							</split>
							<split pos="right">
								<output> 0.002503145 </output>
							</split>
						</split>
						<split pos="right">
							<feature> 91 </feature>
							<threshold> 2606324.5 </threshold>
							<split pos="left">
								<output> 0.006758523 </output>
							</split>
							<split pos="right">
								<output> 0.003218357 </output>
							</split>
						</split>
					</split>
					<split pos="right">
						<output> 0.0 </output>
					</split>
				</split>
			</split>
		</split>
	</tree>
	<tree id="38" weight="0.1">
		<split>
			<feature> 91 </feature>
			<threshold> 0.0 </threshold>
			<split pos="left">
				<output> 0.014708252 </output>
			</split>
			<split pos="right">
				<feature> 91 </feature>
				<threshold> 651581.1 </threshold>
				<split pos="left">
					<output> 0.012992508 </output>
				</split>
				<split pos="right">
					<feature> 91 </feature>
					<threshold> 3257905.5 </threshold>
					<split pos="left">
						<feature> 91 </feature>
						<threshold> 1954743.4 </threshold>
						<split pos="left">
							<feature> 91 </feature>
							<threshold> 1303162.2 </threshold>
							<split pos="left">
								<output> 0.0028512476 </output>
							</split>
							<split pos="right">
								<output> 0.0022528407 </output>
							</split>
						</split>
						<split pos="right">
							<feature> 91 </feature>
							<threshold> 2606324.5 </threshold>
							<split pos="left">
								<output> 0.00608269 </output>
							</split>
							<split pos="right">
								<output> 0.0028965005 </output>
							</split>
						</split>
					</split>
					<split pos="right">
						<output> 0.0 </output>
					</split>
				</split>
			</split>
		</split>
	</tree>
	<tree id="39" weight="0.1">
		<split>
			<feature> 91 </feature>
			<threshold> 0.0 </threshold>
			<split pos="left">
				<output> 0.013205317 </output>
			</split>
			<split pos="right">
				<feature> 91 </feature>
				<threshold> 651581.1 </threshold>
				<split pos="left">
					<output> 0.0116652055 </output>
				</split>
				<split pos="right">
					<feature> 91 </feature>
					<threshold> 3257905.5 </threshold>
					<split pos="left">
						<feature> 91 </feature>
						<threshold> 1954743.4 </threshold>
						<split pos="left">
							<feature> 91 </feature>
							<threshold> 1303162.2 </threshold>
							<split pos="left">
								<output> 0.0025660994 </output>
							</split>
							<split pos="right">
								<output> 0.0020275628 </output>
							</split>
						</split>
						<split pos="right">
							<feature> 91 </feature>
							<threshold> 2606324.5 </threshold>
							<split pos="left">
								<output> 0.0054744007 </output>
							</split>
							<split pos="right">
								<output> 0.002606873 </output>
							</split>
						</split>
					</split>
					<split pos="right">
						<output> 0.0 </output>
					</split>
				</split>
			</split>
		</split>
	</tree>
	<tree id="40" weight="0.1">
		<split>
			<feature> 91 </feature>
			<threshold> 0.0 </threshold>
			<split pos="left">
				<output> 0.011900554 </output>
			</split>
			<split pos="right">
				<feature> 91 </feature>
				<threshold> 651581.1 </threshold>
				<split pos="left">
					<output> 0.010553316 </output>
				</split>
				<split pos="right">
					<feature> 91 </feature>
					<threshold> 3257905.5 </threshold>
					<split pos="left">
						<feature> 91 </feature>
						<threshold> 1954743.4 </threshold>
						<split pos="left">
							<feature> 91 </feature>
							<threshold> 1303162.2 </threshold>
							<split pos="left">
								<output> 0.0023095356 </output>
							</split>
							<split pos="right">
								<output> 0.0018247957 </output>
							</split>
						</split>
						<split pos="right">
							<feature> 91 </feature>
							<threshold> 2606324.5 </threshold>
							<split pos="left">
								<output> 0.0049269674 </output>
							</split>
							<split pos="right">
								<output> 0.0023461708 </output>
							</split>
						</split>
					</split>
					<split pos="right">
						<output> 0.0 </output>
					</split>
				</split>
			</split>
		</split>
	</tree>
	<tree id="41" weight="0.1">
		<split>
			<feature> 91 </feature>
			<threshold> 0.0 </threshold>
			<split pos="left">
				<output> 0.0107179135 </output>
			</split>
			<split pos="right">
				<feature> 91 </feature>
				<threshold> 651581.1 </threshold>
				<split pos="left">
					<output> 0.00946051 </output>
				</split>
				<split pos="right">
					<feature> 91 </feature>
					<threshold> 3257905.5 </threshold>
					<split pos="left">
						<feature> 91 </feature>
						<threshold> 1954743.4 </threshold>
						<split pos="left">
							<feature> 91 </feature>
							<threshold> 1303162.2 </threshold>
							<split pos="left">
								<output> 0.0020785334 </output>
							</split>
							<split pos="right">
								<output> 0.0016423078 </output>
							</split>
						</split>
						<split pos="right">
							<feature> 91 </feature>
							<threshold> 2606324.5 </threshold>
							<split pos="left">
								<output> 0.004434264 </output>
							</split>
							<split pos="right">
								<output> 0.0021115628 </output>
							</split>
						</split>
					</split>
					<split pos="right">
						<output> 0.0 </output>
					</split>
				</split>
			</split>
		</split>
	</tree>
	<tree id="42" weight="0.1">
		<split>
			<feature> 91 </feature>
			<threshold> 0.0 </threshold>
			<split pos="left">
				<output> 0.009625999 </output>
			</split>
			<split pos="right">
				<feature> 91 </feature>
				<threshold> 651581.1 </threshold>
				<split pos="left">
					<output> 0.0084981965 </output>
				</split>
				<split pos="right">
					<feature> 91 </feature>
					<threshold> 3257905.5 </threshold>
					<split pos="left">
						<feature> 91 </feature>
						<threshold> 1954743.4 </threshold>
						<split pos="left">
							<feature> 91 </feature>
							<threshold> 1303162.2 </threshold>
							<split pos="left">
								<output> 0.0018706573 </output>
							</split>
							<split pos="right">
								<output> 0.0014780859 </output>
							</split>
						</split>
						<split pos="right">
							<feature> 91 </feature>
							<threshold> 2606324.5 </threshold>
							<split pos="left">
								<output> 0.003990829 </output>
							</split>
							<split pos="right">
								<output> 0.0019004004 </output>
							</split>
						</split>
					</split>
					<split pos="right">
						<output> 0.0 </output>
					</split>
				</split>
			</split>
		</split>
	</tree>
	<tree id="43" weight="0.1">
		<split>
			<feature> 91 </feature>
			<threshold> 0.0 </threshold>
			<split pos="left">
				<output> 0.00866306 </output>
			</split>
			<split pos="right">
				<feature> 91 </feature>
				<threshold> 651581.1 </threshold>
				<split pos="left">
					<output> 0.007688693 </output>
				</split>
				<split pos="right">
					<feature> 91 </feature>
					<threshold> 3257905.5 </threshold>
					<split pos="left">
						<feature> 91 </feature>
						<threshold> 1954743.4 </threshold>
						<split pos="left">
							<feature> 91 </feature>
							<threshold> 1303162.2 </threshold>
							<split pos="left">
								<output> 0.0016836277 </output>
							</split>
							<split pos="right">
								<output> 0.0013302801 </output>
							</split>
						</split>
						<split pos="right">
							<feature> 91 </feature>
							<threshold> 2606324.5 </threshold>
							<split pos="left">
								<output> 0.0035917878 </output>
							</split>
							<split pos="right">
								<output> 0.0017103681 </output>
							</split>
						</split>
					</split>
					<split pos="right">
						<output> 0.0 </output>
					</split>
				</split>
			</split>
		</split>
	</tree>
	<tree id="44" weight="0.1">
		<split>
			<feature> 91 </feature>
			<threshold> 0.0 </threshold>
			<split pos="left">
				<output> 0.007803526 </output>
			</split>
			<split pos="right">
				<feature> 91 </feature>
				<threshold> 651581.1 </threshold>
				<split pos="left">
					<output> 0.0069066887 </output>
				</split>
				<split pos="right">
					<feature> 91 </feature>
					<threshold> 3257905.5 </threshold>
					<split pos="left">
						<feature> 91 </feature>
						<threshold> 1954743.4 </threshold>
						<split pos="left">
							<feature> 91 </feature>
							<threshold> 1303162.2 </threshold>
							<split pos="left">
								<output> 0.0015152353 </output>
							</split>
							<split pos="right">
								<output> 0.0011972445 </output>
							</split>
						</split>
						<split pos="right">
							<feature> 91 </feature>
							<threshold> 2606324.5 </threshold>
							<split pos="left">
								<output> 0.0032325624 </output>
							</split>
							<split pos="right">
								<output> 0.0015393539 </output>
							</split>
						</split>
					</split>
					<split pos="right">
						<output> 0.0 </output>
					</split>
				</split>
			</split>
		</split>
	</tree>
	<tree id="45" weight="0.1">
		<split>
			<feature> 91 </feature>
			<threshold> 0.0 </threshold>
			<split pos="left">
				<output> 0.0070251767 </output>
			</split>
			<split pos="right">
				<feature> 91 </feature>
				<threshold> 651581.1 </threshold>
				<split pos="left">
					<output> 0.0062194206 </output>
				</split>
				<split pos="right">
					<feature> 91 </feature>
					<threshold> 3257905.5 </threshold>
					<split pos="left">
						<feature> 91 </feature>
						<threshold> 1954743.4 </threshold>
						<split pos="left">
							<feature> 91 </feature>
							<threshold> 1303162.2 </threshold>
							<split pos="left">
								<output> 0.0013637492 </output>
							</split>
							<split pos="right">
								<output> 0.001077515 </output>
							</split>
						</split>
						<split pos="right">
							<feature> 91 </feature>
							<threshold> 2606324.5 </threshold>
							<split pos="left">
								<output> 0.0029093386 </output>
							</split>
							<split pos="right">
								<output> 0.0013854036 </output>
							</split>
						</split>
					</split>
					<split pos="right">
						<output> 0.0 </output>
					</split>
				</split>
			</split>
		</split>
	</tree>
	<tree id="46" weight="0.1">
		<split>
			<feature> 91 </feature>
			<threshold> 0.0 </threshold>
			<split pos="left">
				<output> 0.00632586 </output>
			</split>
			<split pos="right">
				<feature> 91 </feature>
				<threshold> 651581.1 </threshold>
				<split pos="left">
					<output> 0.0055553876 </output>
				</split>
				<split pos="right">
					<feature> 91 </feature>
					<threshold> 3257905.5 </threshold>
					<split pos="left">
						<feature> 91 </feature>
						<threshold> 1954743.4 </threshold>
						<split pos="left">
							<feature> 91 </feature>
							<threshold> 1303162.2 </threshold>
							<split pos="left">
								<output> 0.0012273733 </output>
							</split>
							<split pos="right">
								<output> 9.697572E-4 </output>
							</split>
						</split>
						<split pos="right">
							<feature> 91 </feature>
							<threshold> 2606324.5 </threshold>
							<split pos="left">
								<output> 0.0026183843 </output>
							</split>
							<split pos="right">
								<output> 0.0012468781 </output>
							</split>
						</split>
					</split>
					<split pos="right">
						<output> 0.0 </output>
					</split>
				</split>
			</split>
		</split>
	</tree>
	<tree id="47" weight="0.1">
		<split>
			<feature> 91 </feature>
			<threshold> 0.0 </threshold>
			<split pos="left">
				<output> 0.005701544 </output>
			</split>
			<split pos="right">
				<feature> 91 </feature>
				<threshold> 651581.1 </threshold>
				<split pos="left">
					<output> 0.005015227 </output>
				</split>
				<split pos="right">
					<feature> 91 </feature>
					<threshold> 3257905.5 </threshold>
					<split pos="left">
						<feature> 91 </feature>
						<threshold> 1954743.4 </threshold>
						<split pos="left">
							<feature> 91 </feature>
							<threshold> 1303162.2 </threshold>
							<split pos="left">
								<output> 0.0011045937 </output>
							</split>
							<split pos="right">
								<output> 8.727904E-4 </output>
							</split>
						</split>
						<split pos="right">
							<feature> 91 </feature>
							<threshold> 2606324.5 </threshold>
							<split pos="left">
								<output> 0.002356553 </output>
							</split>
							<split pos="right">
								<output> 0.0011221851 </output>
							</split>
						</split>
					</split>
					<split pos="right">
						<output> 0.0 </output>
					</split>
				</split>
			</split>
		</split>
	</tree>
	<tree id="48" weight="0.1">
		<split>
			<feature> 91 </feature>
			<threshold> 0.0 </threshold>
			<split pos="left">
				<output> 0.005115911 </output>
			</split>
			<split pos="right">
				<feature> 91 </feature>
				<threshold> 651581.1 </threshold>
				<split pos="left">
					<output> 0.0045227814 </output>
				</split>
				<split pos="right">
					<feature> 91 </feature>
					<threshold> 3257905.5 </threshold>
					<split pos="left">
						<feature> 91 </feature>
						<threshold> 1954743.4 </threshold>
						<split pos="left">
							<feature> 91 </feature>
							<threshold> 1303162.2 </threshold>
							<split pos="left">
								<output> 9.941803E-4 </output>
							</split>
							<split pos="right">
								<output> 7.8552216E-4 </output>
							</split>
						</split>
						<split pos="right">
							<feature> 91 </feature>
							<threshold> 2606324.5 </threshold>
							<split pos="left">
								<output> 0.002120912 </output>
							</split>
							<split pos="right">
								<output> 0.0010099539 </output>
							</split>
						</split>
					</split>
					<split pos="right">
						<output> 0.0 </output>
					</split>
				</split>
			</split>
		</split>
	</tree>
	<tree id="49" weight="0.1">
		<split>
			<feature> 91 </feature>
			<threshold> 0.0 </threshold>
			<split pos="left">
				<output> 0.004616066 </output>
			</split>
			<split pos="right">
				<feature> 91 </feature>
				<threshold> 651581.1 </threshold>
				<split pos="left">
					<output> 0.004048704 </output>
				</split>
				<split pos="right">
					<feature> 91 </feature>
					<threshold> 3257905.5 </threshold>
					<split pos="left">
						<feature> 91 </feature>
						<threshold> 1954743.4 </threshold>
						<split pos="left">
							<feature> 91 </feature>
							<threshold> 1303162.2 </threshold>
							<split pos="left">
								<output> 8.947598E-4 </output>
							</split>
							<split pos="right">
								<output> 7.069682E-4 </output>
							</split>
						</split>
						<split pos="right">
							<feature> 91 </feature>
							<threshold> 2606324.5 </threshold>
							<split pos="left">
								<output> 0.001908803 </output>
							</split>
							<split pos="right">
								<output> 9.089751E-4 </output>
							</split>
						</split>
					</split>
					<split pos="right">
						<output> 0.0 </output>
					</split>
				</split>
			</split>
		</split>
	</tree>
	<tree id="50" weight="0.1">
		<split>
			<feature> 91 </feature>
			<threshold> 0.0 </threshold>
			<split pos="left">
				<output> 0.0041378527 </output>
			</split>
			<split pos="right">
				<feature> 91 </feature>
				<threshold> 651581.1 </threshold>
				<split pos="left">
					<output> 0.0037159384 </output>
				</split>
				<split pos="right">
					<feature> 91 </feature>
					<threshold> 3257905.5 </threshold>
					<split pos="left">
						<feature> 91 </feature>
						<threshold> 1954743.4 </threshold>
						<split pos="left">
							<feature> 91 </feature>
							<threshold> 1303162.2 </threshold>
							<split pos="left">
								<output> 8.0522476E-4 </output>
							</split>
							<split pos="right">
								<output> 6.3627213E-4 </output>
							</split>
						</split>
						<split pos="right">
							<feature> 91 </feature>
							<threshold> 2606324.5 </threshold>
							<split pos="left">
								<output> 0.0017178893 </output>
							</split>
							<split pos="right">
								<output> 8.18078E-4 </output>
							</split>
						</split>
					</split>
					<split pos="right">
						<output> 0.0 </output>
					</split>
				</split>
			</split>
		</split>
	</tree>
	<tree id="51" weight="0.1">
		<split>
			<feature> 91 </feature>
			<threshold> 0.0 </threshold>
			<split pos="left">
				<output> 0.0037520425 </output>
			</split>
			<split pos="right">
				<feature> 91 </feature>
				<threshold> 651581.1 </threshold>
				<split pos="left">
					<output> 0.003318318 </output>
				</split>
				<split pos="right">
					<feature> 91 </feature>
					<threshold> 3257905.5 </threshold>
					<split pos="left">
						<feature> 91 </feature>
						<threshold> 1954743.4 </threshold>
						<split pos="left">
							<feature> 91 </feature>
							<threshold> 1303162.2 </threshold>
							<split pos="left">
								<output> 7.2472775E-4 </output>
							</split>
							<split pos="right">
								<output> 5.726359E-4 </output>
							</split>
						</split>
						<split pos="right">
							<feature> 91 </feature>
							<threshold> 2606324.5 </threshold>
							<split pos="left">
								<output> 0.0015461564 </output>
							</split>
							<split pos="right">
								<output> 7.362493E-4 </output>
							</split>
						</split>
					</split>
					<split pos="right">
						<output> 0.0 </output>
					</split>
				</split>
			</split>
		</split>
	</tree>
	<tree id="52" weight="0.1">
		<split>
			<feature> 91 </feature>
			<threshold> 0.0 </threshold>
			<split pos="left">
				<output> 0.0033622647 </output>
			</split>
			<split pos="right">
				<feature> 91 </feature>
				<threshold> 651581.1 </threshold>
				<split pos="left">
					<output> 0.0030154402 </output>
				</split>
				<split pos="right">
					<feature> 91 </feature>
					<threshold> 3257905.5 </threshold>
					<split pos="left">
						<feature> 91 </feature>
						<threshold> 1954743.4 </threshold>
						<split pos="left">
							<feature> 91 </feature>
							<threshold> 1303162.2 </threshold>
							<split pos="left">
								<output> 6.522485E-4 </output>
							</split>
							<split pos="right">
								<output> 5.153724E-4 </output>
							</split>
						</split>
						<split pos="right">
							<feature> 91 </feature>
							<threshold> 2606324.5 </threshold>
							<split pos="left">
								<output> 0.0013914943 </output>
							</split>
							<split pos="right">
								<output> 6.6263333E-4 </output>
							</split>
						</split>
					</split>
					<split pos="right">
						<output> 0.0 </output>
					</split>
				</split>
			</split>
		</split>
	</tree>
	<tree id="53" weight="0.1">
		<split>
			<feature> 91 </feature>
			<threshold> 0.0 </threshold>
			<split pos="left">
				<output> 0.0030296836 </output>
			</split>
			<split pos="right">
				<feature> 91 </feature>
				<threshold> 651581.1 </threshold>
				<split pos="left">
					<output> 0.0026148425 </output>
				</split>
				<split pos="right">
					<feature> 91 </feature>
					<threshold> 3257905.5 </threshold>
					<split pos="left">
						<feature> 91 </feature>
						<threshold> 1954743.4 </threshold>
						<split pos="left">
							<feature> 91 </feature>
							<threshold> 1303162.2 </threshold>
							<split pos="left">
								<output> 5.8699213E-4 </output>
							</split>
							<split pos="right">
								<output> 4.6383092E-4 </output>
							</split>
						</split>
						<split pos="right">
							<feature> 91 </feature>
							<threshold> 2606324.5 </threshold>
							<split pos="left">
								<output> 0.0012523532 </output>
							</split>
							<split pos="right">
								<output> 5.963572E-4 </output>
							</split>
						</split>
					</split>
					<split pos="right">
						<output> 0.0 </output>
					</split>
				</split>
			</split>
		</split>
	</tree>
	<tree id="54" weight="0.1">
		<split>
			<feature> 91 </feature>
			<threshold> 0.0 </threshold>
			<split pos="left">
				<output> 0.0027043063 </output>
			</split>
			<split pos="right">
				<feature> 91 </feature>
				<threshold> 651581.1 </threshold>
				<split pos="left">
					<output> 0.0023807648 </output>
				</split>
				<split pos="right">
					<feature> 91 </feature>
					<threshold> 3257905.5 </threshold>
					<split pos="left">
						<feature> 91 </feature>
						<threshold> 1954743.4 </threshold>
						<split pos="left">
							<feature> 91 </feature>
							<threshold> 1303162.2 </threshold>
							<split pos="left">
								<output> 5.283351E-4 </output>
							</split>
							<split pos="right">
								<output> 4.1745356E-4 </output>
							</split>
						</split>
						<split pos="right">
							<feature> 91 </feature>
							<threshold> 2606324.5 </threshold>
							<split pos="left">
								<output> 0.0011271596 </output>
							</split>
							<split pos="right">
								<output> 5.367441E-4 </output>
							</split>
						</split>
					</split>
					<split pos="right">
						<output> 0.0 </output>
					</split>
				</split>
			</split>
		</split>
	</tree>
	<tree id="55" weight="0.1">
		<split>
			<feature> 91 </feature>
			<threshold> 0.0 </threshold>
			<split pos="left">
				<output> 0.0024275803 </output>
			</split>
			<split pos="right">
				<feature> 91 </feature>
				<threshold> 651581.1 </threshold>
				<split pos="left">
					<output> 0.0021168808 </output>
				</split>
				<split pos="right">
					<feature> 91 </feature>
					<threshold> 3257905.5 </threshold>
					<split pos="left">
						<feature> 91 </feature>
						<threshold> 1954743.4 </threshold>
						<split pos="left">
							<feature> 91 </feature>
							<threshold> 1303162.2 </threshold>
							<split pos="left">
								<output> 4.7547324E-4 </output>
							</split>
							<split pos="right">
								<output> 3.757038E-4 </output>
							</split>
						</split>
						<split pos="right">
							<feature> 91 </feature>
							<threshold> 2606324.5 </threshold>
							<split pos="left">
								<output> 0.0010144114 </output>
							</split>
							<split pos="right">
								<output> 4.8304882E-4 </output>
							</split>
						</split>
					</split>
					<split pos="right">
						<output> 0.0 </output>
					</split>
				</split>
			</split>
		</split>
	</tree>
	<tree id="56" weight="0.1">
		<split>
			<feature> 91 </feature>
			<threshold> 0.0 </threshold>
			<split pos="left">
				<output> 0.0022071896 </output>
			</split>
			<split pos="right">
				<feature> 91 </feature>
				<threshold> 651581.1 </threshold>
				<split pos="left">
					<output> 0.0020344926 </output>
				</split>
				<split pos="right">
					<feature> 91 </feature>
					<threshold> 3257905.5 </threshold>
					<split pos="left">
						<feature> 91 </feature>
						<threshold> 1954743.4 </threshold>
						<split pos="left">
							<feature> 91 </feature>
							<threshold> 1303162.2 </threshold>
							<split pos="left">
								<output> 4.2795576E-4 </output>
							</split>
							<split pos="right">
								<output> 3.3813633E-4 </output>
							</split>
						</split>
						<split pos="right">
							<feature> 91 </feature>
							<threshold> 2606324.5 </threshold>
							<split pos="left">
								<output> 9.129763E-4 </output>
							</split>
							<split pos="right">
								<output> 4.3476053E-4 </output>
							</split>
						</split>
					</split>
					<split pos="right">
						<output> 0.0 </output>
					</split>
				</split>
			</split>
		</split>
	</tree>
	<tree id="57" weight="0.1">
		<split>
			<feature> 91 </feature>
			<threshold> 0.0 </threshold>
			<split pos="left">
				<output> 0.0019681486 </output>
			</split>
			<split pos="right">
				<feature> 91 </feature>
				<threshold> 651581.1 </threshold>
				<split pos="left">
					<output> 0.0017779873 </output>
				</split>
				<split pos="right">
					<feature> 91 </feature>
					<threshold> 3257905.5 </threshold>
					<split pos="left">
						<feature> 91 </feature>
						<threshold> 1954743.4 </threshold>
						<split pos="left">
							<feature> 91 </feature>
							<threshold> 1303162.2 </threshold>
							<split pos="left">
								<output> 3.851317E-4 </output>
							</split>
							<split pos="right">
								<output> 3.0432394E-4 </output>
							</split>
						</split>
						<split pos="right">
							<feature> 91 </feature>
							<threshold> 2606324.5 </threshold>
							<split pos="left">
								<output> 8.216739E-4 </output>
							</split>
							<split pos="right">
								<output> 3.9125766E-4 </output>
							</split>
						</split>
					</split>
					<split pos="right">
						<output> 0.0 </output>
					</split>
				</split>
			</split>
		</split>
	</tree>
	<tree id="58" weight="0.1">
		<split>
			<feature> 91 </feature>
			<threshold> 0.0 </threshold>
			<split pos="left">
				<output> 0.0018041808 </output>
			</split>
			<split pos="right">
				<feature> 91 </feature>
				<threshold> 651581.1 </threshold>
				<split pos="left">
					<output> 0.0015915444 </output>
				</split>
				<split pos="right">
					<feature> 91 </feature>
					<threshold> 3257905.5 </threshold>
					<split pos="left">
						<feature> 91 </feature>
						<threshold> 1954743.4 </threshold>
						<split pos="left">
							<feature> 91 </feature>
							<threshold> 1303162.2 </threshold>
							<split pos="left">
								<output> 3.4663593E-4 </output>
							</split>
							<split pos="right">
								<output> 2.7388998E-4 </output>
							</split>
						</split>
						<split pos="right">
							<feature> 91 </feature>
							<threshold> 2606324.5 </threshold>
							<split pos="left">
								<output> 7.395148E-4 </output>
							</split>
							<split pos="right">
								<output> 3.521485E-4 </output>
							</split>
						</split>
					</split>
					<split pos="right">
						<output> 0.0 </output>
					</split>
				</split>
			</split>
		</split>
	</tree>
	<tree id="59" weight="0.1">
		<split>
			<feature> 91 </feature>
			<threshold> 0.0 </threshold>
			<split pos="left">
				<output> 0.001594712 </output>
			</split>
			<split pos="right">
				<feature> 91 </feature>
				<threshold> 651581.1 </threshold>
				<split pos="left">
					<output> 0.001407603 </output>
				</split>
				<split pos="right">
					<feature> 91 </feature>
					<threshold> 3257905.5 </threshold>
					<split pos="left">
						<feature> 91 </feature>
						<threshold> 1954743.4 </threshold>
						<split pos="left">
							<feature> 91 </feature>
							<threshold> 1303162.2 </threshold>
							<split pos="left">
								<output> 3.119423E-4 </output>
							</split>
							<split pos="right">
								<output> 2.4648674E-4 </output>
							</split>
						</split>
						<split pos="right">
							<feature> 91 </feature>
							<threshold> 2606324.5 </threshold>
							<split pos="left">
								<output> 6.6560507E-4 </output>
							</split>
							<split pos="right">
								<output> 3.1692642E-4 </output>
							</split>
						</split>
					</split>
					<split pos="right">
						<output> 0.0 </output>
					</split>
				</split>
			</split>
		</split>
	</tree>
	<tree id="60" weight="0.1">
		<split>
			<feature> 91 </feature>
			<threshold> 0.0 </threshold>
			<split pos="left">
				<output> 0.0014435668 </output>
			</split>
			<split pos="right">
				<feature> 91 </feature>
				<threshold> 651581.1 </threshold>
				<split pos="left">
					<output> 0.001286587 </output>
				</split>
				<split pos="right">
					<feature> 91 </feature>
					<threshold> 3257905.5 </threshold>
					<split pos="left">
						<feature> 91 </feature>
						<threshold> 1954743.4 </threshold>
						<split pos="left">
							<feature> 91 </feature>
							<threshold> 1303162.2 </threshold>
							<split pos="left">
								<output> 2.8076768E-4 </output>
							</split>
							<split pos="right">
								<output> 2.2185843E-4 </output>
							</split>
						</split>
						<split pos="right">
							<feature> 91 </feature>
							<threshold> 2606324.5 </threshold>
							<split pos="left">
								<output> 5.990624E-4 </output>
							</split>
							<split pos="right">
								<output> 2.85221E-4 </output>
							</split>
						</split>
					</split>
					<split pos="right">
						<output> 0.0 </output>
					</split>
				</split>
			</split>
		</split>
	</tree>
	<tree id="61" weight="0.1">
		<split>
			<feature> 91 </feature>
			<threshold> 0.0 </threshold>
			<split pos="left">
				<output> 0.0013159213 </output>
			</split>
			<split pos="right">
				<feature> 91 </feature>
				<threshold> 651581.1 </threshold>
				<split pos="left">
					<output> 0.0011084173 </output>
				</split>
				<split pos="right">
					<feature> 91 </feature>
					<threshold> 3257905.5 </threshold>
					<split pos="left">
						<feature> 91 </feature>
						<threshold> 1954743.4 </threshold>
						<split pos="left">
							<feature> 91 </feature>
							<threshold> 1303162.2 </threshold>
							<split pos="left">
								<output> 2.527181E-4 </output>
							</split>
							<split pos="right">
								<output> 1.9966315E-4 </output>
							</split>
						</split>
						<split pos="right">
							<feature> 91 </feature>
							<threshold> 2606324.5 </threshold>
							<split pos="left">
								<output> 5.3913594E-4 </output>
							</split>
							<split pos="right">
								<output> 2.5672145E-4 </output>
							</split>
						</split>
					</split>
					<split pos="right">
						<output> 0.0 </output>
					</split>
				</split>
			</split>
		</split>
	</tree>
	<tree id="62" weight="0.1">
		<split>
			<feature> 91 </feature>
			<threshold> 0.0 </threshold>
			<split pos="left">
				<output> 0.001193114 </output>
			</split>
			<split pos="right">
				<feature> 91 </feature>
				<threshold> 651581.1 </threshold>
				<split pos="left">
					<output> 0.0010685059 </output>
				</split>
				<split pos="right">
					<feature> 91 </feature>
					<threshold> 3257905.5 </threshold>
					<split pos="left">
						<feature> 91 </feature>
						<threshold> 1954743.4 </threshold>
						<split pos="left">
							<feature> 91 </feature>
							<threshold> 1303162.2 </threshold>
							<split pos="left">
								<output> 2.2744574E-4 </output>
							</split>
							<split pos="right">
								<output> 1.7970552E-4 </output>
							</split>
						</split>
						<split pos="right">
							<feature> 91 </feature>
							<threshold> 2606324.5 </threshold>
							<split pos="left">
								<output> 4.8522948E-4 </output>
							</split>
							<split pos="right">
								<output> 2.3103612E-4 </output>
							</split>
						</split>
					</split>
					<split pos="right">
						<output> 0.0 </output>
					</split>
				</split>
			</split>
		</split>
	</tree>
	<tree id="63" weight="0.1">
		<split>
			<feature> 91 </feature>
			<threshold> 0.0 </threshold>
			<split pos="left">
				<output> 0.001070216 </output>
			</split>
			<split pos="right">
				<feature> 91 </feature>
				<threshold> 651581.1 </threshold>
				<split pos="left">
					<output> 9.23806E-4 </output>
				</split>
				<split pos="right">
					<feature> 91 </feature>
					<threshold> 3257905.5 </threshold>
					<split pos="left">
						<feature> 91 </feature>
						<threshold> 1954743.4 </threshold>
						<split pos="left">
							<feature> 91 </feature>
							<threshold> 1303162.2 </threshold>
							<split pos="left">
								<output> 2.0466559E-4 </output>
							</split>
							<split pos="right">
								<output> 1.6172313E-4 </output>
							</split>
						</split>
						<split pos="right">
							<feature> 91 </feature>
							<threshold> 2606324.5 </threshold>
							<split pos="left">
								<output> 4.3672323E-4 </output>
							</split>
							<split pos="right">
								<output> 2.079521E-4 </output>
							</split>
						</split>
					</split>
					<split pos="right">
						<output> 0.0 </output>
					</split>
				</split>
			</split>
		</split>
	</tree>
	<tree id="64" weight="0.1">
		<split>
			<feature> 91 </feature>
			<threshold> 0.0 </threshold>
			<split pos="left">
				<output> 9.539462E-4 </output>
			</split>
			<split pos="right">
				<feature> 91 </feature>
				<threshold> 651581.1 </threshold>
				<split pos="left">
					<output> 8.2823157E-4 </output>
				</split>
				<split pos="right">
					<feature> 91 </feature>
					<threshold> 3257905.5 </threshold>
					<split pos="left">
						<feature> 91 </feature>
						<threshold> 1954743.4 </threshold>
						<split pos="left">
							<feature> 91 </feature>
							<threshold> 1303162.2 </threshold>
							<split pos="left">
								<output> 1.842319E-4 </output>
							</split>
							<split pos="right">
								<output> 1.4554377E-4 </output>
							</split>
						</split>
						<split pos="right">
							<feature> 91 </feature>
							<threshold> 2606324.5 </threshold>
							<split pos="left">
								<output> 3.930688E-4 </output>
							</split>
							<split pos="right">
								<output> 1.8712452E-4 </output>
							</split>
						</split>
					</split>
					<split pos="right">
						<output> 0.0 </output>
					</split>
				</split>
			</split>
		</split>
	</tree>
	<tree id="65" weight="0.1">
		<split>
			<feature> 91 </feature>
			<threshold> 0.0 </threshold>
			<split pos="left">
				<output> 8.3943724E-4 </output>
			</split>
			<split pos="right">
				<feature> 91 </feature>
				<threshold> 651581.1 </threshold>
				<split pos="left">
					<output> 7.91224E-4 </output>
				</split>
				<split pos="right">
					<feature> 91 </feature>
					<threshold> 3257905.5 </threshold>
					<split pos="left">
						<feature> 91 </feature>
						<threshold> 1954743.4 </threshold>
						<split pos="left">
							<feature> 91 </feature>
							<threshold> 1303162.2 </threshold>
							<split pos="left">
								<output> 1.6578799E-4 </output>
							</split>
							<split pos="right">
								<output> 1.309986E-4 </output>
							</split>
						</split>
						<split pos="right">
							<feature> 91 </feature>
							<threshold> 2606324.5 </threshold>
							<split pos="left">
								<output> 3.5375357E-4 </output>
							</split>
							<split pos="right">
								<output> 1.6840866E-4 </output>
							</split>
						</split>
					</split>
					<split pos="right">
						<output> 0.0 </output>
					</split>
				</split>
			</split>
		</split>
	</tree>
	<tree id="66" weight="0.1">
		<split>
			<feature> 91 </feature>
			<threshold> 0.0 </threshold>
			<split pos="left">
				<output> 7.402717E-4 </output>
			</split>
			<split pos="right">
				<feature> 91 </feature>
				<threshold> 651581.1 </threshold>
				<split pos="left">
					<output> 6.491137E-4 </output>
				</split>
				<split pos="right">
					<feature> 91 </feature>
					<threshold> 3257905.5 </threshold>
					<split pos="left">
						<feature> 91 </feature>
						<threshold> 1954743.4 </threshold>
						<split pos="left">
							<feature> 91 </feature>
							<threshold> 1303162.2 </threshold>
							<split pos="left">
								<output> 1.4924444E-4 </output>
							</split>
							<split pos="right">
								<output> 1.1790792E-4 </output>
							</split>
						</split>
						<split pos="right">
							<feature> 91 </feature>
							<threshold> 2606324.5 </threshold>
							<split pos="left">
								<output> 3.1836034E-4 </output>
							</split>
							<split pos="right">
								<output> 1.5158312E-4 </output>
							</split>
						</split>
					</split>
					<split pos="right">
						<output> 0.0 </output>
					</split>
				</split>
			</split>
		</split>
	</tree>
	<tree id="67" weight="0.1">
		<split>
			<feature> 91 </feature>
			<threshold> 0.0 </threshold>
			<split pos="left">
				<output> 7.060805E-4 </output>
			</split>
			<split pos="right">
				<feature> 91 </feature>
				<threshold> 651581.1 </threshold>
				<split pos="left">
					<output> 6.1522156E-4 </output>
				</split>
				<split pos="right">
					<feature> 91 </feature>
					<threshold> 3257905.5 </threshold>
					<split pos="left">
						<feature> 91 </feature>
						<threshold> 1954743.4 </threshold>
						<split pos="left">
							<feature> 91 </feature>
							<threshold> 1303162.2 </threshold>
							<split pos="left">
								<output> 1.3425574E-4 </output>
							</split>
							<split pos="right">
								<output> 1.0612028E-4 </output>
							</split>
						</split>
						<split pos="right">
							<feature> 91 </feature>
							<threshold> 2606324.5 </threshold>
							<split pos="left">
								<output> 2.8651953E-4 </output>
							</split>
							<split pos="right">
								<output> 1.364393E-4 </output>
							</split>
						</split>
					</split>
					<split pos="right">
						<output> 0.0 </output>
					</split>
				</split>
			</split>
		</split>
	</tree>
	<tree id="68" weight="0.1">
		<split>
			<feature> 91 </feature>
			<threshold> 0.0 </threshold>
			<split pos="left">
				<output> 6.1499217E-4 </output>
			</split>
			<split pos="right">
				<feature> 91 </feature>
				<threshold> 651581.1 </threshold>
				<split pos="left">
					<output> 5.814974E-4 </output>
				</split>
				<split pos="right">
					<feature> 91 </feature>
					<threshold> 3257905.5 </threshold>
					<split pos="left">
						<feature> 91 </feature>
						<threshold> 1954743.4 </threshold>
						<split pos="left">
							<feature> 91 </feature>
							<threshold> 1303162.2 </threshold>
							<split pos="left">
								<output> 1.20877754E-4 </output>
							</split>
							<split pos="right">
								<output> 9.551065E-5 </output>
							</split>
						</split>
						<split pos="right">
							<feature> 91 </feature>
							<threshold> 2606324.5 </threshold>
							<split pos="left">
								<output> 2.579093E-4 </output>
							</split>
							<split pos="right">
								<output> 1.2278983E-4 </output>
							</split>
						</split>
					</split>
					<split pos="right">
						<output> 0.0 </output>
					</split>
				</split>
			</split>
		</split>
	</tree>
	<tree id="69" weight="0.1">
		<split>
			<feature> 91 </feature>
			<threshold> 0.0 </threshold>
			<split pos="left">
				<output> 5.801599E-4 </output>
			</split>
			<split pos="right">
				<feature> 91 </feature>
				<threshold> 651581.1 </threshold>
				<split pos="left">
					<output> 4.405382E-4 </output>
				</split>
				<split pos="right">
					<feature> 91 </feature>
					<threshold> 3257905.5 </threshold>
					<split pos="left">
						<feature> 91 </feature>
						<threshold> 1954743.4 </threshold>
						<split pos="left">
							<feature> 91 </feature>
							<threshold> 1303162.2 </threshold>
							<split pos="left">
								<output> 1.0874495E-4 </output>
							</split>
							<split pos="right">
								<output> 8.593914E-5 </output>
							</split>
						</split>
						<split pos="right">
							<feature> 91 </feature>
							<threshold> 2606324.5 </threshold>
							<split pos="left">
								<output> 2.3213626E-4 </output>
							</split>
							<split pos="right">
								<output> 1.1051127E-4 </output>
							</split>
						</split>
					</split>
					<split pos="right">
						<output> 0.0 </output>
					</split>
				</split>
			</split>
		</split>
	</tree>
	<tree id="70" weight="0.1">
		<split>
			<feature> 91 </feature>
			<threshold> 0.0 </threshold>
			<split pos="left">
				<output> 4.899596E-4 </output>
			</split>
			<split pos="right">
				<feature> 91 </feature>
				<threshold> 651581.1 </threshold>
				<split pos="left">
					<output> 4.3738497E-4 </output>
				</split>
				<split pos="right">
					<feature> 91 </feature>
					<threshold> 3257905.5 </threshold>
					<split pos="left">
						<feature> 91 </feature>
						<threshold> 1954743.4 </threshold>
						<split pos="left">
							<feature> 91 </feature>
							<threshold> 1303162.2 </threshold>
							<split pos="left">
								<output> 9.7904354E-5 </output>
							</split>
							<split pos="right">
								<output> 7.735441E-5 </output>
							</split>
						</split>
						<split pos="right">
							<feature> 91 </feature>
							<threshold> 2606324.5 </threshold>
							<split pos="left">
								<output> 2.0890236E-4 </output>
							</split>
							<split pos="right">
								<output> 9.943332E-5 </output>
							</split>
						</split>
					</split>
					<split pos="right">
						<output> 0.0 </output>
					</split>
				</split>
			</split>
		</split>
	</tree>
	<tree id="71" weight="0.1">
		<split>
			<feature> 91 </feature>
			<threshold> 0.0 </threshold>
			<split pos="left">
				<output> 4.65808E-4 </output>
			</split>
			<split pos="right">
				<feature> 91 </feature>
				<threshold> 651581.1 </threshold>
				<split pos="left">
					<output> 4.0695813E-4 </output>
				</split>
				<split pos="right">
					<feature> 91 </feature>
					<threshold> 3257905.5 </threshold>
					<split pos="left">
						<feature> 91 </feature>
						<threshold> 1954743.4 </threshold>
						<split pos="left">
							<feature> 91 </feature>
							<threshold> 1303162.2 </threshold>
							<split pos="left">
								<output> 8.812407E-5 </output>
							</split>
							<split pos="right">
								<output> 6.9621536E-5 </output>
							</split>
						</split>
						<split pos="right">
							<feature> 91 </feature>
							<threshold> 2606324.5 </threshold>
							<split pos="left">
								<output> 1.8802882E-4 </output>
							</split>
							<split pos="right">
								<output> 8.949212E-5 </output>
							</split>
						</split>
					</split>
					<split pos="right">
						<output> 0.0 </output>
					</split>
				</split>
			</split>
		</split>
	</tree>
	<tree id="72" weight="0.1">
		<split>
			<feature> 91 </feature>
			<threshold> 0.0 </threshold>
			<split pos="left">
				<output> 4.3822385E-4 </output>
			</split>
			<split pos="right">
				<feature> 91 </feature>
				<threshold> 651581.1 </threshold>
				<split pos="left">
					<output> 3.3750755E-4 </output>
				</split>
				<split pos="right">
					<feature> 91 </feature>
					<threshold> 3257905.5 </threshold>
					<split pos="left">
						<feature> 91 </feature>
						<threshold> 1954743.4 </threshold>
						<split pos="left">
							<feature> 91 </feature>
							<threshold> 1303162.2 </threshold>
							<split pos="left">
								<output> 7.9307705E-5 </output>
							</split>
							<split pos="right">
								<output> 6.266021E-5 </output>
							</split>
						</split>
						<split pos="right">
							<feature> 91 </feature>
							<threshold> 2606324.5 </threshold>
							<split pos="left">
								<output> 1.6921759E-4 </output>
							</split>
							<split pos="right">
								<output> 8.0538644E-5 </output>
							</split>
						</split>
					</split>
					<split pos="right">
						<output> 0.0 </output>
					</split>
				</split>
			</split>
		</split>
	</tree>
	<tree id="73" weight="0.1">
		<split>
			<feature> 91 </feature>
			<threshold> 0.0 </threshold>
			<split pos="left">
				<output> 3.5273892E-4 </output>
			</split>
			<split pos="right">
				<feature> 91 </feature>
				<threshold> 651581.1 </threshold>
				<split pos="left">
					<output> 3.3461137E-4 </output>
				</split>
				<split pos="right">
					<feature> 91 </feature>
					<threshold> 3257905.5 </threshold>
					<split pos="left">
						<feature> 91 </feature>
						<threshold> 1954743.4 </threshold>
						<split pos="left">
							<feature> 91 </feature>
							<threshold> 1303162.2 </threshold>
							<split pos="left">
								<output> 7.137284E-5 </output>
							</split>
							<split pos="right">
								<output> 5.641E-5 </output>
							</split>
						</split>
						<split pos="right">
							<feature> 91 </feature>
							<threshold> 2606324.5 </threshold>
							<split pos="left">
								<output> 1.5226603E-4 </output>
							</split>
							<split pos="right">
								<output> 7.249202E-5 </output>
							</split>
						</split>
					</split>
					<split pos="right">
						<output> 0.0 </output>
					</split>
				</split>
			</split>
		</split>
	</tree>
	<tree id="74" weight="0.1">
		<split>
			<feature> 91 </feature>
			<threshold> 0.0 </threshold>
			<split pos="left">
				<output> 3.3666214E-4 </output>
			</split>
			<split pos="right">
				<feature> 91 </feature>
				<threshold> 651581.1 </threshold>
				<split pos="left">
					<output> 3.04991E-4 </output>
				</split>
				<split pos="right">
					<feature> 91 </feature>
					<threshold> 3257905.5 </threshold>
					<split pos="left">
						<feature> 91 </feature>
						<threshold> 1954743.4 </threshold>
						<split pos="left">
							<feature> 91 </feature>
							<threshold> 1303162.2 </threshold>
							<split pos="left">
								<output> 6.422168E-5 </output>
							</split>
							<split pos="right">
								<output> 5.0745075E-5 </output>
							</split>
						</split>
						<split pos="right">
							<feature> 91 </feature>
							<threshold> 2606324.5 </threshold>
							<split pos="left">
								<output> 1.3703108E-4 </output>
							</split>
							<split pos="right">
								<output> 6.527134E-5 </output>
							</split>
						</split>
					</split>
					<split pos="right">
						<output> 0.0 </output>
					</split>
				</split>
			</split>
		</split>
	</tree>
	<tree id="75" weight="0.1">
		<split>
			<feature> 91 </feature>
			<threshold> 0.0 </threshold>
			<split pos="left">
				<output> 3.1416037E-4 </output>
			</split>
			<split pos="right">
				<feature> 91 </feature>
				<threshold> 651581.1 </threshold>
				<split pos="left">
					<output> 3.0232387E-4 </output>
				</split>
				<split pos="right">
					<feature> 91 </feature>
					<threshold> 3257905.5 </threshold>
					<split pos="left">
						<feature> 91 </feature>
						<threshold> 1954743.4 </threshold>
						<split pos="left">
							<feature> 91 </feature>
							<threshold> 1303162.2 </threshold>
							<split pos="left">
								<output> 5.779974E-5 </output>
							</split>
							<split pos="right">
								<output> 4.568779E-5 </output>
							</split>
						</split>
						<split pos="right">
							<feature> 91 </feature>
							<threshold> 2606324.5 </threshold>
							<split pos="left">
								<output> 1.2333393E-4 </output>
							</split>
							<split pos="right">
								<output> 5.8723348E-5 </output>
							</split>
						</split>
					</split>
					<split pos="right">
						<output> 0.0 </output>
					</split>
				</split>
			</split>
		</split>
	</tree>
	<tree id="76" weight="0.1">
		<split>
			<feature> 91 </feature>
			<threshold> 0.0 </threshold>
			<split pos="left">
				<output> 2.4537576E-4 </output>
			</split>
			<split pos="right">
				<feature> 91 </feature>
				<threshold> 651581.1 </threshold>
				<split pos="left">
					<output> 1.6125457E-4 </output>
				</split>
				<split pos="right">
					<feature> 91 </feature>
					<threshold> 3257905.5 </threshold>
					<split pos="left">
						<feature> 91 </feature>
						<threshold> 1954743.4 </threshold>
						<split pos="left">
							<feature> 91 </feature>
							<threshold> 1303162.2 </threshold>
							<split pos="left">
								<output> 5.2001327E-5 </output>
							</split>
							<split pos="right">
								<output> 4.111479E-5 </output>
							</split>
						</split>
						<split pos="right">
							<feature> 91 </feature>
							<threshold> 2606324.5 </threshold>
							<split pos="left">
								<output> 1.1101961E-4 </output>
							</split>
							<split pos="right">
								<output> 5.2873576E-5 </output>
							</split>
						</split>
					</split>
					<split pos="right">
						<output> 0.0 </output>
					</split>
				</split>
			</split>
		</split>
	</tree>
	<tree id="77" weight="0.1">
		<split>
			<feature> 91 </feature>
			<threshold> 0.0 </threshold>
			<split pos="left">
				<output> 2.2707426E-4 </output>
			</split>
			<split pos="right">
				<feature> 91 </feature>
				<threshold> 651581.1 </threshold>
				<split pos="left">
					<output> 1.6067062E-4 </output>
				</split>
				<split pos="right">
					<feature> 91 </feature>
					<threshold> 3257905.5 </threshold>
					<split pos="left">
						<feature> 91 </feature>
						<threshold> 1954743.4 </threshold>
						<split pos="left">
							<feature> 91 </feature>
							<threshold> 1303162.2 </threshold>
							<split pos="left">
								<output> 4.6820845E-5 </output>
							</split>
							<split pos="right">
								<output> 3.7012E-5 </output>
							</split>
						</split>
						<split pos="right">
							<feature> 91 </feature>
							<threshold> 2606324.5 </threshold>
							<split pos="left">
								<output> 9.99093E-5 </output>
							</split>
							<split pos="right">
								<output> 4.7573023E-5 </output>
							</split>
						</split>
					</split>
					<split pos="right">
						<output> 0.0 </output>
					</split>
				</split>
			</split>
		</split>
	</tree>
	<tree id="78" weight="0.1">
		<split>
			<feature> 91 </feature>
			<threshold> 0.0 </threshold>
			<split pos="left">
				<output> 2.2239734E-4 </output>
			</split>
			<split pos="right">
				<feature> 91 </feature>
				<threshold> 651581.1 </threshold>
				<split pos="left">
					<output> 1.5877107E-4 </output>
				</split>
				<split pos="right">
					<feature> 91 </feature>
					<threshold> 3257905.5 </threshold>
					<split pos="left">
						<feature> 91 </feature>
						<threshold> 1954743.4 </threshold>
						<split pos="left">
							<feature> 91 </feature>
							<threshold> 1303162.2 </threshold>
							<split pos="left">
								<output> 4.2174477E-5 </output>
							</split>
							<split pos="right">
								<output> 3.3311546E-5 </output>
							</split>
						</split>
						<split pos="right">
							<feature> 91 </feature>
							<threshold> 2606324.5 </threshold>
							<split pos="left">
								<output> 8.990765E-5 </output>
							</split>
							<split pos="right">
								<output> 4.2808908E-5 </output>
							</split>
						</split>
					</split>
					<split pos="right">
						<output> 0.0 </output>
					</split>
				</split>
			</split>
		</split>
	</tree>
	<tree id="79" weight="0.1">
		<split>
			<feature> 91 </feature>
			<threshold> 0.0 </threshold>
			<split pos="left">
				<output> 2.1729489E-4 </output>
			</split>
			<split pos="right">
				<feature> 91 </feature>
				<threshold> 651581.1 </threshold>
				<split pos="left">
					<output> 1.3022103E-4 </output>
				</split>
				<split pos="right">
					<feature> 91 </feature>
					<threshold> 3257905.5 </threshold>
					<split pos="left">
						<feature> 91 </feature>
						<threshold> 1954743.4 </threshold>
						<split pos="left">
							<feature> 91 </feature>
							<threshold> 1303162.2 </threshold>
							<split pos="left">
								<output> 3.7914142E-5 </output>
							</split>
							<split pos="right">
								<output> 2.9978653E-5 </output>
							</split>
						</split>
						<split pos="right">
							<feature> 91 </feature>
							<threshold> 2606324.5 </threshold>
							<split pos="left">
								<output> 8.089542E-5 </output>
							</split>
							<split pos="right">
								<output> 3.855569E-5 </output>
							</split>
						</split>
					</split>
					<split pos="right">
						<output> 0.0 </output>
					</split>
				</split>
			</split>
		</split>
	</tree>
	<tree id="80" weight="0.1">
		<split>
			<feature> 91 </feature>
			<threshold> 651581.1 </threshold>
			<split pos="left">
				<feature> 91 </feature>
				<threshold> 0.0 </threshold>
				<split pos="left">
					<output> 1.9608629E-4 </output>
				</split>
				<split pos="right">
					<output> 1.29989E-4 </output>
				</split>
			</split>
			<split pos="right">
				<feature> 91 </feature>
				<threshold> 3257905.5 </threshold>
				<split pos="left">
					<feature> 91 </feature>
					<threshold> 1954743.4 </threshold>
					<split pos="left">
						<feature> 91 </feature>
						<threshold> 1303162.2 </threshold>
						<split pos="left">
							<output> 3.4119934E-5 </output>
						</split>
						<split pos="right">
							<output> 2.6992626E-5 </output>
						</split>
					</split>
					<split pos="right">
						<feature> 91 </feature>
						<threshold> 2606324.5 </threshold>
						<split pos="left">
							<output> 7.2801115E-5 </output>
						</split>
						<split pos="right">
							<output> 3.469416E-5 </output>
						</split>
					</split>
				</split>
				<split pos="right">
					<output> 0.0 </output>
				</split>
			</split>
		</split>
	</tree>
	<tree id="81" weight="0.1">
		<split>
			<feature> 91 </feature>
			<threshold> 0.0 </threshold>
			<split pos="left">
				<output> 1.3041115E-4 </output>
			</split>
			<split pos="right">
				<feature> 91 </feature>
				<threshold> 651581.1 </threshold>
				<split pos="left">
					<output> 1.2946337E-4 </output>
				</split>
				<split pos="right">
					<feature> 91 </feature>
					<threshold> 3257905.5 </threshold>
					<split pos="left">
						<feature> 91 </feature>
						<threshold> 1954743.4 </threshold>
						<split pos="left">
							<feature> 91 </feature>
							<threshold> 1303162.2 </threshold>
							<split pos="left">
								<output> 3.075553E-5 </output>
							</split>
							<split pos="right">
								<output> 2.427482E-5 </output>
							</split>
						</split>
						<split pos="right">
							<feature> 91 </feature>
							<threshold> 2606324.5 </threshold>
							<split pos="left">
								<output> 6.557703E-5 </output>
							</split>
							<split pos="right">
								<output> 3.1198775E-5 </output>
							</split>
						</split>
					</split>
					<split pos="right">
						<output> 0.0 </output>
					</split>
				</split>
			</split>
		</split>
	</tree>
	<tree id="82" weight="0.1">
		<split>
			<feature> 91 </feature>
			<threshold> 0.0 </threshold>
			<split pos="left">
				<output> 1.264881E-4 </output>
			</split>
			<split pos="right">
				<feature> 91 </feature>
				<threshold> 651581.1 </threshold>
				<split pos="left">
					<output> 1.276152E-4 </output>
				</split>
				<split pos="right">
					<feature> 91 </feature>
					<threshold> 3257905.5 </threshold>
					<split pos="left">
						<feature> 91 </feature>
						<threshold> 1954743.4 </threshold>
						<split pos="left">
							<feature> 91 </feature>
							<threshold> 1303162.2 </threshold>
							<split pos="left">
								<output> 2.765702E-5 </output>
							</split>
							<split pos="right">
								<output> 2.1866626E-5 </output>
							</split>
						</split>
						<split pos="right">
							<feature> 91 </feature>
							<threshold> 2606324.5 </threshold>
							<split pos="left">
								<output> 5.8972837E-5 </output>
							</split>
							<split pos="right">
								<output> 2.808656E-5 </output>
							</split>
						</split>
					</split>
					<split pos="right">
						<output> 0.0 </output>
					</split>
				</split>
			</split>
		</split>
	</tree>
	<tree id="83" weight="0.1">
		<split>
			<feature> 91 </feature>
			<threshold> 0.0 </threshold>
			<split pos="left">
				<output> 1.0935234E-4 </output>
			</split>
			<split pos="right">
				<feature> 91 </feature>
				<threshold> 651581.1 </threshold>
				<split pos="left">
					<output> 1.2713169E-4 </output>
				</split>
				<split pos="right">
					<feature> 91 </feature>
					<threshold> 3257905.5 </threshold>
					<split pos="left">
						<feature> 91 </feature>
						<threshold> 1954743.4 </threshold>
						<split pos="left">
							<feature> 91 </feature>
							<threshold> 1303162.2 </threshold>
							<split pos="left">
								<output> 2.4886336E-5 </output>
							</split>
							<split pos="right">
								<output> 1.9658772E-5 </output>
							</split>
						</split>
						<split pos="right">
							<feature> 91 </feature>
							<threshold> 2606324.5 </threshold>
							<split pos="left">
								<output> 5.3083895E-5 </output>
							</split>
							<split pos="right">
								<output> 2.5285142E-5 </output>
							</split>
						</split>
					</split>
					<split pos="right">
						<output> 0.0 </output>
					</split>
				</split>
			</split>
		</split>
	</tree>
	<tree id="84" weight="0.1">
		<split>
			<feature> 91 </feature>
			<threshold> 0.0 </threshold>
			<split pos="left">
				<output> 1.08604145E-4 </output>
			</split>
			<split pos="right">
				<feature> 91 </feature>
				<threshold> 651581.1 </threshold>
				<split pos="left">
					<output> 1.2693867E-4 </output>
				</split>
				<split pos="right">
					<feature> 91 </feature>
					<threshold> 3257905.5 </threshold>
					<split pos="left">
						<feature> 91 </feature>
						<threshold> 1954743.4 </threshold>
						<split pos="left">
